 1.47161089  0.80685398  0.40320775  2.6655666   2.38952788 -2.05654288
  0.81080908 -0.55084724  0.87223553  0.41215352  0.34923778  0.74940439
  0.77152999 -0.81801083 -0.28226305  0.75940078  1.80449942  0.22736547
  0.37324784 -0.24355166 -3.29649489  0.08908745  0.28428867 -1.23218095
  2.01068675 -0.81979519 -0.23464551 -0.43390198  1.40228944  1.71172746
  0.08015139  0.08999133 -1.53492648 -1.49804279 -0.14744605 -1.53272697
  1.51033719  1.1975454  -0.22773512  0.00389615 -0.82083417 -1.819118
 -2.48730581  2.12562833 -0.11033766 -0.40644776 -0.8898739   1.37977405
 -2.57618425 -0.10996444 -0.37641511  0.50721013 -0.11926693 -0.75069871
  1.18219679 -0.77685168 -0.31897608  0.44599736 -0.74927471 -0.66778244
 -0.32072153 -0.39985506 -0.7802058  -1.37856503  0.91464899 -0.25893935
 -1.6811921   0.65445578 -1.09030042  0.4142723   1.44468187 -0.17733341
  0.87379754 -1.94778939  1.08944976 -0.63935079 -0.35512384 -0.66954785
  0.20180717 -0.39679033 -1.09738962  0.48906932  0.11104663 -1.13219197
  0.94207022  1.31908801  1.38308064  0.03146244 -1.09783331  1.26736888
 -0.09732861  1.43076391 -0.22214683  1.07650208 -0.11875023  0.61751021
 -0.18764069  1.8991902   0.62890416  0.43019239,

w = [  9.10150931,  -4.10432411,   5.12467669,  -0.23475903,   2.01771112,
  -1.21145972,   6.5128633 ,  -0.23875097,  -8.80024632,   0.54760164,
  -2.42467165,   1.06593391,   3.50189592,  -6.05207019,   0.87333428,
  -2.25890394,  -5.27580798,   3.83912058,  -0.01094627,  -5.39321408,
  -1.02135975,  -7.57055726,  -4.81705073,   2.05860674,   0.8302365,
  -3.60970536,  -8.56747214,  -0.68179328,   4.66240665,  -0.12192777,
  -2.14060158,   3.96136721,  -5.29274184,  -1.80555426,   1.3086945,
   0.23589241,   2.67603167,   4.71669787,  -1.77330087,   2.60902726,
 -10.34446087,  -1.8334704 ,  -5.20850351,  -7.17416716,  -4.57197323,
  -3.00195203,   2.57371624,   5.75045722,  -2.1681945 ,   5.229641,
   3.10079271,  -2.72628805,  -3.08344207,  -4.50135797,  -4.16202869,
   0.02300171,  -4.1472444 ,   5.35842807,  -0.12932932,   1.16603702,
   0.24104515,   2.64880581,  -5.5234205 ,  -5.07471469,  -1.7185559,
  -0.60439016,  -6.71116208,   3.89927293,   0.2907833 ,   3.61154007,
  -0.02898401,  -0.60379   ,   7.82204982,   0.14882674,  -2.28473162,
  -8.17227531,  -5.1419283 ,   0.44872141,   2.096319  ,   3.2819474,
   0.67889751,   3.9286791 ,   2.28661429,  -1.83104409,  -1.57591999,
   3.75995916,   2.19265034,   2.15263462,  -0.1985385 ,  -0.89193691,
  -1.74539117,   3.92724411,   1.67593255,  -2.46025528,  -4.08683339,
   2.92468932,  -2.81312744,   3.17969595,  -0.17348924,   2.61393064] 1.2k

w = [-3.37022781,   2.29181676,   3.91289235,  12.21409146 ,  2.4717426,
  -0.30947389, -13.65601718, -10.42256092,   5.75736703,  -0.91158467,
   3.09920344, -12.83239181,  -1.52708932,  -8.6071419 ,  -9.31813417,
   7.92176652,   9.29396609,   9.49410353,  -9.08447763, -12.91497848,
  -3.63124182,  -1.4138766 ,  -9.82831514,  -1.65873999,  -4.70397801,
   2.43127196,  11.39218589,   3.77624594,  -7.98100929,  -3.46747644,
 -10.62041703,  -0.3733498 ,  -2.28442986,   1.89347263,  -4.95681381,
  -3.28210063,   8.66154458,  -3.75221741,   5.21931651,   6.03540502,
  -2.48108682,  -4.58839011,  -2.69399987,  -9.79096469,   4.65415177,
   5.56242606,  -7.61092168,   5.860019  ,  -9.03701864,  -4.9825712,
  -2.54322934,  -0.23283331, -15.16050892, -11.98631697,   0.67973039,
   5.49313685,  17.79851556,   2.70370807,  -9.47066963,  -3.52965603,
  -3.2970925 ,  -2.83961803, -11.16335134,  -5.2308815 ,  11.32600518,
  -3.01189724,  -6.54774223,   4.18771289,   0.43706108,  -6.4186507,
   5.51068948,   1.24816811,  15.66315586,   0.38381776,  10.52249185,
  -1.06876107,  12.16526398,  -3.72051693, -10.06721785 ,  0.03227802,
   3.75324469,  -0.18868557,   0.36926468,   7.58931738,  -9.71598147,
  14.98927358,   7.79739307, -10.50105778,   3.83007879,   1.98394348,
 -11.28215429,  10.79280234,  -3.69997854,  11.30527981,  -4.7410638,
  -6.30961517,  -3.99655772,  -2.92528282,   4.72685926,   9.23157122] 1.2k

w =  [3.96689564,  -3.2417054 ,   7.74095955,   8.4617695,   16.32081811,
 -10.7700046,   13.52510936 ,  1.16048453,   5.20549826,   0.35665836,
   0.73825836,   8.80880853 ,  2.18008788,  -5.70639967,  -4.34699776,
   3.95594543,   8.66145264 , -2.42016301,   1.54512879,   0.70427208,
 -10.04574163,  -7.42664121 , -1.85034096,  11.19126889,  -1.37635145,
  -0.45615823,  -3.56154645 ,  0.24026285,  -2.88549478,   5.07295208,
  -9.72004377,  -5.4922922 ,  -3.3180868 ,   1.43521896,  -0.2786832,
   4.78339489,   0.97835535,  -1.21968203,   2.78800901, -17.25901853,
   8.38277122,   7.26404841, -14.97091815,   3.79260686,  -3.72889686,
   1.71865264,  -9.48789151,   5.26438121,  -4.90835834,  -8.6781467,
  -0.58355345,   3.31438312,  -3.95442386,   5.56332935,   0.06481163,
  -5.59370478,   6.80336514,   6.70403637,   3.01105523,  11.50280886,
  12.64058806, -15.99070814,  -9.31560391,   3.0277354 ,  -0.5546073,
  -2.2336669,   -4.90394129,  -2.84081681,  -4.22746006,   2.99511231,
   0.26628876,  18.12556031,   0.75703671,   0.87130605,  -4.30902593,
   1.81529852 , -3.88625385,   9.16091312,   0.42481737, -15.65580818,
  -9.52998508, -11.5404361 ,   5.01882369,   8.36048512,   0.47967929,
  -2.44883242,   5.22177244,   2.40725567,  11.83426675,  -4.0704264,
   2.08551286,   7.04420598,   0.28852501,  -1.91768971,  -8.04284698,
   6.48391783, -14.28026158,  13.18333357,  -1.42161411,   1.13173837]

w =   [5.7900573,   2.72131579,  2.86091437,  4.07583289,  0.76722691, -5.53291776,
  2.17126851,  1.40176338,  4.49103801, -6.20112732, -2.16981447,  0.01731819,
 -1.44782971,  2.48074538,  1.41059354 , 3.12101863, -1.4205854,   5.45275354,
  4.22234578,  3.98092212,  4.13421525,  7.36369674,  4.47559874,  0.93001265,
  9.60591994,  9.40295982, -0.79679136,  8.50665091,  3.5328983,   5.95298345,
 -0.02471734, -4.15738353, -6.55303498, -7.66636632, -1.22797715,  8.75778607,
 -0.26811461, -4.32289649, -6.69238279, -8.46440042, -0.34924668, -1.01736164,
 -9.21057885,  2.05515822,  2.65813485,  0.42061963,  0.20685413,  1.96644326,
 -4.71889549, -5.04978107, -2.53199161,  1.53847123, -3.7269377,  10.18656786,
 -5.1091008 ,  2.09423706,  1.80046443,  4.87744592, -4.26170801, -3.86297658,
 -5.50596831, -4.11021436, -2.4654989 , -0.36993294, -6.10848983, -1.96208383,
 -5.92845477,  5.48200072,  3.39295503,  2.72857166,  1.77088456, -0.83290328,
  6.69404454, -2.39842618,  6.74721596,  1.03529275, -2.4171678,  -3.2514868,
  0.56688338, -3.50685215, -5.51582699,  3.86429828,  2.14374553, -0.93035696,
  1.46150249,  4.2704197 ,  7.17363342,  2.35676351, -1.0234214 ,  6.4011986,
 -1.37660754, -5.85511996, -3.51863453, -8.25579222,  0.86035683,  0.6085312,
 -0.39687912,  2.00159975, -2.58734906, -3.29996981]

None
[ 7.37727826e-01  1.45934087e+00  1.73731401e+00  1.11642612e+00
  2.24170358e+00 -2.19798786e+00 -1.31866653e+00 -1.22294934e+00
 -5.40625929e-01  2.35260328e-01 -1.94979837e-01 -1.12572826e+00
  1.55702079e+00  1.75761240e+00  2.37378716e-01  2.41683317e+00
  4.46050960e+00 -1.74128831e+00  6.74750061e-01 -2.31119742e+00
 -1.17455079e+00 -1.45624749e+00  1.56112589e+00  3.18429808e-01
  3.15391798e+00  1.14148004e+00  1.37893315e-01  7.17961542e-01
  3.53272672e-01  4.50332254e+00  3.69904147e-01  3.22282920e+00
  1.96796591e+00 -4.41835847e+00 -5.63137882e-01 -4.29055906e+00
  2.42060218e+00 -1.00294441e+00  8.56792266e-01 -5.50981175e-01
 -3.09437032e-01 -1.32743801e+00  1.65555286e-01 -1.06929564e+00
 -2.20959350e+00 -1.11641665e+00 -1.28184464e+00 -5.62636361e-01
  2.27707625e-01  7.82909605e-01 -8.20388605e-01  4.60425002e-01
 -3.88743631e-01  9.76744558e-02 -3.63380308e+00  1.70151849e+00
 -1.38332334e+00  4.70336627e-01 -2.03428959e+00 -3.36296018e+00
 -1.35829452e-01  1.67073419e+00 -2.08592239e+00 -4.62102636e+00
 -1.49896291e+00  2.08035097e-01  4.55539722e-01  2.27680701e-03
  3.10748041e-01  2.79439347e-01 -1.21466695e+00 -1.24369284e+00
  1.05618573e-01  9.99266540e-03 -7.93302772e-01 -2.34330526e+00
 -1.05523908e-01 -5.88757754e-01  2.12603203e+00  1.92130538e-01
 -1.33029381e+00  1.63179518e+00 -3.30242498e+00  3.32738771e-01
  4.63981239e+00 -2.44201143e+00  7.94812828e-01 -6.26244809e-01
  3.37233464e-01  2.32575366e+00 -1.08998552e+00  5.22140786e+00
  1.00428517e+00  2.38162030e+00  1.89588406e+00 -2.07519119e+00
 -7.16098968e-01  6.97757054e-01  2.17184167e+00 -1.09385715e+00
  1.41256978e+00 -3.30624391e+00 -1.18187415e+00 -6.08586183e-01
  2.07434007e+00 -1.11194047e+00 -1.62885083e-01  1.21942577e+00
 -1.33736058e+00  7.32775621e-01  4.33683412e+00  1.41792992e+00
  1.39870851e+00  1.01653831e+00 -1.71554744e+00  2.87296509e+00
 -2.17466643e+00  4.64690465e-01 -2.61169912e+00 -1.65185463e+00
 -1.96812820e+00  1.04310872e-01 -9.10191151e-01  3.53103354e-02
 -8.41762333e-01  1.07598217e+00  6.47558546e-02 -8.20687265e-01
  6.03386080e-01  5.39086672e+00 -2.32070887e+00 -1.17595070e+00
 -1.56312959e+00  3.76327046e+00  1.82892059e+00  1.87785187e+00
 -1.47034482e+00  3.08298776e+00  3.69751084e+00  2.36093433e+00
  2.88828220e+00  3.54006889e+00 -3.99937547e-01 -2.23279614e+00
 -2.86182417e+00  1.14420468e+00 -5.58025751e-01 -2.73588581e+00
  2.27034598e+00  1.09233735e+00  1.93635062e+00 -2.77365682e-01
 -4.47690685e-01  1.82642741e+00 -2.71831938e+00  7.09864170e-01
 -2.14817464e+00  7.49919047e-02]
[ 1.24610633 -0.31202008 -0.30816688  0.84324138  0.644131   -0.8753931
  0.113071   -0.75918811  0.81321533  1.00336765 -0.23336079  0.35066449
  0.77298389  0.64805846  0.21878429 -0.24121846  0.09459335  1.02866366
  0.6904089  -1.00264009  0.60632606  1.111879   -0.17897766  0.05638078
  0.5588382   0.06504195 -0.38350051  0.94093305  1.06460712 -0.1812845
 -0.2300626   0.02108312 -0.87698483  0.46645541  0.33320505  0.59547066
  0.09185289  0.95287923  0.48043896  0.09934776 -0.00619072  0.79483111
 -0.07897584  1.44811922  0.32896449 -0.96222323 -1.08196667  0.564718
 -0.75957553  0.54151586 -0.84136291  0.08052343 -0.65411099 -0.10276553
  0.29481608  0.93440119 -0.30850517 -0.70545757 -0.50716117 -0.68385573
 -0.44109784 -0.24173127  0.01239622 -1.03222221 -0.08204194 -1.06110633
 -0.67456073  0.78950532  0.86768327  0.2903011   0.08178395  0.24679593
 -0.80257424 -0.02089709 -0.75160476 -0.23757119 -0.4398589  -0.20650052
  1.01922578 -0.60384787 -0.11923211  0.53614554 -0.50526677 -0.95316679
  0.29282219  0.00630082  0.14760645  0.19617665 -0.83807682 -0.08145861
 -0.67077363  0.51656279  1.308992    0.78871239  0.22190443 -0.23578377
  0.24849537 -0.48315524  0.37696746  0.17571575 -0.24824234 -0.64825132
 -0.60939902  0.62577131 -0.55499026 -0.21828721 -0.05024175 -0.17895948
 -1.48903866  1.00499862  1.05846014  0.58561696 -1.28752754  0.63321542
 -0.30560159  0.27181869  1.12356483  0.15818125  0.15238219  0.61725954
 -0.35167006 -1.03957416 -0.04202618  0.93732362  0.09530611 -0.30228649
 -0.18686114 -0.64256856  0.53259377  0.44524585 -0.3356093  -0.0024776
  1.07901154 -1.126108   -0.47500656 -0.10233533  0.51494238 -0.03349943
  1.42115737 -0.25332529 -0.84161937  0.75221357 -0.58132502  1.2918226
  1.14918094 -0.32558637  0.14250064 -0.716048    0.25442397  0.01982213
 -0.18041317  1.15798321 -1.02970469 -0.25238498 -0.34163879 -0.69237595
  1.83365462 -0.14552607]
[-2.47647363 -4.7166618  -0.97832175  2.93763627 -1.85675431 -0.54377329
 -4.75426703  1.09211762  0.1666522  -0.69465361 -2.87207828 -3.11947464
  3.15993728 -0.95512178  2.15858752  2.02222291 -1.62507371 -1.41196865
  0.90454992 -2.42611    -2.50971938 -1.4865217  -0.56460176  4.23568469
 -0.29845701 -0.86008929  2.48193335 -0.88043685  3.44031086  0.88112606
 -0.4368583  -1.44919131  1.29116179  7.35119855  2.09485032  3.22088197
  2.91801802 -0.84225674  2.16904863 -2.64139343  0.63058737 -1.44436782
 -0.52414025  0.10115313 -4.07918519  4.5967023  -3.24263151  3.27663339
  4.94612636  0.63324776 -6.18438712 -3.90029353 -3.08663917  5.36553669
  4.61595783  2.25733494 -1.84682203  0.63076    -3.74854306 -1.99023262
  2.63913421  0.218932   -1.65917222  1.65076099  2.39592335 -0.04339306
  0.45819533  3.26134086  2.94760582  3.42663754  6.40021523 -2.82546458
 -0.34127371  1.9882406   0.69730598  4.02773344  1.52402917  1.07721252
  0.95066898 -1.00217571  1.06480027 -1.48482883 -2.03208504  2.15492913
  0.75189514  2.61917237  1.40205812 -1.53961938  0.61706877  2.69794621
 -2.03687269  5.82094125  1.17972479  6.93716197 -3.37266956  0.11009683
  1.61266493  1.06345362  5.69173243 -0.26961294 -2.91885944  5.6740347
  0.81241587 -1.93434843 -2.36482909 -4.3512012  -1.24419073  0.3386946
 -0.86204625  3.44013506 -2.57236733  3.20769828  1.09924356  4.47214338
 -2.83979497  1.13609621  2.12946644 -0.0766909   5.55277801  2.60987743
  1.56587161 -2.90451287 -8.52047047 -1.56014581  5.78388267 -3.06879881
 -0.35622646  1.43523399 -2.1165285   0.26267367  3.48764655  1.03393388
  0.77671497 -2.20689609  0.19401402  2.07457094 -1.61803614  1.78125614
 -2.58016703 -0.5381865   2.96176066 -0.83075307 -1.19186566 -0.01451627
  0.16891643 -1.80395827  0.18266908 -0.52801299 -0.32711462 -3.0613481
 -1.08947782  3.40914335  3.76363396  0.46309712  3.73656154 -1.0868126
  0.01349632  0.14319072]
[ 0.07767298  0.9208001   1.22860504 -1.13971919  0.38892839 -1.58525032
  0.24028332 -0.66252744 -0.85556808  1.3051852   0.635215   -0.40367027
  1.09780101 -0.12444899  0.71593092 -0.1456047  -1.7185743  -0.46473449
  1.80964454 -0.71412959 -1.61787145 -0.23973365 -0.87927156 -0.62073048
  0.25235461  2.48445199 -0.96339879 -1.37105711  0.79787709  0.36579581
  1.03832876  0.16596154 -2.17004773 -1.10655172 -0.20369328 -1.33296881
 -0.74107371 -0.35214256  1.01913956 -1.75207861  0.74408717 -1.39807313
 -1.16655615 -0.90095098 -1.41861815  0.09500151  1.28676274  1.25720828
 -2.19555309 -0.20998576 -0.43433018  2.86005745 -0.97826199  0.57303815
 -0.40358973 -0.87798995 -1.71649547  0.56338164 -0.1637138  -0.72745251
 -0.89181942 -1.17986702 -0.47895483 -0.3858685  -2.67661594 -0.51798863
  0.449759    0.44111149 -0.94620784  1.18219766  1.52204917 -0.82033693
  1.02893622 -2.23521267 -1.02335199 -2.2745713  -1.59768041  0.28898577
 -2.04481205 -0.6218524  -0.52310825  0.14699527 -1.25890958 -0.14856235
  0.52698435 -0.6552107   1.7337486   0.02744879  2.82853625 -1.14210856
  0.89445309  0.42348813  0.48008121  1.67946226  0.62165203  0.22185182
  1.14967782  1.32909005  2.5422968  -0.90801422 -0.44851247  2.29653259
  0.54786695  1.11993277  1.12151381  1.67146295 -1.50822923 -0.44958009
  2.70046008  1.5710173   0.44757584 -0.20204596  0.50948756  1.86406669
  0.9663045   1.19932656  2.6514929  -0.74047442  2.87445801  2.59070759
  0.20568822 -0.28597853  2.55789792 -0.75169454 -0.10250994 -0.97278438
 -0.9921202  -0.38098219  1.85313845 -0.03850418 -2.12368316 -0.51549517
 -1.65203627 -0.40290293  0.0859054   0.88239992  0.25263771  2.63009829
  0.24969206 -1.54845341  0.01790571  2.4752808  -0.04362799 -0.06986741
 -1.29144315 -0.35013614  1.31342363  0.43577577 -1.29890649  0.20072189
 -2.50894925 -0.41981514  0.26727622  0.19294645  0.43061347  0.59851233
 -2.09031218  0.38347587]
