None
None
None
None
None
[ 1.32805764e+00  2.08551690e-01  5.92203067e-01  2.22220539e+00
  2.23096132e+00 -1.45305440e+00  7.78241185e-01 -2.97536795e-01
 -9.53211592e-01 -4.04941473e-01 -5.77793187e-01  1.29693418e+00
  6.43260658e-01 -2.68834711e-01 -7.15505813e-01  7.69202722e-01
  2.11971013e+00 -6.13449672e-02  1.14692951e+00 -5.89513594e-01
 -3.47629857e+00  7.24060516e-01  6.68513452e-01 -9.65888845e-01
  2.50074828e+00 -1.59385303e+00 -4.91121050e-01 -3.65691449e-01
  8.02692036e-01  1.63951583e+00  3.50455544e-01  7.27755213e-01
 -9.75800826e-01 -2.07879297e+00  6.00556647e-01  5.02575242e-01
  1.26620140e+00  1.05133228e+00 -9.37003280e-03 -3.23294960e-01
 -1.15892094e+00 -1.05371148e+00 -1.63181854e+00  1.34176511e+00
 -1.27851887e-01 -1.94289866e-01 -9.50098211e-01  2.23313404e+00
 -8.79143897e-01 -8.73564193e-01 -3.60909901e-01 -1.02811668e-01
 -4.64509489e-01 -1.04093158e+00 -5.38310976e-02 -3.15221058e-02
 -3.71502887e-01  2.52285993e-01 -1.43388932e+00 -4.19519410e-01
 -1.10363331e+00 -5.63451560e-01 -8.65808093e-01 -9.43064417e-01
 -9.19728726e-01 -1.21306905e+00 -1.91772169e+00 -3.06391328e-01
 -5.79040129e-01 -3.19474293e-01  4.73662102e-01  1.85851330e-02
  5.25689294e-01 -1.28195505e+00  6.38403219e-01 -1.41546187e+00
 -7.23695847e-01 -6.65100151e-01 -7.80496372e-01  3.13910275e-01
 -1.11706772e+00  3.60898128e-01  9.07114500e-01 -8.00505149e-01
  7.47221981e-01  1.87188796e+00  1.87664677e+00 -2.96885467e-01
 -9.16000285e-01  8.43743974e-01 -5.03792535e-01  1.17466197e+00
 -1.25768267e-01  1.33718698e+00  4.96673823e-01  1.09624190e+00
  2.55138612e-01  2.18731641e+00 -1.23178227e-02 -3.41376548e-01
  1.67189709e+00 -1.28718555e+00  3.76178013e-02  6.64271250e-01
 -1.37973420e+00  2.84569325e+00 -1.52420440e+00 -1.27509469e+00
  1.20505512e+00  1.34741722e+00  1.18726765e+00  1.44414764e+00
 -1.08032823e+00  1.91924506e+00  9.00877037e-02  5.84881632e-01
  1.36672914e-01  2.95277556e-01  5.21522840e-01  9.02292539e-01
  7.21081501e-01 -1.62960884e-01  7.52997427e-01  8.45272743e-01
 -3.41895433e-01 -3.90348361e-01 -1.42695577e-01  2.06346394e+00
  9.03586751e-01  6.83785536e-01 -7.83080018e-01  8.76133676e-01
  4.32923777e-01 -1.75624586e-01 -1.07680683e+00 -5.55453440e-02
  5.78676284e-01 -3.64030877e-01  9.54991131e-02 -1.13123220e+00
 -1.87727313e+00 -4.90531220e-02  2.00195963e-03  4.33721255e-02
  2.17353560e+00  9.95095489e-01 -8.55341294e-01  1.63881540e+00]
[ 1.63177342  0.47945311  1.1975461   2.52621384  0.96557453 -1.08630612
  0.69801673 -0.12059773  0.3629503   1.18428267  0.9342032   1.64038285
  0.03955985 -0.05018217  0.07028813  0.07078758  1.69943701  0.30415807
 -0.93032187 -1.47771562 -1.86906798  0.68434106  1.17018187 -1.0351228
  1.45190172 -0.16265514 -0.77133897 -1.66713331  1.10206616  2.06212028
 -0.41210622  0.30987447  0.37420964 -1.50007442 -0.39680836 -0.04912234
  0.23936311  1.60666276  1.68788367  0.36864629 -0.95832666 -0.80403148
 -1.46257936  2.88630609  0.21488879 -1.21035717 -1.51354061  1.65482653
 -2.37457857 -0.76406395 -0.81978466  1.39788231 -1.2317148  -1.05026495
  0.04620409  0.52595723  1.19999908  1.25754999 -1.48751812 -0.23171845
 -0.34904361 -0.18461258 -0.72901809 -1.42376743  0.58249834 -1.26695314
 -1.49333548  1.16401964 -1.44488543  0.19536049  1.13707667  0.3982423
  1.05305288 -0.92948366  0.90655919 -1.3968035  -1.36441152 -0.29705636
 -0.62821639  1.32329447 -1.63999941  0.45132672  0.69364094 -0.32811191
  0.86596125  1.58052867  0.08180547 -1.39906442 -1.81378752  1.39016508
  0.14773144  1.74569963 -0.04258156  2.45297755  0.7460026   0.86976019
  0.48708791  1.17791534 -0.58484829  1.00802125  2.04040082 -1.85083579
 -0.78682518  0.39649467 -1.18634793  1.24301937 -0.90654565  0.16849414
  1.48403251  1.07359661  0.69852936  0.12639645 -0.86206025  2.62909814
 -0.04773334  1.40504096  0.2585963  -0.01589491  0.3570431   0.89468007
 -0.31933153 -1.00521281  0.12533648  0.69233134 -0.34484121  0.52088679
 -0.11132655  0.70735297  1.64512684  0.76336329 -0.62587541  0.87428017
 -1.24981966 -0.69862357 -0.0498774   0.4268844   0.47395181 -0.18559714
  0.90716654 -0.62553362 -1.19842786  0.76379987 -0.01015483 -0.35864351
  1.52788155  1.44911965 -1.34284059  1.06621574 -1.45250063  1.03499418
  0.59758474  1.95036784 -1.31993455 -1.36739485 -0.39228285 -1.04359211
  2.01799738 -1.06343104 -1.58137865  0.18951864  0.01114035  0.92347744
  1.66492045  0.23286387 -0.14490132  1.19420371 -1.07155683 -2.61319477
  0.62040608  0.62500027  0.81167171  0.21230067 -0.3697666  -0.33231534
 -0.84155239  0.79630496 -0.33226937 -0.64131999  0.00384061 -0.04586302
  0.61388568 -0.91326666 -1.86719356 -2.22779671 -0.38165849 -2.90433747
 -0.19236923 -0.77683755]
[-2.23241963e-01  1.87512865e+00  3.44487500e+00  2.40244086e+00
  2.88611135e-01  1.88375523e+00 -9.17360107e-01  1.44572648e+00
 -1.72213879e-01 -5.85702341e-01 -1.15385084e+00  3.73697907e+00
  3.18956301e-01 -2.84650508e-01 -1.15768979e+00  6.37829644e-01
  4.36544198e+00  2.11434961e+00  7.58137796e-01 -1.14414056e+00
 -3.53889419e+00  8.45916068e-01  3.78301649e+00 -1.77945565e+00
  1.92219514e+00 -2.67739707e-01 -8.44464757e-01  1.10714667e+00
 -3.45880094e-01  8.76896010e-01 -1.53091038e-02  7.48110152e-01
 -8.05323719e-01 -1.29605864e+00  1.47520592e-01 -9.45380684e-01
  2.42786228e+00  1.85359245e+00 -1.65062961e+00  9.86169159e-01
 -1.03902569e+00  4.90379486e-01 -3.42141337e+00  9.22212777e-01
 -3.20168664e-01 -2.18776919e+00 -2.60821338e+00  3.31118564e-01
 -1.51449990e+00 -1.68500241e+00 -4.02988845e-01 -1.93940548e+00
  1.03116294e+00 -2.90322933e+00  2.95526822e+00 -1.40393910e+00
  2.56997835e-01  2.93358551e+00 -3.99785074e-01 -2.00752295e+00
 -1.35867275e+00 -3.37278764e+00  9.22726309e-02 -3.30459872e-01
 -1.84953346e+00 -1.13049504e+00 -1.24640464e+00  1.53142984e-01
  3.41134048e-01 -3.27755737e-01 -1.50404614e-01 -4.78305425e-01
  4.89290664e-01 -1.56809025e+00 -1.35884712e-01 -3.45818053e-02
  3.75062905e-03  8.52179915e-01  8.99724262e-01 -2.30881388e+00
 -2.76858887e+00  2.40156656e+00  3.88759869e-01 -1.27067290e+00
 -6.35496589e-01  2.70184084e+00  3.76212678e+00 -3.05618745e+00
 -1.15804199e+00  6.62631045e-02  2.62129108e-01  7.31307165e-01
 -1.37530171e+00  2.38667052e+00  7.93695864e-01  7.14095896e-01
  4.54693901e-01 -7.10326187e-01 -2.77583204e-01  2.07897043e+00
 -1.94557832e-01 -4.84402024e+00 -1.60296951e+00 -2.64818408e-01
 -8.61765065e-01  2.63114138e+00  6.24290436e-01 -1.79681051e+00
  6.14136461e-01  1.95330010e+00  1.00524866e+00  2.32831652e-01
 -3.60450902e+00  1.82927607e+00  1.43899937e+00  1.20422953e+00
  1.97732857e+00 -2.54910328e+00 -2.16417996e+00  1.00339845e+00
  9.23581734e-01 -5.70151165e-01 -1.35641355e+00  3.66882636e-01
 -6.61487865e-01  5.14874738e-01 -9.72541224e-01  1.44753537e+00
  3.24183156e+00 -1.88019588e+00  5.72100200e-01 -1.27377340e+00
  1.75661714e+00  1.17393543e+00 -2.16646417e+00 -8.10806219e-01
 -3.83046295e-01 -3.12495374e-01 -1.17417305e+00  3.95675893e-01
  9.87360518e-01 -6.03057778e-01  5.12454590e-01  1.01909557e+00
  1.65722577e+00  6.39063282e-01 -2.03007678e-01  9.19519573e-01]
[ 2.99979961  1.30539044  2.60394787  1.62903878  1.93535209 -1.28484161
  0.99674819 -0.22582578 -0.24208489  0.73473512  0.6737131   1.11662503
  0.58473559 -0.01511503  0.51586962  0.50649928  1.3954319   0.15486018
 -0.26120511 -0.68901556 -2.70546238  0.90327285  1.69353241 -0.24110678
  2.02796106 -1.16632506  0.02632406 -0.67155008  1.05338395  1.77906556
 -0.05036535 -1.17605177 -1.19027143 -2.66944704 -0.13904961 -0.48351202
  1.08948467  1.70737255 -0.48455909 -0.26687468 -1.72420768 -0.73791573
 -2.16309006  1.05657222 -0.95951559 -1.47861704 -1.62348131  0.05972618
 -1.89842579  0.07659643 -1.59470378  0.33386127 -1.37037507 -2.19014703
 -0.7462457   0.81731805 -0.59995118  0.11661612 -2.34787845 -0.72140392
 -0.14290995 -1.15843961 -0.65499052 -0.30600086  0.39590301 -0.71596494
 -0.86638366  1.77356175 -1.23430699 -0.35333783  0.66753949  0.73816894
  0.83791071 -1.21227168  0.93161966 -0.32761269 -0.09700867 -0.34876974
 -1.37513902  0.3177297  -0.6418932   0.51374231  0.62910699 -2.22843069
  1.52569847  0.79439153  0.58995091 -1.61975895 -1.21966252  1.24051117
 -0.02010804  0.22973404  0.77634278  1.4476493   1.45481681  1.44227833
 -0.70132357  1.18273762 -0.31238309  0.39138072  3.41637725 -2.12424355
 -2.06500883  0.40985    -0.29162295  1.3281596  -1.10722659 -0.56038767
  1.70808436  0.63868058  1.00309299  0.25868752 -0.63515437  1.87162241
  0.451762    0.67385192  0.7056016  -0.49372765  0.18240887  0.43358107
  0.95574966 -0.56192482  0.22388337  1.36736278 -0.80155036  0.06373872
  0.5723669   2.31681179 -0.19259076  0.29261644 -0.73538235  1.12461522
 -0.59289515  0.02379921 -1.44579395 -0.07069236  0.42196013  0.24285127
 -0.54017214 -1.06150434 -2.73157878  1.07132901  0.00808738 -0.11781944
  3.21497988  0.33095873 -1.50768275  1.01686047 -0.76882207 -0.2653085
  0.19736517  1.02239996 -1.03840654 -1.10147512 -0.8225577  -0.61274254
  0.03495503 -2.75549794 -0.77897586 -0.53941714 -2.06134158  2.29901161
  1.56563754  0.90780057 -2.99340597  0.99557748  0.00629454 -1.70032326
  0.85848897  0.32573172  1.14726148  1.36257373 -0.91709119 -1.66550836
 -1.27968944  0.6396548  -1.1896235  -1.31881984  0.01697318 -0.77528777
 -0.66398978 -0.85423915  0.18552607 -2.53109939  0.79172883 -2.49555711
 -1.39057994 -0.1399728 ]
[ 3.7933976   1.15382792  0.12716057 -0.22742239 -1.04913799  1.20927973
 -3.10911042 -1.7025105  -5.53187896  1.9008341   0.17428284 -0.60868073
  2.1195276   2.76543746  2.43642341  1.46497918  6.60762671  1.28847399
  0.77093363  0.03053222 -2.021871    2.80147601  6.45157978 -2.39035879
  4.03213268 -3.16304156  0.71452761 -0.73396299 -0.12243324  1.46215084
 -1.4304258   1.93172212  1.15690552 -0.61883324  0.72223254 -0.18630524
  0.51953139 -1.13404245 -2.13681557  2.95617233 -0.35373097  0.96631516
 -0.80519138  6.42424709  0.69644297 -1.97539032  1.52656716  0.54880114
 -1.82378382  1.9525575  -1.21526758 -4.04890789 -0.86231018  2.64818524
  3.61084079  2.65511971  0.94542822  0.57492702  1.44123141  0.08387138
  1.34734447  0.71705707  0.92370067 -1.946812   -0.35787574 -0.44187061
 -0.84690548 -1.25671552 -0.58397278 -1.02410223 -0.85333283  0.31758141
  0.86376496 -0.03822922 -1.8557874  -3.47232485  1.45308054 -1.79445282
 -1.07714219  1.56365324 -0.3021872   2.08810061 -4.54489122 -3.64517618
  0.48232262 -0.977908   -0.40986069 -1.67478598 -0.0253256  -0.94799687
  3.79085139 -0.53617462  0.98917455 -4.6047935  -2.57776399  0.66750647
 -1.29283525  2.22185476 -2.96112403 -1.01482128  1.34474157  1.46340779
 -0.58431981  0.53314902  0.83734182  0.35053209  2.13394306  1.41006214
 -0.94148454  1.04448154 -1.26083043 -1.70470303 -3.60250862  0.21610937
  2.25423205 -1.05357549 -1.51215254 -0.4120579   4.13214503  2.70302122
 -1.06175041  0.44310212 -2.88482404  1.64967955  1.11566858 -0.10188685
  1.04098481  1.94981189  2.88354944  3.39113423 -2.39721144  0.44908629
  2.90829171  3.11582037  0.94838559  1.89364323  1.63172879  1.36250765
 -3.15699896  1.01020798 -2.44878615  0.62046245 -0.827075   -1.19238015
  2.28123486  0.6311198  -0.70864403  0.05285266]
[ 1.80359627 -1.4369487   2.90988309  2.66293865  2.29397179 -4.64761083
  1.20200756  3.04808626  0.93498429  3.16464772  0.5334777   2.64591218
 -0.62476692  0.90676061  0.75591877  0.73762554  0.23636232 -2.40149774
  1.44972134 -1.74206684 -1.18019113 -0.30612372 -0.30243026  3.03299728
 -0.07009288 -0.93122084  0.81177958 -1.95354211  1.43739962  3.4990973
 -0.18025679  0.80487667 -1.23900497  0.20113727 -0.73110675 -1.00856726
  0.01032201 -0.70364664  1.29471841  0.61939762 -1.50331228  0.34516157
 -1.12429004  1.14569934 -0.06522638  1.50932911 -1.59516171 -1.45501793
 -0.29390841 -0.9165746   0.60615601  2.38006422 -1.94638964 -4.83188875
 -0.49638226  2.2199951  -2.54297941  1.90564629 -0.54116045 -0.77920602
  0.31121044  1.23676824  0.05513288 -1.89356389  3.21149965  0.3240851
 -1.7995767   0.77659036 -0.65548998 -2.3656263   7.03841425  0.36214816
  1.21739737  0.95645068  1.67148541  0.24483008 -2.24391218 -0.11677416
  1.81362671  1.63566917 -0.41543816  2.3532018  -0.79258785 -0.26731137
 -3.78283587  1.50866418 -0.62101643 -1.41522202  0.96199488 -0.19627955
 -1.09937391 -2.8239995  -0.29422854  0.8522039  -3.10829436  1.72814009
  2.09006371  0.92489093 -0.79990967 -0.39045853 -1.51229503  0.96373745
 -4.1425653   3.49089361 -0.93877537  2.12668447  0.02637858  0.6243141
 -0.3397151   1.77242362  1.72699231 -0.10479788 -2.75140835  1.50121867
 -1.47065361  0.08454815  1.33058431  4.93789263  0.76098547  0.39648755
  1.67939688  1.27648597 -2.01643002  0.46460792 -3.48167216 -0.85874273
  0.7345992   0.14992599  0.18140944  1.11002203  0.97277204 -3.43593543
 -0.02984379  0.19679249 -0.19015708 -0.3981365   0.06512808  2.011353
 -0.24861848 -1.19615024  0.3750291  -2.27659748  0.77376629  2.55748183
  4.62580763  1.78808549 -3.2953099   1.78104414 -1.06982495  0.76502077
  2.09004562  0.46158039 -1.33412106 -2.09203976  3.22195017  0.58405044
 -1.32732244  1.11276656 -2.77586274  1.42412732  0.21108302  4.57513223
  0.05336523  2.60229872  1.11186555 -1.60490878 -2.38594771 -0.80186177
  0.54439941  2.24891125 -2.90705471  2.15454696  0.74361759  0.26486593
  0.7847277   1.3820599   0.74841908 -1.47581568 -0.90812145  1.16207513
 -0.80931982 -0.84611487 -1.76810487  0.53952632  4.69448358  0.324415
 -0.2012877  -0.92256198]
[ 1.17448482e+00 -1.63578171e-01  9.29040096e-01  2.52565244e+00
 -8.99760232e-02 -1.20769332e+00  7.50656050e-01 -9.08708997e-01
 -2.03335298e-01  4.23858962e-01 -7.44178277e-01  1.32656403e-03
  1.24903122e+00  5.88329582e-01  9.86421098e-01 -4.45215478e-01
  2.37410333e+00  7.31425168e-01  5.55410237e-01 -1.26235065e+00
 -1.89274901e+00  1.40665879e+00  2.11372430e+00  7.24464668e-01
  1.36908720e+00 -8.30137806e-01  1.47810947e-01 -1.96549815e+00
  4.06898116e-01  1.10766233e+00  3.87924578e-01 -6.50073507e-01
 -1.17849546e+00 -2.74764799e+00 -1.02319426e+00 -1.07549409e+00
  4.31795381e-01  2.04053739e+00 -8.95247092e-02 -3.17418538e-01
 -2.48253290e+00 -1.99743183e+00 -1.67222070e+00  2.68807051e+00
 -1.35071558e+00 -9.08081491e-01 -6.77842834e-01  1.30329437e+00
 -1.64452733e+00 -1.05438414e+00 -1.24277799e+00 -3.31873736e-01
  1.82857821e-01 -1.24177873e+00 -7.13082244e-01  4.64459306e-01
 -1.63603088e+00  2.86586962e-01  2.66616924e-01 -9.56674713e-01
  1.56617841e+00 -7.47845776e-01 -4.36715964e-01]
[ 1.76669771  0.99349695  0.49777137  0.97814459  2.30688603  0.15433464
  0.81412058 -1.54292021 -0.0354374   1.16506045  0.98517395  2.15548526
  1.60450653  0.55940876 -1.23737003  0.63254771  0.17778765  0.19482851
  0.5863078  -1.03183482 -4.32986598  2.07775106 -0.80647031 -1.54824741
  3.01136852 -1.02611216 -0.63967844  1.62547598  1.38504923  0.50519448
  0.60341264  0.66644982 -0.38899857 -3.2376373  -0.7279949  -0.0171104
  1.82095784  1.25676858  0.07481681  0.01308085 -0.66005412 -1.02995528
 -0.52142686  2.46379725 -0.00938642 -1.2155132  -0.46396803  1.80965765
 -1.52721317 -0.05527896 -0.18191495  0.74519611 -0.52908658 -0.12107397
  0.47299605  0.5860622   1.11488536 -0.39235579  0.13614044 -1.71289385
 -0.38220383 -0.16723819  0.4581833 ]
[ 2.08190201e+00  7.55441290e-01 -1.97442973e+00  1.72135997e+00
  7.46812738e-01 -6.35013926e+00  3.57521355e+00 -1.68910721e+00
  3.23204451e+00  7.34196038e-01  2.58208808e+00  3.57552003e-01
  1.58012307e-02 -2.11012409e+00 -1.91973881e-02  2.03777835e-02
  2.56125140e+00 -1.38951751e+00 -7.60335303e-01 -3.23214741e+00
  3.66967923e-01 -2.91763763e-01  6.78560094e-01  8.06244719e-02
  2.53056585e+00 -8.52768614e-02 -1.68609906e-01  1.04477128e+00
  3.62428336e-01  2.64194631e+00 -3.77382124e-01  1.57413190e+00
 -2.90371445e+00 -2.35685492e-01 -6.61690515e-01 -2.69431296e-01
  2.02188034e+00  3.03873730e+00  1.11136302e+00  1.34432781e+00
 -2.17761979e+00 -7.69094773e-01 -1.88095529e+00  5.50718525e-01
 -2.33818105e+00 -3.26038143e-02  1.02761449e-01  2.09482989e+00
  7.13064774e-02 -7.43419462e-03 -7.56968047e-01  1.16297014e+00
 -2.38439772e-01 -2.48432971e+00 -6.19487292e-01  6.90995559e-01
 -3.60052535e+00  7.86319340e-04  3.23898921e-01  6.53724591e-01
  4.47551819e-02 -8.35329522e-02  2.50578427e-01]
[ 2.30115314 -0.41858755  1.13743289  4.03603369  5.01571578 -0.29165255
 -0.99834038 -0.75284652  0.8812224   0.95274738 -0.62811059  0.73150513
  1.98684391 -1.01254412 -1.67416805  1.28324841  0.28728548  4.04580311
  1.43818859  0.63607757 -1.26918808 -0.67728676  2.33659868 -1.83963857
  3.93500347  0.35521994  0.06561943  0.96477942  2.99898294  2.80305643
 -1.73947281  2.32740824 -2.6511737  -4.91976591  0.33417261 -0.96381043
  1.06125073  0.48084593 -1.28419159 -2.72347227 -0.23915494 -0.58368132
 -0.13069546  3.39803488 -2.42281627  0.68373276 -2.04769498  1.71313434
  0.90893008  0.01438132 -0.67286755  0.26525259  0.65416017 -0.51107388
  0.27397068  0.79324139 -2.40519819  0.15781633 -0.90241187 -2.75346841
  0.22136023 -0.67359833  0.42485603]
[-5.06837062e-01  4.25970330e+00  5.44673200e+00  1.15781300e+00
  3.62956508e+00 -8.70839160e-01  1.52502150e+00  3.38977384e+00
  3.81937268e-01 -1.83658708e+00  1.75279624e+00 -7.64550659e-01
  5.58932047e-01  1.00091568e+00 -1.33241250e+00  3.69547662e-01
  3.13859578e+00  6.99445723e-01  1.51207134e+00 -1.35140924e-01
 -1.93738757e+00 -8.96914107e-01  1.21583355e+00 -2.06618100e+00
 -1.85218937e+00 -2.29830241e+00 -3.55616611e+00 -1.48719014e+00
 -1.62358886e+00 -8.98279583e-01 -8.92518866e-01  2.09600863e+00
 -7.83312595e-01 -3.20008148e+00  2.37137626e+00  6.92724966e-01
 -1.41613755e+00  3.75725504e+00 -2.58295038e+00 -2.06959241e+00
  7.27870890e-01 -2.62607212e-01 -1.92414208e+00  7.01751336e-01
 -1.65633736e+00 -1.20995500e+00 -1.44291247e+00  1.67377753e+00
 -4.81220261e+00  2.16690890e+00 -9.82771613e-01  9.00910384e-01
 -8.35192667e-01 -6.03714150e+00  4.47895418e-02 -2.95805115e+00
 -5.76799452e-01 -2.64603493e+00 -1.38577553e-01 -1.92800899e+00
  9.86363012e-02 -3.13670922e+00 -6.42111178e-01 -3.99894637e+00
  2.05057335e+00 -8.18651591e-01 -8.46339340e-02  2.89603209e-01
 -3.74279646e-02 -1.24468729e+00 -1.44355586e+00 -2.19989122e+00
 -1.26542893e+00 -1.06062289e+00  5.28356674e-01 -1.46745103e+00
 -8.08228386e-01 -3.23356599e+00  3.42530002e+00 -2.44635825e+00
 -2.41197466e+00  1.43503195e+00  4.37908352e+00  1.90566501e+00
  4.23273783e+00  5.24446696e-01  4.27632868e-01  1.16028743e+00
 -8.91643530e-01  1.69444719e+00 -3.37480695e+00  9.66007039e-01
 -1.63415602e+00  3.41680190e+00 -5.66253477e+00  5.39639903e-01
 -1.06829014e+00  5.97702719e+00  8.66929431e-01  6.77516186e-01
 -3.78710355e-01 -3.44495159e-01 -1.09160294e+00 -1.19442470e+00
 -5.05749278e-01  3.10820196e-03  1.49030622e-01 -8.50846336e-02
  3.56426796e-01  2.71040276e-02  1.09738862e+00 -1.71666831e+00
 -1.54665649e+00  2.26095111e+00  1.19872338e+00 -2.41090713e+00
 -1.91728219e+00  4.04439282e+00  2.11189579e+00  1.63205935e+00
  7.47361862e+00  1.20986315e+00 -3.84990993e-01  2.67248935e+00
 -4.44643070e+00 -3.18234466e+00 -3.42271476e+00  8.52383568e-01
  2.39670693e+00  5.98484481e-01 -5.08696097e+00  1.17429657e+00
 -2.30773093e+00  7.95127410e-01 -1.99607096e+00  2.82214476e+00
 -3.39089887e+00  3.27751417e-01 -3.94259346e+00  1.74325676e-01
  1.25155534e-01  3.05625347e-01 -1.07243108e+00 -3.78928767e-01
 -2.08954018e-01  3.20128640e-01 -1.43551338e-01 -3.85914762e-02]
