[ 4.04639843e+00  1.69130766e+00 -1.54266978e-01  2.00324220e+00
  2.67787942e+00 -1.40204274e+00  1.98006357e+00  9.99608999e-02
  1.22520323e+00 -5.37618420e-01  1.00650941e+00  2.24156756e+00
  8.54904993e-01  6.93011918e-01  1.47490245e+00 -2.70949929e+00
  1.45077113e+00 -4.93592249e-01  2.88642284e-01  4.07439413e-01
 -2.05303680e+00 -2.24487143e+00 -7.16711311e-01  1.23589555e+00
  5.05095272e+00  9.40011848e-01 -3.66496690e+00 -5.79538862e+00
  2.09924641e+00 -5.32341724e-01  1.08849939e+00  4.60101805e-01
  3.79369408e-01 -1.55319768e+00 -3.00919418e+00  1.37863858e+00
 -3.36374685e+00  3.97263691e+00 -3.21101317e-01 -3.02172890e+00
 -8.51034566e-01 -3.65180300e+00 -2.69824439e+00  4.03876672e+00
  1.25491085e+00  3.55007634e+00 -3.07983672e+00  6.60509578e+00
  2.90655888e+00 -9.54683452e-01  2.76247740e-01  2.12828931e+00
  1.17591603e+00 -1.56775435e+00 -2.60167141e+00  3.75955808e+00
 -2.17082826e+00  2.20755686e-01 -6.21599439e-01  2.52313892e-01
  1.13622893e+00 -9.96868432e-01  8.46255191e-01 -1.68303591e-02
  3.74266965e+00 -1.55941434e+00 -1.53468062e+00 -1.46300624e+00
  9.40761112e-01 -7.92554776e-01 -3.53622215e-02  6.90852678e-02
 -1.41143688e+00 -2.31318110e-01 -2.51176809e-01 -1.52768392e+00
  5.59499679e-03 -1.99584377e-01  1.78720545e+00  1.40801347e-01
  1.81101693e-02 -3.65495994e+00  2.21374042e-02  1.01901985e-01
  1.95054332e+00 -4.46407244e-02  5.25472644e-01  3.14240328e+00
  1.57598006e-01  1.10481523e-01  7.54556497e-02  1.22380166e-01
  1.20460508e-01  3.43380314e+00]
None
[-4.33983371  4.054501    1.065821    2.00702329  5.70882999  0.85944112
 -0.70551729  2.49839868 -4.36273686  5.66871035 -2.29968274  1.99612534
 -0.60543978  1.25699847 -3.40064172 -1.21021203 -3.37376608  0.78453897
 -4.1146786  -1.31816189 -3.52930705  0.18660146  2.85755794 -1.90344009
 -1.75025339  1.29712763 -1.16994163 -2.5108377  -2.71618354 -1.45686859
  1.39425578 -3.31096405 -0.63537889 -7.54902975  2.7259164  -0.87722783
 -1.81609556 -1.89414693  5.679441    1.17612198 -4.33188119  2.15338541
 -3.43290361  4.11942183 -4.86790373 -4.99051493  4.48637706  9.30275642
  4.71668507  5.07158751 -2.35670489  4.13695634  3.32349184  1.63757638
 -2.44063741 -1.98270561  4.68867704  4.76464562  7.24939938 10.30643699
 -1.4284195  -3.07710327  2.40178439  0.28332226 -0.54244564 -2.67560127
 -0.84654717  5.06860839  1.26569109 -1.30106754 -4.68340173 -2.56423236
 -0.42133241  0.0353977   6.58586701  0.10465876 -0.08396726  1.27966635
  3.28275519 -0.07820154  3.92119453  5.35375611 -4.97834383  0.58780858
  0.66086731  0.45378573 -2.34912436 -3.68338638 -0.19420536 -2.10753691
 -1.68350023 -0.32031401 -0.12126645  2.58997605]
[ 2.32889892 -0.03251573  1.61773289  5.02147874  1.02775912 -5.31078912
  4.39857312 -0.63044745 -2.84930591 -2.45527201 -2.76417048 -3.83615232
  2.90703374  3.62014659 -1.01062668  0.1890103  -0.50511523  4.82217998
  0.24260914 -1.72023161 -6.09662182 -1.01116959 -1.83762226 -4.14366121
  5.66720529 -1.4209642   3.32350054 -6.14888781  1.9051631   3.94993916
  1.65511327  4.37207956  1.32104161 -0.10664271 -0.54682718  4.06239861
  1.21885582 -0.18398054  0.17245116 -1.32877297  1.66727644 -2.2280442
 -3.18287338  0.36737865 -0.88213272 -4.38083375 -2.04399237 -0.48141608
 -1.51708502 -0.97239439 -0.26360393  1.6958312   0.50286072 -3.25294353
  2.35234557  2.15191224  2.45628193 -3.56798218 -0.74450091  1.78638868
 -2.24192348  1.26369318  0.1511355  -3.58777409  0.7172388  -0.66156169
 -1.13664226 -2.66536406 -2.5531054   0.59058411 -0.12571197  1.52995761
  2.92333464 -4.09528602 -4.77773727  0.88452802  0.42361734  0.87094824
 -4.518525   -0.10003404 -5.66241477 -3.67941357 -0.30058149 -0.16277832
  1.32646581  0.01713413  0.03751887  0.21024774 -3.97943298 -1.50997931
  1.14157441  0.04999542 -0.04598592  0.90832272]
[-6.14331364  6.06935936 10.75196046 -1.74900444 -3.2314541   1.06378245
  2.25626623  1.72749285  2.00919981 -3.25894652  1.45629612 -2.81373424
  0.54831218 -0.81871363 -1.4478987   0.23691506 -5.63977606 -1.04978786
  1.79230862  0.84903195  1.78218031  2.21475563  0.09696564 -0.91089651
  3.49383132 -4.76790952 -2.33578293 -4.17811626  3.42726935  2.45142001
 -2.80810564  3.9664827  -4.98840896  0.69574459  1.29664173  5.47715063
  1.79168317  1.35733855  4.70213433  2.63484159 -0.15182562 -0.61998258
 -2.06365393  7.62083315 -3.24536381 -3.98119245 -3.94521606  3.6123235
  2.47203166 -0.16789221 -3.08510066 -0.07485985  0.79488145  0.66594059
 -0.74669828  2.94659773 -0.83524644  0.22740814 -6.96768787 -4.53932127
 -5.62903581  2.90952877 -0.58499704 -0.49539649 -6.10922407  0.53555028
 -0.76038046 -2.20113478 -1.20587655 -0.14419057 -0.21969572  2.07465835
 -1.26401649 -0.26174385  0.20415889 -3.91565108 -1.71559691  1.76723824
 -5.24572779 -0.06876239 -1.55353875  3.60899794  1.75009998 -1.08275031
  2.51868663  0.07349547  1.54859557 -0.74079309 -0.08873213 -0.34589891
 -2.5595334  -0.0743972   0.09386026  4.48430123]
[ -2.09275565   3.75916065  -2.87129185   2.25963768  -2.201463
   3.96890195   2.77949171  -5.09750168  -1.54384391   3.14387519
   5.77602513   2.23305443   4.43221374   8.78934131  -2.20477489
   4.5501363    1.18241878  -1.30304319   7.96966601  -2.40686831
 -11.38077238   1.4335145    1.41660353  -8.32846269   3.69329536
   4.90298942  -0.34021136  -2.41979544   6.72416828  -5.46007188
  -1.74863298   0.15318366   0.71163082  -3.95689362   5.78949133
  -3.45461045   0.8726017    3.62105032   2.1154003    1.02120577
   3.22959991  -1.38610852  -9.20429393  10.09945577   5.652003
  -7.77977063  -2.66415271   6.95265233  -5.4871472   -3.6428771
   0.09726847  -0.82468367   2.25585326  -0.85239306   4.49287703
  -0.28869809  -0.17072938   1.67735385  -7.2233908    2.23821089
   3.30294904   2.32886016  -4.19023698  -4.3320988   -6.44128707
  -2.75412433   4.2503999   -4.9616611   -3.2598168    0.35786595
   6.47291968   0.30848925   4.72274448   2.68520713   5.42667042
   1.01868508   4.45736385  -5.48632408  -0.37840902  -2.8766375
   0.47556658   4.49398561  -0.04623241   0.01818539  -3.22471587
  -3.18922396   4.32391173   2.82669749   0.37456152   3.18056783
   0.88503587  -0.12930829  -0.03583451   0.20063717]
[ 5.22703027 -1.61381679  0.54092296  1.84263974 -0.06617761 -3.01306521
  3.30288751  1.44240069 -1.18461648 -2.6207173  -0.35961423  2.35799116
  1.73112235  1.77392184 -1.30568888  1.45234059 -1.03426568  0.50359847
 -1.34851405  1.20404415 -4.64620261  2.46695672 -2.66213983  2.27964365
  1.33861895 -4.54220302  1.15981102 -0.09487478  5.09639113 -0.15944376
 -1.00222098  2.60699745  3.42677905 -1.18776595  4.78173671 -5.27794669
  1.09909725 -1.55221684 -1.96914099 -0.2435113  -2.0717089  -3.9476965
 -0.99553136  3.34045168  3.62961766 -3.14194164 -2.07062616  4.60360974
 -2.09329187  3.04531078 -0.41126882 -0.15096442  2.31256445 -2.03347267
  5.21405597  0.90620493  2.36535699 -2.02735478  2.4525344  -5.41437323
 -0.8228317   2.52797561 -6.00680956 -1.35001188  5.23936925 -2.72427676
 -2.50340347  0.71792424  0.19304037  0.76201172  0.08384862  0.26583137
 -0.82074592 -0.10047111 -2.14002736 -1.15526372  0.07382485 -0.03071352
  1.74795138 -0.01385563 -0.39470066  0.29599787  0.03594246  0.12395471
  0.64590275  0.14178784  2.44560794  0.33639479 -0.03473494  0.11242427
  2.52429994 -0.0556926  -0.02420803  4.36106617]
[-1.34956731e-01  2.59375117e+00 -5.23344230e-01  3.23989344e+00
  6.64827863e-01  1.60718245e+00  1.78828283e+00 -7.05838431e-01
  1.17918683e+00  1.38795599e+00  9.60595297e-01  1.96444713e+00
 -9.45669626e-01  1.99650281e-01  2.84659748e-01 -1.06426703e+00
  3.35263800e+00  2.83758198e+00 -1.80857575e+00 -4.08780896e+00
  1.04350411e-01 -1.82438222e+00  1.58988109e+00 -3.01437187e+00
  1.88468149e+00 -1.13986926e-01  3.00734763e+00 -1.92727198e+00
 -1.88478704e+00  1.64665198e+00 -1.27240057e+00  1.61913367e+00
  1.25582563e+00 -3.44339359e+00  3.73049687e-01 -9.86062889e-01
  1.90329999e+00 -6.06605528e-01 -1.46037506e+00 -2.08598440e+00
 -4.10285619e-01 -3.97887443e+00 -8.88251890e-01  4.03821259e+00
 -2.71970872e-01 -2.22131277e-01 -3.05109051e+00 -7.85854019e-02
 -3.89677562e-01  4.90211079e-01 -3.35253138e+00  1.70796209e+00
  1.56607175e+00  4.80554158e-01 -1.41578232e+00  3.29596520e+00
 -1.81906856e+00  1.97471296e-01  1.31125442e+00  1.76927399e+00
  7.83486581e-01 -9.41695061e-01 -1.47072988e+00 -9.94159061e-01
  1.87015926e+00  1.67448393e-01  7.32911343e-01  4.08586917e-01
 -2.23670404e+00  1.08707667e-01  4.29222476e-02 -9.04251027e-02
  2.07769121e+00 -1.05616935e-02  1.90255569e-01 -1.89016241e+00
  3.52549054e-02 -4.58292382e-02  6.07213623e-01 -6.77333573e-02
  1.13092731e-01 -3.64644077e-01  1.35571994e-02 -4.78599039e-02
  1.57403167e+00  6.64595232e-03 -8.84176212e-02  1.31120383e+00
  6.17094286e-02 -3.05641127e-03 -3.90769707e-01 -9.59182708e-02
 -3.68924563e-02  1.04537437e+00]
None
None
None
None
None
[ 2.13126572  0.34122188  1.86862282  2.1983482   2.25219367 -0.55505376
  1.23784534  0.05169864 -0.45129198  0.42255593  0.59863436  0.96999304
  0.94076636  0.17380615  0.62318277  0.42352571  1.39602753 -0.97499071
  1.00740168 -0.70314752 -2.70556124  1.19035625  0.41492266 -0.28315858
  2.31181579 -1.93582929 -1.18985158  0.13109099  1.6141219   1.77613262
 -0.69721011  1.1366468  -0.54169527 -1.66132767 -0.14269044  0.0464781
  0.90500362  0.88848254 -0.14862916 -0.68489032 -0.80754915 -1.761622
 -2.33083197  1.14861066 -0.33861676  0.37670436 -1.31590039  0.66214593
 -1.93448833 -0.78508477 -0.91749302  0.71706136 -0.2471888  -0.81124545
 -0.63938868  0.19049972  0.73272892  0.48592757 -0.56178105 -1.4362412
  0.14145468 -0.10790985 -0.81475293 -1.27113371  0.7016041  -0.06175195
 -1.98580197  0.49227104 -1.03950396 -0.72282603  0.79789571  0.24488332
  0.88579391 -2.07711466  0.72589921  0.47301142 -1.04072632 -0.26869889
 -0.18205082  1.05741007 -1.74477793 -0.85890857  0.27120873 -0.99689101
  1.77824895  2.47714871  0.69234217  0.19237742 -0.93386706  0.50526148
 -0.22619781  1.02609003]
[ 1.93232707 -0.1570452   1.57548318  2.71598401  2.75873877 -0.7152204
  0.35092361 -0.42778872  0.24654904  0.91596535  0.37597774  1.24642339
  0.22609294 -0.23153966  1.16641943 -0.35938948  1.14788933  0.45533254
  0.54742794 -1.37613025 -2.89661929  1.06043926  0.56475325 -0.54222178
  2.4617805  -2.05865891 -0.88826588 -1.15634872  2.2147241   1.81578897
  0.60874885  0.20752084 -1.66489791 -1.30504208  0.25927563  0.75051921
  1.66130848  0.77618908 -0.31693366 -0.05869791 -1.45929387 -0.73775423
 -2.11748569  1.41389409 -0.56107233 -0.91014292 -0.59676636 -0.35221967
 -2.41322921  0.67827325 -0.92328534 -0.17927065 -0.16658146 -1.271987
  0.50184711  0.75032975 -0.08439534  0.64348775 -0.15187585 -0.34461099
 -0.76210413 -0.61412087 -0.4953979  -1.99247264 -0.39050143 -0.58626217
 -0.74314141  0.05150768 -1.52587972 -0.17955482  0.64243536 -0.25784886
  1.28024019 -1.55095932  0.39268577 -0.4943184   0.11121871 -0.22555235
  0.19647824  0.1278621  -1.36216284  0.73752782  0.3093985  -2.23873527
  0.44042937  1.50774408  0.61452545  0.11809926 -1.38554431  1.29374666
 -0.43153407  1.08928981]
