[-2.13804673e+00  4.47706272e+00  3.02360406e+00 -5.04483781e+00
  2.53167210e-01 -1.69120972e+00 -4.63020368e-01 -1.61513676e+00
  4.17689824e+00  3.96605094e+00 -3.74895068e+00  5.37393375e+00
  3.02704783e-01 -2.11231368e+00  4.38505169e+00  1.98786204e+00
  1.23092880e+00 -6.19586689e-01 -1.81994201e+00  1.75804456e+00
 -2.88881243e+00 -2.31682352e+00  1.69485480e+00  2.64800112e+00
 -4.92997477e+00 -5.06449561e+00 -2.81538400e+00  4.64005220e+00
  2.03885905e-01  5.92887133e-01 -5.64035332e-01  8.49152730e-01
  3.46561933e-01 -5.43957161e+00 -2.57697851e+00  1.09702111e+00
  1.40775546e+00 -7.18995605e-01 -4.32297649e+00  1.57123428e-01
 -2.61619627e+00  3.10770075e-01 -4.30942708e-01  6.64656178e-03
  4.82609026e-01  4.21578735e+00 -6.07154419e+00  7.72650283e+00
 -7.61431896e-01 -6.67891688e+00  8.68347208e-01  3.20698440e+00
  3.06320114e+00  3.55873861e-01]
[ -0.35617137  -0.27287029   3.19646977  -2.63386925 -13.46615379
 -17.48648345   2.1903283   20.30049967  -0.45600876  12.7839491
  -0.14260253   6.59665858 -32.24865052   0.16536314  16.45285351
  11.31455477  -6.45333341   3.74183041  13.00949929 -12.88976258
   2.24420272  11.94412541  -5.48733451   0.16395058  -8.56528363
   0.85689869  -6.20846201 -10.43906012  25.64814981 -10.11610296
   7.1377906    7.05077719   5.8806373   -6.52477249  -7.6572275
  -4.73906639 -14.12739641  -8.76465017  20.06604577  -9.25288398
  16.18285108  -7.92136139   0.95335339  -3.94961367 -19.27516272
   2.24530795   4.92267266  10.52664991   4.45485911   4.94987766
   2.86366576   6.43401462   7.45627165   5.61233902]
[-5.00001678e+00 -3.09892439e+00  1.05391184e+00  1.62930761e+00
  2.97590734e+00  1.45721335e+00  1.96909912e+00  5.94356850e-01
 -3.51629469e+00 -7.63447033e-01  3.71474498e+00  2.24069336e-01
  4.72637989e-01 -2.60151600e-01  2.18704855e+00 -7.20956586e+00
 -5.14934717e+00  2.18774188e-03  2.49087141e+00 -2.36396638e+00
 -6.35460526e+00 -3.32193202e+00  1.20833324e+00 -8.87056947e+00
  3.89964027e+00 -1.34956162e+00  4.25367412e-01  2.87123069e+00
  1.67469256e-01  1.65323671e+00  6.60354469e-01  9.67898750e-01
 -3.76860023e+00  4.48690941e-02 -1.77430413e+00  2.54414433e+00
  3.20815539e-01 -1.06915016e+00  1.54398018e+00 -2.59634952e+00
  5.60296041e-01 -2.69114891e+00 -7.17707931e-01  2.38755612e-02
  4.27118059e+00 -3.29789424e+00  3.53789910e+00  1.90590661e+00
 -1.70638081e+00 -2.30585974e-01  2.11505807e+00 -4.41236125e+00
  6.33740462e-01  4.59891250e+00]
[ 5.72251612 -0.25989459  5.63927401  2.17923815  0.48357525 -0.64004735
 -1.11279157  0.60318937 -0.90286105  2.28259503  1.26827114  1.95556283
 -1.38333073 -0.8555171  -0.02615989  1.57145251 -1.12387576 -1.41608714
  0.37853986 -0.14820251  0.23406955 -1.99696373  0.23865922 -0.06820431
  0.83889425  1.41453767  2.22195582 -1.10685412 -0.30122927 -3.66106268
 -1.64273221  2.95489456  0.01419401 -2.90168215  0.01539363  0.80809953
 -0.31882024 -0.12173138  2.99193321  1.64052753 -0.17709164 -0.82095944
 -0.09287193 -1.37825131 -0.61068509  2.20672029 -1.17249544  3.73940618
 -1.8489643  -0.5603808  -1.17103331 -0.65107053 -1.47305204 -0.25670317]
[-2.31395385 -2.24090969  2.03095434  2.69817961 -0.73279412  0.72728812
  2.22819403 -0.87595455  0.01248639 -0.02640253  0.82754965  1.56968824
 -2.9108049   1.1159916   0.77091277 -1.86041856 -0.39337037 -1.21145736
  0.46491247 -1.33347923 -4.15917586 -2.66530675 -1.36888754 -0.49104992
  1.03092043 -4.0749217  -2.31479715  0.09748741  1.25935644 -1.27675371
  0.04148094  0.13663221  0.99849722  0.1441567   0.97077712  1.69361074
 -0.28971066  3.16995245 -3.39479901 -1.84834498 -3.2398959  -0.26729679
 -3.23262877 -0.30470913 -2.17899112 -0.48091654  1.37459953  4.57357738
 -2.50904453  1.30726999  3.60401852  1.47142306 -0.63980348 -2.64074739]
[ 1.156886    5.95471913 -1.43891161  0.71807166 -3.45941245 -2.16861489
  3.03153897 -4.02134932  2.87490253 -0.53600688 -3.23085846 -1.55349749
  3.98290016 -0.68145964 -0.15322771  5.09638608  3.86636229  1.35954703
  0.3664181   1.0832389  -1.1017233   3.66520299  0.67790522 -3.99207856
 -3.49079693  1.89185291 -2.02104966 -2.6144177   6.88238575  3.76398586
  2.12771445 -0.05184857 -3.36258673 -1.66133216 -2.55563718 -2.05096771
  5.11941258  4.54538174  4.46728655  1.61179136  3.58205764  2.70337568
 -1.05096096  4.30217413 -2.37507997 -1.86403403 -5.68707011  2.82631181
  2.46338256  0.84037984 -5.01774096 -0.0174048  -2.13899043  1.86822117
  0.81520565  3.34431982 -4.07759369 -4.54789009  0.2681742   1.09214482
 -1.31601921 -1.48602602  2.63393833 -1.68685683  2.5966949  -2.85798952
 -4.02445881 -3.52170374]
[-8.34244802e+00  1.09664977e+01 -5.81320710e+00 -3.87993184e+00
  2.68194760e+00 -3.58036192e-01  3.82727900e+00  7.48351823e-01
 -5.43035248e+00  2.48409036e+00  2.14423369e-01 -3.72669048e+00
  5.31324323e+00  3.02687493e+00 -7.60928630e-01 -1.69240704e+00
  2.90500233e+00  7.23491734e-01 -1.49168589e+00 -6.21679117e+00
 -2.05521889e-01  4.38308788e-01  5.27311466e-02 -6.60128531e+00
 -4.68649998e-01 -7.75142168e+00  4.60436679e+00  5.85083044e-02
 -9.45669327e+00  1.05058796e+01  1.27359994e-01  9.07110410e+00
 -1.10649958e+00  6.13296965e+00  5.23080088e+00  1.47103098e+00
 -2.99762259e+00  4.65545900e+00 -6.07913538e-01  2.76875953e+00
  1.03642578e+00 -1.76417669e+00  2.54422394e+00  6.10465065e-01
  2.54321542e+00 -5.42487468e-01  2.27147787e+00  2.78169952e+00
  4.40018036e-03  7.03120153e+00 -4.08632548e+00 -8.12843462e-01
  1.72379520e+00  3.86465139e+00 -1.08283414e+01 -4.46444654e+00
  4.86982118e+00  1.87441818e+00  3.91419403e+00 -3.26324925e+00
  5.92273223e-01  3.04252242e+00 -3.17003775e+00  1.99881711e+00
 -2.33101854e+00 -1.01140394e+00 -3.54040004e+00 -3.47174949e+00]
[  3.50921117   7.63928434  -1.63495717  -0.06550626 -13.41052476
  -7.21283857  14.30566104   5.88554263  -5.38347386   2.86804137
   5.45144573   2.9136321   17.31418663  -6.67506647  -0.71970243
  -6.06006662  11.21121527   0.67423167   0.54495969  -0.38165831
  -3.09500691   1.57706656   0.03804673 -10.58481178 -13.18742277
 -10.62246494   5.07088333 -11.06803982  -8.5269876   -6.14438303
 -13.6745004    0.94697069   2.395298    -2.63735677   5.72612237
   0.59593993   2.23440306  13.91712409  -2.05863537   5.16609819
   4.99276523 -12.26643659 -14.70910344  -0.05588843   8.11432148
 -16.99878267  -4.61781358  -5.84197734  -1.8081584   -0.54091516
  -0.34049734   1.89671541   7.058084    14.47603043  -8.42065379
  -9.12796658  -2.06422743  -2.41106061   5.4751343    3.86816665
   1.41211783   3.21386342  20.99264518   9.64458191 -10.00465759
  -4.96762916   0.83620241  -2.43398466]
