[  5.08369577   2.99912208   1.23274236   6.62710111   5.76756935
  -2.02762194   0.9305326    3.21219224   0.04589065  -0.69922041
   1.61137953   8.40867403   0.0716384    5.18823265  -3.40725261
  -5.25394945  -0.91652168  -4.64406839   0.16004295 -10.08033161
 -11.79132362  -3.19488054   3.31603556  -7.3180474    6.43610338
  -0.49533934   0.21830514  -3.49583588   2.24439524   0.98795674
   3.56368389   5.36535219  -7.63942747  -2.04566588   0.89251604
  -5.72997095   5.5947923    4.66105462 -12.76082938  -0.79759405
  -0.74875252  -3.12880588]
[ 6.87873744  0.15705764  5.92486527 -7.65032296  6.99508138 -1.34523012
 -2.47276397 -3.70221124  1.95164482 -1.62987913  3.13247845 -1.52657272
  1.02710306 -1.47817947  1.9157885  -0.99412989  1.14470427  2.5191516
 -1.57185524 -1.80828332  3.3602619  -3.19544286  1.15548958 -0.61331364
  2.16445677 -1.01573752 -0.22514493 -9.4141861   3.33274318  7.15421485
  2.53450577 -3.20738004 -3.54396954  5.80680412 -2.65427154  7.43497667
 -0.72945389  9.45090291  4.38203653 -0.47729572  4.09953028  0.64418789]
[13.78905904 -0.41544462 -0.57307508  5.1692642   4.90927119  1.52871901
  8.32596615  0.35908473  1.37303215  0.2025271  -3.43105178  4.96716127
  8.1023877   1.20572146  3.94650093 -3.33917256 -7.11292958 -5.04562992
 -2.1926163  -5.31026015  1.19126507 -0.90631624  1.81424821 -0.11301615
  0.50463827 -2.18888531  5.06998916 -0.01523569  5.59286633 11.95374377
 -0.74500394 -0.09162724 -6.9238774  -4.92382214  2.16987273 -7.10811974
 -0.91146127  3.61021523 -2.53023112  0.28965573  2.50983805 -0.13100128]
[12.14738156  2.80297691 -0.10423878  4.62494382  4.01361604 -5.85635371
  0.2858876  -4.43321086 -6.32714067  1.29500164  0.42619248  3.37272952
 -4.09368493  1.17868566  1.12135502 -3.75247709  1.78741934 -6.08324505
 -1.37364769 -1.89484638 -4.05694027 -0.73795464  1.56920897 -0.0146031
  4.14680545 -3.43440038 -1.92920266  2.92931084  1.71631445 -4.30675544
 -2.11018013  0.99130452 -2.76063216 -1.08296983 -1.14848215 -1.70693387
 -0.09002188  0.12849712 -1.1024199   0.22320309  1.68779037  5.12513981]
[ 0.03151762  0.08245216 -1.86895258  0.41301063  0.45916765 -4.38833583
  2.58684614 -1.50612115 -2.07856772  3.20383291 -2.07065015  0.40932605
 -0.28473297  0.05839653  3.04598558  0.32590293  1.90686968  1.21196864
 -1.45287129 -0.98502497  1.104797   -3.47690055 -1.47723742 -2.93895692
  2.35571227 -0.36122016 -1.19106707 -0.583156    0.9200128   2.37998758
  1.7740364   0.34308562 -2.53185433 -3.79740886  0.45553501  3.55127269
  2.18163851  0.82835392 -1.57861065 -0.0858576   0.1825771  -0.34782376]
[ 9.33356679e-01  1.63668340e+00  4.49704364e-02  2.44719254e+00
  3.94369235e+00  2.27385691e+00 -2.41268391e+00 -3.46368714e-01
 -3.27154684e+00 -1.29229691e-02  1.26134306e+00  8.19967706e+00
  1.32701303e+01  2.36415165e+00  5.73631837e+00 -6.34873773e-01
  7.95068103e-01 -1.10032303e+01  9.45949124e-01  5.64524650e+00
 -1.06995085e+01 -6.69103172e+00 -2.91602299e+00 -6.07215315e+00
 -2.71444349e+00  6.97121442e+00  3.35722722e+00 -1.84372163e+00
  5.36290270e+00 -8.97476845e+00  1.08200284e+01  2.23273248e+00
 -7.49251891e+00 -6.77642150e+00 -8.36666252e+00  5.27050686e+00
 -4.45618740e+00 -3.99116195e+00 -2.75089831e+00 -5.69930471e+00
  1.29648313e+00  4.58667353e+00]
[ 1.72356869 -0.13327887  0.10625881  1.8743151  -1.6865369   0.3615695
 -0.03551941 -2.23480848 -0.029553    1.84471353  0.2501115   3.20917941
 -0.46286417 -0.74452234  0.72248498 -4.01065091 -0.07081909 -2.8705642
 -1.53137394 -0.92503264 -1.25441    -5.18821565  1.88219887 -3.17366815
  1.55338484 -0.48675427  0.53213687 -0.78963657  0.48510555  0.90706268
 -0.78108735  0.98268937 -1.52015511 -0.1031234   2.11999844 -4.33834202
  3.46991871  1.68570723 -1.38734381 -2.31575637  0.0670943  -2.67043954]
[ 1.18583404 -0.26238918  1.03291631  0.52919342  0.37672538  0.26941259
  1.42929752 -0.24031567 -0.19527783 -0.06476571 -0.14634647 -0.24337266
  0.23935776 -0.26043843  0.87978419  0.12510276  0.54653111  0.72263108
 -0.08703397 -1.32068766 -1.65326271  0.1298957  -0.18312056 -0.50633087
  1.50663169 -0.3817843  -0.69533622 -0.54066652  0.21477014 -1.1074042
 -0.11225893 -0.13298809  0.20213004 -2.03814888 -0.34017477 -0.5379088
  1.22378543  0.39430605 -0.80469479 -0.10342565  0.06946209  0.19823453]
[ 0.6928677  -1.92108069  0.86460938  0.60149573 -2.37100398 -0.60766298
 -0.53099088  0.90637346 -3.02104458 -1.46741574 -0.21551967 -0.22074474
  0.35829309 -0.0334374   1.32495782  1.89429757  0.67996231  2.6373474
 -0.75068736  1.28706092 -0.8271644   3.34499385 -1.6090477   0.26757432
  0.79396646 -0.52545773 -1.10643347 -0.3023275   0.64361837 -2.46755355
 -0.7548864  -1.44866438 -1.48640431  1.87160194 -1.80277361 -4.42228779
  2.73363874  2.97032983 -1.58833776  0.4885909  -0.14145447  0.8750931 ]
None
None
None
None
None
[-1.213087    1.70510997 -0.47764894  0.96701152 -0.31170594 -0.29279632
  0.70827309  1.10749414 -0.36895585  0.92094639  1.00077289  0.3510093
  0.46394503  0.03917548 -0.96089064  0.34415121  0.23800797 -1.10963025
 -0.20327371 -1.58984066  0.20471484 -0.5233544  -0.17235781  0.00766546
  0.27938804 -1.32108986  1.2697064   1.27759788 -1.14275482  0.28998086
 -0.03834826 -0.71379664  0.53382127 -1.76985448 -0.91838149  0.90461003
  0.70979397 -0.34067615  0.36517179  0.06456037  0.18456123 -0.20496379
  0.02664175  0.59768258 -0.73100593 -0.57745733 -0.81505911 -0.29483279
 -0.51151567 -0.6012431  -0.25004453 -1.35108135 -0.71353803 -0.13122256
  0.31171806 -0.75230737  0.4661704  -0.02958135 -1.23775243  0.07980338
 -1.15005763 -1.78916579 -1.58024656 -1.23010948 -0.44624217  0.53177953
  1.04414892  0.00971472  0.73008356  0.73343576 -1.59402649  0.50252184
 -0.19044717  0.75910667 -0.31546626  0.49058612 -1.05373708  0.12881265
 -1.00433574 -0.82545558 -0.64232879  0.10628965  1.43268518 -0.98969133
  0.7412818   1.13844014  0.91582233  1.09810783 -1.29267902 -0.11976898
 -0.86794072  0.34032225  0.75596193  0.20807009  0.07110281  0.70512522
 -0.73234131  0.17168941 -0.408444    1.02038026  0.50514199 -0.18347034
 -0.52691425  2.24868108 -1.1426955   1.71371953 -0.1736107   0.15401182
  0.25080483  0.26086593  0.93094135  1.28936859  0.58757083 -1.02350373
 -0.1635503  -0.58499597  0.74242565 -0.47145216  0.1467629   0.3748932
  0.70391426 -0.6155106   0.27725278  0.73540437 -0.49324737  0.38955918
  1.03198706 -0.05551439  0.46453745 -0.00635627 -0.05849988 -0.87445053
 -1.40366226 -0.68713835 -1.02198714]
[ 0.24591092  0.81339803 -0.62762596  0.76478765  1.52255119 -0.0720933
  0.34740814  1.04435263 -0.95753036 -0.0721193  -0.86073857  0.53129276
  1.03367583 -0.50911838 -0.64618544 -0.84377218  1.2236773  -0.7677176
 -0.84523543 -1.43538099 -0.50687856  0.24151098 -0.38566583 -0.84137543
  0.52269212 -0.1627524   0.40453882 -0.31975458  0.59475176  1.14928623
  0.55808158  0.32104086  0.42732153 -0.70660867 -0.03708077  0.48760197
  0.92021257  0.65069248 -0.20885358  1.26384266 -0.3984273  -1.00510504
  0.88790903  0.45418042 -0.77488889 -0.33709709 -0.65605742  1.02168593
 -0.80707538  0.06107871  0.08354543  0.06565227  0.0437673   1.4612567
  0.77738484  1.13266913 -0.55320724  0.42063201 -0.15412111  0.76694741
 -0.08152374  1.25706873  1.08362425 -0.06071905  0.34252552 -1.21725376
 -0.85885972 -1.2581967  -1.04239182  0.74139425  0.77071049  0.9485733
  0.61004786 -0.66979973  0.09784026  1.06940447 -0.05132871  0.92176733
 -0.88515395 -0.60246255  0.20286577  0.42597186 -0.07203958 -0.22690746
  1.95116812  1.5151642  -0.24811761 -0.32940125  0.03051514  1.55281418
 -1.46452259  0.32006199 -0.11242078  0.4532778   1.36678072  0.65776647
  0.29920167  0.6587675   0.85883292  1.38415276  0.79058318 -0.37279208
 -0.39354962  0.05312433  0.14859538 -0.63592005 -1.35168455 -0.20962817
  1.00102949  1.19363767  0.17065172  0.38843837 -1.72151303  1.34694794
  0.51945101  0.54839286 -0.16498366 -0.82412449  0.83405213  0.2393012
  0.29088872 -0.80212069 -0.14159382  0.07556882 -0.91583929  0.33648248
  0.46563957 -0.06478004  0.26077953  2.01095134 -0.0056524   0.93997971
 -1.21430611  1.9232113  -0.19165101]
[ 0.16721418  0.27453163  0.08900411  0.82141225  0.27000946  0.47894501
 -0.24446812 -0.75489158 -2.01250936  0.5724889   0.41265747  0.55573888
  0.08437293 -0.73604951  0.59902763 -1.19802106  0.87600957  0.4282323
  0.09194577  0.45286938 -1.08435667 -0.20969986  0.11795617 -0.21430853
  0.77308657 -1.17704546 -0.54200139 -0.36347631  0.3373998  -0.27945219
  0.36131988 -0.76036654 -1.17394879 -0.23611992  0.54954374 -0.88266959
  0.4017276   0.08504972  0.57350172 -0.5347822  -0.27989909 -1.23226269
 -0.62115833  0.80060537  1.15451757  0.01063273 -0.71499576  0.09055887
 -0.12598324  0.09793097 -0.63826152  1.13139572 -0.48334053 -0.24431054
  0.12299969  0.74732972 -0.30361703 -0.23217892  1.46924765 -0.48311869
 -0.89363327  0.08609968  0.55776594 -0.2806092   0.52294312 -0.23794467
 -0.01202857 -0.22177874 -0.38709868 -0.05034365 -0.65301641 -0.87855186
  0.56064869 -0.45080678  0.70119127 -0.52176489 -0.7382957  -0.73149327
  0.23145058  0.41344098  0.24421992 -0.06382551  1.37204324 -0.17270003
 -0.72129503  0.9350387  -0.37089924 -1.06210495 -0.04647876  0.70847543
 -0.14211683  0.74997254  0.12101907  1.09944814  0.71563569  1.79594882
 -0.02237189  0.128283   -0.89425295 -0.69278402  0.80774046 -1.38915453
 -0.40361576  0.86824877  0.50530277 -2.02426314  0.0945147   0.45529479
  0.92815335  0.34774561  0.58452052 -1.04743332 -0.60583644  0.2004566
 -1.27503965  1.43523947 -0.0448073  -1.2752161  -1.07551584 -0.10208213
 -0.61056574 -1.00049546  1.1522231   0.99342952 -1.14039025 -0.34455302
 -0.10711702 -0.56876909  0.0269822   0.93260915 -0.76682793 -0.24229625
  0.08895404  0.38694138 -1.13247465]
[ 0.69466437 -0.5324403   1.97936559  1.62512668  1.7479046  -0.04911309
  0.06872179  1.14872554 -0.10297058 -1.48602458  0.00428983  2.65851973
  0.44018062  0.23119263  1.4702866   0.97532406  0.80566802 -0.78952579
  0.82198489 -0.61579562 -1.28353551  0.71963669 -0.55686382 -0.23139245
  2.88571596 -0.21376228  1.68455     1.36282357 -0.11918886  1.91214761
 -0.97794627  0.53988506 -0.89846874  0.87833665 -2.6108569  -0.97711074
  1.38924069 -0.40838652 -0.26004992  1.11668975  0.316154   -1.10869303
 -1.62387095  0.48895557 -0.08000984 -0.62513284 -0.89883629  0.12996426
 -2.3065122   1.56877433  0.49244907 -0.30510592 -0.08819813 -1.53257081
  0.03512234 -0.70542384 -0.81453041  0.24108792 -0.75293637 -0.68059004
 -0.44686495 -0.9884682   1.28592319 -0.17470314 -0.54691666 -0.03778091
 -0.30698534  0.58304865  1.41805428 -0.90081842 -0.71953808  1.11351382
  1.39078982  0.06318948 -1.01857423  0.99943235  2.27166958  0.72948604
 -0.89005553  0.84768432  0.94488009 -0.84844253 -1.04361663 -0.98739899
  0.54716245  0.93687603 -0.1804278  -0.72836741 -0.54002114  2.09644959
 -0.74588639  1.93870521  0.35746872  0.13517248  0.76072499  0.14588931
 -0.02766978  1.40469619  1.07254444  1.71097925 -0.15196614 -0.54210836
 -1.2584982  -1.07820965 -0.0565033   1.56894813 -0.16361883  0.84282317
 -1.02369578  2.28289756  1.13419374  0.3014107  -0.38959306  0.79119696
 -0.61650082 -1.51878056 -0.5490573   0.1835937  -0.63115342  0.99711411
  1.10385995  0.06376459  0.5719443   2.46640335  0.46469361 -0.34498898
  1.24590387  1.10459617 -0.0721104  -0.54918721 -1.90978178 -0.8523551
 -1.23656106  0.07534831 -1.11847999]
[ 2.56851200e-01  5.19235203e-01  6.01873948e-01  8.48229254e-01
  1.08045328e+00 -7.78369306e-01  4.29917709e-01 -1.09064581e+00
 -6.38356405e-01 -9.65769388e-02 -3.17828096e-02  1.16971443e+00
 -2.91398469e-01  9.23194730e-01 -3.04427092e-01 -2.54997483e-01
  6.71149522e-01  2.39400319e-02  7.97219379e-01 -7.35147965e-01
 -1.24136659e+00  5.31231090e-01  2.11782869e-01  2.55894187e-01
  1.12899076e+00 -7.09006485e-01 -7.85519942e-02 -4.47480186e-01
  2.18882590e-01  8.33716495e-01 -3.91583715e-01  2.46678159e+00
 -6.01115652e-01  1.11048955e+00 -3.65293572e-01  2.06400194e-01
 -1.00484933e+00  5.17021555e-01 -1.53770576e+00  2.09371684e-01
 -2.92805079e-01  3.07370184e-01 -9.06207269e-01  9.10891558e-01
 -1.12132931e+00  2.26716273e-01 -7.02174385e-01  1.83216774e+00
 -8.74729858e-01  1.15263594e+00  1.35331451e+00 -8.12455454e-01
 -6.77765631e-01  7.79931273e-01 -2.55225150e-01  2.67569858e-01
 -6.05811333e-01  1.05099609e+00 -1.17252938e+00  1.00526561e+00
  6.32290255e-01  9.83944230e-01  2.92641107e-01 -1.86240879e+00
  7.68145250e-02  2.14235465e-01  5.30339456e-01 -1.21018988e+00
 -2.57631562e+00 -9.42115460e-01 -1.97499201e-02 -7.04789419e-01
  6.13557123e-01  1.23319229e+00 -1.50211055e-01  2.65871279e-01
 -2.81764498e-01  2.05307655e-01 -1.68804980e+00 -4.09481699e-01
 -3.33570524e-01  9.53015044e-01 -3.63646651e-01 -7.96556159e-01
 -6.57518552e-01 -4.98935332e-01  2.21584747e+00  5.61968424e-01
 -7.55908630e-01  1.88226388e-01  3.58548563e-02 -1.24223113e-01
 -1.20913043e+00 -1.71368560e-01  9.36029986e-01 -2.31247558e-01
 -1.04970425e+00  6.11192111e-01  7.63987715e-01 -5.77683579e-01
  4.23270551e-02 -4.02578846e-01  4.16129930e-03 -1.03946215e+00
 -1.02710450e-01 -3.16524493e-01 -1.41383772e-03  1.46520668e+00
  1.61467424e+00  5.58261369e-01 -5.88828465e-01  3.70020327e-01
 -3.35173068e-01  4.32451423e-01  5.06131528e-01 -5.36808751e-01
  7.97029952e-01 -1.55860591e+00  2.43019073e-01  5.15825427e-01
  5.22083093e-01 -2.52527052e-01  7.16321437e-01  1.30844878e+00
 -1.24583390e+00  2.93425777e-01 -5.78574144e-01 -1.82947215e-01
  1.31471823e-02 -7.21660778e-01 -5.88952275e-02  3.24827487e-01
 -2.90124669e-01  2.91900909e-01 -1.50334736e-01]
[-0.01294273  0.56511007  0.27380511  0.63717547  0.84423296 -0.23010526
  0.11850692  1.24084532 -0.44323433  0.02898045  0.64154124  0.06868325
 -0.03372862  0.45252171  0.88271335 -0.20790473  0.3980751  -0.49763361
  0.56854096 -0.10836278 -0.7920315   0.72281213  0.1591576  -0.54529732
 -0.73536791 -1.59406642 -0.62310934  0.05077409  0.5846942   0.66181125
  0.54687234 -0.45921282  0.9308908  -1.20095252 -0.60417596  0.61362635
 -2.05472153 -0.51114924 -0.27556738  0.06252     0.41453829 -0.69689418
 -1.03335253  0.25698599  0.58941471 -0.19214733 -0.42945412  1.07417913
  0.23999951  1.00156229 -1.24086628 -0.0680982  -0.14075644 -1.11355752
  0.07435815 -1.01043274 -1.05749051  0.79258239 -0.39438103 -0.02889279
 -0.09277007  0.13688657 -0.78657181  0.63467286  0.5589368  -0.42160101
 -0.92705    -0.36219861  0.32810983 -0.01618809  1.28945895  0.00840784
  1.18283791 -0.70281537  0.53928791 -0.6381808   0.11989874 -0.66699233
  0.53233873 -0.18495153 -0.76594419 -0.37275074 -0.55210999 -0.32657875
 -0.2043591   0.63498523  0.9227923   0.12218621 -1.08099928  0.54770289
  0.6848202   1.39589787 -1.31292888  0.01979064  0.61623021 -0.26630584
  0.50713927  0.95625923 -0.46737504  0.39451054  1.0671405  -0.70841124
 -0.02281557 -0.55270497  0.2549161   0.35523796 -0.60311723  1.21327392
  0.205795    1.56541055  0.13427125  0.56530966 -1.44294924  0.16600572
 -0.23013058  0.39046513  0.86760579 -0.20322156  0.678813    0.79399301
  0.32059635 -1.18606204  0.40497244 -0.08918465 -1.27962537  0.39286671
 -1.09150553  0.44880919  0.35202851  0.71555153  1.1347792   0.74505831
 -0.18033656  0.30564606  0.18654869]
[-0.44208512  0.08954699  0.77510258  0.68480484  1.04683924 -0.76199246
  0.73149906  0.27772728  1.2790678  -0.89509235  0.61263597  0.8636845
 -0.61033463  0.29781678 -1.15755247 -0.57994488  0.32577918 -0.55011393
 -0.0456532  -0.85140436  0.17821688 -0.2825834  -1.31197268  0.30706105
  1.56154687 -0.43042964 -0.20704588  0.24591661  0.09565415  0.98239357
 -0.06089589  0.34286201 -0.22772308 -1.81848241 -0.24569501  0.7307952
 -0.66284901  1.17578412  0.21506443  0.66051194 -0.29197963 -0.78942043
 -0.43309936  0.8388103  -0.71473598  0.11980739 -0.50198986 -0.17340424
  0.25340079  0.54868864 -0.27373756  0.41931866 -0.34096039 -1.33876518
  0.17949726  0.41466719 -0.9026939   0.63654297 -0.19970399 -0.16379558
 -0.10943149 -0.12112205  0.53399851  0.41756414 -0.00501326 -0.35737698
 -1.32758132  0.23918262 -0.46494923 -0.16431944  0.02649928 -1.64626461
  0.30311207  0.02268151  0.21985428 -1.41644537 -0.26684886 -0.15462057
 -1.15263708 -0.34940267 -1.02681021  2.30115497  0.63776002 -0.77333533
  1.1770234   0.31229562  0.27543153  0.02523852 -0.85880637  0.22517472
  0.14454645  0.29472936  0.30810733  0.2905471  -0.22166524  0.09771688
  0.2083936   0.65890666  0.7500045  -0.66596184 -0.67603699 -0.78213984
 -0.00263405 -0.50692613  0.63665598  0.80657976  0.37994694  0.17449066
  0.93712932  0.34357524  0.90891111  0.99400838 -0.35598373  0.62853334
  0.26098343  0.80731896  0.10737138  0.103954   -0.69054487  0.57575847
  0.88512707  0.815161    0.08440251  0.05045655 -0.62540437 -0.33682336
 -0.81258749  0.78681884  0.09565203  0.42554534 -1.091099   -0.63564356
 -0.74118605  0.71344776 -0.63587125]
[-0.07302837  0.82714017 -0.75335412  1.43527681  1.72672948 -0.14403715
  0.59416777  0.02440935  0.34104354  1.6703114   0.6251983   0.17797087
  0.06454812 -0.17800212  0.9956676  -0.53864148  1.33483526 -0.48841164
  1.16915566 -0.38491194 -0.32823126  0.34689854  0.10128166 -0.81630074
  0.10055977 -0.27320883 -0.35165944  0.1279508  -0.16872209  0.07221113
 -0.51773274  1.13945498 -0.88994143  0.0257776   0.60637581 -0.73238525
 -0.22936227 -0.16250089 -0.12676954  0.98651576 -0.0677767  -0.61807172
 -0.59366213  0.62281316 -0.66773067  0.73366238 -0.87398438  0.51156137
  0.9525001   0.38283033 -0.98429715  0.43471133 -0.77134737 -0.30743268
 -0.2624748   0.7731926  -0.21458225  0.33633836 -0.73412227 -0.04222095
  0.52641594 -0.04557051 -0.38249877 -0.46643446  0.62469317 -1.23670725
 -0.01159104  0.28772237 -0.49315915  0.12386616 -0.1174762  -0.17046955
  0.63462725  0.38083799  0.32078017 -0.037273   -2.09116576 -0.4267343
  0.5169076  -1.23520234 -0.58639732  1.39609307 -0.24865961 -1.45473531
 -0.09261187  0.13901477  0.00481432 -0.84265202 -0.59036629  0.57388779
 -0.90789472  0.49368881  0.39575418 -0.35127448  1.05750688 -0.08189971
  0.01523371 -0.28211503  0.1057594   0.26501056  0.78754164 -0.32687693
 -0.3564681  -0.85391977 -0.75831253  0.03008041 -0.13339785  0.16343298
  0.64121792  1.26957207  0.35764188 -0.07719951 -0.55276938 -0.05008124
  0.47541574  0.25586578  0.53496748 -1.04302745  0.03842514 -0.20294275
  0.92439942 -0.89094647  0.59602686  1.31721779 -0.60144006  0.29514913
 -1.45976432 -0.07886864  0.64003362  0.93063989 -1.40165817  0.92539526
 -0.5030243   0.86997941 -0.84588931]
[-0.14354794  0.19677028  0.68066908 -0.35098795  0.79740479 -0.10081863
  0.2342138   0.07591716  0.88719426  0.13205059  0.37133149  0.57735539
 -0.17209345  0.58817081 -0.46569368 -0.67741524 -0.12033256 -0.48789507
  0.60838684 -0.97963919 -0.22243411  0.51021185 -0.09132774  0.77772016
  0.67702357 -0.67845595 -0.33160302  0.34963264  1.39874624  0.58564992
  1.21236337  0.42330462  0.42786037  0.30767938 -0.27725802 -0.41743793
 -0.24514254  0.80837426 -0.36472415 -0.37005577 -0.62648084 -0.68606252
 -0.99469577  0.50880733  0.1781208   0.07602847 -0.13016986  1.12537217
 -0.54248657 -0.01882362 -1.36738366  0.50334338  0.22294549 -0.37813377
  0.45562528 -0.1104097  -0.89824584 -0.02665072 -1.18348868  0.91038106
 -0.44616434  0.20064384 -0.52102125 -0.82292049  0.26418965 -0.55785862
 -0.00568305  0.38859975  0.36556729 -0.07603921 -0.50396643 -1.03747121
 -0.07212906 -1.46371487 -0.08930538  0.40153715 -0.62057847  0.67208802
  0.96938507 -0.27596327 -0.28488968  1.71315124 -0.27699657 -0.64453639
 -0.18670861  0.62957191  0.28755281 -0.34944136 -0.61565376  0.86425345
 -0.50514999 -0.18472536  0.33662976  0.75710444 -0.35879126  0.33184174
  0.15412545  0.74599528 -0.17745691  0.06109092  0.97736751 -0.0024431
 -0.78420056  0.14081594 -0.31753712  0.75317599 -0.82030823 -0.60484907
  0.70354541  0.22058936  0.31430653  0.67666275 -0.53292897  1.55234819
 -0.05916645 -0.50641921  0.04893465 -0.28420768  0.2064741   0.18969242
  0.03287231 -0.34608355  0.81005938  0.55798567 -0.18538534 -0.29269969
  0.71282047  1.54360969  0.49508078 -1.23340464 -0.38314692  0.56815681
 -0.22512461  0.73748338 -0.68168622]
[-0.82814791  0.17087545  0.4312016  -0.30794939 -0.60568583  0.33051505
 -0.04648941  0.26097982 -0.38753643  1.2090176  -0.47080597 -0.35128187
  0.45616514 -1.66203581  1.69332741  0.56704053 -0.11745037 -0.40418732
  0.72261751  0.38065715 -1.08496495  0.80326003  1.68729853  1.07400698
  1.10194452 -0.86589556  0.66432577 -0.87024196  1.16480001 -0.99060744
 -1.66334234  0.4995443   0.4499634  -2.22596927  0.05863777  0.70290552
  0.61382809  0.61137072  0.21957535 -0.73886814  0.22627409 -0.5640179
 -0.94868041  1.24927382 -0.76117941 -0.69108124 -0.68643137  2.29449522
 -0.26957524 -0.08335652 -0.80008521  0.35641809 -0.88545192 -1.13875392
 -0.34316143  0.62050754  0.57745955  0.97774332 -0.80695106  1.01794935
 -1.3289798  -0.59442367  0.72542259 -0.5335551  -0.65577329 -0.57512176
 -0.50299546  0.80771076 -0.88925902  0.18574179  0.87541988  0.88089912
 -1.76324472 -0.46213214  0.49466924  2.99633009  1.03231354  2.30507989
  0.61045714  0.01741726 -1.24429486  0.16539132  1.71548649 -0.56121174
  1.27795088 -0.4558009   0.17679799 -0.47933368 -0.77886179  1.66998923
 -0.01119192 -0.09619224 -0.97988672 -0.85241624  0.60334873  1.05840671
  0.32588871  0.65716408 -0.24101673  1.03989935  1.62042075 -0.49647398
  0.09305667 -0.48283544 -0.39431988  1.8666104  -0.28740887  0.9173249
  1.15325862  1.37929352  0.78861541  1.37898403 -0.3744743   1.16676184
  0.20037083 -1.13286403 -0.36662372 -0.22738548 -0.18852099  0.41665543
  0.98325804 -0.77572472  0.56363726  2.12172219  0.54050814 -0.82426518
 -1.24289948 -0.42701694  0.62735694 -0.08655652 -1.06147805 -0.04224164
 -0.54045527  0.49201039 -0.31432712]
[  0.62695216  -0.0860698    1.94817477   1.02714554   2.33725933
  -1.73002391  -3.06980059  -0.60863229  -1.35011095  -0.97832802
  -4.98606796  -1.06514581   7.05837688  -6.05459644  -1.86505512
  -2.48064728   1.64070155  -1.51280466   1.26953621   0.07135331
  -5.21220127  -0.12422839  -4.74909697   5.6038359    7.43816407
  -6.26730552   2.46027014   0.24915865   0.12045692  -0.29524865
   3.65620051   5.31567918   3.38379611  -1.77654893   1.85395545
  -0.76449937   2.68832284   5.85492778  -4.85355318   3.47897802
  -0.18602105  -6.11499926  -2.06464728   1.53061134  -2.65577496
   1.31496113  -0.86177582   3.15786289   1.2565661    2.98791297
   3.41483794  -4.44988616  -1.03307832   1.93665654  -1.35096127
  -2.63640784   2.40963313   6.58191195   0.73657561  -4.03266316
  -2.22796925  -2.08296058   1.72766596 -10.42676548   3.63804994
  -3.7307598   -1.85923097   1.30684208   0.80070459  -1.91778716
   4.63738948   2.55489823  -4.90820579   1.96871811   4.11669713
  -0.55335784  -3.585502     0.4349412    0.89196535   0.35041727
   2.69869124   1.39137198   1.08905758  -5.79283234   3.15444399
   0.71595599  -0.51226237   1.05501572  -7.69837585  -0.96189329
  -1.66840277  -2.38676225  -0.75021131  -4.2803106    2.31869308
  -0.07858897  -0.57981736   1.02733625   7.84103512   1.18298118
   7.22630383  -5.28442099   7.6778004    2.72386477  -4.54549578
   8.83577868  -2.90430235   2.57152041   0.09504414   5.33773166
  13.86060743   3.56553142   1.82661721   0.74799095   1.23364848
  -2.01516809   1.21266619   4.02669285   4.4889672   -2.56273568
   2.73376247  -4.77760314   3.32897221   0.18569291   4.93051429
   2.73107484   0.82405868   5.76622864   5.42522436   1.26528805
   0.61169142  -2.13024344  -3.07587527   4.11885076  -3.24860103]
[ 6.81314157e-01  2.03035412e+00  2.12709915e-01  3.34695585e-01
 -1.15106532e+00 -1.26385017e+00 -1.81137185e+00 -8.26071899e-02
 -7.60616703e-01  2.52715464e+00  1.38411806e+00  7.22000818e-01
  2.56463844e+00 -1.63119938e+00  6.01807486e-01 -8.27458949e-01
 -1.19180343e+00  1.81154980e+00 -2.21577294e-01  1.25631924e+00
 -5.10517744e-01  1.42665485e+00 -1.51691663e+00 -7.67972179e-01
 -6.93465050e-02 -2.79328755e-01  1.86367911e-01 -2.26931409e-01
 -9.36388163e-01 -4.25673373e-01 -1.34089367e+00 -3.39368107e-01
  2.05548622e+00 -7.10254239e-01  1.38453302e+00 -9.71656404e-01
  2.47997210e+00 -2.98788678e-01 -8.12575461e-01  2.66363166e-01
  1.05296609e-01 -2.41430562e+00 -9.80532503e-01  2.62311880e+00
 -6.16548370e-01 -1.02031309e+00 -2.04152889e+00 -5.80237831e-01
  3.39573446e-01  1.06257648e+00 -8.69142769e-01  5.92645309e-01
 -4.41386248e-02  5.88636114e-02 -1.25919666e+00 -3.55139947e-01
 -5.64985861e-01  7.45936423e-02  3.43619707e-01 -8.82645750e-01
 -7.83422000e-01  8.67832560e-02 -2.32685428e-01  1.12739081e-01
  1.66765840e-01 -1.21579703e+00 -2.51798492e-01 -1.33812073e-01
 -7.31463379e-01 -9.25309667e-01  9.63985002e-01 -5.48300275e-01
 -1.19998323e-01  6.35373599e-01  7.03658402e-01 -1.37795639e+00
 -4.96000384e+00 -3.38441054e-01 -7.44109838e-01 -2.39468039e-01
  1.90645627e+00  3.28117062e-01 -1.33404092e+00  2.01888111e-01
  3.28777086e+00  1.06194092e+00  1.54834159e-01 -1.61096543e-01
 -3.08269161e+00  1.21929004e+00 -9.44828517e-01 -8.85167534e-01
  7.81519542e-01 -9.19370357e-01 -9.92230740e-02  9.67827395e-01
  3.82540427e+00  2.18979624e-01 -9.04939001e-01 -3.93601175e-01
 -1.29084180e+00  1.13122499e-01 -5.87267135e-01 -1.56090204e+00
 -5.48761434e-01  4.20976781e-01 -2.70758945e-03  1.15303357e+00
  8.10389780e-01  1.03315938e+00  6.40986531e-01  2.22300686e-01
 -1.40007473e+00  1.94103072e+00 -3.31769244e+00 -1.77380390e+00
 -5.77342013e-01 -1.62879715e+00  1.98543864e-01  2.30218731e+00
  1.32370569e+00 -6.09141312e-01 -7.42994153e-01 -1.91525003e+00
 -1.65734067e-02  1.01932676e+00  1.55193799e+00  1.26194284e+00
 -9.45110538e-01  2.68606000e+00  1.67874094e+00 -2.24435825e-01
 -1.88947003e+00 -2.06845891e-01 -6.56429755e-01]
[  3.41123026   0.97991297   8.06197435   2.21834433  -1.47032372
  -2.79466915  -3.38696969  -1.24738316   1.40274968   1.5049218
   3.51041724  -5.05473571  -6.32036041  -7.01076051  -4.02904923
  -6.11605755  -7.79313989  12.88648531   2.64132288   1.26951891
   5.19260442  -5.96234267  -2.85343355   2.08634274  -2.18337639
  -9.90803429   8.40221898  -4.685307     1.14402208  -3.59947293
  -7.49629376  -0.16052076   0.74970215  -0.5716808    0.76200293
  -9.28751391   1.2202507    1.85037921 -11.30278442  -0.68797745
   2.43174205   8.68299027   4.0581926    2.12057836  -3.14333706
   1.79862981   7.82205612  -1.88480745   4.97640176  -5.77576538
   3.25748834   1.06691695  -2.75455323  -6.43821423   3.40880964
  -3.96400715   2.12437638  -3.73503676  -0.52559863  -5.76428008
   0.58266927   9.98055393  -7.08643703  -0.74715721   5.59202653
  -1.94715654  10.88215885   5.75748966  -9.0084976    2.91313691
  -5.94957112   6.64822429   7.61548854  -3.49613922  -1.79409148
  -9.37820855  -0.6214636   -4.07619313   2.01665304   6.63255934
  -0.71957916  -6.52606466  -4.32397518  -0.16287956  -4.34456597
   0.2748904   -5.66303339  -3.71362409   2.47594804   0.36687384
  -3.00858678  -2.58029872  -4.89077209   2.00298547   4.75878318
   6.43710205  -0.95308264   3.11214476  -1.72407642   3.18520719
   2.87973036   2.95884962  -3.58345324  -4.78527508   5.64236879
   9.62495609   6.01307398  -9.80973861   5.18269002  -2.27606891
   6.40076607   2.35497173 -10.32080672  -1.70380051   9.59541369
  -7.13442501  -0.55308565  -9.0783104   -3.36702901  -7.29659004
  -5.08563048  -1.7353471  -11.17448094   1.64182537  -2.9985583
   6.69081749  -4.4875439    3.99130806  -4.33734585  -9.82008682
   0.045876    -1.92799827   1.26669905   2.55956434   3.91339072]
[ 2.16947047  1.70804945  0.68269058  1.91334265  3.09575409 -1.35580383
 -0.87562232  1.24126002  2.65416933 -0.87414604 -1.60811041  2.90930746
  1.30368828  1.96231337  0.35520872 -0.38741397  1.55562127 -0.81152707
 -0.53770954 -1.84707053 -5.50325213 -0.73795549 -0.13260071  1.05870558
  0.68853282 -3.59063558 -1.48414828  0.45024967  2.69185277  1.26959866
  3.36350223  1.22712842 -2.4786216  -4.83687361  0.55688836 -1.36147733
  0.25925623  1.24790679 -0.42084196 -0.40781654 -2.19435504 -3.11290232
  0.59078208  1.05490206  0.2215919  -1.28179595 -3.24495947  0.7570643
 -4.72629619  1.24024654  0.59329725 -0.72571489  0.77366059  0.78631373
 -0.0989036   0.96115173  1.90938707 -1.69836312 -2.07690236  0.72343487
  2.31952436  1.3197696   0.2514815  -0.38113549  0.40578701 -1.72876506
 -1.47495409  1.24989664 -0.41473317  2.13790373 -0.68758569  1.16459225
  0.72811928 -2.60085232 -1.08151042  0.3299543  -1.74168351 -0.92026489
 -0.31783333  1.3110601  -1.89943298  0.74596363  2.36123189  1.03804511
  0.830842    2.05702254  0.42995439  0.16116527 -0.65193483  0.63891784
 -0.75583458 -0.70571934  1.31770281  2.51198364 -0.66115946 -0.41776208
 -0.66642751  0.63668912 -0.51232239  1.00071026  2.3436129   0.58981655
 -1.10978773  1.00489572 -1.9334593   0.54630868  0.24263372 -1.97805879
  1.41866605  1.12378171  4.41610776  1.60439647  0.15412722 -1.28679294
  1.62759871  1.01906683 -0.4974186  -1.18302426  0.14052136  2.40744392
 -0.47152361  0.42619244 -2.46823965  0.32560641  0.08168037 -1.98236783
  1.30087926  3.4232377   1.23971457  0.41783454 -2.7474013   1.78313972
 -0.93056109  0.47092363  1.36157791]
[ 1.57039084  2.44572509  3.42461946  1.92198001 -1.01947697 -2.86240617
  1.42409202 -0.2708168   0.03425613  1.99604425 -0.95928814  0.20610505
 -0.83291219  0.14074094  4.01247586 -2.71113409  2.5303641  -2.30356396
  0.31295893 -2.06824985 -1.05098671  1.55520497 -2.11716739 -0.27386606
  0.72977751 -3.23301735  1.07676146 -0.59041145  2.19723309  0.17793233
 -4.63956     1.3541301  -2.85853863  2.20513284  0.95284449  2.15249362
  0.63150402  2.15806343 -2.94378268 -0.03709423 -0.22032055 -2.69478839
 -0.74272429  0.37342587  0.14509411 -1.47561148 -1.09603603  0.76154711
 -1.98693517  1.02975876 -2.95117084  3.81121816 -5.6453515  -3.67198992
 -0.12844246  4.82651804 -0.59933612  3.05607174 -1.96966108 -1.22659121
  1.31967892  4.81182531 -0.68934316 -1.13297912  0.96666616  0.97433825
 -1.76577589  2.11056424  1.47292608  1.47704025 -0.48379589  2.57665968
 -1.81610313  0.92875763  0.61138113 -0.19210458 -0.8914615  -1.21761191
  1.73776533  1.04556221 -4.6256848   2.02589582 -3.90789453 -0.69147676
  3.69112383 -0.96173283  3.49799208  0.2945906  -0.93052639 -0.41283378
  0.0957732  -1.78802663  0.86430115  3.24733723 -1.81796733  2.49021246
  2.57470658  2.01040834  0.78264865  2.66570437  2.40699883 -3.37029554
  1.46349611  1.29186853  0.17995019  2.92618377  2.10528969 -1.96836955
  2.08537189  2.23357386  1.73229211 -0.82581493 -0.6565873   1.06082728
  0.12408896 -1.23778581  2.00256447 -0.10842473 -1.12307274 -2.96958911
  2.76158556 -1.59402686  0.36355667 -0.37630207 -2.14410679  0.81737398
 -1.79545489 -1.48601443 -0.39962359 -2.41913363  1.77037916  2.72444296
 -0.5273062   0.18279173 -0.37871307]
[ 2.16732976e+00 -3.60361530e-01 -4.58500981e+00 -2.91067758e-01
 -1.22430428e+00  4.65308351e-01  2.05645287e+00 -1.96703649e-01
 -6.88563531e-01 -2.52354863e+00  1.12057719e+00 -3.16467345e+00
  3.21388724e-01  2.85621231e+00  1.66736116e+00  3.27668288e+00
  1.66741087e+00 -1.31788496e+00 -4.73410707e-01 -3.76713033e+00
 -1.56593754e+00 -2.57372336e-01  1.86006229e+00  1.63702198e+00
  2.77060297e+00 -3.68693095e-01  1.86691590e-02 -3.36944726e-01
 -6.77295468e-01  3.94235248e+00  9.59739777e-01  9.06280287e-01
 -9.63160138e-01 -1.03165404e+00 -8.28678732e-01 -2.48015495e+00
  5.25559770e+00  3.33610941e+00 -2.63435538e+00 -3.77595923e+00
  2.81810878e+00  2.66848980e+00 -2.81394322e+00  4.18609348e+00
  6.38973805e-03 -1.67363645e+00 -3.15042671e+00 -2.55958878e+00
 -1.55986774e+00  1.73680614e+00 -3.64160786e+00  1.17215580e+00
 -7.26022256e-01 -1.03382153e+00  2.13682108e+00 -1.56206082e+00
 -6.57370950e-02  1.21948101e+00  1.46732759e+00 -5.90111263e-01
  3.27900765e+00  1.40714346e+00  2.75239214e+00 -8.93986861e-01
  2.78669117e+00 -7.52208891e-01 -2.12878482e-01 -9.88478105e-03
 -3.56034014e-01  6.87822959e-01 -4.50133720e-01  1.37808814e+00
  2.82359968e-01  1.01654266e+00 -9.59666882e-01  8.87266296e-01
  6.85878811e-02  3.41361292e+00 -1.53960192e-01 -1.90057661e+00
 -1.90425511e+00  1.83705842e+00 -2.13261436e+00 -4.93233756e+00
 -2.00448508e+00  8.14595855e-01  6.00849703e+00 -2.51594496e+00
 -2.77198573e+00 -2.18469423e+00  3.09919700e-01  3.55981540e+00
  4.09760840e-01  1.14246471e+00  3.10398019e-01 -1.47660705e-01
 -1.06408691e+00 -2.05156507e+00 -8.43371915e-01  3.68758856e+00
  2.93407897e+00  1.39456866e+00  2.15307658e+00  2.77443924e+00
  1.30809215e+00  6.08439227e+00  1.85466778e-01 -2.93247723e+00
 -2.02509039e+00 -8.52945876e-01  2.16646721e+00  3.72099072e-01
 -2.21966963e+00  1.16202231e+00 -2.27835035e+00 -1.88222958e+00
  4.75744166e+00 -3.37924400e+00  9.73759249e-01 -5.91032849e-03
  4.30859325e+00 -4.29740380e-01  4.07954340e-01 -4.92405769e-02
 -6.63268362e-01  7.22557376e-01  4.82799450e-01  7.75046709e-01
  9.46129117e-01  3.24913445e+00  1.22611015e+00 -2.99885805e-01
 -1.37202504e+00  8.31126306e-01  2.74366627e-01]
[ 4.10750677e-01 -1.31718591e-02  7.27260939e-01 -1.40915356e+00
  4.89100758e-01 -7.26157873e-01  1.84921737e+00  8.86297286e-01
 -4.58229249e-04 -7.45891158e-01  1.16605875e+00 -3.87742459e-01
 -6.73042489e-01  1.76279679e+00  1.20473456e-01 -1.01681296e-01
  3.20564828e-01  3.15286412e+00 -1.02681673e+00 -3.79562045e-01
 -1.28821064e+00 -1.07430938e+00 -3.46757567e+00 -6.49137718e-01
 -1.29359236e+00 -5.24475327e+00  2.20881575e-01 -1.64687768e+00
 -1.35184538e+00 -1.15300274e+00 -9.37150791e-01 -3.48084932e-01
  4.27697433e-01 -1.75057984e+00 -1.36536528e-01  2.05823460e+00
  7.35789306e-01  1.83417449e+00 -2.67385146e-01  3.58566357e+00
  7.26253989e-01 -1.77764083e+00 -1.41871369e+00  7.75795757e-01
 -1.30377533e+00 -1.27483953e+00 -1.21827178e-01  2.00731771e-01
 -9.27038826e-02  1.74138439e+00 -4.91603703e-01 -2.33906564e+00
 -2.64362863e-01 -6.23242645e+00  3.48423549e-01  4.17399575e+00
 -1.60022007e+00  8.44347948e-01  2.06251793e+00 -2.78035816e-01
 -1.11481793e+00  1.14428196e-01  1.48056336e+00 -1.55560522e+00
  3.74003525e-01  6.21292316e-01  6.43164150e-01  9.30316041e-01
 -1.45220797e+00  2.14508765e+00 -1.20139448e+00 -1.96158758e+00
  1.58491494e+00  7.93256285e-01 -4.48853699e+00 -1.91175167e+00
 -4.50666728e-01 -2.19832292e+00  7.11624798e-01 -2.72194226e-01
 -4.32259119e-01 -6.08017161e-01  1.96327188e-01 -6.96322927e-01
  3.20586231e-01  8.56530512e-01  1.28960816e+00 -1.22544560e+00
 -1.82582831e+00  1.69155788e+00  7.11321008e-01 -1.87678353e-01
 -1.15368070e+00 -3.66576571e-01  2.42496702e+00 -2.22085201e+00
  5.63404638e-01  3.17266964e+00 -1.95907574e+00 -2.48708805e+00
  2.08584646e-01  8.01554513e-01  2.80163206e+00  2.16237644e+00
  3.36362839e+00  9.27982429e-01  2.48781800e+00  3.71763965e+00
  2.62935044e+00  1.08294004e+00 -1.49057904e+00  6.38036620e-01
 -5.09203494e+00  1.73757990e+00 -2.77954084e+00 -1.98021339e+00
 -9.94266684e-01 -2.15625906e+00 -1.10803982e+00  1.04004205e+00
  2.68093477e+00  2.37252824e+00  1.88052921e+00  3.54622371e+00
  1.15066162e+00 -1.37569449e-01 -6.04773458e-01 -1.17838303e+00
  2.59645505e-01 -3.43600462e+00 -9.59166120e-01 -1.95467796e+00
 -3.11384243e+00  1.85578443e-02 -2.48720568e+00]
[ 0.73203244 -0.79528279  1.03314421  3.05616529  2.39673383 -0.46540964
  0.26251466 -0.16299523 -1.00937306 -0.39002667  1.38121113  1.48399719
  1.82300338  1.4050328   0.17575643 -0.41629405  0.26585844 -0.26629686
  0.686414    0.25831687  1.61511075  1.50878924  1.64505575 -0.69646841
  2.46677556 -0.17576877 -0.2817532  -2.60090381  0.06118788  0.65395106
  1.88153308 -2.7464695  -1.48722522  2.07197927 -3.40377673 -0.47168159
 -2.15763322  2.17634295  0.55831571  2.76859693 -1.30142774  0.05773833
 -1.61797041 -1.89504802  0.34484561  1.66519098 -2.9196777  -2.36505848
 -0.17038993 -0.08606602  0.6701381   1.45595267 -0.06045801  2.00316692
 -2.36599781  0.68219484 -1.77211744 -1.22989986 -0.02909023 -1.44371909
 -1.53610704  1.36458501 -3.07013432 -0.4023181   0.08634215 -0.16335293
 -4.64976464 -2.61248846 -2.31853631 -0.58195515 -0.44681667 -1.20448734
 -2.45790351 -0.88166519 -0.16850747 -3.09822261  0.94795409 -0.72795303
  0.42057443 -3.33719962  0.30243733  1.60696331  1.85865931 -0.19358968
  1.68375187 -0.57266157 -0.49238219  0.65475173 -1.72988594  0.15016865
 -1.34646976 -1.04760163  0.29795463  0.36395867  0.52525886 -1.59495054
  2.17429641  0.87928772  2.87088857  2.33623082  0.39357065  1.65203958
 -0.46328738 -3.2708892  -2.07330019 -1.80596057 -1.17131622 -1.80272861
  1.25133802 -1.14027338  0.85079353 -0.52695927 -0.79592077  2.93469733
  1.56995429  1.32318706  4.25651535  5.99339685 -1.79395853  2.47286121
  2.56203003 -3.34890227 -1.60019691  2.32120785 -0.34625923  0.75911139
  0.92933599  2.28735127  0.3691306   1.4137595  -0.96373239 -0.13145821
 -0.09218869  0.36403865  0.61002796]
[ -3.18395366   2.24196659  -1.79445428  -3.28748751   4.75989398
   8.94385293   5.67627185 -12.77991167 -11.07611085  -1.33951787
   3.12466356   7.13574332   0.24209019   0.19106944   8.70692726
  -0.59594814  14.42096232   5.53325977   1.27005026  -8.83865999
   1.42001572 -19.16510394   4.60106944  -5.93771796  -3.05247713
  -1.37580497  -7.36555512  -1.37141826  16.72788483   2.86536835
  -3.27542662  -4.63936652  -1.35865358   1.49213005  -8.20814775
   4.72571486  -2.31633344  10.95867655  -4.2505159  -10.91135641
  -5.27412161  12.02695113]
[ 1.40158326  0.22787208 -0.90008811  4.93407406  0.15866617  2.12501091
 -0.32777911 -0.77090018  1.45480769 -3.51511375  2.39433216 -0.74059314
  3.20837535 -2.74382077  3.74722685 -0.08536168 -3.81996837 -0.7978757
 -2.66032219  0.60551753  4.66905845  1.1817686   1.76402596 -0.6695176
 -0.19982984 -2.25794133 -1.49466275  1.24409359 -3.98773688  0.36691326
 -2.66521425  2.42675031 -0.32721926 -2.55881258  3.37653943 -2.95593629
  1.07492924 -0.47834326 -0.79524425 -0.75471469  1.6537677   1.58760919
  3.28138108 -0.46244148 -3.25102472  1.76251777 -5.47483479 -1.01997314
 -0.24984613  0.68768568  0.45230901  0.05818088 -3.94284206  3.1070657
  4.18072903 -0.72546569 -0.44427592  0.94041884  0.28552797 -2.36996468
  4.89282043  0.82750566  3.0815954   0.76366649  0.69452185  0.03565248
 -3.29985289 -0.28929794 -2.67496112 -1.18869475  2.03262199  0.13776438
  2.88094736  0.93476894 -0.7302916   2.48137886 -0.42335283  0.85583806
  4.48247103  2.21414138  1.1862903  -1.09076071 -2.66743737 -3.48702453
  0.54928856  1.55765251 -0.59485901  1.79275106 -1.80991749 -0.18392906
 -1.05134109 -0.16496324  3.51205592  4.1188401  -2.50638625  3.17114807
 -3.96683573 -0.60729602  1.49108182  1.77863189 -2.73386966 -3.53089257
  1.86587028 -2.20679707  0.2436908  -1.92589157 -5.23983468  0.96458159
 -4.19686781  0.27942706  1.82176578  2.23988409 -0.93579221  5.59330179
  0.38815843 -0.81102209 -0.84546546 -5.71161091  2.97441975  0.25155061
  3.29065604 -2.16446992 -1.72150424  1.67262225 -4.64583964 -3.64203202
 -1.56684235  2.90756416  1.55482278 -2.27261202 -1.13492015  1.36677496
 -1.7022497   2.53395855  0.15560068]
[ 5.38903742e-01 -1.47751041e+00 -1.62779803e-01  1.42211088e-01
 -2.70443728e+00  1.58883377e+00  1.17414369e-01  3.91428127e-05
  9.54357769e-01  2.23709976e+00 -9.43326354e-01  2.71493895e+00
  1.92844586e+00 -4.99009214e+00 -3.03661874e-01  1.36101416e+00
 -4.84837125e-02 -2.57118887e+00  2.71861314e+00 -9.70446944e-01
 -7.14783142e-01  1.68710238e+00 -1.94664929e+00  2.05884966e+00
  3.89769345e+00  5.75759868e-02  3.81953329e-01  2.28998796e+00
  1.89442415e+00  4.82251980e-01  4.64867305e-01  3.63561474e-03
  8.30087354e-01 -6.74685976e-01  1.04908036e+00 -1.38264816e+00
  3.39967115e+00  5.41517568e+00 -2.83283465e+00 -1.52977221e+00
  4.15080061e-01  2.23921201e+00 -2.12166712e+00  3.01956860e+00
  2.11635005e-01 -3.56017784e+00 -2.81961169e+00  2.66219732e+00
 -1.46922147e+00  1.07217593e+00 -4.19869367e+00  3.99047252e+00
 -3.19837246e-01 -8.80846220e-01  1.02096736e+00  1.81459412e-01
 -1.01860534e+00 -1.05191360e+00  2.86283968e+00 -9.40722936e-01
 -2.91811287e+00  1.38858786e+00 -3.95151515e+00  2.13129390e+00
  2.73729810e-03  2.39568234e+00 -4.29465122e-01  1.60420281e+00
 -3.02871122e+00  4.36852083e-01 -2.56365226e-02 -2.12590323e-01
 -4.46420528e+00 -3.64916904e+00 -9.01800950e-01  3.07962904e+00
  1.74576794e+00 -4.00970984e-01 -5.34118569e-01 -6.47991793e-01
 -6.10227494e-01  2.33263876e+00  1.79476946e+00 -3.66863122e+00
  1.49002305e+00  8.54870606e-02  9.98028108e-01  2.24087497e-02
  5.98305201e-01  2.11678359e+00  1.26329413e-01  2.02128020e+00
 -1.13125474e+00 -9.77803462e-01  5.12942682e+00 -5.06485464e-01
 -2.53351312e+00  3.30596514e+00  7.09752736e-01  1.14460722e+00
  5.90933790e-01  1.41206897e+00  6.42571538e-01 -3.24634994e-01
 -2.19527911e+00  7.58401725e-01  1.39518201e+00 -1.94711013e-01
 -1.16208596e+00 -1.24113999e+00 -2.44203582e+00  1.03152467e+00
 -1.79593004e+00  3.12282662e+00 -3.08542559e+00  2.15577838e+00
 -4.05097070e+00  1.05446951e+00  1.88132905e+00 -1.15804786e+00
  9.12210795e-01 -2.78306109e-02  1.52330019e+00 -2.75534135e-02
 -9.92476248e-01  1.03639304e+00 -3.59250233e-01  2.70218281e-01
  1.86000822e+00 -3.86024488e+00  1.92292448e+00  2.09577128e+00
 -1.59331846e+00  1.54815956e+00 -1.14534156e-02]
[  3.4065957    0.9351125   -4.92789453 -10.12753446  -9.00896974
  -0.51740434  -4.84231022  -2.66693405  -2.6424418   -3.24832045
   1.31249912  -5.25885455   4.05421201  -3.48112552   0.60902847
  -1.34103799  -6.43272132  -0.81342309  -1.74355787  -3.93588977
  -1.25861687  -1.91151453  -5.88310852   7.05024917   5.45776614
  -9.50151827  -2.88564819  -3.553098     0.8183808    0.22965057
  -0.28614419  -0.47505502   1.86309988  -2.04682328   1.16986948
  -0.90796936  -5.11595929  -4.4836765  -11.74629628  -2.96767446
  -0.56307743  -6.77852043  -0.48360221   1.68224445  -0.12146703
   3.6794833   -4.11669396   3.14166903   2.26486728   4.78922805
  -0.06541593   1.62725288  -2.51209289  -2.30193002   0.72038625
   1.56338057   4.54573843  -7.79765228   1.53828131   0.29327277
   3.76005691  -8.32266802   2.14731867   2.52813475  -6.3949545
  -1.41872614  -8.66012234  -1.99417208   6.14588611  -2.98653252
  -0.11727361   2.77181857  -1.63792973  -2.96021204  -1.91116531
  -1.76448454 -17.14766373  10.59210417   3.84017866   4.42715098
  -3.98905242  -5.326835     4.40051573   7.83065688  -1.47861766
   2.79167567   6.58432694   0.72083212  -0.92451762   0.89739202
  -3.69553385   0.84599654   0.97104648   9.66514427   3.72218465
   0.18797382 -10.6795125   -0.6786729   -2.44329093   5.62100125
   2.62747453   7.79262896   1.96468888   1.6526199   -9.52884349
  10.54165439   0.58389148  -3.42253579 -10.35791754   0.14036906
  -2.98400644   6.69961935   1.36133596   6.04357398  -4.67518208
  -1.69502169   5.00654609   2.3792334   -1.81297727  -1.11860766
   9.60832614  -0.1196638   -5.90637406  -1.16252171  -0.68694178
  -1.35041651   3.78485891  10.71449265   1.17062361 -10.16560764
  -5.78752786   7.23552708  -2.8544321    0.01821315   1.13506299]
[  9.89421873   0.98832879  -4.9474017    5.48134044  -2.30206885
 -10.82862625   8.33047433   7.17095594   5.78433068 -11.80144343
 -17.32527097   6.97496603  -8.79614909  -4.59200575  -8.48680359
 -12.64940173   1.70520595   3.95451507  -4.62356397  -5.91710031
  -5.93821267   2.09028026  -5.74660687  -4.93182924   1.34559074
  -0.47145165 -11.1005137   -2.31472436  -7.92563187   4.19154997
   4.46012163   3.14991756  -0.96033786  -0.14498046   2.37665992
   9.68027609  11.17572027   7.89265006   3.5575847   -0.41755564
   1.87184497  -6.40400247   1.13186363   1.39721215   2.54910501
   7.68800966  -6.48984937  -7.59002065 -12.15825974   8.97043725
  -7.27226599  -1.9176244    5.67890384  -0.08398767  -4.50750121
  13.23116313  -3.39303113   3.45271091   6.35938821  -2.14091509
 -10.81962181  13.64456308   0.94959777  -3.06560565   5.59791968
   9.86077172   6.94870136  25.8216302   -4.95323371 -14.01534501
  -2.93469399   5.66938849   3.9210639   23.25317651 -10.43960386
 -20.4700071    3.01440549  -6.85420973  -6.66595206  -4.93507243
  -1.78918875  -9.02633315  -1.50150492   0.95673925   2.47237198
   0.95400606  -9.67377157   1.68989849  -5.01284218  -1.28096199
   9.7638891   -2.24101652  12.84247714  -5.00854304 -12.56912055
 -14.78156867  -1.86575939  13.79808037   9.32295033  -3.60262436
  -8.58492554 -20.65677466  -4.87280969  -0.46421541  12.06142403
  17.66475935   9.51326063  -1.11014804  19.03374177   5.96880375
 -10.53144354  10.1711325  -12.50068818   3.73751104   2.63652274
  -4.40694824  -1.53495379   7.09032117   9.90652556   1.34663141
   7.47387756  10.48491495  18.03834499  -6.40412532  -1.49164618
   0.13520673  -0.67986374  10.40791563  -0.98614396  -1.29179921
   0.03615575   9.75646808  -3.1700823   -1.03818209  -0.47996635]
[ 0.8879467   0.47830439 -0.28667614  5.02105925  0.88452415  1.98818574
  4.20076409  2.68068242 -6.07747853 -2.05317125 -1.39530612  0.54958267
  0.09045436  4.75910803 -0.66317826 -0.47315028 -0.37160872  0.23534123
 -0.48502657 -2.49911953  1.18087314 -4.02459988 -1.28951676  0.23955106
 -2.31155946 -2.53117438  1.67670582 -2.67548011 -0.02493768  1.53036931
  0.12435565  4.22927547 -2.14764871  0.46921032  1.77011476 -0.26195135
  1.15395793 -1.27226028  1.3196121   1.81561637 -0.79267061 -0.37419873
  2.28870259  2.20699323  1.89061687  1.30826579  2.87197805  0.7774124
 -0.10488034  0.99018849 -0.68593284  1.7746191   0.8186654   0.17561388
 -0.42424208 -3.01061452 -3.16253308 -3.96963953 -0.17755424  3.40888864
  2.07487912 -0.96164341  0.65033186  1.10465759 -3.40417571 -1.96802768
 -1.77693852 -1.4968542  -1.88214855  2.69266028  2.6950072  -1.12345195
 -3.20950034  4.15628611 -5.54183036 -0.12151715  0.36454063  1.72891907
  2.49409424  2.59243547 -1.30046849 -0.23450437 -3.01118594 -1.00810686
  4.44245792 -3.80467411  1.58540954 -1.06354927 -0.72328505  3.24861907
 -1.08516265 -1.59814487 -1.37022292  4.70842516  0.23996284 -3.78212274
  2.45407098  2.36469404 -0.46229056  1.54221643  1.9255776   0.93854809
  0.00949662  0.7548234   0.05187173  2.79670434  0.48677878 -2.6722852
  3.79889486 -1.82181059  2.04617116  5.5353088  -0.3830555   3.95588318
 -4.02800994  4.75292741 -1.43103798 -0.83887831  0.16091533  3.01304049
  0.7252138   4.50279221 -0.83114591 -0.21148071  0.83463789 -1.08924063
 -0.09398221  0.73007564  2.55144784 -1.42197958 -2.51756446  0.21847557
 -2.8163417   0.56772497  2.05471242]
[-2.8123488   0.12888319  5.33945596 -3.66298446 -3.32598681 -1.12210169
 -1.71244737  1.96388863  3.65595326  0.88983873  2.27853096 -2.8969775
 -0.87702725  4.99195042 -1.2968969  -1.28509829  1.62347147  0.89980907
  1.61605456  2.07883412 -0.53983195  0.14589831  0.57655606 -1.47404531
  4.04559511  1.0076216  -2.985084    4.0905053  -1.72087449  0.49789115
 -3.80734822  1.08176805 -2.10413274 -4.2048142  -6.24739875  7.25952318
 -5.85192502 -4.77148142  0.5587939  -2.49340416 -0.77912474 -0.11175448
 -0.81747502  0.65005271  1.62435235  1.19260239 -0.72513541 -2.60115078
 -0.36475227  0.17429408  0.53761786 -3.29276795 -1.91068622 -1.78729421
  6.05836979  0.60339158  4.93423257 -2.33858436 -3.39967161 -1.45467098
 -2.87947617 -5.19583845 -2.29735379 -0.0671951   1.36845991 -1.39733064
  0.63083541 -0.52734695 -1.44661537 -0.42126402  1.11825467 -0.518902
  2.63097377  4.50646967 -3.71512239 -6.00899343  0.56212939 -3.46667454
  0.86941026 -0.22862372  0.84679364 -3.7182907  -3.26099734 -0.85983606
  2.73979499 -5.63453442  5.0493804  -1.94615544  0.40343725  0.01737665
  0.88285112 -2.7108884   5.41495358 10.2251552   5.70523132 -1.40369774
 -2.62342898  1.97766031  1.74377542  1.42204745  1.19159339 -6.0551995
  1.45280203 -0.55618899 -2.7732482   8.37811607  6.30542141  0.54958714
 -0.12727577 -3.10193935  2.81904497  1.58892143  2.63019471 -1.32251259
  3.41704863  0.49256394 -1.6883213   1.53751498  3.10224786  0.84898263
  1.09371089  1.6261708  -1.57932471 -1.21116088  1.91872337  1.4761213
 -0.77300633  1.27940923 -2.37426175 -0.17052362 -4.27689891  0.25960727
 -2.49002863 -1.69143542  1.13213623]
