[ -0.64880399   8.99596557   3.40212626  -4.02119989  -0.39163407
  -0.84909063   5.18980394   5.32799681  -0.93721693  -1.81300318
 -10.8230246    2.34744813   7.04317569  -2.00885342  -8.6552798
   7.26639661  -3.55607345 -10.21338393   0.57433264  -3.09989333
   2.32420452   7.19028676  -7.50573807   7.03049544   6.52813065
   0.63333688  -4.1185401    2.20457042  -0.03146084   3.22168311
   6.02364232   0.61670595 -11.47549314  -7.20089178  -8.82969626
   2.05782544   3.10770018   0.71080808  -6.40225315   4.03101747
  -1.26537052  -6.0817703   -2.28556386  -6.31842133  -4.81487272
  -2.81519193  -7.56475432   0.0619591   -8.85857381   5.04116556
  -0.53337482  -8.86375112  -1.5904932    6.3557366   -4.70963501
   2.19741389  -8.38513906  -0.96204076  -0.39032893  -3.15440883
  -3.23998255   2.49008302   5.93833332  -1.2777481    2.36336315
  -1.66992254  -6.41632014   3.4031635   -0.77068049   4.42968255
   3.74091947   4.16045209   4.34415946   1.77540058   3.20653853
  -3.63337101  -4.10236826  -4.68869469  -3.46837446  -0.40297192
   0.23599413   6.86870341  -5.11875775   8.80850158   6.57453679
  -1.8992877   -1.13668874  -0.14411124  -6.67413742  -0.07274358
  -4.29962855   3.71517324  10.48218874  -0.78717141  -0.25029893
  -3.98435903  -1.78065229   2.24492444  -7.36077376   2.6980626
   1.65413228  -2.0071793    1.86013232  -7.11152077  -7.62947222
  -1.21943257   1.84698353  -1.85393152   6.93360754  -5.13116859
  -2.45290538  -0.5585946   -3.53075244  -1.77344317   3.28312269
  -6.27399526  -5.89579622  -2.11612719   1.10070408   1.42386603
  -4.97443596   1.49203326   5.28929911  -6.00004947   6.94304104
   9.78200318  16.21369975  -1.33682269  -6.07184702  -2.54737
  -2.7897061   -4.50584485  -3.6738477    8.00164657   3.94061234
 -11.06498867  -1.43266539  -3.80548205   0.74422651  -3.4795752
  -1.24685348  -0.145109    -5.13767624  -9.04415119  -8.54740574
   3.65298747  -9.77381295   7.16158243   0.36838986   4.91934908
  -1.87165323  -1.64517179  -6.86978721   0.0498453    3.51503772
  -2.33747186  -4.9027741   -8.12689005  10.74072802   1.8868741
  -7.03308599 -11.47224794   3.65374503  -8.28401854   2.04725719
  -4.33665042   5.12193406   0.96361215   0.75257594  -2.62752055
   4.28503911   2.19237756   3.58761733  -1.26330862   6.01207646
   3.27031915  -3.01348997  -0.73145147   4.35974071   4.77482173
 -12.99235509   0.33332576  -0.58558744   0.25956439   1.19749254
   2.52847212   0.50199699   3.08294885   4.28188341   0.64360058
  -6.50759835   6.14738626   6.48386428   2.85531222  -2.60724761
   8.98878032   2.76704608  -0.60865602   1.2400791   -0.55450649
   5.57806037  -5.31473328   2.6007115   -1.34103841  -4.43917771
  -1.74260136   3.24216949   0.96868823   4.12614115   5.99663983
   3.66743629   1.4020979   -4.92524798  -0.22584804  -1.98033136
   1.7683626   -4.22591049  -1.11052455  -0.17010734   0.29945401
   5.37681404  -3.07274864   7.06761077  -8.84997693  11.44502199
 -10.72255556  -6.49413697  -6.7717769   -4.00155129   2.30984135
  -8.50718659   6.83167797   1.67657819  -8.10817549  -0.18843368
  -4.87118609  -0.0338349    2.37129516  -2.86980116   3.04237586
   7.61126076   3.86300414  -0.26019912   2.22360484  -1.01316535
  11.91358577   5.2768618   11.57694052 -11.40473094   2.32234667
   1.14899854  -0.5728971   -0.14708259  -5.43958131   2.31781255
  -6.54246312  -4.46206448  -0.17933593  -2.8626866   -1.20346881
 -12.6222198    4.86225356  -5.42368226  -7.45659379   6.40798547
  -4.77522268   4.86552757   3.13876015   2.07943436   2.21443242
   5.19021599  -1.40204008   0.84306609   3.45446721  -5.0692113
   4.35728735  -4.43946157   0.89966473  -7.58725035   3.96666245
 -10.54302821  -5.35616638   1.66232794   5.78279321   7.50887814
   3.31953706  11.16902841  -6.40430144   7.11078963  -5.17944853
  -7.14836011  -3.02406071  11.36153836  -1.9624421    2.45280018
   2.16953826  -1.61843967   7.62866988   2.63162553  -1.59447172
  -2.45058391   7.70798855   0.6738       0.89385032   1.97163418
  -4.26774239   2.16135206   1.69570037  -1.25520547   4.30888473
  -0.15864515   0.39616266   3.84554768  -3.46388251  -4.12944354
   7.07272487   2.57218567   9.53983873   0.36968485   1.52465864
   3.11623885  -4.33201938   9.23069189  -5.87993228   2.40637565
   4.2397307    0.41895302   5.60433581   0.10164339   3.40196309
 -14.39947525  -0.65331762   8.85386471  -3.60468659  -6.64149343
   9.55457565   4.82007447   4.37537905  -1.09756942   1.05149277
  -1.46769291  -6.82891925   6.44323028  -5.33432537  -3.17744498
   9.71303347  -1.14036769   1.29155667  -6.55519805 -10.15442291
   6.64933215  -4.71461583 -13.43007717  11.31937018   3.71691925
  -1.59665775   0.17542678 -10.68311928  -5.60346763   0.53321509
   6.27611865  -4.26355973 -13.3187376   -7.22669805   7.20914759
  11.71980887  11.83747934  -1.60634636   2.57647821  -1.69928196
  -9.10162936   8.14543814 -13.50384808   4.40640661  -1.52158985
   0.93978627   4.14816335   1.07370014  -2.80374589   2.04130867
  -3.08434107   8.37895637   0.07074298   1.53604823   2.05247255
   2.04210847   3.05304788   6.32776777   0.66156251  -8.85214107
  -1.40676874   1.95641646  -3.83293415   2.55718352  -1.27971301
   1.4224617   -6.24188801   4.42607326  -5.39928048   0.54067055
   0.54939799   5.44606851  -5.2777696   13.19150656  -3.31337962
  10.85731755  17.56886192  -5.91579398  -4.1887603    4.71723019
   4.68399127   5.5161649    0.39175742   0.04915594   6.44588552
   2.59734129   3.24084429  -0.41213013  20.10497777   1.0436277
   1.79936355  -1.89778704   1.29506075  -0.84555392  -3.34567776
  -4.32402177   8.77418609   6.59087569  -7.07056079  -0.38483052
  -3.29646379  -1.40223337   2.49378988  -3.35830527   2.23906242
   2.8225827    2.39139532   2.02346279   1.57358204  -1.92138438
   3.67624804   7.46980703  -5.96312705  -1.44415301  -1.16978526
   2.41841789  -3.48791591   3.28563073   8.81494484  10.24259254
 -12.58837546 -12.77778366  -9.84533011   1.51621139  -0.14391639
 -20.68734234  -8.81068172   1.61896255  -4.67590791  -1.95875885
  -0.13938881   3.37890643   8.93786348   3.08226706  -4.91694138
  -5.13118835  -3.82503301  -4.51495409   8.54562604  -9.00528739
   2.68433023 -13.5305531   -1.95767855  -1.61101563  -3.04485186
   1.38921881  -3.54639995 -10.32702097  -3.34484616   4.57005003
  -0.87225212   1.89354587   0.7973046  -10.44055742  -8.96197864
   1.85774841   8.84345517  -2.2551084    1.23789452  -4.12255264
  -5.37441175   1.35162908   2.59041521   1.25892246  -8.84340862
  -2.26777016   3.02193303  -1.15244806  -1.05021666  -4.21593159
   9.1831129    8.08869773   1.2931936   -1.31324523  -1.63054211
  10.34807012   7.7192675   10.817173     1.59029132  -0.50485908
   4.08998278  -8.07675661  -1.70381079   4.68426025  -1.25053735
  10.2142117    5.39288286  -2.95175061  -6.23349483   4.61497374
   3.31709646  -2.57793654  -2.64717464  10.91437694  -0.82028699
  -9.3982809   -3.34922567   3.55501673   6.94772912  -3.34434536
  13.99687968  -0.90460062   2.07387251   4.84270491   0.94993184
  -0.92619312  -5.03192141   2.72168719  10.8874176   -7.67778879
   1.20606272   1.81073568  -7.17016416   5.53277148   0.77422524
   8.90025716  -6.12587474  -4.89021619   0.50500425   0.52409154
   4.35967375   8.40266984  -1.54692797 -10.10907265   4.49866369
   5.62375584   9.35816147   1.72306603  -1.25990699  -7.60350225
   3.10896733  -4.15679655  -2.85344542   8.31637149   5.26373338
  -7.85891677  -2.88684002   3.76011284  -0.54994783   6.20202127
  -2.9725502   -2.54973998   3.46630627  -1.93762254   3.23227689
   4.31824442   3.91042285   3.35469577   7.21946161  -5.53196159
 -14.03540261  -2.25465595  -0.9819257   -1.02276396   3.60431888
  -1.1242454    9.45720818  -0.25937471  -3.28033228  -8.14895774
   1.15680006   3.95402299  -0.07738846   6.02958497   5.31840945
   2.15037839  -7.85803703  -3.24978923   1.26943218   2.43285422
  -7.53687073  -4.46016108  -5.13868265  -8.08705793 -10.1229799
   0.05558193   9.40899135   1.40667552   7.97980044  -2.22590454
  -4.28685599  -4.81277196   8.3117553    3.57128848  -1.35576652
  -3.8893543   -2.27299944  -4.32939471],-1597.379880110665
[ 2.92805344e+00  1.10467578e+01 -4.04242533e+00 -5.24285503e+00
 -4.55246849e+00 -7.88434615e-01  8.43149517e+00 -3.32159680e+00
  8.83744526e-01  8.11664176e+00 -8.58934256e+00 -6.73645528e+00
 -1.00818267e+00  3.64690956e+00  1.43482303e+00  9.57580658e+00
  4.91478941e-02  4.35493404e+00 -6.01814114e+00 -2.83846930e+00
 -4.18008402e+00 -9.26941487e-01 -1.52400086e+00 -2.63851281e+00
  1.38723596e+01  3.04313179e+00  7.67608956e+00  1.11313684e+01
 -1.07519074e+00 -9.44529054e-01  4.14918462e+00  7.72462512e+00
 -5.65674734e+00  3.91638552e+00  6.76812094e+00 -4.02518317e+00
 -6.82768308e+00 -1.85771088e+00  2.17587421e+00 -6.62924422e+00
 -4.71768797e+00  2.50047999e+00  3.79111156e+00  4.61698632e+00
 -9.60127785e+00  8.59403881e+00 -5.47207102e-01  2.65906065e+00
 -3.60408685e+00  4.83472379e+00  1.02165197e+01 -3.81611131e+00
 -8.23736817e+00 -7.88192340e-01 -4.80282333e-01 -3.94013854e+00
 -6.38600800e+00 -1.23438859e+01  3.17073260e+00  2.73513039e+00
 -3.07331691e-01 -2.59115579e+00 -4.63980236e-01 -9.59309886e-01
 -3.05761722e+00 -3.35363240e-01 -5.20169917e-02 -2.73631119e+00
  4.79245636e+00  6.98738963e-01  3.58635061e-01  9.04910679e+00
  7.00300600e-01  1.24583634e+01 -1.66900400e+00  2.85285673e+00
 -4.03840240e+00 -2.23163712e+00 -1.50367679e+00 -7.66474888e+00
  1.79537626e+00  1.92983835e+00  6.53802288e-02  4.63243684e-01
 -6.45132466e+00  6.88213560e+00 -3.27772671e+00 -5.69616921e+00
  5.16462014e-02  4.35312064e+00  6.47388619e+00 -1.68487798e+00
  1.28709337e+01  9.57668755e+00  6.17900732e+00  5.10215273e+00
  2.14844715e+00 -1.52356783e+00  1.20888868e+00 -4.16736777e+00
 -6.23940065e+00 -8.95295605e+00  3.84762868e+00  2.86431721e+00
 -5.13844255e+00  3.26706108e+00 -8.75962306e-01 -2.38050669e-01
  2.01565780e+00  4.23279985e+00  6.65551861e-01 -5.92464447e+00
 -6.80971409e+00 -3.31481376e+00  1.08328211e+01 -2.22396004e+00
  2.49049258e+00  2.77361035e+00  7.71373354e+00 -2.34785976e+00
 -7.45174562e+00 -1.00604371e+01 -1.50038489e+00  5.45832234e+00
  4.73102735e+00 -6.60053394e+00 -1.77306560e+00 -9.84930198e-02
 -3.22563933e+00  1.74626004e+01 -6.06780556e+00 -3.30320679e+00
 -3.94460740e+00 -5.51062135e-01 -7.15437163e+00 -3.22670128e+00
  4.11396288e+00 -7.49228568e+00 -1.03056661e+01  4.11776056e+00
  2.17902800e+00 -1.84551173e+00  2.50930415e+00 -7.96733083e+00
  1.08501271e+01  3.30890324e+00  3.19672955e+00  2.41364275e+00
 -4.21530498e+00 -2.64338288e+00  1.36347701e+00  2.64118388e+00
 -6.50010190e-01 -7.25967467e-01  7.81961750e+00 -4.54392973e+00
  1.35855922e+00  3.35614161e+00  3.37760360e+00 -5.33573462e+00
  2.40452773e+00 -5.10887699e+00  3.67571108e+00 -9.71709779e+00
 -9.94992828e+00  4.01776828e+00 -3.96605816e+00  1.15366436e+01
 -1.22078614e+00  7.78385059e+00  4.17483145e+00  5.64263583e+00
 -2.16902558e+00 -5.86999061e+00 -4.88596831e+00 -6.67870609e+00
 -3.28210097e-01  1.19142770e+01  5.76081721e+00 -1.08235267e+01
 -8.63077456e+00  1.08827874e+00  5.59284711e+00  4.72436269e+00
  2.22741752e+00  1.41128415e+00  3.48456656e+00  1.19383439e+01
 -5.74745249e-01  6.78612534e+00  1.33053655e+00 -5.89298233e+00
  2.64365185e+00  1.00483434e+00 -7.90992047e+00 -4.31511675e+00
  3.51897531e+00 -1.33856132e+00 -1.87204346e+00  2.63833614e+00
 -4.81839625e+00 -1.95158020e+00 -1.31834097e+00  4.76299021e+00
 -1.14860111e+01 -8.23766474e-01  4.24520305e+00  7.73975806e+00
 -4.98912109e+00 -2.79449763e+00  4.22512361e+00 -5.49077708e+00
 -4.85030135e+00  7.94688830e+00 -3.78229044e+00 -6.01097498e+00
 -7.83142782e+00 -1.14399551e+00 -1.58338801e+00  3.48450950e-01
  8.26115083e+00  2.42556848e+00 -6.45379707e+00 -9.16848717e+00
 -2.36789348e-01 -1.81714696e+00 -2.48195253e+00  9.38273713e-01
  2.70215025e+00 -1.85128545e+00  3.12484850e-01 -2.52246132e+00
  6.17398129e+00 -6.26186088e+00  1.69277197e+01  1.69229777e+00
  4.03446028e+00 -1.49662342e+00  3.90716303e+00 -9.69596917e+00
  4.65365863e+00 -2.19477444e+00  5.00214033e+00  2.04275213e+00
 -9.98597149e+00 -1.78261984e+00 -5.56970906e+00  4.88037244e+00
  5.77567374e+00 -7.55341954e+00  1.94252590e+00 -4.53533439e+00
 -5.87870542e+00 -4.94403071e+00  1.90573241e+00  7.06959927e+00
  5.36652975e+00  4.52554465e+00  5.22663627e+00 -1.95330584e+00
  1.34846200e+01 -4.44679891e+00 -1.81984818e+00 -5.54720760e+00
  2.92921750e+00 -4.86973934e+00  4.86704048e+00  2.26915137e+00
 -1.03864321e+01  1.69087037e+00  4.74344385e-01  6.12397297e+00
 -5.90215335e+00 -3.15619234e+00  1.75771285e+00 -1.20294752e+01
  1.84838419e+00  2.00634655e+00  7.37591570e+00  2.00005939e+00
 -3.68465438e+00  8.61657872e-01  4.28748496e+00  4.86525479e+00
  3.59310106e+00 -5.40008039e+00 -1.18733772e+00  2.07460774e-01
  5.05674790e-01  4.23818284e+00  8.90210135e+00  3.44619083e+00
 -7.63071115e+00  5.77779352e+00 -2.65756052e-01 -4.07318725e+00
 -7.61483437e+00  5.49646842e-01 -2.01327825e+00  1.11318959e+01
 -1.53989151e-01  3.25192105e-01 -3.88204665e-01 -5.88114653e+00
  3.84292839e+00 -2.24060326e+00 -3.52551196e+00 -1.57659091e+00
  5.02960825e+00  1.08568268e+01 -5.29485430e+00  4.44786425e+00
  1.22543145e+01  2.32973934e+00  2.35052306e+00 -5.29232889e+00
  8.41090713e+00  2.49890500e+00  2.98639408e+00 -7.49930840e+00
 -7.10392777e-01 -4.68541611e+00  4.92950614e+00  4.48832318e-01
 -4.35338414e+00  1.80200624e+00  2.97238086e+00 -2.89720878e+00
  5.71668721e+00  6.59142727e+00 -1.73456150e-01 -3.74649231e+00
  8.86945585e+00 -3.46311039e+00 -8.82156028e+00 -8.14319076e-01
  4.93938282e-01 -1.06043162e+00 -6.07238628e-01  1.79374740e+00
 -4.74603949e+00 -4.36206982e+00 -1.11867836e+01 -8.33353755e+00
  3.99593134e+00  3.47974474e-01  3.41187515e-01 -3.44905183e+00
  5.07840016e+00 -1.07291239e+01 -5.81356104e+00 -2.07125827e+00
  5.18017981e+00 -1.06498689e+00  7.40926975e+00 -6.42570213e+00
 -1.18933271e+01 -8.26467740e+00 -1.26046481e+01  6.59021254e+00
  3.78469310e-01  8.18861412e+00  5.60193021e+00 -6.20301237e+00
 -4.93988372e+00 -5.61358400e+00 -4.11508556e+00 -9.14065119e+00
 -4.45107650e+00 -8.47447765e+00  1.45260939e+01  1.50741133e+00
 -1.27238629e+01 -4.68585364e+00 -5.36085652e+00 -2.45586464e+00
  2.82195282e+00 -5.26697710e+00  3.99713481e+00 -7.29331982e+00
  4.35173844e+00  1.09644530e+01  4.45470643e+00 -1.35542280e+01
  7.31875935e+00 -4.47413565e-01  4.98786757e+00  2.38178561e+00
  4.44300638e-01  7.84565475e+00  2.79587514e+00 -3.79752329e+00
  2.38827917e+00 -3.39786637e+00  1.62262001e+00  2.59878480e+00
 -1.41924546e+00  1.17997498e+00 -8.23494334e+00 -1.24313544e+00
 -1.44430603e+00  3.01393319e+00 -5.35356840e+00  6.46150251e+00
  1.97821708e+00  7.21512955e-01  6.73411543e-01  8.16069450e-01
  1.21177383e+00  2.19530017e+00 -8.74680724e+00  9.06470307e-03
 -6.74779701e+00 -8.63197550e+00  1.42825158e+00  1.01123470e+00
  9.67111542e+00  2.50780194e+00  4.14570653e-01  5.33159363e+00
 -1.36498490e+01 -1.41989031e+00  1.00793371e+01  4.27136499e+00
 -9.13530454e-01  1.95063926e+00  1.08909329e+01  6.42134058e+00
 -7.90323340e-01 -4.29959593e+00 -3.81811271e+00  3.16878498e+00
 -8.60850448e-01  3.00597062e+00  1.97512806e-01 -6.83380699e+00
  3.42497698e+00 -3.57192271e+00  1.42863653e+00  4.07539403e+00
 -6.49378436e+00 -2.05297131e+00  5.74627625e+00 -4.25850465e-01
  5.82387168e-01 -6.42446385e+00 -2.83775689e+00 -1.05808284e+00
 -7.02032569e+00  9.26392291e+00 -2.55932571e+00  6.80936863e-01
 -1.68838913e+00  1.90084580e+00 -1.43866252e+01  4.49480950e+00
 -6.08394990e+00  1.06930845e+01  4.74544000e+00 -2.64275079e+00
 -9.84411576e+00  3.15481889e+00  1.89052500e-02 -5.82402204e+00
  5.75263798e+00 -1.03177378e+00  4.35616805e+00  3.41266020e+00
  5.41103412e+00  4.49332315e+00 -6.06616361e+00 -7.07270910e+00
  7.52142982e+00 -4.88538794e+00 -6.72658995e-01 -4.55719159e+00
  7.27491104e+00 -5.61350804e+00 -2.07407554e+00 -4.75915198e+00
  6.51082420e+00  6.27683514e+00 -3.36789638e+00 -3.40672778e+00
  9.45573540e-01 -5.60002495e+00 -3.41042965e+00 -1.89520522e+00
 -7.26063083e-01  1.10017715e+01 -2.73967787e+00 -3.18019891e+00
 -2.80629942e+00  4.71731741e+00  5.64678753e-01 -2.42886887e+00
 -4.40266425e+00 -4.27920835e+00  8.70110681e+00  3.64286060e+00
 -4.05468487e+00 -8.05765155e-01 -3.19615100e+00 -3.53311038e+00
  1.04460641e-02 -3.80523462e+00  1.05549954e+00 -8.11669190e+00
 -9.13993043e+00 -8.55286500e-01  3.59476245e+00  3.85389311e+00
 -4.75053354e+00 -4.35351908e+00  7.95515507e-01  1.26072619e+00
  2.26288832e+00  1.12456127e+00  1.58033180e+00  1.77335538e+00
  3.95578714e+00 -1.48471934e+00  2.05741546e+00 -7.83258124e+00
 -6.76306969e+00 -2.26247858e+00  7.28844093e+00 -7.55934016e-01
 -5.46547685e+00 -9.86926274e-02  4.85003019e+00 -7.93774626e+00
 -2.40712082e+00 -2.66638021e+00  3.12582172e+00 -6.24167355e+00
  4.83812966e+00 -1.27987122e+01  7.27417973e+00 -4.83903696e+00
 -1.27228603e+00  8.13284196e-01 -5.43204949e+00 -3.37748733e+00
 -4.38820095e+00  2.77351122e+00 -1.14725433e+00 -3.22958825e+00
  8.91650618e-01  1.83826476e+00 -7.39180867e+00 -3.46860720e+00
  5.16360955e+00  5.98433692e+00  6.34444833e+00 -3.82372802e+00
 -4.31568965e+00  3.19386778e+00 -7.53595497e+00  2.13721382e+00
 -2.55492994e+00  4.93835559e-01  5.83786703e+00 -2.23206896e+00
 -2.60797071e+00  5.64007555e+00 -2.48462097e+00  5.11048246e+00
  9.44152577e+00 -7.72865280e+00 -5.84530071e+00 -2.23293970e+00
  8.11694151e+00 -7.56741120e+00 -3.61286630e+00  1.90006696e+00
  4.38328205e-01  6.04206611e+00  3.26564245e+00 -1.52210609e+00
 -3.29298970e+00  4.53705508e+00  5.13792657e+00  7.06199754e+00
 -6.24922972e+00 -2.75534929e+00 -6.45321636e+00  3.48379056e+00
  3.46120643e-02  6.55385837e+00 -2.72771080e+00  3.87376956e+00
  1.37629751e-01  5.57067738e+00 -8.38441979e+00 -7.87167897e+00
 -1.97054934e+00  5.63853357e+00 -1.33675491e+00 -5.99412302e-01
  2.49258097e-01 -2.77061130e+00 -1.36656350e+01 -4.08051198e+00
 -2.18360967e+00  9.60682675e+00  8.01857931e+00  2.70893439e+00
  1.61835589e+00 -2.92668862e+00  9.49995142e+00  2.08284287e-01
 -3.49259399e+00 -8.64646468e+00 -8.43704884e+00 -3.24007931e+00
  3.42838589e+00 -1.53767260e+01],-1296.3815766295852
[-0.19576602  0.29229976  0.12690295  0.00770234 -0.82843384  0.05070343
  0.04075737 -1.54010425 -0.84252523 -1.02529529 -0.22515848  1.79617561
 -0.71789651  0.40893897 -0.31552374  0.10725645 -0.16346523 -1.59042448
  0.08250827  0.98682804  1.54992597  0.18907919 -0.7833     -1.56532194
 -1.94262651  0.33664169 -0.48017971  0.70077604 -0.76470028 -0.7853679
  0.2102706   0.51571799 -0.10996605  0.94234382  0.23794948 -0.06743203],-1027.268047799931
[ 8.49406564e-01  1.16612790e+00 -1.76252351e-01 -4.20824464e+00
  2.80081541e-01 -3.55040458e+00 -3.42989883e-02  3.37177785e+00
  3.21780219e+00 -1.04357384e+00 -6.28874532e-01  3.49556181e-01
  8.46389705e-01  4.81980245e-01 -3.42843850e-02 -1.84672142e+00
 -2.66027419e+00  2.47287527e-01 -1.83606907e+00  6.52278780e-01
 -9.81549866e-01 -1.54278222e+00  3.13108055e-02  4.91000108e-01
  7.26168111e-01 -2.56826247e+00 -8.36203202e-01 -9.18199349e-02
  7.79298657e-01 -4.81810473e-01 -2.07120165e-03  1.51476376e+00
 -4.62525250e+00 -6.35594486e-01  2.67758010e+00  8.09695494e-01],-1091.4964310012697
[ -6.18668342  -1.18791619   1.32111569  -5.21805149   2.16247153
  -7.06607921  -2.63944375   0.33169548   2.38615761   6.83487588
  -6.86824412   6.87723853  -2.20192698   3.5110268   -0.95725659
   4.06706994   1.1927069   -8.63002386   3.98624344  -3.53031095
  -0.91490682  -0.5952869  -12.72653282  -5.86944042  -6.7838401
  -3.78759373  -1.32833328   2.41796642  -3.34936123   3.03129148
   4.08505272   3.76116944  -2.89742861   6.61002603   0.40780818
  -0.44767687],-236.71587763311183
[-5.07329329e+00  7.52309442e+00  2.51329517e+00  3.08973707e-01
 -3.78968971e+00 -6.78875897e+00 -7.55793273e+00 -4.58522345e-01
  7.06397465e+00  4.92395847e+00  3.23301842e+00  1.54269676e-01
 -2.03897871e+00 -3.36404240e+00  2.45803061e-01 -7.96249324e-01
 -5.04932360e+00  1.00016713e+01  2.22300680e+00  4.14031561e+00
  9.87305822e-01 -5.94457310e+00 -2.04816924e+00  4.50077814e-01
 -3.50745403e+00  2.80967834e+00  5.26793807e+00 -8.01974069e-01
 -1.98235013e+00 -9.82987199e+00 -4.03829939e+00 -4.16768182e+00
  3.13046643e+00  3.51517710e+00 -2.71288559e-01  4.23064321e+00
  9.52679672e+00  1.80230811e+00 -2.10746181e+00  1.20423129e+00
 -3.11659968e+00  3.41790336e+00 -2.36532904e+00 -4.15392226e+00
 -3.35826453e+00 -1.68904845e+00  6.79168654e+00 -3.75999223e+00
 -1.58034186e+00 -7.92857983e+00  7.37442615e-01  4.36430724e+00
  6.80829091e+00  1.82017608e+00 -7.87290942e-01 -6.76094656e+00
  7.75494847e+00  9.46927918e-03  1.53393735e+00 -5.59042711e+00
 -2.95076922e+00 -4.95632593e-01 -2.44578618e+00 -3.25919831e+00
 -1.27867678e+00  4.47140141e+00  4.25358563e-02  4.00895150e+00
 -3.17882701e+00 -1.60538886e+00  3.22608295e+00 -4.19148522e+00
  3.94145275e+00  2.17122668e+00 -1.28827285e+01 -1.17436037e+00
  6.92319573e+00  1.18986655e+00  1.41801786e+00 -2.84493806e+00
  8.50842829e+00 -1.05392420e-02 -2.77553311e+00 -3.79055448e+00
  3.44600495e+00 -9.15710367e+00  6.28567765e+00 -8.19710116e-01
  6.02059544e+00 -5.90801394e+00 -5.39507655e+00  2.95771452e+00
 -5.12143320e+00 -3.21257343e+00  3.27335247e+00 -2.01290447e+00
  2.41506718e-01  7.15308218e+00 -5.41036900e-01 -8.89908276e+00
  3.57213099e+00  5.99934675e+00 -2.05437445e-02  1.33744902e+00
  1.59442423e+00 -4.60008539e+00 -1.52735146e-01 -8.79167644e-01
 -1.04160930e+00 -5.61688226e-01 -7.78691743e-01 -5.20420336e+00
  3.03200927e+00  3.40804277e+00  8.97301808e+00  1.85415312e+00
  4.32314309e-01 -3.34352694e+00  6.69375271e+00  2.85530676e+00
 -8.47970095e-01 -1.60635210e+00  3.61806551e+00 -6.35819517e+00
 -9.58058610e+00 -2.21343430e-01  3.39544939e+00  5.83923547e+00
 -6.45545391e-01  2.55595702e+00 -3.67560675e+00 -6.35133560e+00
 -3.11908997e-01 -1.87369242e+00  1.01626452e+01  3.95461649e+00
  2.06842806e+00  1.21642100e+00 -3.36681873e+00 -3.11559204e+00
 -2.24188338e+00  3.66253238e+00 -4.02337867e+00 -4.91722477e-01
  4.95903326e+00  3.23800640e+00  4.60783296e+00 -2.92842616e+00
  7.53741871e+00  6.02371531e+00 -3.18112599e-01 -2.48685000e-01
 -3.76694520e+00  4.01234653e+00 -3.75301953e+00  5.05360907e-01
  9.01301828e-01 -8.00600158e-02  4.75935108e+00  2.18288384e+00
  6.22936235e+00  2.06864762e+00  7.18322409e+00 -4.91799173e+00
 -5.44709891e-01  9.88494503e-01 -1.05457886e+01 -1.12344762e+01
  2.83534146e-01 -7.31177201e+00 -1.67869192e+00  1.50913880e+01
  7.52225511e-01  2.31356512e+00  5.21580883e+00 -4.99476167e+00
 -9.82643317e+00 -4.12407676e+00 -3.71291243e+00  1.72484062e+00
  4.17253897e+00 -4.20498974e+00  2.80108208e+00  4.06846846e+00
  2.88480147e+00  2.98785476e+00  8.11924814e-01  5.30415433e+00
 -4.61424925e+00 -5.96702304e-01 -3.71135616e+00 -2.34223957e+00
 -1.92396531e+00 -4.76635465e+00 -4.05775856e+00 -8.42224195e+00
  1.63709674e+00 -2.30024010e+00  7.78404822e-01 -1.84235684e+00
 -6.15942105e+00  3.64868579e-01  1.68802445e+00  5.18241423e+00
 -9.98077594e+00  1.44925375e+00  4.01272338e+00  2.87385047e-01
 -7.77202925e+00  4.56670244e+00  2.25197337e+00 -3.31284700e+00
  1.97761383e+00  6.30638862e+00  1.26675635e+00  4.14035143e+00
 -2.96930762e+00  1.79515156e+00 -1.08918805e+00 -6.05543467e+00
  2.49549272e-02 -2.08799773e+00 -3.18646286e+00 -8.89281746e-01
 -6.53638873e-01 -3.55487500e+00  1.53584282e+00 -1.59072464e+00
 -1.30550242e+00  1.54607907e+00 -1.34790985e+00 -1.62060263e+00
  5.92294249e+00  7.18330108e+00 -4.17783996e+00 -4.96727929e-01
  2.49673518e+00  4.75408166e+00 -4.68084139e+00 -1.40462184e+00
  3.61357748e+00 -2.72285559e+00 -1.61313503e+00  2.61275103e+00
  7.92311351e+00 -3.38175856e+00 -3.24169370e+00  1.05393376e+01
  2.88966893e+00 -2.20129047e+00 -3.91508153e+00 -4.22784834e+00
  5.21206564e+00  1.74078897e+00 -1.18806398e+00  2.72180481e+00
  1.73854463e+00 -2.38088592e+00 -2.04261384e+00  5.63045585e+00
 -5.35089946e+00  1.58894757e+00 -2.43204109e+00 -4.96247391e+00
 -2.11060439e+00  4.85917351e+00  1.10846521e+01  2.25153219e+00
  3.09187969e+00  6.05595563e+00  4.12025459e+00 -4.73685541e-01
  1.56176532e+00  1.18660464e+01  3.30168742e+00  9.02958079e+00
  2.25223944e+00  3.78052474e+00  3.27232908e+00  4.23679024e+00
  4.55967890e+00 -5.00057156e+00 -1.06024128e+01  4.83220116e+00
  2.87096646e+00 -3.64098691e+00 -5.10214713e-01  7.00869681e+00
  4.39257325e+00 -9.82642878e+00  7.93752751e+00 -2.36041629e-01
 -2.59367743e+00 -5.64741971e+00  6.13685618e+00  1.71363666e+00
  6.18135825e+00  4.74198222e+00 -7.95575811e+00  2.59639579e+00
 -1.60552962e+00  1.95347517e+00 -5.39085308e-01  4.03108656e+00
 -1.02534957e+00  3.02935125e+00 -2.04564901e-01 -4.37636657e+00
 -2.20601467e+00 -5.42815407e+00 -2.76793226e+00  5.52427830e-01
  3.86021453e+00 -1.51265418e+00 -2.13684494e+00  3.81915650e+00
 -6.35466405e-01 -7.55951945e+00  7.27972062e+00 -2.47875028e+00
 -9.81357351e-01 -2.33472068e+00 -5.20246738e+00 -2.61233551e+00
 -3.66942679e+00  1.77771460e-01 -2.66522570e+00  1.00658815e+00
  1.84169083e+00 -2.65741929e+00 -5.78197498e+00 -3.04834913e+00
  1.08030754e-01 -6.71536608e-01  1.17981026e+00 -7.94485522e+00
 -1.54218997e+00  4.94308314e+00 -1.93738560e+00 -6.05284407e+00
 -1.24768828e+00 -3.77222454e+00 -1.23941281e+00  8.02593222e+00
 -1.44302715e+00  2.31897874e+00  1.43782433e+00  2.59099474e+00
 -5.97344678e+00  1.98361748e-01 -1.38136754e+00 -8.82741116e+00
 -4.33787517e+00  6.45279207e-02  1.46542575e+00 -3.18249613e+00
 -7.07825070e+00 -6.51778087e+00  2.65359813e+00 -9.72188524e-01
  9.92650399e+00 -1.60668468e+00  3.97806342e+00 -2.20448701e+00
 -8.43246640e+00  7.20133513e+00 -6.08311126e+00  2.53083963e+00
  1.18506943e+01  1.16232525e+00 -6.53018284e+00  1.61436313e+00
  2.62638634e+00 -7.73587200e+00  1.99369261e-01 -3.20307987e+00
 -1.12818924e+01  8.94721756e+00 -7.53067157e+00 -2.44503425e+00
  5.10354104e+00  4.36606841e+00 -1.29095236e+00 -7.07278894e+00
  1.44228047e+00 -3.09938082e+00 -4.69154586e+00 -1.39537325e+00
  8.56706491e-01  5.28217293e-01  1.11362190e+00 -2.18201772e-01
  5.57109214e-01  4.26926783e+00 -4.36675335e+00  1.93885620e+00
  1.99268458e+00 -1.11187775e+00 -2.00208640e+00  1.54434725e+00
 -1.27461369e+00 -4.52535419e+00 -5.10612089e+00 -2.16722858e+00
 -8.64900237e-01 -7.36519340e-01 -4.35312377e+00  2.37389222e+00
  4.28857490e+00  7.39516891e+00 -4.23332308e+00  3.49968358e+00
  4.07944412e-01  1.23239942e-01  4.15230834e+00  4.23676821e+00
  2.35642974e+00  2.74842784e+00  1.05975752e+00 -5.53972497e+00
 -1.15207280e+00 -8.30519579e+00 -5.42371969e-01 -5.23694239e-01
 -3.34590122e-01  5.46190618e+00 -6.94680889e+00 -6.86963586e+00
 -3.35096563e+00  1.39722077e+00  9.60115664e-01  6.29784064e+00
 -7.98225116e+00 -7.49682719e+00 -2.65818078e+00  1.35979857e+01
  4.97658713e-01  1.66066305e+00  8.50180358e+00 -5.71763169e-01
  3.63189873e+00  1.71057976e+00 -3.78073842e+00  9.10854910e-02
  5.20247051e+00 -4.57356863e+00  7.75853015e+00  7.47718049e+00
  4.26028941e+00  1.72835552e+00 -2.55169685e+00 -6.34265529e+00
  6.70609488e+00  1.27984524e+00 -2.62782359e+00 -1.11072323e+00
 -1.90877490e+00 -1.80794279e+00  3.38211684e+00  9.35173410e+00
  1.21830349e+00  1.51276696e+00  2.42427399e+00 -3.25947280e+00
 -1.14741277e+00  3.47282004e+00  7.93446184e+00 -3.24601300e+00
 -2.68797440e+00 -2.95332382e+00  1.20953813e+01 -4.27934093e-02
  6.11417611e+00 -9.20464865e+00  3.21593664e+00 -2.97639216e+00
 -4.07802900e+00 -1.87442575e+00  5.34178409e+00 -4.70150656e-01
  4.01853664e+00  2.70707746e+00  6.10638775e+00 -2.70705098e+00
 -3.31260167e+00  3.01971173e+00  4.77405630e-01  1.54512444e+00
  2.00495832e+00  1.81114356e+00 -4.37637313e+00 -1.66858528e+00
 -1.07832402e+00 -2.90585850e+00 -3.00916908e+00  1.11440766e+00
 -4.39413506e-01  2.05930461e+00 -1.25719675e+00  3.77427808e+00
  2.64259120e+00  1.10648749e-01 -3.28137479e-01 -6.52119229e-01
 -1.86249065e-01  1.06323569e+00 -1.62331256e+00 -3.04321116e+00
 -6.03576340e+00 -3.54038056e+00  3.32645442e-01 -3.82458068e+00
 -5.13406431e+00  1.01130275e+00  8.95587681e-01 -8.11412158e+00
 -7.86911650e+00  7.89939019e+00  8.05464154e+00 -5.55106518e+00
  4.53357449e+00  4.28721934e+00 -8.00199710e+00  1.55031723e+00
  5.23128891e+00  4.60721423e+00  1.14847732e+00 -1.93838785e+00
 -4.22072405e-01  7.17508943e+00 -7.70317397e-01  5.24965943e+00
  4.10377098e+00 -4.97850741e+00 -2.93934307e+00  3.62949837e-01
  1.87110734e+00  6.72669244e+00  2.43625047e+00 -5.05069515e+00
  4.21121829e+00 -5.34000158e-02 -5.19406353e+00  6.44645782e+00
 -3.56887960e+00  2.37864703e+00 -3.34660674e+00 -5.56028316e+00
  4.96227333e+00 -2.11893023e+00  1.28536322e+00 -6.30150665e+00
  1.67560596e-01 -3.92248715e+00  3.22538160e+00 -2.07941178e+00
 -7.42471360e+00 -3.03693463e+00  4.72917489e+00  4.16324054e+00
  2.99909071e+00  7.91405818e+00  7.14404872e+00  1.56090930e-01
 -3.19766991e+00 -2.02222116e+00 -1.03056125e-01  4.67999266e+00
  6.46719833e-01  1.21473904e+00 -2.93305901e+00  3.64385630e+00
  4.41292385e+00 -4.17708405e+00  5.11754623e+00 -4.51915920e+00
 -2.94444659e-01  6.13500157e-01  1.61735656e-01 -2.08790335e+00
  2.37138819e+00 -7.75310924e+00 -2.76758498e+00 -1.96361909e+00
  1.16638243e+00  3.50419654e-01  1.45883697e+00  3.25297068e+00
  1.20733778e+00 -3.94088329e-01 -2.67769634e+00  5.52485260e+00
  2.56148549e+00 -4.89444626e+00 -7.76196004e-01 -9.50152769e+00
  2.03246091e+00  3.81532459e-01 -3.46596431e+00  1.66404795e+00
 -4.93528919e+00  4.33773994e+00 -3.88463332e+00 -2.87268189e+00
  1.78107603e+00 -2.35792464e+00  1.41749564e+00 -3.14551150e+00
 -7.44877451e+00 -2.25939689e+00 -3.00701335e+00 -3.23788484e+00
 -7.02612078e-01  4.76520187e+00 -4.79853723e+00 -3.53729616e+00
 -1.95888282e+00  9.67420701e+00  4.85529913e+00  5.15889127e+00
  6.34547892e+00  4.26715681e+00  5.76048563e-01 -2.10388946e-01
  1.85691411e+00  4.10148115e-01  8.22529085e+00 -3.89687815e+00
  4.07414669e+00  3.01304184e+00  3.66155322e+00  2.83275583e+00
 -4.69127309e-01  1.65301464e+00  2.20371370e+00  3.31865249e+00
  9.02732386e-01  2.01527355e+00 -5.93660454e+00  3.00296632e+00
  3.27844313e+00  2.36213961e+00 -4.86511007e+00  1.79717262e+00
 -4.74707481e-01 -4.52708441e-01 -1.08348059e+01 -2.84261649e+00
 -2.49908011e+00  4.22268585e+00 -1.19288199e+01 -3.48611512e+00
  1.19687524e+00 -7.38066748e+00 -5.23513370e+00 -6.08369840e+00
  4.88845093e+00 -1.40207873e+00 -3.89127055e+00  3.04044875e+00
  8.04141246e+00 -1.42145700e+01 -3.13209353e+00  4.43458658e+00
  2.64193443e+00 -1.36165099e+00  3.52051561e-01  5.98433117e-01
  9.46562543e+00  7.97990477e-01 -3.06156670e+00  6.10260546e+00
 -5.23550386e+00  1.39162787e+00 -9.08057454e-01  5.69752489e+00
  5.33890175e+00  3.06936370e+00 -7.25334526e+00 -1.72448560e+00
  1.75311033e+00 -4.21042850e+00 -6.59483270e+00  2.07644171e+00
  1.51379042e+00  8.61655534e+00  5.01865457e+00  3.83383499e+00
  2.78880890e+00 -5.98293822e-01  3.62156995e-01  2.56175202e+00
  1.81944733e+00  2.95305305e+00 -6.32260702e+00 -4.52926171e+00
 -2.43763635e+00 -9.44805776e+00  1.22151545e+00  3.44701037e+00
 -2.78883821e+00  3.13308190e+00 -5.88007751e-01  4.35056752e+00
 -1.58803387e+00 -1.23719318e+00  1.16355718e+00  5.41543110e+00
 -4.36018025e+00  3.84797519e+00  2.63990169e+00 -7.33424172e+00
 -4.23322074e-01 -1.12894874e+00  8.46785674e+00  2.31845636e+00
 -2.02184695e+00  4.81112749e+00  5.00891580e+00  4.22580382e-02
 -1.05362972e+00 -7.02439220e+00 -1.81511538e+00 -7.21066839e+00
 -8.59350749e+00  4.96871185e+00  3.15208938e+00  6.29294201e-01
 -9.00261730e-01 -8.38176185e-01 -4.24358116e+00 -2.07005914e+00
  7.20119270e+00 -8.89646598e+00 -4.46807507e+00  1.24785181e+00
 -2.71160543e+00  4.70157419e+00 -3.35177457e+00  3.17063419e-02
 -4.72605116e+00 -1.44599394e+00  3.76457607e+00 -8.11551758e+00
  3.27388205e+00  7.04111659e-01  3.52116070e-01 -5.30992357e+00
  4.36372615e-01  1.22485731e+00  1.32785334e+00  4.04055226e+00
  9.11442408e+00  1.57391194e+00 -7.53460048e-02  2.46477641e+00
  1.94073982e+00 -4.51094054e+00 -6.66038544e-01 -6.87826081e-01
  2.18642295e+00 -1.17146458e+00  1.43400581e+01 -2.64142252e+00
  8.87631503e-01 -4.50286672e+00 -1.20264404e+01  5.51907919e+00
  3.07804971e+00  4.16357828e-02 -2.65302936e+00  6.95953023e-01
  2.58491973e+00  2.96543347e+00  2.76401028e+00 -8.20792600e+00
 -3.06765219e-01  2.17201415e+00  9.14626651e+00  7.55736733e-01
  4.17794473e+00 -2.02207609e+00 -2.92871661e-01  4.92755070e+00
 -9.99284723e+00  3.73826811e+00 -2.71667388e+00 -3.63428601e+00
 -1.73705632e+00  3.20888677e+00 -3.74002842e+00  2.04731915e+00
 -3.66354999e+00  3.00876011e+00 -5.33068751e-01 -3.03624477e+00
 -1.96499327e+00 -1.79084946e+00 -3.22827174e+00  3.95479535e+00
  5.10489242e+00  1.19837134e+01  4.73460072e+00  2.35736504e-01
  2.44504183e+00  7.12670406e+00  8.62501208e-01 -1.74409044e+00
 -5.42028565e+00  7.92715045e+00  4.80389368e+00 -1.04870657e+01
 -4.88762725e+00  2.95899772e+00 -1.86059116e+00 -8.24571006e+00
 -4.21626918e+00 -5.27085842e-01  4.68090013e+00  9.06680776e+00
 -2.45999926e+00  3.46493867e+00 -1.20646595e+00 -1.10139711e+00
  1.30326356e+00 -1.13821188e+01 -7.75318287e+00  2.01847144e-01
  2.46065533e+00 -2.24925113e+00 -3.57315070e-02 -7.98769008e+00
 -9.94060840e-01  4.60792913e-01 -3.80836413e+00 -2.92168864e+00
 -1.33753551e-01  2.42138653e+00 -3.96088373e+00  2.42957563e+00
 -3.85244150e-01  6.90445490e-01 -2.67919491e+00  8.66085541e+00
  2.05036402e-01  4.70444897e+00  5.03338942e+00  1.34175945e+00
  1.50255094e+00  4.02470275e+00  5.10519014e+00 -2.68958004e+00
 -4.77319193e+00  8.01000142e+00  4.36004203e+00  5.30305417e+00
 -1.60066016e+00 -1.45454913e+01 -1.35027907e-01  1.11326727e-01
 -2.75420345e+00 -6.42211867e-01 -3.63818595e+00  3.88209386e+00],-173.6689872002861
