[ -0.64880399   8.99596557   3.40212626  -4.02119989  -0.39163407
  -0.84909063   5.18980394   5.32799681  -0.93721693  -1.81300318
 -10.8230246    2.34744813   7.04317569  -2.00885342  -8.6552798
   7.26639661  -3.55607345 -10.21338393   0.57433264  -3.09989333
   2.32420452   7.19028676  -7.50573807   7.03049544   6.52813065
   0.63333688  -4.1185401    2.20457042  -0.03146084   3.22168311
   6.02364232   0.61670595 -11.47549314  -7.20089178  -8.82969626
   2.05782544   3.10770018   0.71080808  -6.40225315   4.03101747
  -1.26537052  -6.0817703   -2.28556386  -6.31842133  -4.81487272
  -2.81519193  -7.56475432   0.0619591   -8.85857381   5.04116556
  -0.53337482  -8.86375112  -1.5904932    6.3557366   -4.70963501
   2.19741389  -8.38513906  -0.96204076  -0.39032893  -3.15440883
  -3.23998255   2.49008302   5.93833332  -1.2777481    2.36336315
  -1.66992254  -6.41632014   3.4031635   -0.77068049   4.42968255
   3.74091947   4.16045209   4.34415946   1.77540058   3.20653853
  -3.63337101  -4.10236826  -4.68869469  -3.46837446  -0.40297192
   0.23599413   6.86870341  -5.11875775   8.80850158   6.57453679
  -1.8992877   -1.13668874  -0.14411124  -6.67413742  -0.07274358
  -4.29962855   3.71517324  10.48218874  -0.78717141  -0.25029893
  -3.98435903  -1.78065229   2.24492444  -7.36077376   2.6980626
   1.65413228  -2.0071793    1.86013232  -7.11152077  -7.62947222
  -1.21943257   1.84698353  -1.85393152   6.93360754  -5.13116859
  -2.45290538  -0.5585946   -3.53075244  -1.77344317   3.28312269
  -6.27399526  -5.89579622  -2.11612719   1.10070408   1.42386603
  -4.97443596   1.49203326   5.28929911  -6.00004947   6.94304104
   9.78200318  16.21369975  -1.33682269  -6.07184702  -2.54737
  -2.7897061   -4.50584485  -3.6738477    8.00164657   3.94061234
 -11.06498867  -1.43266539  -3.80548205   0.74422651  -3.4795752
  -1.24685348  -0.145109    -5.13767624  -9.04415119  -8.54740574
   3.65298747  -9.77381295   7.16158243   0.36838986   4.91934908
  -1.87165323  -1.64517179  -6.86978721   0.0498453    3.51503772
  -2.33747186  -4.9027741   -8.12689005  10.74072802   1.8868741
  -7.03308599 -11.47224794   3.65374503  -8.28401854   2.04725719
  -4.33665042   5.12193406   0.96361215   0.75257594  -2.62752055
   4.28503911   2.19237756   3.58761733  -1.26330862   6.01207646
   3.27031915  -3.01348997  -0.73145147   4.35974071   4.77482173
 -12.99235509   0.33332576  -0.58558744   0.25956439   1.19749254
   2.52847212   0.50199699   3.08294885   4.28188341   0.64360058
  -6.50759835   6.14738626   6.48386428   2.85531222  -2.60724761
   8.98878032   2.76704608  -0.60865602   1.2400791   -0.55450649
   5.57806037  -5.31473328   2.6007115   -1.34103841  -4.43917771
  -1.74260136   3.24216949   0.96868823   4.12614115   5.99663983
   3.66743629   1.4020979   -4.92524798  -0.22584804  -1.98033136
   1.7683626   -4.22591049  -1.11052455  -0.17010734   0.29945401
   5.37681404  -3.07274864   7.06761077  -8.84997693  11.44502199
 -10.72255556  -6.49413697  -6.7717769   -4.00155129   2.30984135
  -8.50718659   6.83167797   1.67657819  -8.10817549  -0.18843368
  -4.87118609  -0.0338349    2.37129516  -2.86980116   3.04237586
   7.61126076   3.86300414  -0.26019912   2.22360484  -1.01316535
  11.91358577   5.2768618   11.57694052 -11.40473094   2.32234667
   1.14899854  -0.5728971   -0.14708259  -5.43958131   2.31781255
  -6.54246312  -4.46206448  -0.17933593  -2.8626866   -1.20346881
 -12.6222198    4.86225356  -5.42368226  -7.45659379   6.40798547
  -4.77522268   4.86552757   3.13876015   2.07943436   2.21443242
   5.19021599  -1.40204008   0.84306609   3.45446721  -5.0692113
   4.35728735  -4.43946157   0.89966473  -7.58725035   3.96666245
 -10.54302821  -5.35616638   1.66232794   5.78279321   7.50887814
   3.31953706  11.16902841  -6.40430144   7.11078963  -5.17944853
  -7.14836011  -3.02406071  11.36153836  -1.9624421    2.45280018
   2.16953826  -1.61843967   7.62866988   2.63162553  -1.59447172
  -2.45058391   7.70798855   0.6738       0.89385032   1.97163418
  -4.26774239   2.16135206   1.69570037  -1.25520547   4.30888473
  -0.15864515   0.39616266   3.84554768  -3.46388251  -4.12944354
   7.07272487   2.57218567   9.53983873   0.36968485   1.52465864
   3.11623885  -4.33201938   9.23069189  -5.87993228   2.40637565
   4.2397307    0.41895302   5.60433581   0.10164339   3.40196309
 -14.39947525  -0.65331762   8.85386471  -3.60468659  -6.64149343
   9.55457565   4.82007447   4.37537905  -1.09756942   1.05149277
  -1.46769291  -6.82891925   6.44323028  -5.33432537  -3.17744498
   9.71303347  -1.14036769   1.29155667  -6.55519805 -10.15442291
   6.64933215  -4.71461583 -13.43007717  11.31937018   3.71691925
  -1.59665775   0.17542678 -10.68311928  -5.60346763   0.53321509
   6.27611865  -4.26355973 -13.3187376   -7.22669805   7.20914759
  11.71980887  11.83747934  -1.60634636   2.57647821  -1.69928196
  -9.10162936   8.14543814 -13.50384808   4.40640661  -1.52158985
   0.93978627   4.14816335   1.07370014  -2.80374589   2.04130867
  -3.08434107   8.37895637   0.07074298   1.53604823   2.05247255
   2.04210847   3.05304788   6.32776777   0.66156251  -8.85214107
  -1.40676874   1.95641646  -3.83293415   2.55718352  -1.27971301
   1.4224617   -6.24188801   4.42607326  -5.39928048   0.54067055
   0.54939799   5.44606851  -5.2777696   13.19150656  -3.31337962
  10.85731755  17.56886192  -5.91579398  -4.1887603    4.71723019
   4.68399127   5.5161649    0.39175742   0.04915594   6.44588552
   2.59734129   3.24084429  -0.41213013  20.10497777   1.0436277
   1.79936355  -1.89778704   1.29506075  -0.84555392  -3.34567776
  -4.32402177   8.77418609   6.59087569  -7.07056079  -0.38483052
  -3.29646379  -1.40223337   2.49378988  -3.35830527   2.23906242
   2.8225827    2.39139532   2.02346279   1.57358204  -1.92138438
   3.67624804   7.46980703  -5.96312705  -1.44415301  -1.16978526
   2.41841789  -3.48791591   3.28563073   8.81494484  10.24259254
 -12.58837546 -12.77778366  -9.84533011   1.51621139  -0.14391639
 -20.68734234  -8.81068172   1.61896255  -4.67590791  -1.95875885
  -0.13938881   3.37890643   8.93786348   3.08226706  -4.91694138
  -5.13118835  -3.82503301  -4.51495409   8.54562604  -9.00528739
   2.68433023 -13.5305531   -1.95767855  -1.61101563  -3.04485186
   1.38921881  -3.54639995 -10.32702097  -3.34484616   4.57005003
  -0.87225212   1.89354587   0.7973046  -10.44055742  -8.96197864
   1.85774841   8.84345517  -2.2551084    1.23789452  -4.12255264
  -5.37441175   1.35162908   2.59041521   1.25892246  -8.84340862
  -2.26777016   3.02193303  -1.15244806  -1.05021666  -4.21593159
   9.1831129    8.08869773   1.2931936   -1.31324523  -1.63054211
  10.34807012   7.7192675   10.817173     1.59029132  -0.50485908
   4.08998278  -8.07675661  -1.70381079   4.68426025  -1.25053735
  10.2142117    5.39288286  -2.95175061  -6.23349483   4.61497374
   3.31709646  -2.57793654  -2.64717464  10.91437694  -0.82028699
  -9.3982809   -3.34922567   3.55501673   6.94772912  -3.34434536
  13.99687968  -0.90460062   2.07387251   4.84270491   0.94993184
  -0.92619312  -5.03192141   2.72168719  10.8874176   -7.67778879
   1.20606272   1.81073568  -7.17016416   5.53277148   0.77422524
   8.90025716  -6.12587474  -4.89021619   0.50500425   0.52409154
   4.35967375   8.40266984  -1.54692797 -10.10907265   4.49866369
   5.62375584   9.35816147   1.72306603  -1.25990699  -7.60350225
   3.10896733  -4.15679655  -2.85344542   8.31637149   5.26373338
  -7.85891677  -2.88684002   3.76011284  -0.54994783   6.20202127
  -2.9725502   -2.54973998   3.46630627  -1.93762254   3.23227689
   4.31824442   3.91042285   3.35469577   7.21946161  -5.53196159
 -14.03540261  -2.25465595  -0.9819257   -1.02276396   3.60431888
  -1.1242454    9.45720818  -0.25937471  -3.28033228  -8.14895774
   1.15680006   3.95402299  -0.07738846   6.02958497   5.31840945
   2.15037839  -7.85803703  -3.24978923   1.26943218   2.43285422
  -7.53687073  -4.46016108  -5.13868265  -8.08705793 -10.1229799
   0.05558193   9.40899135   1.40667552   7.97980044  -2.22590454
  -4.28685599  -4.81277196   8.3117553    3.57128848  -1.35576652
  -3.8893543   -2.27299944  -4.32939471],-1597.379880110665
[ 2.92805344e+00  1.10467578e+01 -4.04242533e+00 -5.24285503e+00
 -4.55246849e+00 -7.88434615e-01  8.43149517e+00 -3.32159680e+00
  8.83744526e-01  8.11664176e+00 -8.58934256e+00 -6.73645528e+00
 -1.00818267e+00  3.64690956e+00  1.43482303e+00  9.57580658e+00
  4.91478941e-02  4.35493404e+00 -6.01814114e+00 -2.83846930e+00
 -4.18008402e+00 -9.26941487e-01 -1.52400086e+00 -2.63851281e+00
  1.38723596e+01  3.04313179e+00  7.67608956e+00  1.11313684e+01
 -1.07519074e+00 -9.44529054e-01  4.14918462e+00  7.72462512e+00
 -5.65674734e+00  3.91638552e+00  6.76812094e+00 -4.02518317e+00
 -6.82768308e+00 -1.85771088e+00  2.17587421e+00 -6.62924422e+00
 -4.71768797e+00  2.50047999e+00  3.79111156e+00  4.61698632e+00
 -9.60127785e+00  8.59403881e+00 -5.47207102e-01  2.65906065e+00
 -3.60408685e+00  4.83472379e+00  1.02165197e+01 -3.81611131e+00
 -8.23736817e+00 -7.88192340e-01 -4.80282333e-01 -3.94013854e+00
 -6.38600800e+00 -1.23438859e+01  3.17073260e+00  2.73513039e+00
 -3.07331691e-01 -2.59115579e+00 -4.63980236e-01 -9.59309886e-01
 -3.05761722e+00 -3.35363240e-01 -5.20169917e-02 -2.73631119e+00
  4.79245636e+00  6.98738963e-01  3.58635061e-01  9.04910679e+00
  7.00300600e-01  1.24583634e+01 -1.66900400e+00  2.85285673e+00
 -4.03840240e+00 -2.23163712e+00 -1.50367679e+00 -7.66474888e+00
  1.79537626e+00  1.92983835e+00  6.53802288e-02  4.63243684e-01
 -6.45132466e+00  6.88213560e+00 -3.27772671e+00 -5.69616921e+00
  5.16462014e-02  4.35312064e+00  6.47388619e+00 -1.68487798e+00
  1.28709337e+01  9.57668755e+00  6.17900732e+00  5.10215273e+00
  2.14844715e+00 -1.52356783e+00  1.20888868e+00 -4.16736777e+00
 -6.23940065e+00 -8.95295605e+00  3.84762868e+00  2.86431721e+00
 -5.13844255e+00  3.26706108e+00 -8.75962306e-01 -2.38050669e-01
  2.01565780e+00  4.23279985e+00  6.65551861e-01 -5.92464447e+00
 -6.80971409e+00 -3.31481376e+00  1.08328211e+01 -2.22396004e+00
  2.49049258e+00  2.77361035e+00  7.71373354e+00 -2.34785976e+00
 -7.45174562e+00 -1.00604371e+01 -1.50038489e+00  5.45832234e+00
  4.73102735e+00 -6.60053394e+00 -1.77306560e+00 -9.84930198e-02
 -3.22563933e+00  1.74626004e+01 -6.06780556e+00 -3.30320679e+00
 -3.94460740e+00 -5.51062135e-01 -7.15437163e+00 -3.22670128e+00
  4.11396288e+00 -7.49228568e+00 -1.03056661e+01  4.11776056e+00
  2.17902800e+00 -1.84551173e+00  2.50930415e+00 -7.96733083e+00
  1.08501271e+01  3.30890324e+00  3.19672955e+00  2.41364275e+00
 -4.21530498e+00 -2.64338288e+00  1.36347701e+00  2.64118388e+00
 -6.50010190e-01 -7.25967467e-01  7.81961750e+00 -4.54392973e+00
  1.35855922e+00  3.35614161e+00  3.37760360e+00 -5.33573462e+00
  2.40452773e+00 -5.10887699e+00  3.67571108e+00 -9.71709779e+00
 -9.94992828e+00  4.01776828e+00 -3.96605816e+00  1.15366436e+01
 -1.22078614e+00  7.78385059e+00  4.17483145e+00  5.64263583e+00
 -2.16902558e+00 -5.86999061e+00 -4.88596831e+00 -6.67870609e+00
 -3.28210097e-01  1.19142770e+01  5.76081721e+00 -1.08235267e+01
 -8.63077456e+00  1.08827874e+00  5.59284711e+00  4.72436269e+00
  2.22741752e+00  1.41128415e+00  3.48456656e+00  1.19383439e+01
 -5.74745249e-01  6.78612534e+00  1.33053655e+00 -5.89298233e+00
  2.64365185e+00  1.00483434e+00 -7.90992047e+00 -4.31511675e+00
  3.51897531e+00 -1.33856132e+00 -1.87204346e+00  2.63833614e+00
 -4.81839625e+00 -1.95158020e+00 -1.31834097e+00  4.76299021e+00
 -1.14860111e+01 -8.23766474e-01  4.24520305e+00  7.73975806e+00
 -4.98912109e+00 -2.79449763e+00  4.22512361e+00 -5.49077708e+00
 -4.85030135e+00  7.94688830e+00 -3.78229044e+00 -6.01097498e+00
 -7.83142782e+00 -1.14399551e+00 -1.58338801e+00  3.48450950e-01
  8.26115083e+00  2.42556848e+00 -6.45379707e+00 -9.16848717e+00
 -2.36789348e-01 -1.81714696e+00 -2.48195253e+00  9.38273713e-01
  2.70215025e+00 -1.85128545e+00  3.12484850e-01 -2.52246132e+00
  6.17398129e+00 -6.26186088e+00  1.69277197e+01  1.69229777e+00
  4.03446028e+00 -1.49662342e+00  3.90716303e+00 -9.69596917e+00
  4.65365863e+00 -2.19477444e+00  5.00214033e+00  2.04275213e+00
 -9.98597149e+00 -1.78261984e+00 -5.56970906e+00  4.88037244e+00
  5.77567374e+00 -7.55341954e+00  1.94252590e+00 -4.53533439e+00
 -5.87870542e+00 -4.94403071e+00  1.90573241e+00  7.06959927e+00
  5.36652975e+00  4.52554465e+00  5.22663627e+00 -1.95330584e+00
  1.34846200e+01 -4.44679891e+00 -1.81984818e+00 -5.54720760e+00
  2.92921750e+00 -4.86973934e+00  4.86704048e+00  2.26915137e+00
 -1.03864321e+01  1.69087037e+00  4.74344385e-01  6.12397297e+00
 -5.90215335e+00 -3.15619234e+00  1.75771285e+00 -1.20294752e+01
  1.84838419e+00  2.00634655e+00  7.37591570e+00  2.00005939e+00
 -3.68465438e+00  8.61657872e-01  4.28748496e+00  4.86525479e+00
  3.59310106e+00 -5.40008039e+00 -1.18733772e+00  2.07460774e-01
  5.05674790e-01  4.23818284e+00  8.90210135e+00  3.44619083e+00
 -7.63071115e+00  5.77779352e+00 -2.65756052e-01 -4.07318725e+00
 -7.61483437e+00  5.49646842e-01 -2.01327825e+00  1.11318959e+01
 -1.53989151e-01  3.25192105e-01 -3.88204665e-01 -5.88114653e+00
  3.84292839e+00 -2.24060326e+00 -3.52551196e+00 -1.57659091e+00
  5.02960825e+00  1.08568268e+01 -5.29485430e+00  4.44786425e+00
  1.22543145e+01  2.32973934e+00  2.35052306e+00 -5.29232889e+00
  8.41090713e+00  2.49890500e+00  2.98639408e+00 -7.49930840e+00
 -7.10392777e-01 -4.68541611e+00  4.92950614e+00  4.48832318e-01
 -4.35338414e+00  1.80200624e+00  2.97238086e+00 -2.89720878e+00
  5.71668721e+00  6.59142727e+00 -1.73456150e-01 -3.74649231e+00
  8.86945585e+00 -3.46311039e+00 -8.82156028e+00 -8.14319076e-01
  4.93938282e-01 -1.06043162e+00 -6.07238628e-01  1.79374740e+00
 -4.74603949e+00 -4.36206982e+00 -1.11867836e+01 -8.33353755e+00
  3.99593134e+00  3.47974474e-01  3.41187515e-01 -3.44905183e+00
  5.07840016e+00 -1.07291239e+01 -5.81356104e+00 -2.07125827e+00
  5.18017981e+00 -1.06498689e+00  7.40926975e+00 -6.42570213e+00
 -1.18933271e+01 -8.26467740e+00 -1.26046481e+01  6.59021254e+00
  3.78469310e-01  8.18861412e+00  5.60193021e+00 -6.20301237e+00
 -4.93988372e+00 -5.61358400e+00 -4.11508556e+00 -9.14065119e+00
 -4.45107650e+00 -8.47447765e+00  1.45260939e+01  1.50741133e+00
 -1.27238629e+01 -4.68585364e+00 -5.36085652e+00 -2.45586464e+00
  2.82195282e+00 -5.26697710e+00  3.99713481e+00 -7.29331982e+00
  4.35173844e+00  1.09644530e+01  4.45470643e+00 -1.35542280e+01
  7.31875935e+00 -4.47413565e-01  4.98786757e+00  2.38178561e+00
  4.44300638e-01  7.84565475e+00  2.79587514e+00 -3.79752329e+00
  2.38827917e+00 -3.39786637e+00  1.62262001e+00  2.59878480e+00
 -1.41924546e+00  1.17997498e+00 -8.23494334e+00 -1.24313544e+00
 -1.44430603e+00  3.01393319e+00 -5.35356840e+00  6.46150251e+00
  1.97821708e+00  7.21512955e-01  6.73411543e-01  8.16069450e-01
  1.21177383e+00  2.19530017e+00 -8.74680724e+00  9.06470307e-03
 -6.74779701e+00 -8.63197550e+00  1.42825158e+00  1.01123470e+00
  9.67111542e+00  2.50780194e+00  4.14570653e-01  5.33159363e+00
 -1.36498490e+01 -1.41989031e+00  1.00793371e+01  4.27136499e+00
 -9.13530454e-01  1.95063926e+00  1.08909329e+01  6.42134058e+00
 -7.90323340e-01 -4.29959593e+00 -3.81811271e+00  3.16878498e+00
 -8.60850448e-01  3.00597062e+00  1.97512806e-01 -6.83380699e+00
  3.42497698e+00 -3.57192271e+00  1.42863653e+00  4.07539403e+00
 -6.49378436e+00 -2.05297131e+00  5.74627625e+00 -4.25850465e-01
  5.82387168e-01 -6.42446385e+00 -2.83775689e+00 -1.05808284e+00
 -7.02032569e+00  9.26392291e+00 -2.55932571e+00  6.80936863e-01
 -1.68838913e+00  1.90084580e+00 -1.43866252e+01  4.49480950e+00
 -6.08394990e+00  1.06930845e+01  4.74544000e+00 -2.64275079e+00
 -9.84411576e+00  3.15481889e+00  1.89052500e-02 -5.82402204e+00
  5.75263798e+00 -1.03177378e+00  4.35616805e+00  3.41266020e+00
  5.41103412e+00  4.49332315e+00 -6.06616361e+00 -7.07270910e+00
  7.52142982e+00 -4.88538794e+00 -6.72658995e-01 -4.55719159e+00
  7.27491104e+00 -5.61350804e+00 -2.07407554e+00 -4.75915198e+00
  6.51082420e+00  6.27683514e+00 -3.36789638e+00 -3.40672778e+00
  9.45573540e-01 -5.60002495e+00 -3.41042965e+00 -1.89520522e+00
 -7.26063083e-01  1.10017715e+01 -2.73967787e+00 -3.18019891e+00
 -2.80629942e+00  4.71731741e+00  5.64678753e-01 -2.42886887e+00
 -4.40266425e+00 -4.27920835e+00  8.70110681e+00  3.64286060e+00
 -4.05468487e+00 -8.05765155e-01 -3.19615100e+00 -3.53311038e+00
  1.04460641e-02 -3.80523462e+00  1.05549954e+00 -8.11669190e+00
 -9.13993043e+00 -8.55286500e-01  3.59476245e+00  3.85389311e+00
 -4.75053354e+00 -4.35351908e+00  7.95515507e-01  1.26072619e+00
  2.26288832e+00  1.12456127e+00  1.58033180e+00  1.77335538e+00
  3.95578714e+00 -1.48471934e+00  2.05741546e+00 -7.83258124e+00
 -6.76306969e+00 -2.26247858e+00  7.28844093e+00 -7.55934016e-01
 -5.46547685e+00 -9.86926274e-02  4.85003019e+00 -7.93774626e+00
 -2.40712082e+00 -2.66638021e+00  3.12582172e+00 -6.24167355e+00
  4.83812966e+00 -1.27987122e+01  7.27417973e+00 -4.83903696e+00
 -1.27228603e+00  8.13284196e-01 -5.43204949e+00 -3.37748733e+00
 -4.38820095e+00  2.77351122e+00 -1.14725433e+00 -3.22958825e+00
  8.91650618e-01  1.83826476e+00 -7.39180867e+00 -3.46860720e+00
  5.16360955e+00  5.98433692e+00  6.34444833e+00 -3.82372802e+00
 -4.31568965e+00  3.19386778e+00 -7.53595497e+00  2.13721382e+00
 -2.55492994e+00  4.93835559e-01  5.83786703e+00 -2.23206896e+00
 -2.60797071e+00  5.64007555e+00 -2.48462097e+00  5.11048246e+00
  9.44152577e+00 -7.72865280e+00 -5.84530071e+00 -2.23293970e+00
  8.11694151e+00 -7.56741120e+00 -3.61286630e+00  1.90006696e+00
  4.38328205e-01  6.04206611e+00  3.26564245e+00 -1.52210609e+00
 -3.29298970e+00  4.53705508e+00  5.13792657e+00  7.06199754e+00
 -6.24922972e+00 -2.75534929e+00 -6.45321636e+00  3.48379056e+00
  3.46120643e-02  6.55385837e+00 -2.72771080e+00  3.87376956e+00
  1.37629751e-01  5.57067738e+00 -8.38441979e+00 -7.87167897e+00
 -1.97054934e+00  5.63853357e+00 -1.33675491e+00 -5.99412302e-01
  2.49258097e-01 -2.77061130e+00 -1.36656350e+01 -4.08051198e+00
 -2.18360967e+00  9.60682675e+00  8.01857931e+00  2.70893439e+00
  1.61835589e+00 -2.92668862e+00  9.49995142e+00  2.08284287e-01
 -3.49259399e+00 -8.64646468e+00 -8.43704884e+00 -3.24007931e+00
  3.42838589e+00 -1.53767260e+01],-1296.3815766295852
[-0.19576602  0.29229976  0.12690295  0.00770234 -0.82843384  0.05070343
  0.04075737 -1.54010425 -0.84252523 -1.02529529 -0.22515848  1.79617561
 -0.71789651  0.40893897 -0.31552374  0.10725645 -0.16346523 -1.59042448
  0.08250827  0.98682804  1.54992597  0.18907919 -0.7833     -1.56532194
 -1.94262651  0.33664169 -0.48017971  0.70077604 -0.76470028 -0.7853679
  0.2102706   0.51571799 -0.10996605  0.94234382  0.23794948 -0.06743203],-1027.268047799931
[ 8.49406564e-01  1.16612790e+00 -1.76252351e-01 -4.20824464e+00
  2.80081541e-01 -3.55040458e+00 -3.42989883e-02  3.37177785e+00
  3.21780219e+00 -1.04357384e+00 -6.28874532e-01  3.49556181e-01
  8.46389705e-01  4.81980245e-01 -3.42843850e-02 -1.84672142e+00
 -2.66027419e+00  2.47287527e-01 -1.83606907e+00  6.52278780e-01
 -9.81549866e-01 -1.54278222e+00  3.13108055e-02  4.91000108e-01
  7.26168111e-01 -2.56826247e+00 -8.36203202e-01 -9.18199349e-02
  7.79298657e-01 -4.81810473e-01 -2.07120165e-03  1.51476376e+00
 -4.62525250e+00 -6.35594486e-01  2.67758010e+00  8.09695494e-01],-1091.4964310012697
[ -6.18668342  -1.18791619   1.32111569  -5.21805149   2.16247153
  -7.06607921  -2.63944375   0.33169548   2.38615761   6.83487588
  -6.86824412   6.87723853  -2.20192698   3.5110268   -0.95725659
   4.06706994   1.1927069   -8.63002386   3.98624344  -3.53031095
  -0.91490682  -0.5952869  -12.72653282  -5.86944042  -6.7838401
  -3.78759373  -1.32833328   2.41796642  -3.34936123   3.03129148
   4.08505272   3.76116944  -2.89742861   6.61002603   0.40780818
  -0.44767687],-236.71587763311183
[-5.07329329e+00  7.52309442e+00  2.51329517e+00  3.08973707e-01
 -3.78968971e+00 -6.78875897e+00 -7.55793273e+00 -4.58522345e-01
  7.06397465e+00  4.92395847e+00  3.23301842e+00  1.54269676e-01
 -2.03897871e+00 -3.36404240e+00  2.45803061e-01 -7.96249324e-01
 -5.04932360e+00  1.00016713e+01  2.22300680e+00  4.14031561e+00
  9.87305822e-01 -5.94457310e+00 -2.04816924e+00  4.50077814e-01
 -3.50745403e+00  2.80967834e+00  5.26793807e+00 -8.01974069e-01
 -1.98235013e+00 -9.82987199e+00 -4.03829939e+00 -4.16768182e+00
  3.13046643e+00  3.51517710e+00 -2.71288559e-01  4.23064321e+00
  9.52679672e+00  1.80230811e+00 -2.10746181e+00  1.20423129e+00
 -3.11659968e+00  3.41790336e+00 -2.36532904e+00 -4.15392226e+00
 -3.35826453e+00 -1.68904845e+00  6.79168654e+00 -3.75999223e+00
 -1.58034186e+00 -7.92857983e+00  7.37442615e-01  4.36430724e+00
  6.80829091e+00  1.82017608e+00 -7.87290942e-01 -6.76094656e+00
  7.75494847e+00  9.46927918e-03  1.53393735e+00 -5.59042711e+00
 -2.95076922e+00 -4.95632593e-01 -2.44578618e+00 -3.25919831e+00
 -1.27867678e+00  4.47140141e+00  4.25358563e-02  4.00895150e+00
 -3.17882701e+00 -1.60538886e+00  3.22608295e+00 -4.19148522e+00
  3.94145275e+00  2.17122668e+00 -1.28827285e+01 -1.17436037e+00
  6.92319573e+00  1.18986655e+00  1.41801786e+00 -2.84493806e+00
  8.50842829e+00 -1.05392420e-02 -2.77553311e+00 -3.79055448e+00
  3.44600495e+00 -9.15710367e+00  6.28567765e+00 -8.19710116e-01
  6.02059544e+00 -5.90801394e+00 -5.39507655e+00  2.95771452e+00
 -5.12143320e+00 -3.21257343e+00  3.27335247e+00 -2.01290447e+00
  2.41506718e-01  7.15308218e+00 -5.41036900e-01 -8.89908276e+00
  3.57213099e+00  5.99934675e+00 -2.05437445e-02  1.33744902e+00
  1.59442423e+00 -4.60008539e+00 -1.52735146e-01 -8.79167644e-01
 -1.04160930e+00 -5.61688226e-01 -7.78691743e-01 -5.20420336e+00
  3.03200927e+00  3.40804277e+00  8.97301808e+00  1.85415312e+00
  4.32314309e-01 -3.34352694e+00  6.69375271e+00  2.85530676e+00
 -8.47970095e-01 -1.60635210e+00  3.61806551e+00 -6.35819517e+00
 -9.58058610e+00 -2.21343430e-01  3.39544939e+00  5.83923547e+00
 -6.45545391e-01  2.55595702e+00 -3.67560675e+00 -6.35133560e+00
 -3.11908997e-01 -1.87369242e+00  1.01626452e+01  3.95461649e+00
  2.06842806e+00  1.21642100e+00 -3.36681873e+00 -3.11559204e+00
 -2.24188338e+00  3.66253238e+00 -4.02337867e+00 -4.91722477e-01
  4.95903326e+00  3.23800640e+00  4.60783296e+00 -2.92842616e+00
  7.53741871e+00  6.02371531e+00 -3.18112599e-01 -2.48685000e-01
 -3.76694520e+00  4.01234653e+00 -3.75301953e+00  5.05360907e-01
  9.01301828e-01 -8.00600158e-02  4.75935108e+00  2.18288384e+00
  6.22936235e+00  2.06864762e+00  7.18322409e+00 -4.91799173e+00
 -5.44709891e-01  9.88494503e-01 -1.05457886e+01 -1.12344762e+01
  2.83534146e-01 -7.31177201e+00 -1.67869192e+00  1.50913880e+01
  7.52225511e-01  2.31356512e+00  5.21580883e+00 -4.99476167e+00
 -9.82643317e+00 -4.12407676e+00 -3.71291243e+00  1.72484062e+00
  4.17253897e+00 -4.20498974e+00  2.80108208e+00  4.06846846e+00
  2.88480147e+00  2.98785476e+00  8.11924814e-01  5.30415433e+00
 -4.61424925e+00 -5.96702304e-01 -3.71135616e+00 -2.34223957e+00
 -1.92396531e+00 -4.76635465e+00 -4.05775856e+00 -8.42224195e+00
  1.63709674e+00 -2.30024010e+00  7.78404822e-01 -1.84235684e+00
 -6.15942105e+00  3.64868579e-01  1.68802445e+00  5.18241423e+00
 -9.98077594e+00  1.44925375e+00  4.01272338e+00  2.87385047e-01
 -7.77202925e+00  4.56670244e+00  2.25197337e+00 -3.31284700e+00
  1.97761383e+00  6.30638862e+00  1.26675635e+00  4.14035143e+00
 -2.96930762e+00  1.79515156e+00 -1.08918805e+00 -6.05543467e+00
  2.49549272e-02 -2.08799773e+00 -3.18646286e+00 -8.89281746e-01
 -6.53638873e-01 -3.55487500e+00  1.53584282e+00 -1.59072464e+00
 -1.30550242e+00  1.54607907e+00 -1.34790985e+00 -1.62060263e+00
  5.92294249e+00  7.18330108e+00 -4.17783996e+00 -4.96727929e-01
  2.49673518e+00  4.75408166e+00 -4.68084139e+00 -1.40462184e+00
  3.61357748e+00 -2.72285559e+00 -1.61313503e+00  2.61275103e+00
  7.92311351e+00 -3.38175856e+00 -3.24169370e+00  1.05393376e+01
  2.88966893e+00 -2.20129047e+00 -3.91508153e+00 -4.22784834e+00
  5.21206564e+00  1.74078897e+00 -1.18806398e+00  2.72180481e+00
  1.73854463e+00 -2.38088592e+00 -2.04261384e+00  5.63045585e+00
 -5.35089946e+00  1.58894757e+00 -2.43204109e+00 -4.96247391e+00
 -2.11060439e+00  4.85917351e+00  1.10846521e+01  2.25153219e+00
  3.09187969e+00  6.05595563e+00  4.12025459e+00 -4.73685541e-01
  1.56176532e+00  1.18660464e+01  3.30168742e+00  9.02958079e+00
  2.25223944e+00  3.78052474e+00  3.27232908e+00  4.23679024e+00
  4.55967890e+00 -5.00057156e+00 -1.06024128e+01  4.83220116e+00
  2.87096646e+00 -3.64098691e+00 -5.10214713e-01  7.00869681e+00
  4.39257325e+00 -9.82642878e+00  7.93752751e+00 -2.36041629e-01
 -2.59367743e+00 -5.64741971e+00  6.13685618e+00  1.71363666e+00
  6.18135825e+00  4.74198222e+00 -7.95575811e+00  2.59639579e+00
 -1.60552962e+00  1.95347517e+00 -5.39085308e-01  4.03108656e+00
 -1.02534957e+00  3.02935125e+00 -2.04564901e-01 -4.37636657e+00
 -2.20601467e+00 -5.42815407e+00 -2.76793226e+00  5.52427830e-01
  3.86021453e+00 -1.51265418e+00 -2.13684494e+00  3.81915650e+00
 -6.35466405e-01 -7.55951945e+00  7.27972062e+00 -2.47875028e+00
 -9.81357351e-01 -2.33472068e+00 -5.20246738e+00 -2.61233551e+00
 -3.66942679e+00  1.77771460e-01 -2.66522570e+00  1.00658815e+00
  1.84169083e+00 -2.65741929e+00 -5.78197498e+00 -3.04834913e+00
  1.08030754e-01 -6.71536608e-01  1.17981026e+00 -7.94485522e+00
 -1.54218997e+00  4.94308314e+00 -1.93738560e+00 -6.05284407e+00
 -1.24768828e+00 -3.77222454e+00 -1.23941281e+00  8.02593222e+00
 -1.44302715e+00  2.31897874e+00  1.43782433e+00  2.59099474e+00
 -5.97344678e+00  1.98361748e-01 -1.38136754e+00 -8.82741116e+00
 -4.33787517e+00  6.45279207e-02  1.46542575e+00 -3.18249613e+00
 -7.07825070e+00 -6.51778087e+00  2.65359813e+00 -9.72188524e-01
  9.92650399e+00 -1.60668468e+00  3.97806342e+00 -2.20448701e+00
 -8.43246640e+00  7.20133513e+00 -6.08311126e+00  2.53083963e+00
  1.18506943e+01  1.16232525e+00 -6.53018284e+00  1.61436313e+00
  2.62638634e+00 -7.73587200e+00  1.99369261e-01 -3.20307987e+00
 -1.12818924e+01  8.94721756e+00 -7.53067157e+00 -2.44503425e+00
  5.10354104e+00  4.36606841e+00 -1.29095236e+00 -7.07278894e+00
  1.44228047e+00 -3.09938082e+00 -4.69154586e+00 -1.39537325e+00
  8.56706491e-01  5.28217293e-01  1.11362190e+00 -2.18201772e-01
  5.57109214e-01  4.26926783e+00 -4.36675335e+00  1.93885620e+00
  1.99268458e+00 -1.11187775e+00 -2.00208640e+00  1.54434725e+00
 -1.27461369e+00 -4.52535419e+00 -5.10612089e+00 -2.16722858e+00
 -8.64900237e-01 -7.36519340e-01 -4.35312377e+00  2.37389222e+00
  4.28857490e+00  7.39516891e+00 -4.23332308e+00  3.49968358e+00
  4.07944412e-01  1.23239942e-01  4.15230834e+00  4.23676821e+00
  2.35642974e+00  2.74842784e+00  1.05975752e+00 -5.53972497e+00
 -1.15207280e+00 -8.30519579e+00 -5.42371969e-01 -5.23694239e-01
 -3.34590122e-01  5.46190618e+00 -6.94680889e+00 -6.86963586e+00
 -3.35096563e+00  1.39722077e+00  9.60115664e-01  6.29784064e+00
 -7.98225116e+00 -7.49682719e+00 -2.65818078e+00  1.35979857e+01
  4.97658713e-01  1.66066305e+00  8.50180358e+00 -5.71763169e-01
  3.63189873e+00  1.71057976e+00 -3.78073842e+00  9.10854910e-02
  5.20247051e+00 -4.57356863e+00  7.75853015e+00  7.47718049e+00
  4.26028941e+00  1.72835552e+00 -2.55169685e+00 -6.34265529e+00
  6.70609488e+00  1.27984524e+00 -2.62782359e+00 -1.11072323e+00
 -1.90877490e+00 -1.80794279e+00  3.38211684e+00  9.35173410e+00
  1.21830349e+00  1.51276696e+00  2.42427399e+00 -3.25947280e+00
 -1.14741277e+00  3.47282004e+00  7.93446184e+00 -3.24601300e+00
 -2.68797440e+00 -2.95332382e+00  1.20953813e+01 -4.27934093e-02
  6.11417611e+00 -9.20464865e+00  3.21593664e+00 -2.97639216e+00
 -4.07802900e+00 -1.87442575e+00  5.34178409e+00 -4.70150656e-01
  4.01853664e+00  2.70707746e+00  6.10638775e+00 -2.70705098e+00
 -3.31260167e+00  3.01971173e+00  4.77405630e-01  1.54512444e+00
  2.00495832e+00  1.81114356e+00 -4.37637313e+00 -1.66858528e+00
 -1.07832402e+00 -2.90585850e+00 -3.00916908e+00  1.11440766e+00
 -4.39413506e-01  2.05930461e+00 -1.25719675e+00  3.77427808e+00
  2.64259120e+00  1.10648749e-01 -3.28137479e-01 -6.52119229e-01
 -1.86249065e-01  1.06323569e+00 -1.62331256e+00 -3.04321116e+00
 -6.03576340e+00 -3.54038056e+00  3.32645442e-01 -3.82458068e+00
 -5.13406431e+00  1.01130275e+00  8.95587681e-01 -8.11412158e+00
 -7.86911650e+00  7.89939019e+00  8.05464154e+00 -5.55106518e+00
  4.53357449e+00  4.28721934e+00 -8.00199710e+00  1.55031723e+00
  5.23128891e+00  4.60721423e+00  1.14847732e+00 -1.93838785e+00
 -4.22072405e-01  7.17508943e+00 -7.70317397e-01  5.24965943e+00
  4.10377098e+00 -4.97850741e+00 -2.93934307e+00  3.62949837e-01
  1.87110734e+00  6.72669244e+00  2.43625047e+00 -5.05069515e+00
  4.21121829e+00 -5.34000158e-02 -5.19406353e+00  6.44645782e+00
 -3.56887960e+00  2.37864703e+00 -3.34660674e+00 -5.56028316e+00
  4.96227333e+00 -2.11893023e+00  1.28536322e+00 -6.30150665e+00
  1.67560596e-01 -3.92248715e+00  3.22538160e+00 -2.07941178e+00
 -7.42471360e+00 -3.03693463e+00  4.72917489e+00  4.16324054e+00
  2.99909071e+00  7.91405818e+00  7.14404872e+00  1.56090930e-01
 -3.19766991e+00 -2.02222116e+00 -1.03056125e-01  4.67999266e+00
  6.46719833e-01  1.21473904e+00 -2.93305901e+00  3.64385630e+00
  4.41292385e+00 -4.17708405e+00  5.11754623e+00 -4.51915920e+00
 -2.94444659e-01  6.13500157e-01  1.61735656e-01 -2.08790335e+00
  2.37138819e+00 -7.75310924e+00 -2.76758498e+00 -1.96361909e+00
  1.16638243e+00  3.50419654e-01  1.45883697e+00  3.25297068e+00
  1.20733778e+00 -3.94088329e-01 -2.67769634e+00  5.52485260e+00
  2.56148549e+00 -4.89444626e+00 -7.76196004e-01 -9.50152769e+00
  2.03246091e+00  3.81532459e-01 -3.46596431e+00  1.66404795e+00
 -4.93528919e+00  4.33773994e+00 -3.88463332e+00 -2.87268189e+00
  1.78107603e+00 -2.35792464e+00  1.41749564e+00 -3.14551150e+00
 -7.44877451e+00 -2.25939689e+00 -3.00701335e+00 -3.23788484e+00
 -7.02612078e-01  4.76520187e+00 -4.79853723e+00 -3.53729616e+00
 -1.95888282e+00  9.67420701e+00  4.85529913e+00  5.15889127e+00
  6.34547892e+00  4.26715681e+00  5.76048563e-01 -2.10388946e-01
  1.85691411e+00  4.10148115e-01  8.22529085e+00 -3.89687815e+00
  4.07414669e+00  3.01304184e+00  3.66155322e+00  2.83275583e+00
 -4.69127309e-01  1.65301464e+00  2.20371370e+00  3.31865249e+00
  9.02732386e-01  2.01527355e+00 -5.93660454e+00  3.00296632e+00
  3.27844313e+00  2.36213961e+00 -4.86511007e+00  1.79717262e+00
 -4.74707481e-01 -4.52708441e-01 -1.08348059e+01 -2.84261649e+00
 -2.49908011e+00  4.22268585e+00 -1.19288199e+01 -3.48611512e+00
  1.19687524e+00 -7.38066748e+00 -5.23513370e+00 -6.08369840e+00
  4.88845093e+00 -1.40207873e+00 -3.89127055e+00  3.04044875e+00
  8.04141246e+00 -1.42145700e+01 -3.13209353e+00  4.43458658e+00
  2.64193443e+00 -1.36165099e+00  3.52051561e-01  5.98433117e-01
  9.46562543e+00  7.97990477e-01 -3.06156670e+00  6.10260546e+00
 -5.23550386e+00  1.39162787e+00 -9.08057454e-01  5.69752489e+00
  5.33890175e+00  3.06936370e+00 -7.25334526e+00 -1.72448560e+00
  1.75311033e+00 -4.21042850e+00 -6.59483270e+00  2.07644171e+00
  1.51379042e+00  8.61655534e+00  5.01865457e+00  3.83383499e+00
  2.78880890e+00 -5.98293822e-01  3.62156995e-01  2.56175202e+00
  1.81944733e+00  2.95305305e+00 -6.32260702e+00 -4.52926171e+00
 -2.43763635e+00 -9.44805776e+00  1.22151545e+00  3.44701037e+00
 -2.78883821e+00  3.13308190e+00 -5.88007751e-01  4.35056752e+00
 -1.58803387e+00 -1.23719318e+00  1.16355718e+00  5.41543110e+00
 -4.36018025e+00  3.84797519e+00  2.63990169e+00 -7.33424172e+00
 -4.23322074e-01 -1.12894874e+00  8.46785674e+00  2.31845636e+00
 -2.02184695e+00  4.81112749e+00  5.00891580e+00  4.22580382e-02
 -1.05362972e+00 -7.02439220e+00 -1.81511538e+00 -7.21066839e+00
 -8.59350749e+00  4.96871185e+00  3.15208938e+00  6.29294201e-01
 -9.00261730e-01 -8.38176185e-01 -4.24358116e+00 -2.07005914e+00
  7.20119270e+00 -8.89646598e+00 -4.46807507e+00  1.24785181e+00
 -2.71160543e+00  4.70157419e+00 -3.35177457e+00  3.17063419e-02
 -4.72605116e+00 -1.44599394e+00  3.76457607e+00 -8.11551758e+00
  3.27388205e+00  7.04111659e-01  3.52116070e-01 -5.30992357e+00
  4.36372615e-01  1.22485731e+00  1.32785334e+00  4.04055226e+00
  9.11442408e+00  1.57391194e+00 -7.53460048e-02  2.46477641e+00
  1.94073982e+00 -4.51094054e+00 -6.66038544e-01 -6.87826081e-01
  2.18642295e+00 -1.17146458e+00  1.43400581e+01 -2.64142252e+00
  8.87631503e-01 -4.50286672e+00 -1.20264404e+01  5.51907919e+00
  3.07804971e+00  4.16357828e-02 -2.65302936e+00  6.95953023e-01
  2.58491973e+00  2.96543347e+00  2.76401028e+00 -8.20792600e+00
 -3.06765219e-01  2.17201415e+00  9.14626651e+00  7.55736733e-01
  4.17794473e+00 -2.02207609e+00 -2.92871661e-01  4.92755070e+00
 -9.99284723e+00  3.73826811e+00 -2.71667388e+00 -3.63428601e+00
 -1.73705632e+00  3.20888677e+00 -3.74002842e+00  2.04731915e+00
 -3.66354999e+00  3.00876011e+00 -5.33068751e-01 -3.03624477e+00
 -1.96499327e+00 -1.79084946e+00 -3.22827174e+00  3.95479535e+00
  5.10489242e+00  1.19837134e+01  4.73460072e+00  2.35736504e-01
  2.44504183e+00  7.12670406e+00  8.62501208e-01 -1.74409044e+00
 -5.42028565e+00  7.92715045e+00  4.80389368e+00 -1.04870657e+01
 -4.88762725e+00  2.95899772e+00 -1.86059116e+00 -8.24571006e+00
 -4.21626918e+00 -5.27085842e-01  4.68090013e+00  9.06680776e+00
 -2.45999926e+00  3.46493867e+00 -1.20646595e+00 -1.10139711e+00
  1.30326356e+00 -1.13821188e+01 -7.75318287e+00  2.01847144e-01
  2.46065533e+00 -2.24925113e+00 -3.57315070e-02 -7.98769008e+00
 -9.94060840e-01  4.60792913e-01 -3.80836413e+00 -2.92168864e+00
 -1.33753551e-01  2.42138653e+00 -3.96088373e+00  2.42957563e+00
 -3.85244150e-01  6.90445490e-01 -2.67919491e+00  8.66085541e+00
  2.05036402e-01  4.70444897e+00  5.03338942e+00  1.34175945e+00
  1.50255094e+00  4.02470275e+00  5.10519014e+00 -2.68958004e+00
 -4.77319193e+00  8.01000142e+00  4.36004203e+00  5.30305417e+00
 -1.60066016e+00 -1.45454913e+01 -1.35027907e-01  1.11326727e-01
 -2.75420345e+00 -6.42211867e-01 -3.63818595e+00  3.88209386e+00],-173.6689872002861
[ 2.30086794  0.71943726 -0.68193398 ... -0.77711376 -1.02830315
 -0.73383168],-195.04700259530006
[ 1.68562690e+00 -5.63729820e+00  3.58796608e+00 -9.83443551e+00
 -7.84201593e-01  8.32811470e+00 -6.23908257e+00 -8.38386973e+00
  6.20210118e+00  5.20329933e+00  3.63346945e+00  9.01225871e-01
  2.25300693e-01 -3.40402976e-02 -4.54167769e+00  2.49468774e+00
  1.64858459e+00 -1.24390907e+01  6.83478945e-01 -3.95459955e+00
 -1.82535851e+00 -1.16685995e-01 -6.79972301e+00 -2.16743306e+00
 -5.27146870e+00  7.33316202e+00 -3.07650651e-01 -2.77525636e+00
 -1.13080331e+00  7.34956391e+00  2.67953466e+00 -7.41726374e+00
 -7.54675544e+00 -3.34353834e+00 -4.86613030e+00 -1.00602518e+00
 -6.25676622e+00  3.39183541e+00  4.13508270e+00  1.35072756e-01
  7.02207682e+00  2.86287629e+00 -1.36485096e+01 -2.36304188e+00
 -1.08984513e+01  2.50093258e-01  1.81895612e+00  3.65415184e+00
  2.49008028e+00  5.83445890e-01 -2.01117798e+00 -4.50249132e+00
  5.49982861e+00  5.11137454e+00  3.45342316e+00 -7.50466829e+00
 -8.75512475e+00  4.18181249e+00 -3.19321912e+00 -9.38328227e-01
 -5.74350152e+00  3.21484244e+00  4.31402193e+00 -3.96861809e-01
  1.90610069e+00  1.33002767e+01  1.38217017e+00 -3.37921298e+00
  2.25220762e+00 -5.47192168e+00 -1.08683377e+00 -2.54966809e+00
  9.81067584e-01  8.87085126e+00  2.30071531e+00 -3.63023947e+00
 -4.94421683e+00  5.01270512e+00 -6.48165824e+00 -7.84995297e+00
  2.74936033e+00 -2.78274524e+00 -2.78504386e+00 -2.56065848e+00
 -7.66561491e+00  1.72425626e+00  2.29247338e+00 -9.10807144e+00
 -7.96929125e+00 -1.52044248e+00 -5.30471312e+00 -1.00096822e+00
 -4.36874441e+00 -7.91532399e+00 -8.96255592e+00 -3.11138682e-01
  1.00206370e+01  1.97338210e+00  7.92940640e-01  7.46026777e+00
  7.10935572e+00 -6.17275576e-01  2.73113938e+00  8.17840767e+00
 -2.95563905e+00  2.68011364e+00 -1.70566184e+00  1.46108389e+00
 -3.81080735e+00  2.01143792e+00  1.74004119e+00  2.79194286e+00
  2.51681652e+00  1.24288170e+00 -7.37222079e+00 -5.92172706e+00
  3.82096649e+00 -2.22152726e+00  7.99696711e+00 -5.87663595e+00
  7.52435030e+00  6.54517994e+00 -5.14504720e+00 -7.75306513e+00
  3.94725415e+00 -3.62056265e+00 -3.48601294e+00 -1.63349062e+00
  5.06220239e+00  6.53044716e+00  4.63256146e+00  4.55927241e+00
  6.05876687e+00 -3.99975325e+00 -5.77223460e+00  4.24326162e+00
  3.66405402e+00  5.29893288e+00 -7.03776570e+00 -6.10273609e+00
  1.13124503e+00 -4.37828603e+00  6.53417886e+00 -9.06326947e+00
 -3.22443870e+00 -9.33365915e+00  4.15079134e+00 -7.75385434e+00
 -9.10993593e+00  5.86711632e-01 -1.03908439e+01  2.47195450e+00
 -1.84340181e+00  3.84405990e+00  4.87057740e+00  3.32641231e+00
 -4.39876774e+00  7.65218892e+00  6.52644108e+00 -2.84317975e+00
  1.95612764e+00 -6.61602582e+00 -1.59235774e+00  4.67614039e+00
  6.00432632e+00 -6.05144631e+00 -3.68366843e+00  5.04697406e+00
  6.55526491e+00  5.12260061e+00 -8.11053370e-01  8.68541937e+00
 -2.27530481e+00  1.75291208e+00 -3.86396683e+00  1.12452821e+00
  6.51438552e+00 -1.73479771e+00  7.56196203e+00  1.08434177e+01
 -3.49503163e+00  7.03923209e+00 -6.88702770e-01 -1.39724960e+00
 -3.23682140e+00  5.99940778e+00 -4.57833317e+00 -1.00639734e+00
  5.74249167e+00  3.47681403e+00 -1.08932660e+00 -2.92318907e+00
  9.91242455e+00  2.99871052e+00  2.79669078e+00  1.61257508e+00
 -2.91995619e+00 -5.33615097e+00  2.10931060e+00  5.36958104e+00
  8.61227719e-01  1.30475748e+01 -9.05123794e-01 -4.14490949e+00
 -1.01808021e+01 -6.93463405e-01 -6.19116124e+00 -3.14221075e+00
 -4.97569801e+00  3.41309987e+00  3.96172113e+00  6.28330394e+00
  2.80222907e+00 -4.64336909e+00 -3.78689655e-01  4.19830828e-02
  6.79408641e+00 -6.47482468e+00  8.60744563e+00 -2.61767454e+00
  1.78067640e-01  3.21651957e+00  5.64500727e+00 -3.37184285e+00
 -5.76846973e+00 -2.43184184e+00 -7.52347741e-01  1.27709765e+00
  5.93000165e-02 -2.06579435e+00 -4.74750331e+00  6.62661932e+00
 -4.66822880e-03 -1.26954945e+00 -2.67007436e+00  5.24824646e+00
  1.91459600e+00 -7.56961812e+00  3.87675684e+00 -3.24456447e+00
 -7.11193059e+00 -5.49182247e+00 -2.14504130e+00  1.37727615e+01
  4.79491872e+00 -1.61728886e+00  1.91773427e+00  1.23759747e+00
  9.05109429e-01  7.70007558e+00 -2.26818019e-01 -7.46671702e+00
 -9.71382578e-01  7.18252868e+00  7.93510993e+00 -1.30515999e+00
 -1.47411619e+00  7.76130240e-01 -2.56318331e+00 -2.16049088e+00
  8.04498247e+00 -7.25634382e+00 -4.27688186e+00 -3.65562890e+00
 -4.18218324e+00  2.36814588e+00  1.86568065e+00 -2.23074729e+00
 -6.53500632e+00 -3.60697499e+00 -8.79106167e+00 -1.33638216e+01
 -1.06332946e+01  2.28066630e+00 -6.42009877e+00  6.36923939e+00
 -4.32579586e+00  1.10508114e+01 -3.46575624e+00  1.45155969e+00
 -1.46848267e+00 -4.35442905e+00 -5.57369349e+00 -6.99289524e+00
 -4.12466036e+00 -6.95898468e-01 -5.34752224e+00  8.87284974e-01
 -4.36772362e+00 -5.32874959e+00 -4.02366402e-01 -3.19170810e+00
 -5.40387781e+00 -1.13719972e+00 -2.69823109e+00 -4.36206893e+00
  2.38508061e+00 -1.43130047e+00 -3.42848545e+00  6.37597212e+00
 -1.47586353e+00 -4.16637718e+00 -8.70741681e-01 -5.74769796e+00
  3.31562210e+00  1.71679345e+00  3.43282386e+00  1.07709888e+01
  4.10229236e-01 -1.08205983e+01 -3.56615380e+00 -4.34309060e+00
  2.84863206e+00  8.32170078e-01 -2.97287621e-01  1.48237338e-01
 -2.77693989e+00  5.19383397e-01 -3.34631927e-01 -2.46446282e+00
  4.57863090e-01 -3.82463970e+00  3.86214276e+00  1.06954302e+00
  4.68928863e+00 -7.55333485e-01  8.01935356e-01 -2.88417935e+00
  6.37171588e+00 -5.04716150e+00  5.45857865e+00 -7.03677528e+00
 -6.46582306e+00 -5.90134348e-01 -5.15534197e+00 -8.86215005e+00
 -8.03204731e+00  2.65289302e+00 -8.09579494e+00 -8.06600706e+00
  9.85053672e-01  7.73494692e+00 -4.46708705e+00  2.39040145e+00
  1.15071755e-02 -5.55179991e+00  2.31840293e+00  7.03409891e-01
 -3.88997902e+00 -5.15414631e-01  5.20243438e+00  4.74314357e+00
  2.80092627e+00  2.31035829e+00  1.85146769e+00 -4.67879697e+00
  2.59254148e+00 -4.93678700e+00  5.73792342e+00 -1.16927232e+00
  5.56107400e+00  8.88190383e-02 -3.36838553e+00  1.19781282e+00
 -6.31476658e-01 -7.91215963e+00 -1.56912089e+00 -4.58112172e+00
  2.04829786e+00 -4.27874912e+00 -2.96615927e+00 -1.02910771e+00
  7.00819805e-02 -1.70184108e+00 -6.44288412e+00 -1.37185867e+00
  1.10531702e+01  2.78915709e-01 -1.74528044e+00  1.75404851e+00
 -4.53292595e+00  1.88957065e+00 -9.68658032e-01  1.27476145e+00
  4.45587708e+00 -1.02684882e+00  8.20318929e+00  1.47540354e+00
 -6.83338615e-02 -6.20372869e+00 -3.60666949e+00  5.91382138e+00
 -6.37864780e-01 -8.06590308e+00  1.12475738e+00 -1.11249707e+00
  5.64199837e+00  1.60098099e+00  1.45635356e+00  7.20266459e+00
 -3.56187013e+00 -3.60832925e+00  8.07810418e+00  2.04153138e+00
  1.54045827e+00  5.99145858e-01 -8.49160485e+00 -3.49127503e+00
 -4.83141298e+00  2.98097710e+00  1.29320776e+00 -1.99415489e+00
  7.49619972e+00 -8.13920942e-01  3.04401874e+00  4.13804281e+00
 -1.00634431e+01 -5.60492504e+00  1.05294850e+01  5.67561882e+00
 -5.04204336e+00 -4.13835369e+00 -2.90974685e+00  7.71607405e+00
 -4.38592602e+00  5.99572756e+00 -1.00115788e+01 -1.48909889e+00
 -6.52407599e-01 -9.15863932e+00 -4.71282026e+00 -7.09586926e+00
 -5.19078763e-01  4.44657257e+00 -1.29831246e-01  5.36834217e+00
  1.09834054e+00 -6.59679731e+00  3.06062791e+00  4.48449873e+00
 -8.70699325e+00 -8.75538670e+00  1.05480700e+01 -2.39965853e+00
 -1.15929117e+01 -1.39714841e+00 -2.31078272e-02 -1.48209455e+00
  1.19978099e+00 -1.29240739e+00 -6.67924868e+00 -1.00415785e+00
  3.71237745e+00 -1.00938792e+00  8.10452239e+00  9.12049459e+00
  2.33951985e+00  4.52898208e+00  2.80479082e+00 -7.03888076e+00
 -2.69425658e+00 -2.17354695e-01  6.87447979e+00 -6.24664712e+00
 -3.72976836e+00 -1.20340480e+00 -3.76798899e+00  6.44677996e+00
  2.78886923e+00  3.15896037e-01  7.70117544e-01  1.97204762e+00
 -5.51352073e+00 -8.38310510e+00  8.59545297e+00 -1.81156063e+01
  6.71888047e+00  3.77920855e+00  3.00977898e+00  9.94103365e+00
  7.25583496e-01 -2.45420175e+00  1.08660554e+01 -4.46485823e+00
  2.19998089e+00 -6.78553775e+00  7.84762150e+00  2.58202019e+00
  6.84827491e+00  6.55648026e+00 -8.04034558e+00  3.36524378e+00
  1.01889029e+01  2.91828835e+00 -4.20377251e+00  9.63986561e+00
 -1.03199718e+01  2.46644197e+00  4.59820442e+00  1.35830170e+00
  4.59887198e+00  2.80697314e+00 -2.93472411e+00 -3.53380927e+00
  1.20181481e+00  7.18989248e+00  3.25875159e+00 -3.42493280e+00
  2.01212637e-01  2.20495720e-01 -1.55509495e+00  7.90931544e+00
  1.92767411e+00 -3.70362894e+00  3.30636251e+00 -4.78387526e+00
  5.30156139e-01 -3.05462480e+00  4.06960218e+00  8.08376571e+00
 -2.87449914e+00 -5.30874844e+00 -6.83554725e+00  2.48603580e+00
  1.18241630e+00 -2.22538467e+00 -1.55764094e+00  4.34487963e+00
  1.28232065e+00  4.34397854e+00  5.44167118e+00  1.14041907e+00
  2.13742256e+00 -1.01675849e+01 -9.46424574e-01 -1.55463901e+00
  6.43994407e+00  4.93490350e+00  1.17716405e+00  9.90083041e+00
 -2.64526476e+00  2.40328542e+00 -4.66484251e+00  1.32882867e+00
  8.39642211e-01 -3.20158134e+00 -3.67958342e+00 -1.69799915e+00
  5.78153980e+00  1.59375450e+00  3.43230414e+00 -2.86936317e+00
 -8.83860490e-01  1.71618367e+00  4.19833136e+00  1.21068804e+00
  2.90905418e+00 -4.77961430e+00 -6.43897431e-01  1.48881469e+00
  7.80549476e-01 -1.74063198e+00 -6.46977267e+00  2.55856220e+00
 -6.60094381e+00  1.21215482e+01 -3.50280814e+00  1.92976299e+00
  4.65308843e+00  1.31794973e+00  1.80115132e+00 -4.21550062e+00
  5.32655740e+00 -3.81260193e+00  7.62166951e-01 -6.25963353e-02
  5.43283046e+00 -2.78261766e+00 -5.85396719e+00  7.69849377e+00
  5.43589617e+00  3.66094672e+00  2.18374226e+00  2.73753161e+00
  8.13981574e+00  1.10273339e+01 -9.66168903e+00 -4.29338714e+00
 -8.14890267e+00 -1.69404536e-01  2.74670856e-01  2.96132549e+00
  3.11981558e+00  9.60802219e+00  4.79023755e+00 -2.67514489e+00
 -1.37257526e+00 -5.15308297e+00  4.53599011e+00  5.68511836e-02
 -4.06747069e+00 -1.42093812e+00 -8.55436833e+00  2.97207951e+00
  1.58536005e+00  4.17122077e-01 -4.74998386e+00 -8.39397266e+00
  2.20712360e+00  2.06611975e-01 -2.31750291e+00  2.57871734e+00
  1.54693699e-01  1.56593463e+00  1.08765046e+01  5.09335629e+00
 -1.86367779e+00  2.54517509e+00  2.58364419e+00 -2.81309070e-01
  4.51486175e-01  5.09558930e+00  1.34381801e+00 -1.30349555e+00
  1.04642309e+01 -1.44497157e+00 -2.57477875e+00 -3.65453364e+00
 -5.83896976e+00 -5.28301576e+00 -1.11323406e+01  3.18087988e+00
  4.11254221e+00  2.31756685e+00 -2.44702308e+00  8.87328279e-01
 -1.16202698e+01  7.67018363e+00  9.25232808e-01 -2.09145986e+00
  7.61843077e-01  2.13208758e+00  4.27210911e+00 -1.06894379e+01
  2.19261228e+00  3.56807017e+00  5.33992066e+00  3.45126374e+00
  1.04304408e+00 -4.47566934e+00 -4.76730492e-01  3.93086185e+00
  4.30024190e+00 -1.64765245e+00 -1.46054737e+01  3.58786118e+00
 -3.55016565e+00  1.30104487e+00  7.80000111e+00  5.88433106e+00
  5.96556654e+00  2.61034123e+00 -5.49558291e+00  4.38739380e+00
 -1.01781077e+00  2.06127941e+00  2.00479550e+00  3.58476947e+00
 -5.26234224e+00 -2.12652369e+00  3.82007256e+00 -9.31860556e+00
 -2.70751704e-01 -5.85732385e+00 -9.38438717e+00 -1.04766255e+00
 -1.36401048e+00  3.88612920e+00 -4.76419993e+00  1.35430503e+00
  6.29491121e+00  2.87381841e+00 -7.94571533e-01 -5.15936271e+00
  3.62043595e-01  1.36357845e+00  3.48855844e+00  3.62096183e+00
 -5.18502550e+00 -2.56666654e+00 -3.47481651e-01 -5.63388949e+00
 -1.52766864e+00 -5.95837044e-01 -9.42807845e+00 -7.61425997e-01
 -1.02388896e+01  5.80134794e-01 -9.16852320e+00 -1.32454440e+00
  6.75125492e+00 -2.81677463e+00  1.47851785e+00 -7.02983190e+00
 -3.64167685e+00 -8.94009991e+00 -6.45070712e+00 -3.70847830e+00
 -5.91459668e+00  1.02427521e+00  5.57688635e+00  1.69721842e+00
  1.45513010e+00 -2.03619029e-01  9.23067952e-01 -5.42511666e+00
  3.79752400e+00 -2.17428778e+00  3.20592663e+00 -5.51094392e+00
 -4.54961868e+00  1.58324185e+00  5.65068145e+00 -2.55379099e-02
  5.57538567e+00  6.79480645e-01 -2.08812183e+00  2.10618857e-01
  1.37071206e+00 -1.78695385e+00  3.41435453e+00  1.25330751e+00
 -5.89302837e+00  1.16300438e+01  1.62815584e+00 -3.15991876e+00
  2.13891940e+00 -4.84101659e+00  5.39446844e+00 -2.34019821e+00
  1.67989516e+00  6.59172383e-02  1.53094572e+00  1.85123064e+00
  1.18832416e+00 -9.18264735e+00 -4.92881077e+00  4.87943483e+00
 -6.69339109e-01  6.73375777e+00  6.08583246e+00 -1.85750294e+00
  6.85144510e+00 -3.34216414e+00  1.80956910e+00  5.57943544e+00
 -5.18858924e+00 -1.83108629e+00 -5.44303766e+00  5.17367889e+00
  5.05678956e+00 -7.42612371e+00 -8.77403610e-01 -8.31524165e+00
 -9.76607649e+00  7.39377931e-01 -3.03309107e+00 -1.91002912e+00
 -2.64045898e+00 -6.69495023e-01  2.00616687e+00  4.94542453e+00
  1.29201517e+00 -1.89694743e+00 -5.24185449e+00 -3.56051769e+00
 -5.70960291e+00  7.21651489e+00 -4.27258688e+00 -5.56624504e+00
  3.53870007e+00  6.61971850e+00  1.28943494e+00 -7.52841201e+00
 -1.62272686e+00  5.62858602e-01 -1.58345084e+00  2.78722879e+00
  3.00451091e-01  9.21295605e-01  4.01594005e+00 -2.11597942e+00
 -9.99816100e-01 -6.94091196e+00  7.35993006e-01  8.25808170e+00
 -6.45163549e+00 -1.44838693e+01  1.68486844e+00  3.06074438e+00
 -2.21945776e+00  3.39081960e+00  7.52708415e+00 -7.58875838e+00
 -4.66812465e-01  7.84058837e+00  3.80053168e+00 -4.99792117e+00
  5.63465629e+00 -1.15149576e+00 -1.74793645e+00 -2.06752343e+00
 -4.66614361e+00  2.39677463e+00  1.04697619e+01 -5.11440263e+00
  8.40930047e-01  2.10434360e+00 -1.05069378e+00 -8.37517300e+00
 -2.05487258e+00 -2.00941924e+00  4.42744817e-01 -5.64780408e+00
  1.95589911e+00  4.57024149e+00  1.05663962e+00 -3.82740531e+00
 -6.36587935e+00 -5.29316911e+00  5.63580215e-01  2.53797935e+00
  3.44692995e+00  2.55788385e+00 -1.08095174e+00 -3.42002700e+00
  1.48456824e+01 -4.52099726e+00  7.91326895e+00 -4.55174159e+00
 -1.18613230e+00 -1.05292494e+00  2.09714322e+00 -4.16918042e+00
 -3.60054719e-01 -3.19502453e+00  6.57486109e+00  3.67971083e+00
 -5.10059331e+00 -2.89721429e+00 -3.24194165e+00  1.96596203e+00
 -9.48182283e+00  1.96363986e+00 -8.15050562e-02  8.71953151e+00
 -3.25236822e+00  8.92970171e-01  5.83478277e+00  2.08903907e+00
 -1.45804041e+00  5.84799105e+00 -1.26814112e+00  8.75910097e+00],-160.53603746034008
[-1.10848395 -0.52062574 -1.51275653  0.37351009 -1.27829095 -0.02558012
 -0.22073141  1.0302455  -0.71465687  1.40250474 -0.18238411  0.19888977
 -1.44573472 -0.8359507   0.76440646 -0.01060827  1.19476745 -0.17522777
  0.25014273 -0.2016272  -0.35112331 -1.29552077  0.1040577   0.13916636
 -1.44635954 -0.65549273  0.33539731 -1.32779418 -0.77127794  0.87818216
  0.08418214 -1.46139669 -0.36895526 -0.11048144 -0.65710424  0.28667424
 -0.0795495  -0.33859385  0.42940094  0.80428246 -1.51116888 -1.44508173
 -1.45337399 -1.07382757 -0.76533142  0.39854104 -1.36796521  1.25483451
 -0.72709106 -0.41682471  1.66031293 -0.68316546 -1.44556133 -0.19601937
 -0.4513021   0.97015345 -1.48502612  0.8275848  -0.00866495 -1.91841878
 -0.1501545  -0.98760702  0.86522759  0.05608447 -1.25333763  0.18464896
 -1.42449319  0.64988871 -2.28073599 -0.32929352 -0.64180656  1.59566798
 -0.38732214 -0.52377476  0.648517    0.29886795 -0.38757304 -0.58949077
  2.51531768],26.117058701463893
[ 0.30832916  0.81216059  0.12632426  0.17169965  0.15299878  0.26886171
  1.14519767 -0.08286056 -0.67757306  0.14581617  0.24962094 -1.05262505
  0.05966404 -1.59903755 -1.90655829  0.52130482  0.10537222 -1.49583777
  0.83397687  0.88062754 -0.07277867  0.21125801 -0.70587127  1.70856249
 -0.92006649 -0.68664936  1.10228564 -0.24785336 -0.33787255  0.87856798
  0.96094596  1.70829603 -0.59809745 -0.1336276   0.3394748  -0.08206335
 -0.63062558 -0.39255335 -0.56657215  0.52969828  0.08371979 -0.85994239
  0.87470609 -0.53145656  2.64908914 -0.03209858 -1.09511898  2.55640405
  0.49034716 -2.00697069 -0.34496029 -0.11676541 -1.45835949 -0.48058731
 -0.26575845 -1.139461    1.1138843   0.75455884 -1.42475523 -0.32212143
 -0.13509909 -1.0831401   2.36971997 -1.00123639  1.85525988 -0.95936405
  0.41837451 -1.51151354 -0.85738163  0.7877229  -1.13382082  0.14234543
  0.87259903  1.16856719 -2.06765712  0.16065677 -1.02756618  2.55045283
  1.240742  ],19.329971718484522
[ 0.58007281 -1.7318519  -1.72892713 -0.20179046  2.16764722  1.35924805
 -0.43245994  0.22191891  0.97497186  0.49974636  1.21926396  1.03619562
  0.9497403  -0.94998954 -0.11004753  0.18622504 -0.98567169 -2.0019081
  0.09657619 -1.07036803 -0.26992729  0.43917627 -2.2556545   1.14352663
  1.1322386  -2.16229439  0.30399209 -0.02359354  0.13417164 -0.01881122
  0.60852894  0.22745089 -0.94855245 -0.90534077  0.30040589 -0.48314579
  0.01716484  0.12788179  1.43627691  0.39046878  0.15375485 -0.26149536
  0.24108465 -1.14685739  1.69623405 -0.97710873  0.00684873 -1.10281811
  0.63569167  0.51294483  0.15392659  2.95287395  0.07879913 -0.68105118
 -0.12974742 -0.49871986 -0.22193702 -1.4139806  -0.67278654 -0.32385376
  0.29389091 -1.85509831  0.5957693  -0.84642474 -1.52622539 -1.45018517
 -1.43729107 -0.28969723 -0.7058164   1.32015407  0.87201921 -1.41262846
  0.93734605  2.9759493   1.57663381 -0.69740296  0.88275307  0.64232924
  0.07287358  1.83629074 -0.85170156  0.3328667  -1.09829654 -1.14766267
 -0.60386    -0.52653941 -0.09720664  2.37262769 -0.1945372   0.95636334
  1.4354179   1.62813109 -1.22335489  0.16193571  1.39651368  0.17080578
 -1.00035412  2.51602122],9.870778829589245
[ 1.74677124  0.76477432 -1.40226606 -0.83989449  0.18275466  1.27100876
 -0.03726997  0.98304332 -0.91753711 -1.98754854  1.14273049  0.71679728
 -1.21678616  0.07847263  0.7440903  -0.20652859 -0.64652283 -0.23297707
  0.67945673 -0.28300047  0.24520899 -0.40721433  0.99069973 -1.64348999
 -2.04453674  0.61591638  1.37473307  0.68884487  1.00947333 -0.76395957
  1.64083591 -0.93227194 -0.66474723  0.2665987  -1.26625094  1.2875891
  0.1371941   0.86104417 -1.58403768  0.48144352  0.27426643 -1.72827882
 -0.0802082   1.67373536  0.61691901 -0.66088949  0.44606125 -1.52814254
 -1.33087716  0.22892824  0.44007508 -0.36559233  1.38133228  1.81806881
  1.1796174   0.85292123  1.06729247 -1.590718   -1.16454262 -2.33319641
 -0.35810086 -1.30466533 -0.55536022 -1.31327104  1.93652535 -0.33409587
 -0.11206531  1.13423061  1.28486161  0.01709144 -0.39240904  1.09827563
 -1.90121886 -0.87102572  1.44249914 -0.23915916  0.09571813 -0.35450087
  0.02470912  0.41589545 -0.18552364  1.02513922 -1.85398095  1.19328202
 -0.38114424 -0.51258147 -0.43160758 -1.02978402  1.94288215  0.67885357
 -1.41860501 -1.55658688 -0.42354779  0.73220133 -1.6189672   0.5245848
 -0.80908947  0.65624189  2.13865672 -0.979816   -0.33016837 -0.29237336
 -0.28320612 -1.34944613  1.10162578  2.31602141  0.62399058  1.78661657
 -0.11744058 -1.10012634 -0.39361586  0.50267226 -0.90590268  0.9815813
 -0.19406059 -2.23391421  1.83864781],11.18316232921813
[ 0.97820404  0.54414144 -2.35383711  0.46834332 -0.8685388  -0.39826534
 -0.72372545  0.2124801  -0.53672486  0.86888306 -0.08927818 -0.9565513
  0.30770196  0.74776576  1.52322737 -0.03856395 -2.57300229 -0.93572612
  0.81725657 -0.04303595  0.7479378  -1.8335247   0.90354915  1.16678598
 -0.56406426 -0.26413688  1.04930208 -1.56917564 -0.38595066 -0.20769751
 -1.42197227  0.33357262 -0.35931412 -1.89085315  0.73534275 -0.157647
 -2.16794955  0.4599972  -0.52998844 -0.57432601 -0.44837623  0.47948073
  0.70381332  3.61716516 -0.05791437 -0.52514913 -2.61052893  1.74046743
 -1.0634884  -1.28879476  0.56791932 -0.28455957  0.96969916  1.31191784
  0.35996198  0.99794467  1.63970206  1.06914652 -2.16030719  1.0878639
  1.12212781 -0.32634952  0.5119364  -0.58784366  0.10203398 -0.70089652
  1.09025159  0.67804469 -1.06623613  2.27382161  0.25308667  1.6554889
 -3.39800654  0.55470401 -0.63804232 -0.8944118  -0.86332634  0.14902765
  0.6258681   0.45527081  0.23202765  1.94121206 -1.55966078  1.99099227
 -0.92880834  1.50890234  0.69253768  0.05794528 -1.22957334 -1.64168523
  1.54556275  0.60613208  0.75766828 -0.53133332  0.80330276 -1.07766777
  1.47773122 -0.02824762 -1.3041191  -3.25624654  0.33634101  0.82418968
 -0.77330388  0.05756918  0.09218798  1.37028223  0.29348612 -1.1023818
  0.24357276  2.01764785  0.21687921 -1.44579901 -1.33260349  0.89282935
  2.5829877   1.41358997  1.2363552  -1.79264665 -0.48773695  0.31710972
  0.581822   -2.11088762  1.79839793 -0.98894415 -0.21580667  0.64717067
  0.30175193 -2.28904295 -0.7381563  -1.47650191 -1.45160292 -1.00806825
  1.00172195 -0.92143431  2.81241327 -0.79252755],18.521093869723845
[ 0.9767599  -0.70119253  0.51559737  0.28940065  0.89793097  0.06194427
  0.5978924  -0.65723007  0.78386147  2.41921061  1.1047943  -1.7552769
  0.1089261  -1.65382886 -0.33747322 -0.33120301 -0.1902175  -1.45771537
 -0.54677234 -0.07279458 -2.01025128  0.02151484 -0.73447898 -0.31966207
 -1.7010807   0.74164519  0.37038533 -0.99072137  0.93224698  0.92446042
 -0.47817545 -0.0814852   1.24976493  0.62736707  1.60639151  0.5112822
 -0.75779672 -0.21604066  2.301132    2.13267562  0.50030209 -0.16834589
  2.76093196 -1.31852906 -1.58396686 -1.11871363 -0.86185534  1.01997774
 -1.15470663  0.84815784 -1.80849379  0.51491483 -0.46248274  0.89096032
  2.02912333 -0.11798298  1.07532427 -1.64650923  0.3259194  -0.69240242
  0.87534236  1.11369813 -0.52362381 -0.3572095  -1.58545921 -0.69820143
  0.81525849  1.50678913  1.28589844 -3.36693538  0.18333715  0.77670497
  0.45680592 -0.7093315  -1.35365546  0.44692472  0.04708319  0.46529356
  0.46832004 -1.04576809  1.28745508 -1.24201001  0.13706607 -1.18165006
  1.16522047  0.27657039  2.01501651 -3.30577989 -0.33401259  0.08848184
 -0.16551547  0.73018939 -2.36544591  0.34788901 -1.1475863   0.15223691
  0.71102346  0.61582019  0.41984406  0.07058135  1.84193394 -0.83896307
 -1.72127001 -2.05490275  1.02910791  0.29211259  0.32809915  0.30983018
  0.15693386 -0.55400588  0.0876953  -0.19156793 -1.29296967  0.29886328
 -0.61865919  0.25950259 -1.25615145 -0.88384394  0.07903572  1.66531394
 -0.31683649  1.59688067 -0.9920254  -0.24312135  1.97934379  0.57568169
 -0.17538308 -1.00113194 -0.08366992 -2.13200959  0.61492249 -0.61626752
  1.76745505 -0.24556983 -1.56397714  0.55119098  2.31161345  0.40212873
  1.05181906 -1.84856148 -0.8101484  -0.05805777 -0.21060616  1.05930804
  1.757987    0.77849874  0.77234242 -1.04207632  1.38759552  1.36310876
  2.80368336 -1.27754859  0.23463194  1.46574452 -0.18835873],26.153757226328747
[ 1.40595047  1.66646353  0.39781112 -0.56611411  0.40072856  0.97290671
  0.12406849 -1.66618595  0.87895733  0.06846411  0.74886887  0.79897618
 -1.09502944  0.62740564  0.3083814  -1.48442662 -0.89122911 -0.65444373
  0.58719046 -0.27117454  0.90075926  1.48493824 -0.22178685 -1.86753545
 -1.13505164  0.9196061   0.0332095   2.48125764  0.80880615  0.73893844
 -0.91591874  0.43474751  1.303953   -0.87522789 -0.18140519 -1.14075495
  1.05880644  2.17964318  0.8149318   0.27953227  0.58841925 -0.75798763
  0.88551199  2.96249085  2.59210294 -0.27543498 -0.19754466 -0.24162487
  0.11137568 -0.07622777 -0.05038985  0.34124668 -0.68633287 -0.93920143
  0.71523476 -0.94373567 -0.35907352 -0.99445305  1.35341032  2.11245325
 -0.5338106  -0.26278651 -0.81380437 -2.04088203  0.65785599  1.67373668
 -0.68419915 -1.21033182 -2.06613809 -1.38863316 -1.34274847  2.40642286
  0.99800117  0.26695909  0.47900595  1.38061104  1.16479122 -2.89596545
  1.22804545  0.41245146 -0.74150594 -1.29055767  2.08994241 -0.85197349
  1.54946243  1.52909171  0.7518309   0.87592687  0.64450099 -0.10283582
 -0.56633643 -1.70693584  0.56315853  0.22359855 -0.28199703  0.82317088
 -1.29862528  0.71775102  0.07156925  0.20939597  1.56490136 -1.17983836
 -0.45303582 -0.19891893 -0.05035169  0.35728848  0.70246284 -0.08481296
  1.04496847  2.57133624 -0.21197858 -2.00582066  0.11414034 -1.19732395
 -1.28588781 -0.17597906 -3.37868538  0.43500178 -2.18325234 -0.98285247
 -0.3234933  -0.7883863  -1.05672641 -0.92380744 -0.35244433 -1.26625038
  1.20747735 -1.3424258   0.781382    1.5965399   2.17313902  1.08598277
  1.77923379  0.67334999  0.24090829  0.10491393  1.43743512  1.69146651
 -0.56171469 -0.26083063  1.41684668  1.19830596 -0.73790878  0.70055281
  1.31280091 -0.26057575 -1.06362477 -0.41462359  0.1657384   0.23163987
  0.65206977 -0.02471922 -0.93270447  0.31790202 -1.57390761 -1.89491665
  0.91954925 -0.44654654  0.12097441  0.17264554  0.142917   -0.08099601
  0.06830958 -0.79670518  0.58210815 -1.6036442   0.37343161 -0.21740956
  0.79600635 -0.34185993 -2.08874177 -0.11516403  0.10766916  0.48249232],-1.3622381701917352
[ 1.91626889  0.15102672  1.0646257  -0.11540377  0.6496041  -1.86955328
 -1.0145273   0.4886855   1.39359209 -0.72160425 -1.13424279  0.27818124
 -0.44275705 -1.87067748  1.05635346 -0.47796523  0.93831461 -0.05959362
  0.93101863  1.38813969 -1.92574875 -1.93606247 -0.5891244   1.62410267
  0.80470292  1.01703256  2.9944551   1.7822184   0.49291904 -2.12439481
  0.6184136  -1.03157379  1.19473656 -1.52269145 -2.15068553  0.33695839
  2.51467014  0.58279401  0.47077158  0.50280687 -0.27214668 -2.24765813
 -0.84449617  0.81994191  0.9333329   0.34610836 -1.05098414 -0.10579257
  1.28881681  1.14873461 -0.10223366  0.57206068  1.45894141 -0.27075893
 -0.52904311  1.04807878  0.97026142 -1.39226349  0.30098444  3.06754009
 -0.5776958   1.45565092  0.40489515 -0.99907086  0.98893399  1.20286302
  0.90751419 -1.21654145 -0.00845246 -1.79471224  0.74783523 -1.18999618
 -0.04891079 -1.01152589  0.00460709 -1.36863279 -0.07870065 -0.51411743
  2.7876912  -0.14659378 -0.41037194 -1.11172374 -0.54554335 -0.45928468
 -1.51556342  1.51538864  1.04544343  1.06192558  0.27819889  1.04901664
 -0.47465278 -0.96364482  0.12915053 -0.56843673 -0.01223016  0.20611478
  1.06799931 -0.56090088 -0.13120233 -0.74443662  0.86634695  0.32828925
 -2.56817952 -1.44665486 -2.15272779 -2.75535193  1.40793115  1.03621329
  1.40846575  0.33692164  0.65145082  0.49540281  0.4290109   0.97363927
 -1.19668969  2.49220151 -0.41667228  0.03554064  0.16249324  1.50941034
 -0.01191927 -0.60472952 -0.99463555  0.97454121  0.6642038  -0.0220101
 -0.35246386  1.77625774 -0.82125911  0.40762545  0.20994217  0.33455118
  0.21742652  0.34339942  0.57313543 -0.91765002  0.10251063 -1.83303407
 -0.07490504 -0.08869556 -1.30135577 -1.41034774  1.45206733 -0.90984902
 -0.16149033  0.14721403 -0.18093004 -1.59106194  0.32148168 -0.33212264
 -0.93681809  0.74140992  0.21238879  0.21803749  1.1241069   0.49650718
  1.09511564 -0.3760864  -2.45459942 -1.37983248 -1.75463143  1.22441255
 -0.24666157  1.27319388 -0.21699381 -2.50733882  0.09710528 -1.31174723
  1.69402341  1.39894536  1.33279876 -1.02675691  1.36165669  1.47394683
 -0.21716829 -0.59421472 -0.23733072 -0.08319976  0.65705416 -0.73344717
  0.24131737 -0.34873979 -2.41755454 -0.62264322 -0.34896061  0.67623916
 -0.25357588 -0.09783324  1.80616684 -0.8717838   1.63289118 -0.25128896
 -0.95878521],8.310617533561249
[ 3.10875377 -3.33831423  0.14227296  3.15447666 -3.46106146 -1.40894332
 -3.47622717  2.59297537  1.97833961  1.35313279 -1.6330447   3.91775412
 -0.06581891 -4.43679112  0.47957542  0.00894042  0.85280337 -2.33413549
 -2.98325981  0.61867394 -1.92227359 -1.24144394 -2.40290142  1.34695252
 -3.94781729  0.73514202  1.17409319 -0.84251936 -1.99922687  0.2588359
  0.77513926 -1.9068522  -0.34851639],-24.255029976879054
[ 1.08137785  2.46252163 -1.67262314  0.05529657  0.7430875  -2.66569967
 -1.18283244 -2.30921122 -0.03665684 -1.24547039  2.03109463  0.74154656
 -0.21239297 -3.2142153   0.07162017  2.09108174  0.87755593  1.25942882
 -0.28977059 -0.89452854 -0.30882367  2.66550337  0.06531973  1.79876322
  1.132029   -0.78814651  0.34815905  0.52231706 -0.14830269 -1.63492264
  2.59690829  1.6240142  -2.64057313 -1.6335496  -1.34680137 -0.65285686
 -0.10156885  2.0085206   1.14155908 -3.80809406  0.59754865],-29.455015744681806
[-1.33618817 -1.41050783  0.02796856  4.63490518  1.99007411  0.45211413
 -1.08248317 -0.10237223  3.32036624 -2.28894058  0.92866817 -1.01995431
  0.12820034  1.16974415  2.51643252 -1.87388326  0.23268711 -3.28011081
  0.62278608  2.68813989 -0.33045574 -0.39171249 -0.43015388  1.47846431
  0.79559927 -0.4385789   1.71593829  0.19586385 -2.44368993 -2.04464114
 -2.23436119 -0.12616566  2.31463107  0.04904861 -4.19017947  0.55236324
 -1.37406241 -1.48969767  2.53284154  0.22617741  3.24740053 -1.7838352
 -0.93036742 -1.02976574  0.73648795 -0.21093423  1.41190845  0.10937079
  1.07895629],-74.97599660057497
[-4.91696446 -0.86813177 -4.93857818  4.8411665  -1.19144791  0.55048604
  2.26330618  0.47023511 -3.35451934 -2.71236984 -0.52130627 -2.52476201
  1.22237842 -0.06312852 -0.85834548  4.26977416  5.90211358 -4.29666812
  1.09057955  0.56616054 -2.79662952  0.74713895  1.5202561  -1.78133515
 -3.02788646 -0.80751297  3.47318342 -3.76644441 -0.10036103  0.75254476
 -3.68117763 -0.72172999 -2.263755    0.12718636 -1.58227714  0.96968319
 -2.46126941  3.61953294  1.00698793  0.40292395  0.57640776  0.2118337
  1.06036891 -0.09721936  2.64589487  1.29529149 -0.3586985   0.73548539
 -0.54559687  0.10186272  2.42766244  0.92473501 -0.53960388 -0.37801207
  2.05517844  0.16312722 -0.74073684],-48.45629830206388
[ 0.55596403  2.40983378 -2.75096423 -0.69709627 -0.82884081 -1.39843908
  0.80881098  0.45725328  1.65766419  1.94369875  0.15260975 -2.21133185
 -0.12061644 -1.16726525  2.40306959 -1.6310886   0.61384319  3.67293783
  1.18443282  1.11307249 -0.33647155 -3.9996396   0.62395774 -0.36709079
  0.81201046  2.48676166 -2.37658239  3.16755281 -0.0217505  -3.4385038
 -0.36241118  1.1755732   1.86712291 -0.97666544  1.13897514  0.05443894
 -0.62837791  1.65735561  1.08564003  0.50810145  0.13668583  3.02885705
 -1.48815863 -0.05054294  1.69848772  3.01124155  0.66130306 -0.78742941
 -0.43056701 -0.74576663 -0.60972064 -1.17906721 -2.52895614 -1.44506986
 -3.21307571 -4.00462676 -4.17675257  1.34059655 -1.42508554 -1.42502259
 -0.53226342  1.0850864   0.03925645 -0.91427583  0.39656234],-29.62052581018829
