[ -0.64880399   8.99596557   3.40212626  -4.02119989  -0.39163407
  -0.84909063   5.18980394   5.32799681  -0.93721693  -1.81300318
 -10.8230246    2.34744813   7.04317569  -2.00885342  -8.6552798
   7.26639661  -3.55607345 -10.21338393   0.57433264  -3.09989333
   2.32420452   7.19028676  -7.50573807   7.03049544   6.52813065
   0.63333688  -4.1185401    2.20457042  -0.03146084   3.22168311
   6.02364232   0.61670595 -11.47549314  -7.20089178  -8.82969626
   2.05782544   3.10770018   0.71080808  -6.40225315   4.03101747
  -1.26537052  -6.0817703   -2.28556386  -6.31842133  -4.81487272
  -2.81519193  -7.56475432   0.0619591   -8.85857381   5.04116556
  -0.53337482  -8.86375112  -1.5904932    6.3557366   -4.70963501
   2.19741389  -8.38513906  -0.96204076  -0.39032893  -3.15440883
  -3.23998255   2.49008302   5.93833332  -1.2777481    2.36336315
  -1.66992254  -6.41632014   3.4031635   -0.77068049   4.42968255
   3.74091947   4.16045209   4.34415946   1.77540058   3.20653853
  -3.63337101  -4.10236826  -4.68869469  -3.46837446  -0.40297192
   0.23599413   6.86870341  -5.11875775   8.80850158   6.57453679
  -1.8992877   -1.13668874  -0.14411124  -6.67413742  -0.07274358
  -4.29962855   3.71517324  10.48218874  -0.78717141  -0.25029893
  -3.98435903  -1.78065229   2.24492444  -7.36077376   2.6980626
   1.65413228  -2.0071793    1.86013232  -7.11152077  -7.62947222
  -1.21943257   1.84698353  -1.85393152   6.93360754  -5.13116859
  -2.45290538  -0.5585946   -3.53075244  -1.77344317   3.28312269
  -6.27399526  -5.89579622  -2.11612719   1.10070408   1.42386603
  -4.97443596   1.49203326   5.28929911  -6.00004947   6.94304104
   9.78200318  16.21369975  -1.33682269  -6.07184702  -2.54737
  -2.7897061   -4.50584485  -3.6738477    8.00164657   3.94061234
 -11.06498867  -1.43266539  -3.80548205   0.74422651  -3.4795752
  -1.24685348  -0.145109    -5.13767624  -9.04415119  -8.54740574
   3.65298747  -9.77381295   7.16158243   0.36838986   4.91934908
  -1.87165323  -1.64517179  -6.86978721   0.0498453    3.51503772
  -2.33747186  -4.9027741   -8.12689005  10.74072802   1.8868741
  -7.03308599 -11.47224794   3.65374503  -8.28401854   2.04725719
  -4.33665042   5.12193406   0.96361215   0.75257594  -2.62752055
   4.28503911   2.19237756   3.58761733  -1.26330862   6.01207646
   3.27031915  -3.01348997  -0.73145147   4.35974071   4.77482173
 -12.99235509   0.33332576  -0.58558744   0.25956439   1.19749254
   2.52847212   0.50199699   3.08294885   4.28188341   0.64360058
  -6.50759835   6.14738626   6.48386428   2.85531222  -2.60724761
   8.98878032   2.76704608  -0.60865602   1.2400791   -0.55450649
   5.57806037  -5.31473328   2.6007115   -1.34103841  -4.43917771
  -1.74260136   3.24216949   0.96868823   4.12614115   5.99663983
   3.66743629   1.4020979   -4.92524798  -0.22584804  -1.98033136
   1.7683626   -4.22591049  -1.11052455  -0.17010734   0.29945401
   5.37681404  -3.07274864   7.06761077  -8.84997693  11.44502199
 -10.72255556  -6.49413697  -6.7717769   -4.00155129   2.30984135
  -8.50718659   6.83167797   1.67657819  -8.10817549  -0.18843368
  -4.87118609  -0.0338349    2.37129516  -2.86980116   3.04237586
   7.61126076   3.86300414  -0.26019912   2.22360484  -1.01316535
  11.91358577   5.2768618   11.57694052 -11.40473094   2.32234667
   1.14899854  -0.5728971   -0.14708259  -5.43958131   2.31781255
  -6.54246312  -4.46206448  -0.17933593  -2.8626866   -1.20346881
 -12.6222198    4.86225356  -5.42368226  -7.45659379   6.40798547
  -4.77522268   4.86552757   3.13876015   2.07943436   2.21443242
   5.19021599  -1.40204008   0.84306609   3.45446721  -5.0692113
   4.35728735  -4.43946157   0.89966473  -7.58725035   3.96666245
 -10.54302821  -5.35616638   1.66232794   5.78279321   7.50887814
   3.31953706  11.16902841  -6.40430144   7.11078963  -5.17944853
  -7.14836011  -3.02406071  11.36153836  -1.9624421    2.45280018
   2.16953826  -1.61843967   7.62866988   2.63162553  -1.59447172
  -2.45058391   7.70798855   0.6738       0.89385032   1.97163418
  -4.26774239   2.16135206   1.69570037  -1.25520547   4.30888473
  -0.15864515   0.39616266   3.84554768  -3.46388251  -4.12944354
   7.07272487   2.57218567   9.53983873   0.36968485   1.52465864
   3.11623885  -4.33201938   9.23069189  -5.87993228   2.40637565
   4.2397307    0.41895302   5.60433581   0.10164339   3.40196309
 -14.39947525  -0.65331762   8.85386471  -3.60468659  -6.64149343
   9.55457565   4.82007447   4.37537905  -1.09756942   1.05149277
  -1.46769291  -6.82891925   6.44323028  -5.33432537  -3.17744498
   9.71303347  -1.14036769   1.29155667  -6.55519805 -10.15442291
   6.64933215  -4.71461583 -13.43007717  11.31937018   3.71691925
  -1.59665775   0.17542678 -10.68311928  -5.60346763   0.53321509
   6.27611865  -4.26355973 -13.3187376   -7.22669805   7.20914759
  11.71980887  11.83747934  -1.60634636   2.57647821  -1.69928196
  -9.10162936   8.14543814 -13.50384808   4.40640661  -1.52158985
   0.93978627   4.14816335   1.07370014  -2.80374589   2.04130867
  -3.08434107   8.37895637   0.07074298   1.53604823   2.05247255
   2.04210847   3.05304788   6.32776777   0.66156251  -8.85214107
  -1.40676874   1.95641646  -3.83293415   2.55718352  -1.27971301
   1.4224617   -6.24188801   4.42607326  -5.39928048   0.54067055
   0.54939799   5.44606851  -5.2777696   13.19150656  -3.31337962
  10.85731755  17.56886192  -5.91579398  -4.1887603    4.71723019
   4.68399127   5.5161649    0.39175742   0.04915594   6.44588552
   2.59734129   3.24084429  -0.41213013  20.10497777   1.0436277
   1.79936355  -1.89778704   1.29506075  -0.84555392  -3.34567776
  -4.32402177   8.77418609   6.59087569  -7.07056079  -0.38483052
  -3.29646379  -1.40223337   2.49378988  -3.35830527   2.23906242
   2.8225827    2.39139532   2.02346279   1.57358204  -1.92138438
   3.67624804   7.46980703  -5.96312705  -1.44415301  -1.16978526
   2.41841789  -3.48791591   3.28563073   8.81494484  10.24259254
 -12.58837546 -12.77778366  -9.84533011   1.51621139  -0.14391639
 -20.68734234  -8.81068172   1.61896255  -4.67590791  -1.95875885
  -0.13938881   3.37890643   8.93786348   3.08226706  -4.91694138
  -5.13118835  -3.82503301  -4.51495409   8.54562604  -9.00528739
   2.68433023 -13.5305531   -1.95767855  -1.61101563  -3.04485186
   1.38921881  -3.54639995 -10.32702097  -3.34484616   4.57005003
  -0.87225212   1.89354587   0.7973046  -10.44055742  -8.96197864
   1.85774841   8.84345517  -2.2551084    1.23789452  -4.12255264
  -5.37441175   1.35162908   2.59041521   1.25892246  -8.84340862
  -2.26777016   3.02193303  -1.15244806  -1.05021666  -4.21593159
   9.1831129    8.08869773   1.2931936   -1.31324523  -1.63054211
  10.34807012   7.7192675   10.817173     1.59029132  -0.50485908
   4.08998278  -8.07675661  -1.70381079   4.68426025  -1.25053735
  10.2142117    5.39288286  -2.95175061  -6.23349483   4.61497374
   3.31709646  -2.57793654  -2.64717464  10.91437694  -0.82028699
  -9.3982809   -3.34922567   3.55501673   6.94772912  -3.34434536
  13.99687968  -0.90460062   2.07387251   4.84270491   0.94993184
  -0.92619312  -5.03192141   2.72168719  10.8874176   -7.67778879
   1.20606272   1.81073568  -7.17016416   5.53277148   0.77422524
   8.90025716  -6.12587474  -4.89021619   0.50500425   0.52409154
   4.35967375   8.40266984  -1.54692797 -10.10907265   4.49866369
   5.62375584   9.35816147   1.72306603  -1.25990699  -7.60350225
   3.10896733  -4.15679655  -2.85344542   8.31637149   5.26373338
  -7.85891677  -2.88684002   3.76011284  -0.54994783   6.20202127
  -2.9725502   -2.54973998   3.46630627  -1.93762254   3.23227689
   4.31824442   3.91042285   3.35469577   7.21946161  -5.53196159
 -14.03540261  -2.25465595  -0.9819257   -1.02276396   3.60431888
  -1.1242454    9.45720818  -0.25937471  -3.28033228  -8.14895774
   1.15680006   3.95402299  -0.07738846   6.02958497   5.31840945
   2.15037839  -7.85803703  -3.24978923   1.26943218   2.43285422
  -7.53687073  -4.46016108  -5.13868265  -8.08705793 -10.1229799
   0.05558193   9.40899135   1.40667552   7.97980044  -2.22590454
  -4.28685599  -4.81277196   8.3117553    3.57128848  -1.35576652
  -3.8893543   -2.27299944  -4.32939471],-1597.379880110665
[ 2.92805344e+00  1.10467578e+01 -4.04242533e+00 -5.24285503e+00
 -4.55246849e+00 -7.88434615e-01  8.43149517e+00 -3.32159680e+00
  8.83744526e-01  8.11664176e+00 -8.58934256e+00 -6.73645528e+00
 -1.00818267e+00  3.64690956e+00  1.43482303e+00  9.57580658e+00
  4.91478941e-02  4.35493404e+00 -6.01814114e+00 -2.83846930e+00
 -4.18008402e+00 -9.26941487e-01 -1.52400086e+00 -2.63851281e+00
  1.38723596e+01  3.04313179e+00  7.67608956e+00  1.11313684e+01
 -1.07519074e+00 -9.44529054e-01  4.14918462e+00  7.72462512e+00
 -5.65674734e+00  3.91638552e+00  6.76812094e+00 -4.02518317e+00
 -6.82768308e+00 -1.85771088e+00  2.17587421e+00 -6.62924422e+00
 -4.71768797e+00  2.50047999e+00  3.79111156e+00  4.61698632e+00
 -9.60127785e+00  8.59403881e+00 -5.47207102e-01  2.65906065e+00
 -3.60408685e+00  4.83472379e+00  1.02165197e+01 -3.81611131e+00
 -8.23736817e+00 -7.88192340e-01 -4.80282333e-01 -3.94013854e+00
 -6.38600800e+00 -1.23438859e+01  3.17073260e+00  2.73513039e+00
 -3.07331691e-01 -2.59115579e+00 -4.63980236e-01 -9.59309886e-01
 -3.05761722e+00 -3.35363240e-01 -5.20169917e-02 -2.73631119e+00
  4.79245636e+00  6.98738963e-01  3.58635061e-01  9.04910679e+00
  7.00300600e-01  1.24583634e+01 -1.66900400e+00  2.85285673e+00
 -4.03840240e+00 -2.23163712e+00 -1.50367679e+00 -7.66474888e+00
  1.79537626e+00  1.92983835e+00  6.53802288e-02  4.63243684e-01
 -6.45132466e+00  6.88213560e+00 -3.27772671e+00 -5.69616921e+00
  5.16462014e-02  4.35312064e+00  6.47388619e+00 -1.68487798e+00
  1.28709337e+01  9.57668755e+00  6.17900732e+00  5.10215273e+00
  2.14844715e+00 -1.52356783e+00  1.20888868e+00 -4.16736777e+00
 -6.23940065e+00 -8.95295605e+00  3.84762868e+00  2.86431721e+00
 -5.13844255e+00  3.26706108e+00 -8.75962306e-01 -2.38050669e-01
  2.01565780e+00  4.23279985e+00  6.65551861e-01 -5.92464447e+00
 -6.80971409e+00 -3.31481376e+00  1.08328211e+01 -2.22396004e+00
  2.49049258e+00  2.77361035e+00  7.71373354e+00 -2.34785976e+00
 -7.45174562e+00 -1.00604371e+01 -1.50038489e+00  5.45832234e+00
  4.73102735e+00 -6.60053394e+00 -1.77306560e+00 -9.84930198e-02
 -3.22563933e+00  1.74626004e+01 -6.06780556e+00 -3.30320679e+00
 -3.94460740e+00 -5.51062135e-01 -7.15437163e+00 -3.22670128e+00
  4.11396288e+00 -7.49228568e+00 -1.03056661e+01  4.11776056e+00
  2.17902800e+00 -1.84551173e+00  2.50930415e+00 -7.96733083e+00
  1.08501271e+01  3.30890324e+00  3.19672955e+00  2.41364275e+00
 -4.21530498e+00 -2.64338288e+00  1.36347701e+00  2.64118388e+00
 -6.50010190e-01 -7.25967467e-01  7.81961750e+00 -4.54392973e+00
  1.35855922e+00  3.35614161e+00  3.37760360e+00 -5.33573462e+00
  2.40452773e+00 -5.10887699e+00  3.67571108e+00 -9.71709779e+00
 -9.94992828e+00  4.01776828e+00 -3.96605816e+00  1.15366436e+01
 -1.22078614e+00  7.78385059e+00  4.17483145e+00  5.64263583e+00
 -2.16902558e+00 -5.86999061e+00 -4.88596831e+00 -6.67870609e+00
 -3.28210097e-01  1.19142770e+01  5.76081721e+00 -1.08235267e+01
 -8.63077456e+00  1.08827874e+00  5.59284711e+00  4.72436269e+00
  2.22741752e+00  1.41128415e+00  3.48456656e+00  1.19383439e+01
 -5.74745249e-01  6.78612534e+00  1.33053655e+00 -5.89298233e+00
  2.64365185e+00  1.00483434e+00 -7.90992047e+00 -4.31511675e+00
  3.51897531e+00 -1.33856132e+00 -1.87204346e+00  2.63833614e+00
 -4.81839625e+00 -1.95158020e+00 -1.31834097e+00  4.76299021e+00
 -1.14860111e+01 -8.23766474e-01  4.24520305e+00  7.73975806e+00
 -4.98912109e+00 -2.79449763e+00  4.22512361e+00 -5.49077708e+00
 -4.85030135e+00  7.94688830e+00 -3.78229044e+00 -6.01097498e+00
 -7.83142782e+00 -1.14399551e+00 -1.58338801e+00  3.48450950e-01
  8.26115083e+00  2.42556848e+00 -6.45379707e+00 -9.16848717e+00
 -2.36789348e-01 -1.81714696e+00 -2.48195253e+00  9.38273713e-01
  2.70215025e+00 -1.85128545e+00  3.12484850e-01 -2.52246132e+00
  6.17398129e+00 -6.26186088e+00  1.69277197e+01  1.69229777e+00
  4.03446028e+00 -1.49662342e+00  3.90716303e+00 -9.69596917e+00
  4.65365863e+00 -2.19477444e+00  5.00214033e+00  2.04275213e+00
 -9.98597149e+00 -1.78261984e+00 -5.56970906e+00  4.88037244e+00
  5.77567374e+00 -7.55341954e+00  1.94252590e+00 -4.53533439e+00
 -5.87870542e+00 -4.94403071e+00  1.90573241e+00  7.06959927e+00
  5.36652975e+00  4.52554465e+00  5.22663627e+00 -1.95330584e+00
  1.34846200e+01 -4.44679891e+00 -1.81984818e+00 -5.54720760e+00
  2.92921750e+00 -4.86973934e+00  4.86704048e+00  2.26915137e+00
 -1.03864321e+01  1.69087037e+00  4.74344385e-01  6.12397297e+00
 -5.90215335e+00 -3.15619234e+00  1.75771285e+00 -1.20294752e+01
  1.84838419e+00  2.00634655e+00  7.37591570e+00  2.00005939e+00
 -3.68465438e+00  8.61657872e-01  4.28748496e+00  4.86525479e+00
  3.59310106e+00 -5.40008039e+00 -1.18733772e+00  2.07460774e-01
  5.05674790e-01  4.23818284e+00  8.90210135e+00  3.44619083e+00
 -7.63071115e+00  5.77779352e+00 -2.65756052e-01 -4.07318725e+00
 -7.61483437e+00  5.49646842e-01 -2.01327825e+00  1.11318959e+01
 -1.53989151e-01  3.25192105e-01 -3.88204665e-01 -5.88114653e+00
  3.84292839e+00 -2.24060326e+00 -3.52551196e+00 -1.57659091e+00
  5.02960825e+00  1.08568268e+01 -5.29485430e+00  4.44786425e+00
  1.22543145e+01  2.32973934e+00  2.35052306e+00 -5.29232889e+00
  8.41090713e+00  2.49890500e+00  2.98639408e+00 -7.49930840e+00
 -7.10392777e-01 -4.68541611e+00  4.92950614e+00  4.48832318e-01
 -4.35338414e+00  1.80200624e+00  2.97238086e+00 -2.89720878e+00
  5.71668721e+00  6.59142727e+00 -1.73456150e-01 -3.74649231e+00
  8.86945585e+00 -3.46311039e+00 -8.82156028e+00 -8.14319076e-01
  4.93938282e-01 -1.06043162e+00 -6.07238628e-01  1.79374740e+00
 -4.74603949e+00 -4.36206982e+00 -1.11867836e+01 -8.33353755e+00
  3.99593134e+00  3.47974474e-01  3.41187515e-01 -3.44905183e+00
  5.07840016e+00 -1.07291239e+01 -5.81356104e+00 -2.07125827e+00
  5.18017981e+00 -1.06498689e+00  7.40926975e+00 -6.42570213e+00
 -1.18933271e+01 -8.26467740e+00 -1.26046481e+01  6.59021254e+00
  3.78469310e-01  8.18861412e+00  5.60193021e+00 -6.20301237e+00
 -4.93988372e+00 -5.61358400e+00 -4.11508556e+00 -9.14065119e+00
 -4.45107650e+00 -8.47447765e+00  1.45260939e+01  1.50741133e+00
 -1.27238629e+01 -4.68585364e+00 -5.36085652e+00 -2.45586464e+00
  2.82195282e+00 -5.26697710e+00  3.99713481e+00 -7.29331982e+00
  4.35173844e+00  1.09644530e+01  4.45470643e+00 -1.35542280e+01
  7.31875935e+00 -4.47413565e-01  4.98786757e+00  2.38178561e+00
  4.44300638e-01  7.84565475e+00  2.79587514e+00 -3.79752329e+00
  2.38827917e+00 -3.39786637e+00  1.62262001e+00  2.59878480e+00
 -1.41924546e+00  1.17997498e+00 -8.23494334e+00 -1.24313544e+00
 -1.44430603e+00  3.01393319e+00 -5.35356840e+00  6.46150251e+00
  1.97821708e+00  7.21512955e-01  6.73411543e-01  8.16069450e-01
  1.21177383e+00  2.19530017e+00 -8.74680724e+00  9.06470307e-03
 -6.74779701e+00 -8.63197550e+00  1.42825158e+00  1.01123470e+00
  9.67111542e+00  2.50780194e+00  4.14570653e-01  5.33159363e+00
 -1.36498490e+01 -1.41989031e+00  1.00793371e+01  4.27136499e+00
 -9.13530454e-01  1.95063926e+00  1.08909329e+01  6.42134058e+00
 -7.90323340e-01 -4.29959593e+00 -3.81811271e+00  3.16878498e+00
 -8.60850448e-01  3.00597062e+00  1.97512806e-01 -6.83380699e+00
  3.42497698e+00 -3.57192271e+00  1.42863653e+00  4.07539403e+00
 -6.49378436e+00 -2.05297131e+00  5.74627625e+00 -4.25850465e-01
  5.82387168e-01 -6.42446385e+00 -2.83775689e+00 -1.05808284e+00
 -7.02032569e+00  9.26392291e+00 -2.55932571e+00  6.80936863e-01
 -1.68838913e+00  1.90084580e+00 -1.43866252e+01  4.49480950e+00
 -6.08394990e+00  1.06930845e+01  4.74544000e+00 -2.64275079e+00
 -9.84411576e+00  3.15481889e+00  1.89052500e-02 -5.82402204e+00
  5.75263798e+00 -1.03177378e+00  4.35616805e+00  3.41266020e+00
  5.41103412e+00  4.49332315e+00 -6.06616361e+00 -7.07270910e+00
  7.52142982e+00 -4.88538794e+00 -6.72658995e-01 -4.55719159e+00
  7.27491104e+00 -5.61350804e+00 -2.07407554e+00 -4.75915198e+00
  6.51082420e+00  6.27683514e+00 -3.36789638e+00 -3.40672778e+00
  9.45573540e-01 -5.60002495e+00 -3.41042965e+00 -1.89520522e+00
 -7.26063083e-01  1.10017715e+01 -2.73967787e+00 -3.18019891e+00
 -2.80629942e+00  4.71731741e+00  5.64678753e-01 -2.42886887e+00
 -4.40266425e+00 -4.27920835e+00  8.70110681e+00  3.64286060e+00
 -4.05468487e+00 -8.05765155e-01 -3.19615100e+00 -3.53311038e+00
  1.04460641e-02 -3.80523462e+00  1.05549954e+00 -8.11669190e+00
 -9.13993043e+00 -8.55286500e-01  3.59476245e+00  3.85389311e+00
 -4.75053354e+00 -4.35351908e+00  7.95515507e-01  1.26072619e+00
  2.26288832e+00  1.12456127e+00  1.58033180e+00  1.77335538e+00
  3.95578714e+00 -1.48471934e+00  2.05741546e+00 -7.83258124e+00
 -6.76306969e+00 -2.26247858e+00  7.28844093e+00 -7.55934016e-01
 -5.46547685e+00 -9.86926274e-02  4.85003019e+00 -7.93774626e+00
 -2.40712082e+00 -2.66638021e+00  3.12582172e+00 -6.24167355e+00
  4.83812966e+00 -1.27987122e+01  7.27417973e+00 -4.83903696e+00
 -1.27228603e+00  8.13284196e-01 -5.43204949e+00 -3.37748733e+00
 -4.38820095e+00  2.77351122e+00 -1.14725433e+00 -3.22958825e+00
  8.91650618e-01  1.83826476e+00 -7.39180867e+00 -3.46860720e+00
  5.16360955e+00  5.98433692e+00  6.34444833e+00 -3.82372802e+00
 -4.31568965e+00  3.19386778e+00 -7.53595497e+00  2.13721382e+00
 -2.55492994e+00  4.93835559e-01  5.83786703e+00 -2.23206896e+00
 -2.60797071e+00  5.64007555e+00 -2.48462097e+00  5.11048246e+00
  9.44152577e+00 -7.72865280e+00 -5.84530071e+00 -2.23293970e+00
  8.11694151e+00 -7.56741120e+00 -3.61286630e+00  1.90006696e+00
  4.38328205e-01  6.04206611e+00  3.26564245e+00 -1.52210609e+00
 -3.29298970e+00  4.53705508e+00  5.13792657e+00  7.06199754e+00
 -6.24922972e+00 -2.75534929e+00 -6.45321636e+00  3.48379056e+00
  3.46120643e-02  6.55385837e+00 -2.72771080e+00  3.87376956e+00
  1.37629751e-01  5.57067738e+00 -8.38441979e+00 -7.87167897e+00
 -1.97054934e+00  5.63853357e+00 -1.33675491e+00 -5.99412302e-01
  2.49258097e-01 -2.77061130e+00 -1.36656350e+01 -4.08051198e+00
 -2.18360967e+00  9.60682675e+00  8.01857931e+00  2.70893439e+00
  1.61835589e+00 -2.92668862e+00  9.49995142e+00  2.08284287e-01
 -3.49259399e+00 -8.64646468e+00 -8.43704884e+00 -3.24007931e+00
  3.42838589e+00 -1.53767260e+01],-1296.3815766295852
