[  5.08369577   2.99912208   1.23274236   6.62710111   5.76756935
  -2.02762194   0.9305326    3.21219224   0.04589065  -0.69922041
   1.61137953   8.40867403   0.0716384    5.18823265  -3.40725261
  -5.25394945  -0.91652168  -4.64406839   0.16004295 -10.08033161
 -11.79132362  -3.19488054   3.31603556  -7.3180474    6.43610338
  -0.49533934   0.21830514  -3.49583588   2.24439524   0.98795674
   3.56368389   5.36535219  -7.63942747  -2.04566588   0.89251604
  -5.72997095   5.5947923    4.66105462 -12.76082938  -0.79759405
  -0.74875252  -3.12880588]
[ 6.87873744  0.15705764  5.92486527 -7.65032296  6.99508138 -1.34523012
 -2.47276397 -3.70221124  1.95164482 -1.62987913  3.13247845 -1.52657272
  1.02710306 -1.47817947  1.9157885  -0.99412989  1.14470427  2.5191516
 -1.57185524 -1.80828332  3.3602619  -3.19544286  1.15548958 -0.61331364
  2.16445677 -1.01573752 -0.22514493 -9.4141861   3.33274318  7.15421485
  2.53450577 -3.20738004 -3.54396954  5.80680412 -2.65427154  7.43497667
 -0.72945389  9.45090291  4.38203653 -0.47729572  4.09953028  0.64418789]
[13.78905904 -0.41544462 -0.57307508  5.1692642   4.90927119  1.52871901
  8.32596615  0.35908473  1.37303215  0.2025271  -3.43105178  4.96716127
  8.1023877   1.20572146  3.94650093 -3.33917256 -7.11292958 -5.04562992
 -2.1926163  -5.31026015  1.19126507 -0.90631624  1.81424821 -0.11301615
  0.50463827 -2.18888531  5.06998916 -0.01523569  5.59286633 11.95374377
 -0.74500394 -0.09162724 -6.9238774  -4.92382214  2.16987273 -7.10811974
 -0.91146127  3.61021523 -2.53023112  0.28965573  2.50983805 -0.13100128]
[12.14738156  2.80297691 -0.10423878  4.62494382  4.01361604 -5.85635371
  0.2858876  -4.43321086 -6.32714067  1.29500164  0.42619248  3.37272952
 -4.09368493  1.17868566  1.12135502 -3.75247709  1.78741934 -6.08324505
 -1.37364769 -1.89484638 -4.05694027 -0.73795464  1.56920897 -0.0146031
  4.14680545 -3.43440038 -1.92920266  2.92931084  1.71631445 -4.30675544
 -2.11018013  0.99130452 -2.76063216 -1.08296983 -1.14848215 -1.70693387
 -0.09002188  0.12849712 -1.1024199   0.22320309  1.68779037  5.12513981]
[ 0.03151762  0.08245216 -1.86895258  0.41301063  0.45916765 -4.38833583
  2.58684614 -1.50612115 -2.07856772  3.20383291 -2.07065015  0.40932605
 -0.28473297  0.05839653  3.04598558  0.32590293  1.90686968  1.21196864
 -1.45287129 -0.98502497  1.104797   -3.47690055 -1.47723742 -2.93895692
  2.35571227 -0.36122016 -1.19106707 -0.583156    0.9200128   2.37998758
  1.7740364   0.34308562 -2.53185433 -3.79740886  0.45553501  3.55127269
  2.18163851  0.82835392 -1.57861065 -0.0858576   0.1825771  -0.34782376]
[ 9.33356679e-01  1.63668340e+00  4.49704364e-02  2.44719254e+00
  3.94369235e+00  2.27385691e+00 -2.41268391e+00 -3.46368714e-01
 -3.27154684e+00 -1.29229691e-02  1.26134306e+00  8.19967706e+00
  1.32701303e+01  2.36415165e+00  5.73631837e+00 -6.34873773e-01
  7.95068103e-01 -1.10032303e+01  9.45949124e-01  5.64524650e+00
 -1.06995085e+01 -6.69103172e+00 -2.91602299e+00 -6.07215315e+00
 -2.71444349e+00  6.97121442e+00  3.35722722e+00 -1.84372163e+00
  5.36290270e+00 -8.97476845e+00  1.08200284e+01  2.23273248e+00
 -7.49251891e+00 -6.77642150e+00 -8.36666252e+00  5.27050686e+00
 -4.45618740e+00 -3.99116195e+00 -2.75089831e+00 -5.69930471e+00
  1.29648313e+00  4.58667353e+00]
[ 1.72356869 -0.13327887  0.10625881  1.8743151  -1.6865369   0.3615695
 -0.03551941 -2.23480848 -0.029553    1.84471353  0.2501115   3.20917941
 -0.46286417 -0.74452234  0.72248498 -4.01065091 -0.07081909 -2.8705642
 -1.53137394 -0.92503264 -1.25441    -5.18821565  1.88219887 -3.17366815
  1.55338484 -0.48675427  0.53213687 -0.78963657  0.48510555  0.90706268
 -0.78108735  0.98268937 -1.52015511 -0.1031234   2.11999844 -4.33834202
  3.46991871  1.68570723 -1.38734381 -2.31575637  0.0670943  -2.67043954]
[ 1.18583404 -0.26238918  1.03291631  0.52919342  0.37672538  0.26941259
  1.42929752 -0.24031567 -0.19527783 -0.06476571 -0.14634647 -0.24337266
  0.23935776 -0.26043843  0.87978419  0.12510276  0.54653111  0.72263108
 -0.08703397 -1.32068766 -1.65326271  0.1298957  -0.18312056 -0.50633087
  1.50663169 -0.3817843  -0.69533622 -0.54066652  0.21477014 -1.1074042
 -0.11225893 -0.13298809  0.20213004 -2.03814888 -0.34017477 -0.5379088
  1.22378543  0.39430605 -0.80469479 -0.10342565  0.06946209  0.19823453]
[ 0.6928677  -1.92108069  0.86460938  0.60149573 -2.37100398 -0.60766298
 -0.53099088  0.90637346 -3.02104458 -1.46741574 -0.21551967 -0.22074474
  0.35829309 -0.0334374   1.32495782  1.89429757  0.67996231  2.6373474
 -0.75068736  1.28706092 -0.8271644   3.34499385 -1.6090477   0.26757432
  0.79396646 -0.52545773 -1.10643347 -0.3023275   0.64361837 -2.46755355
 -0.7548864  -1.44866438 -1.48640431  1.87160194 -1.80277361 -4.42228779
  2.73363874  2.97032983 -1.58833776  0.4885909  -0.14145447  0.8750931 ]
None
None
None
None
None
[-1.213087    1.70510997 -0.47764894  0.96701152 -0.31170594 -0.29279632
  0.70827309  1.10749414 -0.36895585  0.92094639  1.00077289  0.3510093
  0.46394503  0.03917548 -0.96089064  0.34415121  0.23800797 -1.10963025
 -0.20327371 -1.58984066  0.20471484 -0.5233544  -0.17235781  0.00766546
  0.27938804 -1.32108986  1.2697064   1.27759788 -1.14275482  0.28998086
 -0.03834826 -0.71379664  0.53382127 -1.76985448 -0.91838149  0.90461003
  0.70979397 -0.34067615  0.36517179  0.06456037  0.18456123 -0.20496379
  0.02664175  0.59768258 -0.73100593 -0.57745733 -0.81505911 -0.29483279
 -0.51151567 -0.6012431  -0.25004453 -1.35108135 -0.71353803 -0.13122256
  0.31171806 -0.75230737  0.4661704  -0.02958135 -1.23775243  0.07980338
 -1.15005763 -1.78916579 -1.58024656 -1.23010948 -0.44624217  0.53177953
  1.04414892  0.00971472  0.73008356  0.73343576 -1.59402649  0.50252184
 -0.19044717  0.75910667 -0.31546626  0.49058612 -1.05373708  0.12881265
 -1.00433574 -0.82545558 -0.64232879  0.10628965  1.43268518 -0.98969133
  0.7412818   1.13844014  0.91582233  1.09810783 -1.29267902 -0.11976898
 -0.86794072  0.34032225  0.75596193  0.20807009  0.07110281  0.70512522
 -0.73234131  0.17168941 -0.408444    1.02038026  0.50514199 -0.18347034
 -0.52691425  2.24868108 -1.1426955   1.71371953 -0.1736107   0.15401182
  0.25080483  0.26086593  0.93094135  1.28936859  0.58757083 -1.02350373
 -0.1635503  -0.58499597  0.74242565 -0.47145216  0.1467629   0.3748932
  0.70391426 -0.6155106   0.27725278  0.73540437 -0.49324737  0.38955918
  1.03198706 -0.05551439  0.46453745 -0.00635627 -0.05849988 -0.87445053
 -1.40366226 -0.68713835 -1.02198714]
[ 0.24591092  0.81339803 -0.62762596  0.76478765  1.52255119 -0.0720933
  0.34740814  1.04435263 -0.95753036 -0.0721193  -0.86073857  0.53129276
  1.03367583 -0.50911838 -0.64618544 -0.84377218  1.2236773  -0.7677176
 -0.84523543 -1.43538099 -0.50687856  0.24151098 -0.38566583 -0.84137543
  0.52269212 -0.1627524   0.40453882 -0.31975458  0.59475176  1.14928623
  0.55808158  0.32104086  0.42732153 -0.70660867 -0.03708077  0.48760197
  0.92021257  0.65069248 -0.20885358  1.26384266 -0.3984273  -1.00510504
  0.88790903  0.45418042 -0.77488889 -0.33709709 -0.65605742  1.02168593
 -0.80707538  0.06107871  0.08354543  0.06565227  0.0437673   1.4612567
  0.77738484  1.13266913 -0.55320724  0.42063201 -0.15412111  0.76694741
 -0.08152374  1.25706873  1.08362425 -0.06071905  0.34252552 -1.21725376
 -0.85885972 -1.2581967  -1.04239182  0.74139425  0.77071049  0.9485733
  0.61004786 -0.66979973  0.09784026  1.06940447 -0.05132871  0.92176733
 -0.88515395 -0.60246255  0.20286577  0.42597186 -0.07203958 -0.22690746
  1.95116812  1.5151642  -0.24811761 -0.32940125  0.03051514  1.55281418
 -1.46452259  0.32006199 -0.11242078  0.4532778   1.36678072  0.65776647
  0.29920167  0.6587675   0.85883292  1.38415276  0.79058318 -0.37279208
 -0.39354962  0.05312433  0.14859538 -0.63592005 -1.35168455 -0.20962817
  1.00102949  1.19363767  0.17065172  0.38843837 -1.72151303  1.34694794
  0.51945101  0.54839286 -0.16498366 -0.82412449  0.83405213  0.2393012
  0.29088872 -0.80212069 -0.14159382  0.07556882 -0.91583929  0.33648248
  0.46563957 -0.06478004  0.26077953  2.01095134 -0.0056524   0.93997971
 -1.21430611  1.9232113  -0.19165101]
[ 0.16721418  0.27453163  0.08900411  0.82141225  0.27000946  0.47894501
 -0.24446812 -0.75489158 -2.01250936  0.5724889   0.41265747  0.55573888
  0.08437293 -0.73604951  0.59902763 -1.19802106  0.87600957  0.4282323
  0.09194577  0.45286938 -1.08435667 -0.20969986  0.11795617 -0.21430853
  0.77308657 -1.17704546 -0.54200139 -0.36347631  0.3373998  -0.27945219
  0.36131988 -0.76036654 -1.17394879 -0.23611992  0.54954374 -0.88266959
  0.4017276   0.08504972  0.57350172 -0.5347822  -0.27989909 -1.23226269
 -0.62115833  0.80060537  1.15451757  0.01063273 -0.71499576  0.09055887
 -0.12598324  0.09793097 -0.63826152  1.13139572 -0.48334053 -0.24431054
  0.12299969  0.74732972 -0.30361703 -0.23217892  1.46924765 -0.48311869
 -0.89363327  0.08609968  0.55776594 -0.2806092   0.52294312 -0.23794467
 -0.01202857 -0.22177874 -0.38709868 -0.05034365 -0.65301641 -0.87855186
  0.56064869 -0.45080678  0.70119127 -0.52176489 -0.7382957  -0.73149327
  0.23145058  0.41344098  0.24421992 -0.06382551  1.37204324 -0.17270003
 -0.72129503  0.9350387  -0.37089924 -1.06210495 -0.04647876  0.70847543
 -0.14211683  0.74997254  0.12101907  1.09944814  0.71563569  1.79594882
 -0.02237189  0.128283   -0.89425295 -0.69278402  0.80774046 -1.38915453
 -0.40361576  0.86824877  0.50530277 -2.02426314  0.0945147   0.45529479
  0.92815335  0.34774561  0.58452052 -1.04743332 -0.60583644  0.2004566
 -1.27503965  1.43523947 -0.0448073  -1.2752161  -1.07551584 -0.10208213
 -0.61056574 -1.00049546  1.1522231   0.99342952 -1.14039025 -0.34455302
 -0.10711702 -0.56876909  0.0269822   0.93260915 -0.76682793 -0.24229625
  0.08895404  0.38694138 -1.13247465]
[ 0.69466437 -0.5324403   1.97936559  1.62512668  1.7479046  -0.04911309
  0.06872179  1.14872554 -0.10297058 -1.48602458  0.00428983  2.65851973
  0.44018062  0.23119263  1.4702866   0.97532406  0.80566802 -0.78952579
  0.82198489 -0.61579562 -1.28353551  0.71963669 -0.55686382 -0.23139245
  2.88571596 -0.21376228  1.68455     1.36282357 -0.11918886  1.91214761
 -0.97794627  0.53988506 -0.89846874  0.87833665 -2.6108569  -0.97711074
  1.38924069 -0.40838652 -0.26004992  1.11668975  0.316154   -1.10869303
 -1.62387095  0.48895557 -0.08000984 -0.62513284 -0.89883629  0.12996426
 -2.3065122   1.56877433  0.49244907 -0.30510592 -0.08819813 -1.53257081
  0.03512234 -0.70542384 -0.81453041  0.24108792 -0.75293637 -0.68059004
 -0.44686495 -0.9884682   1.28592319 -0.17470314 -0.54691666 -0.03778091
 -0.30698534  0.58304865  1.41805428 -0.90081842 -0.71953808  1.11351382
  1.39078982  0.06318948 -1.01857423  0.99943235  2.27166958  0.72948604
 -0.89005553  0.84768432  0.94488009 -0.84844253 -1.04361663 -0.98739899
  0.54716245  0.93687603 -0.1804278  -0.72836741 -0.54002114  2.09644959
 -0.74588639  1.93870521  0.35746872  0.13517248  0.76072499  0.14588931
 -0.02766978  1.40469619  1.07254444  1.71097925 -0.15196614 -0.54210836
 -1.2584982  -1.07820965 -0.0565033   1.56894813 -0.16361883  0.84282317
 -1.02369578  2.28289756  1.13419374  0.3014107  -0.38959306  0.79119696
 -0.61650082 -1.51878056 -0.5490573   0.1835937  -0.63115342  0.99711411
  1.10385995  0.06376459  0.5719443   2.46640335  0.46469361 -0.34498898
  1.24590387  1.10459617 -0.0721104  -0.54918721 -1.90978178 -0.8523551
 -1.23656106  0.07534831 -1.11847999]
[ 2.56851200e-01  5.19235203e-01  6.01873948e-01  8.48229254e-01
  1.08045328e+00 -7.78369306e-01  4.29917709e-01 -1.09064581e+00
 -6.38356405e-01 -9.65769388e-02 -3.17828096e-02  1.16971443e+00
 -2.91398469e-01  9.23194730e-01 -3.04427092e-01 -2.54997483e-01
  6.71149522e-01  2.39400319e-02  7.97219379e-01 -7.35147965e-01
 -1.24136659e+00  5.31231090e-01  2.11782869e-01  2.55894187e-01
  1.12899076e+00 -7.09006485e-01 -7.85519942e-02 -4.47480186e-01
  2.18882590e-01  8.33716495e-01 -3.91583715e-01  2.46678159e+00
 -6.01115652e-01  1.11048955e+00 -3.65293572e-01  2.06400194e-01
 -1.00484933e+00  5.17021555e-01 -1.53770576e+00  2.09371684e-01
 -2.92805079e-01  3.07370184e-01 -9.06207269e-01  9.10891558e-01
 -1.12132931e+00  2.26716273e-01 -7.02174385e-01  1.83216774e+00
 -8.74729858e-01  1.15263594e+00  1.35331451e+00 -8.12455454e-01
 -6.77765631e-01  7.79931273e-01 -2.55225150e-01  2.67569858e-01
 -6.05811333e-01  1.05099609e+00 -1.17252938e+00  1.00526561e+00
  6.32290255e-01  9.83944230e-01  2.92641107e-01 -1.86240879e+00
  7.68145250e-02  2.14235465e-01  5.30339456e-01 -1.21018988e+00
 -2.57631562e+00 -9.42115460e-01 -1.97499201e-02 -7.04789419e-01
  6.13557123e-01  1.23319229e+00 -1.50211055e-01  2.65871279e-01
 -2.81764498e-01  2.05307655e-01 -1.68804980e+00 -4.09481699e-01
 -3.33570524e-01  9.53015044e-01 -3.63646651e-01 -7.96556159e-01
 -6.57518552e-01 -4.98935332e-01  2.21584747e+00  5.61968424e-01
 -7.55908630e-01  1.88226388e-01  3.58548563e-02 -1.24223113e-01
 -1.20913043e+00 -1.71368560e-01  9.36029986e-01 -2.31247558e-01
 -1.04970425e+00  6.11192111e-01  7.63987715e-01 -5.77683579e-01
  4.23270551e-02 -4.02578846e-01  4.16129930e-03 -1.03946215e+00
 -1.02710450e-01 -3.16524493e-01 -1.41383772e-03  1.46520668e+00
  1.61467424e+00  5.58261369e-01 -5.88828465e-01  3.70020327e-01
 -3.35173068e-01  4.32451423e-01  5.06131528e-01 -5.36808751e-01
  7.97029952e-01 -1.55860591e+00  2.43019073e-01  5.15825427e-01
  5.22083093e-01 -2.52527052e-01  7.16321437e-01  1.30844878e+00
 -1.24583390e+00  2.93425777e-01 -5.78574144e-01 -1.82947215e-01
  1.31471823e-02 -7.21660778e-01 -5.88952275e-02  3.24827487e-01
 -2.90124669e-01  2.91900909e-01 -1.50334736e-01]
[-0.01294273  0.56511007  0.27380511  0.63717547  0.84423296 -0.23010526
  0.11850692  1.24084532 -0.44323433  0.02898045  0.64154124  0.06868325
 -0.03372862  0.45252171  0.88271335 -0.20790473  0.3980751  -0.49763361
  0.56854096 -0.10836278 -0.7920315   0.72281213  0.1591576  -0.54529732
 -0.73536791 -1.59406642 -0.62310934  0.05077409  0.5846942   0.66181125
  0.54687234 -0.45921282  0.9308908  -1.20095252 -0.60417596  0.61362635
 -2.05472153 -0.51114924 -0.27556738  0.06252     0.41453829 -0.69689418
 -1.03335253  0.25698599  0.58941471 -0.19214733 -0.42945412  1.07417913
  0.23999951  1.00156229 -1.24086628 -0.0680982  -0.14075644 -1.11355752
  0.07435815 -1.01043274 -1.05749051  0.79258239 -0.39438103 -0.02889279
 -0.09277007  0.13688657 -0.78657181  0.63467286  0.5589368  -0.42160101
 -0.92705    -0.36219861  0.32810983 -0.01618809  1.28945895  0.00840784
  1.18283791 -0.70281537  0.53928791 -0.6381808   0.11989874 -0.66699233
  0.53233873 -0.18495153 -0.76594419 -0.37275074 -0.55210999 -0.32657875
 -0.2043591   0.63498523  0.9227923   0.12218621 -1.08099928  0.54770289
  0.6848202   1.39589787 -1.31292888  0.01979064  0.61623021 -0.26630584
  0.50713927  0.95625923 -0.46737504  0.39451054  1.0671405  -0.70841124
 -0.02281557 -0.55270497  0.2549161   0.35523796 -0.60311723  1.21327392
  0.205795    1.56541055  0.13427125  0.56530966 -1.44294924  0.16600572
 -0.23013058  0.39046513  0.86760579 -0.20322156  0.678813    0.79399301
  0.32059635 -1.18606204  0.40497244 -0.08918465 -1.27962537  0.39286671
 -1.09150553  0.44880919  0.35202851  0.71555153  1.1347792   0.74505831
 -0.18033656  0.30564606  0.18654869]
[-0.44208512  0.08954699  0.77510258  0.68480484  1.04683924 -0.76199246
  0.73149906  0.27772728  1.2790678  -0.89509235  0.61263597  0.8636845
 -0.61033463  0.29781678 -1.15755247 -0.57994488  0.32577918 -0.55011393
 -0.0456532  -0.85140436  0.17821688 -0.2825834  -1.31197268  0.30706105
  1.56154687 -0.43042964 -0.20704588  0.24591661  0.09565415  0.98239357
 -0.06089589  0.34286201 -0.22772308 -1.81848241 -0.24569501  0.7307952
 -0.66284901  1.17578412  0.21506443  0.66051194 -0.29197963 -0.78942043
 -0.43309936  0.8388103  -0.71473598  0.11980739 -0.50198986 -0.17340424
  0.25340079  0.54868864 -0.27373756  0.41931866 -0.34096039 -1.33876518
  0.17949726  0.41466719 -0.9026939   0.63654297 -0.19970399 -0.16379558
 -0.10943149 -0.12112205  0.53399851  0.41756414 -0.00501326 -0.35737698
 -1.32758132  0.23918262 -0.46494923 -0.16431944  0.02649928 -1.64626461
  0.30311207  0.02268151  0.21985428 -1.41644537 -0.26684886 -0.15462057
 -1.15263708 -0.34940267 -1.02681021  2.30115497  0.63776002 -0.77333533
  1.1770234   0.31229562  0.27543153  0.02523852 -0.85880637  0.22517472
  0.14454645  0.29472936  0.30810733  0.2905471  -0.22166524  0.09771688
  0.2083936   0.65890666  0.7500045  -0.66596184 -0.67603699 -0.78213984
 -0.00263405 -0.50692613  0.63665598  0.80657976  0.37994694  0.17449066
  0.93712932  0.34357524  0.90891111  0.99400838 -0.35598373  0.62853334
  0.26098343  0.80731896  0.10737138  0.103954   -0.69054487  0.57575847
  0.88512707  0.815161    0.08440251  0.05045655 -0.62540437 -0.33682336
 -0.81258749  0.78681884  0.09565203  0.42554534 -1.091099   -0.63564356
 -0.74118605  0.71344776 -0.63587125]
[-0.07302837  0.82714017 -0.75335412  1.43527681  1.72672948 -0.14403715
  0.59416777  0.02440935  0.34104354  1.6703114   0.6251983   0.17797087
  0.06454812 -0.17800212  0.9956676  -0.53864148  1.33483526 -0.48841164
  1.16915566 -0.38491194 -0.32823126  0.34689854  0.10128166 -0.81630074
  0.10055977 -0.27320883 -0.35165944  0.1279508  -0.16872209  0.07221113
 -0.51773274  1.13945498 -0.88994143  0.0257776   0.60637581 -0.73238525
 -0.22936227 -0.16250089 -0.12676954  0.98651576 -0.0677767  -0.61807172
 -0.59366213  0.62281316 -0.66773067  0.73366238 -0.87398438  0.51156137
  0.9525001   0.38283033 -0.98429715  0.43471133 -0.77134737 -0.30743268
 -0.2624748   0.7731926  -0.21458225  0.33633836 -0.73412227 -0.04222095
  0.52641594 -0.04557051 -0.38249877 -0.46643446  0.62469317 -1.23670725
 -0.01159104  0.28772237 -0.49315915  0.12386616 -0.1174762  -0.17046955
  0.63462725  0.38083799  0.32078017 -0.037273   -2.09116576 -0.4267343
  0.5169076  -1.23520234 -0.58639732  1.39609307 -0.24865961 -1.45473531
 -0.09261187  0.13901477  0.00481432 -0.84265202 -0.59036629  0.57388779
 -0.90789472  0.49368881  0.39575418 -0.35127448  1.05750688 -0.08189971
  0.01523371 -0.28211503  0.1057594   0.26501056  0.78754164 -0.32687693
 -0.3564681  -0.85391977 -0.75831253  0.03008041 -0.13339785  0.16343298
  0.64121792  1.26957207  0.35764188 -0.07719951 -0.55276938 -0.05008124
  0.47541574  0.25586578  0.53496748 -1.04302745  0.03842514 -0.20294275
  0.92439942 -0.89094647  0.59602686  1.31721779 -0.60144006  0.29514913
 -1.45976432 -0.07886864  0.64003362  0.93063989 -1.40165817  0.92539526
 -0.5030243   0.86997941 -0.84588931]
[-0.14354794  0.19677028  0.68066908 -0.35098795  0.79740479 -0.10081863
  0.2342138   0.07591716  0.88719426  0.13205059  0.37133149  0.57735539
 -0.17209345  0.58817081 -0.46569368 -0.67741524 -0.12033256 -0.48789507
  0.60838684 -0.97963919 -0.22243411  0.51021185 -0.09132774  0.77772016
  0.67702357 -0.67845595 -0.33160302  0.34963264  1.39874624  0.58564992
  1.21236337  0.42330462  0.42786037  0.30767938 -0.27725802 -0.41743793
 -0.24514254  0.80837426 -0.36472415 -0.37005577 -0.62648084 -0.68606252
 -0.99469577  0.50880733  0.1781208   0.07602847 -0.13016986  1.12537217
 -0.54248657 -0.01882362 -1.36738366  0.50334338  0.22294549 -0.37813377
  0.45562528 -0.1104097  -0.89824584 -0.02665072 -1.18348868  0.91038106
 -0.44616434  0.20064384 -0.52102125 -0.82292049  0.26418965 -0.55785862
 -0.00568305  0.38859975  0.36556729 -0.07603921 -0.50396643 -1.03747121
 -0.07212906 -1.46371487 -0.08930538  0.40153715 -0.62057847  0.67208802
  0.96938507 -0.27596327 -0.28488968  1.71315124 -0.27699657 -0.64453639
 -0.18670861  0.62957191  0.28755281 -0.34944136 -0.61565376  0.86425345
 -0.50514999 -0.18472536  0.33662976  0.75710444 -0.35879126  0.33184174
  0.15412545  0.74599528 -0.17745691  0.06109092  0.97736751 -0.0024431
 -0.78420056  0.14081594 -0.31753712  0.75317599 -0.82030823 -0.60484907
  0.70354541  0.22058936  0.31430653  0.67666275 -0.53292897  1.55234819
 -0.05916645 -0.50641921  0.04893465 -0.28420768  0.2064741   0.18969242
  0.03287231 -0.34608355  0.81005938  0.55798567 -0.18538534 -0.29269969
  0.71282047  1.54360969  0.49508078 -1.23340464 -0.38314692  0.56815681
 -0.22512461  0.73748338 -0.68168622]
[-0.82814791  0.17087545  0.4312016  -0.30794939 -0.60568583  0.33051505
 -0.04648941  0.26097982 -0.38753643  1.2090176  -0.47080597 -0.35128187
  0.45616514 -1.66203581  1.69332741  0.56704053 -0.11745037 -0.40418732
  0.72261751  0.38065715 -1.08496495  0.80326003  1.68729853  1.07400698
  1.10194452 -0.86589556  0.66432577 -0.87024196  1.16480001 -0.99060744
 -1.66334234  0.4995443   0.4499634  -2.22596927  0.05863777  0.70290552
  0.61382809  0.61137072  0.21957535 -0.73886814  0.22627409 -0.5640179
 -0.94868041  1.24927382 -0.76117941 -0.69108124 -0.68643137  2.29449522
 -0.26957524 -0.08335652 -0.80008521  0.35641809 -0.88545192 -1.13875392
 -0.34316143  0.62050754  0.57745955  0.97774332 -0.80695106  1.01794935
 -1.3289798  -0.59442367  0.72542259 -0.5335551  -0.65577329 -0.57512176
 -0.50299546  0.80771076 -0.88925902  0.18574179  0.87541988  0.88089912
 -1.76324472 -0.46213214  0.49466924  2.99633009  1.03231354  2.30507989
  0.61045714  0.01741726 -1.24429486  0.16539132  1.71548649 -0.56121174
  1.27795088 -0.4558009   0.17679799 -0.47933368 -0.77886179  1.66998923
 -0.01119192 -0.09619224 -0.97988672 -0.85241624  0.60334873  1.05840671
  0.32588871  0.65716408 -0.24101673  1.03989935  1.62042075 -0.49647398
  0.09305667 -0.48283544 -0.39431988  1.8666104  -0.28740887  0.9173249
  1.15325862  1.37929352  0.78861541  1.37898403 -0.3744743   1.16676184
  0.20037083 -1.13286403 -0.36662372 -0.22738548 -0.18852099  0.41665543
  0.98325804 -0.77572472  0.56363726  2.12172219  0.54050814 -0.82426518
 -1.24289948 -0.42701694  0.62735694 -0.08655652 -1.06147805 -0.04224164
 -0.54045527  0.49201039 -0.31432712]
[  0.62695216  -0.0860698    1.94817477   1.02714554   2.33725933
  -1.73002391  -3.06980059  -0.60863229  -1.35011095  -0.97832802
  -4.98606796  -1.06514581   7.05837688  -6.05459644  -1.86505512
  -2.48064728   1.64070155  -1.51280466   1.26953621   0.07135331
  -5.21220127  -0.12422839  -4.74909697   5.6038359    7.43816407
  -6.26730552   2.46027014   0.24915865   0.12045692  -0.29524865
   3.65620051   5.31567918   3.38379611  -1.77654893   1.85395545
  -0.76449937   2.68832284   5.85492778  -4.85355318   3.47897802
  -0.18602105  -6.11499926  -2.06464728   1.53061134  -2.65577496
   1.31496113  -0.86177582   3.15786289   1.2565661    2.98791297
   3.41483794  -4.44988616  -1.03307832   1.93665654  -1.35096127
  -2.63640784   2.40963313   6.58191195   0.73657561  -4.03266316
  -2.22796925  -2.08296058   1.72766596 -10.42676548   3.63804994
  -3.7307598   -1.85923097   1.30684208   0.80070459  -1.91778716
   4.63738948   2.55489823  -4.90820579   1.96871811   4.11669713
  -0.55335784  -3.585502     0.4349412    0.89196535   0.35041727
   2.69869124   1.39137198   1.08905758  -5.79283234   3.15444399
   0.71595599  -0.51226237   1.05501572  -7.69837585  -0.96189329
  -1.66840277  -2.38676225  -0.75021131  -4.2803106    2.31869308
  -0.07858897  -0.57981736   1.02733625   7.84103512   1.18298118
   7.22630383  -5.28442099   7.6778004    2.72386477  -4.54549578
   8.83577868  -2.90430235   2.57152041   0.09504414   5.33773166
  13.86060743   3.56553142   1.82661721   0.74799095   1.23364848
  -2.01516809   1.21266619   4.02669285   4.4889672   -2.56273568
   2.73376247  -4.77760314   3.32897221   0.18569291   4.93051429
   2.73107484   0.82405868   5.76622864   5.42522436   1.26528805
   0.61169142  -2.13024344  -3.07587527   4.11885076  -3.24860103]
[ 6.81314157e-01  2.03035412e+00  2.12709915e-01  3.34695585e-01
 -1.15106532e+00 -1.26385017e+00 -1.81137185e+00 -8.26071899e-02
 -7.60616703e-01  2.52715464e+00  1.38411806e+00  7.22000818e-01
  2.56463844e+00 -1.63119938e+00  6.01807486e-01 -8.27458949e-01
 -1.19180343e+00  1.81154980e+00 -2.21577294e-01  1.25631924e+00
 -5.10517744e-01  1.42665485e+00 -1.51691663e+00 -7.67972179e-01
 -6.93465050e-02 -2.79328755e-01  1.86367911e-01 -2.26931409e-01
 -9.36388163e-01 -4.25673373e-01 -1.34089367e+00 -3.39368107e-01
  2.05548622e+00 -7.10254239e-01  1.38453302e+00 -9.71656404e-01
  2.47997210e+00 -2.98788678e-01 -8.12575461e-01  2.66363166e-01
  1.05296609e-01 -2.41430562e+00 -9.80532503e-01  2.62311880e+00
 -6.16548370e-01 -1.02031309e+00 -2.04152889e+00 -5.80237831e-01
  3.39573446e-01  1.06257648e+00 -8.69142769e-01  5.92645309e-01
 -4.41386248e-02  5.88636114e-02 -1.25919666e+00 -3.55139947e-01
 -5.64985861e-01  7.45936423e-02  3.43619707e-01 -8.82645750e-01
 -7.83422000e-01  8.67832560e-02 -2.32685428e-01  1.12739081e-01
  1.66765840e-01 -1.21579703e+00 -2.51798492e-01 -1.33812073e-01
 -7.31463379e-01 -9.25309667e-01  9.63985002e-01 -5.48300275e-01
 -1.19998323e-01  6.35373599e-01  7.03658402e-01 -1.37795639e+00
 -4.96000384e+00 -3.38441054e-01 -7.44109838e-01 -2.39468039e-01
  1.90645627e+00  3.28117062e-01 -1.33404092e+00  2.01888111e-01
  3.28777086e+00  1.06194092e+00  1.54834159e-01 -1.61096543e-01
 -3.08269161e+00  1.21929004e+00 -9.44828517e-01 -8.85167534e-01
  7.81519542e-01 -9.19370357e-01 -9.92230740e-02  9.67827395e-01
  3.82540427e+00  2.18979624e-01 -9.04939001e-01 -3.93601175e-01
 -1.29084180e+00  1.13122499e-01 -5.87267135e-01 -1.56090204e+00
 -5.48761434e-01  4.20976781e-01 -2.70758945e-03  1.15303357e+00
  8.10389780e-01  1.03315938e+00  6.40986531e-01  2.22300686e-01
 -1.40007473e+00  1.94103072e+00 -3.31769244e+00 -1.77380390e+00
 -5.77342013e-01 -1.62879715e+00  1.98543864e-01  2.30218731e+00
  1.32370569e+00 -6.09141312e-01 -7.42994153e-01 -1.91525003e+00
 -1.65734067e-02  1.01932676e+00  1.55193799e+00  1.26194284e+00
 -9.45110538e-01  2.68606000e+00  1.67874094e+00 -2.24435825e-01
 -1.88947003e+00 -2.06845891e-01 -6.56429755e-01]
[  3.41123026   0.97991297   8.06197435   2.21834433  -1.47032372
  -2.79466915  -3.38696969  -1.24738316   1.40274968   1.5049218
   3.51041724  -5.05473571  -6.32036041  -7.01076051  -4.02904923
  -6.11605755  -7.79313989  12.88648531   2.64132288   1.26951891
   5.19260442  -5.96234267  -2.85343355   2.08634274  -2.18337639
  -9.90803429   8.40221898  -4.685307     1.14402208  -3.59947293
  -7.49629376  -0.16052076   0.74970215  -0.5716808    0.76200293
  -9.28751391   1.2202507    1.85037921 -11.30278442  -0.68797745
   2.43174205   8.68299027   4.0581926    2.12057836  -3.14333706
   1.79862981   7.82205612  -1.88480745   4.97640176  -5.77576538
   3.25748834   1.06691695  -2.75455323  -6.43821423   3.40880964
  -3.96400715   2.12437638  -3.73503676  -0.52559863  -5.76428008
   0.58266927   9.98055393  -7.08643703  -0.74715721   5.59202653
  -1.94715654  10.88215885   5.75748966  -9.0084976    2.91313691
  -5.94957112   6.64822429   7.61548854  -3.49613922  -1.79409148
  -9.37820855  -0.6214636   -4.07619313   2.01665304   6.63255934
  -0.71957916  -6.52606466  -4.32397518  -0.16287956  -4.34456597
   0.2748904   -5.66303339  -3.71362409   2.47594804   0.36687384
  -3.00858678  -2.58029872  -4.89077209   2.00298547   4.75878318
   6.43710205  -0.95308264   3.11214476  -1.72407642   3.18520719
   2.87973036   2.95884962  -3.58345324  -4.78527508   5.64236879
   9.62495609   6.01307398  -9.80973861   5.18269002  -2.27606891
   6.40076607   2.35497173 -10.32080672  -1.70380051   9.59541369
  -7.13442501  -0.55308565  -9.0783104   -3.36702901  -7.29659004
  -5.08563048  -1.7353471  -11.17448094   1.64182537  -2.9985583
   6.69081749  -4.4875439    3.99130806  -4.33734585  -9.82008682
   0.045876    -1.92799827   1.26669905   2.55956434   3.91339072]
[ 2.16947047  1.70804945  0.68269058  1.91334265  3.09575409 -1.35580383
 -0.87562232  1.24126002  2.65416933 -0.87414604 -1.60811041  2.90930746
  1.30368828  1.96231337  0.35520872 -0.38741397  1.55562127 -0.81152707
 -0.53770954 -1.84707053 -5.50325213 -0.73795549 -0.13260071  1.05870558
  0.68853282 -3.59063558 -1.48414828  0.45024967  2.69185277  1.26959866
  3.36350223  1.22712842 -2.4786216  -4.83687361  0.55688836 -1.36147733
  0.25925623  1.24790679 -0.42084196 -0.40781654 -2.19435504 -3.11290232
  0.59078208  1.05490206  0.2215919  -1.28179595 -3.24495947  0.7570643
 -4.72629619  1.24024654  0.59329725 -0.72571489  0.77366059  0.78631373
 -0.0989036   0.96115173  1.90938707 -1.69836312 -2.07690236  0.72343487
  2.31952436  1.3197696   0.2514815  -0.38113549  0.40578701 -1.72876506
 -1.47495409  1.24989664 -0.41473317  2.13790373 -0.68758569  1.16459225
  0.72811928 -2.60085232 -1.08151042  0.3299543  -1.74168351 -0.92026489
 -0.31783333  1.3110601  -1.89943298  0.74596363  2.36123189  1.03804511
  0.830842    2.05702254  0.42995439  0.16116527 -0.65193483  0.63891784
 -0.75583458 -0.70571934  1.31770281  2.51198364 -0.66115946 -0.41776208
 -0.66642751  0.63668912 -0.51232239  1.00071026  2.3436129   0.58981655
 -1.10978773  1.00489572 -1.9334593   0.54630868  0.24263372 -1.97805879
  1.41866605  1.12378171  4.41610776  1.60439647  0.15412722 -1.28679294
  1.62759871  1.01906683 -0.4974186  -1.18302426  0.14052136  2.40744392
 -0.47152361  0.42619244 -2.46823965  0.32560641  0.08168037 -1.98236783
  1.30087926  3.4232377   1.23971457  0.41783454 -2.7474013   1.78313972
 -0.93056109  0.47092363  1.36157791]
[ 1.57039084  2.44572509  3.42461946  1.92198001 -1.01947697 -2.86240617
  1.42409202 -0.2708168   0.03425613  1.99604425 -0.95928814  0.20610505
 -0.83291219  0.14074094  4.01247586 -2.71113409  2.5303641  -2.30356396
  0.31295893 -2.06824985 -1.05098671  1.55520497 -2.11716739 -0.27386606
  0.72977751 -3.23301735  1.07676146 -0.59041145  2.19723309  0.17793233
 -4.63956     1.3541301  -2.85853863  2.20513284  0.95284449  2.15249362
  0.63150402  2.15806343 -2.94378268 -0.03709423 -0.22032055 -2.69478839
 -0.74272429  0.37342587  0.14509411 -1.47561148 -1.09603603  0.76154711
 -1.98693517  1.02975876 -2.95117084  3.81121816 -5.6453515  -3.67198992
 -0.12844246  4.82651804 -0.59933612  3.05607174 -1.96966108 -1.22659121
  1.31967892  4.81182531 -0.68934316 -1.13297912  0.96666616  0.97433825
 -1.76577589  2.11056424  1.47292608  1.47704025 -0.48379589  2.57665968
 -1.81610313  0.92875763  0.61138113 -0.19210458 -0.8914615  -1.21761191
  1.73776533  1.04556221 -4.6256848   2.02589582 -3.90789453 -0.69147676
  3.69112383 -0.96173283  3.49799208  0.2945906  -0.93052639 -0.41283378
  0.0957732  -1.78802663  0.86430115  3.24733723 -1.81796733  2.49021246
  2.57470658  2.01040834  0.78264865  2.66570437  2.40699883 -3.37029554
  1.46349611  1.29186853  0.17995019  2.92618377  2.10528969 -1.96836955
  2.08537189  2.23357386  1.73229211 -0.82581493 -0.6565873   1.06082728
  0.12408896 -1.23778581  2.00256447 -0.10842473 -1.12307274 -2.96958911
  2.76158556 -1.59402686  0.36355667 -0.37630207 -2.14410679  0.81737398
 -1.79545489 -1.48601443 -0.39962359 -2.41913363  1.77037916  2.72444296
 -0.5273062   0.18279173 -0.37871307]
[ 2.16732976e+00 -3.60361530e-01 -4.58500981e+00 -2.91067758e-01
 -1.22430428e+00  4.65308351e-01  2.05645287e+00 -1.96703649e-01
 -6.88563531e-01 -2.52354863e+00  1.12057719e+00 -3.16467345e+00
  3.21388724e-01  2.85621231e+00  1.66736116e+00  3.27668288e+00
  1.66741087e+00 -1.31788496e+00 -4.73410707e-01 -3.76713033e+00
 -1.56593754e+00 -2.57372336e-01  1.86006229e+00  1.63702198e+00
  2.77060297e+00 -3.68693095e-01  1.86691590e-02 -3.36944726e-01
 -6.77295468e-01  3.94235248e+00  9.59739777e-01  9.06280287e-01
 -9.63160138e-01 -1.03165404e+00 -8.28678732e-01 -2.48015495e+00
  5.25559770e+00  3.33610941e+00 -2.63435538e+00 -3.77595923e+00
  2.81810878e+00  2.66848980e+00 -2.81394322e+00  4.18609348e+00
  6.38973805e-03 -1.67363645e+00 -3.15042671e+00 -2.55958878e+00
 -1.55986774e+00  1.73680614e+00 -3.64160786e+00  1.17215580e+00
 -7.26022256e-01 -1.03382153e+00  2.13682108e+00 -1.56206082e+00
 -6.57370950e-02  1.21948101e+00  1.46732759e+00 -5.90111263e-01
  3.27900765e+00  1.40714346e+00  2.75239214e+00 -8.93986861e-01
  2.78669117e+00 -7.52208891e-01 -2.12878482e-01 -9.88478105e-03
 -3.56034014e-01  6.87822959e-01 -4.50133720e-01  1.37808814e+00
  2.82359968e-01  1.01654266e+00 -9.59666882e-01  8.87266296e-01
  6.85878811e-02  3.41361292e+00 -1.53960192e-01 -1.90057661e+00
 -1.90425511e+00  1.83705842e+00 -2.13261436e+00 -4.93233756e+00
 -2.00448508e+00  8.14595855e-01  6.00849703e+00 -2.51594496e+00
 -2.77198573e+00 -2.18469423e+00  3.09919700e-01  3.55981540e+00
  4.09760840e-01  1.14246471e+00  3.10398019e-01 -1.47660705e-01
 -1.06408691e+00 -2.05156507e+00 -8.43371915e-01  3.68758856e+00
  2.93407897e+00  1.39456866e+00  2.15307658e+00  2.77443924e+00
  1.30809215e+00  6.08439227e+00  1.85466778e-01 -2.93247723e+00
 -2.02509039e+00 -8.52945876e-01  2.16646721e+00  3.72099072e-01
 -2.21966963e+00  1.16202231e+00 -2.27835035e+00 -1.88222958e+00
  4.75744166e+00 -3.37924400e+00  9.73759249e-01 -5.91032849e-03
  4.30859325e+00 -4.29740380e-01  4.07954340e-01 -4.92405769e-02
 -6.63268362e-01  7.22557376e-01  4.82799450e-01  7.75046709e-01
  9.46129117e-01  3.24913445e+00  1.22611015e+00 -2.99885805e-01
 -1.37202504e+00  8.31126306e-01  2.74366627e-01]
[ 4.10750677e-01 -1.31718591e-02  7.27260939e-01 -1.40915356e+00
  4.89100758e-01 -7.26157873e-01  1.84921737e+00  8.86297286e-01
 -4.58229249e-04 -7.45891158e-01  1.16605875e+00 -3.87742459e-01
 -6.73042489e-01  1.76279679e+00  1.20473456e-01 -1.01681296e-01
  3.20564828e-01  3.15286412e+00 -1.02681673e+00 -3.79562045e-01
 -1.28821064e+00 -1.07430938e+00 -3.46757567e+00 -6.49137718e-01
 -1.29359236e+00 -5.24475327e+00  2.20881575e-01 -1.64687768e+00
 -1.35184538e+00 -1.15300274e+00 -9.37150791e-01 -3.48084932e-01
  4.27697433e-01 -1.75057984e+00 -1.36536528e-01  2.05823460e+00
  7.35789306e-01  1.83417449e+00 -2.67385146e-01  3.58566357e+00
  7.26253989e-01 -1.77764083e+00 -1.41871369e+00  7.75795757e-01
 -1.30377533e+00 -1.27483953e+00 -1.21827178e-01  2.00731771e-01
 -9.27038826e-02  1.74138439e+00 -4.91603703e-01 -2.33906564e+00
 -2.64362863e-01 -6.23242645e+00  3.48423549e-01  4.17399575e+00
 -1.60022007e+00  8.44347948e-01  2.06251793e+00 -2.78035816e-01
 -1.11481793e+00  1.14428196e-01  1.48056336e+00 -1.55560522e+00
  3.74003525e-01  6.21292316e-01  6.43164150e-01  9.30316041e-01
 -1.45220797e+00  2.14508765e+00 -1.20139448e+00 -1.96158758e+00
  1.58491494e+00  7.93256285e-01 -4.48853699e+00 -1.91175167e+00
 -4.50666728e-01 -2.19832292e+00  7.11624798e-01 -2.72194226e-01
 -4.32259119e-01 -6.08017161e-01  1.96327188e-01 -6.96322927e-01
  3.20586231e-01  8.56530512e-01  1.28960816e+00 -1.22544560e+00
 -1.82582831e+00  1.69155788e+00  7.11321008e-01 -1.87678353e-01
 -1.15368070e+00 -3.66576571e-01  2.42496702e+00 -2.22085201e+00
  5.63404638e-01  3.17266964e+00 -1.95907574e+00 -2.48708805e+00
  2.08584646e-01  8.01554513e-01  2.80163206e+00  2.16237644e+00
  3.36362839e+00  9.27982429e-01  2.48781800e+00  3.71763965e+00
  2.62935044e+00  1.08294004e+00 -1.49057904e+00  6.38036620e-01
 -5.09203494e+00  1.73757990e+00 -2.77954084e+00 -1.98021339e+00
 -9.94266684e-01 -2.15625906e+00 -1.10803982e+00  1.04004205e+00
  2.68093477e+00  2.37252824e+00  1.88052921e+00  3.54622371e+00
  1.15066162e+00 -1.37569449e-01 -6.04773458e-01 -1.17838303e+00
  2.59645505e-01 -3.43600462e+00 -9.59166120e-01 -1.95467796e+00
 -3.11384243e+00  1.85578443e-02 -2.48720568e+00]
[ 0.73203244 -0.79528279  1.03314421  3.05616529  2.39673383 -0.46540964
  0.26251466 -0.16299523 -1.00937306 -0.39002667  1.38121113  1.48399719
  1.82300338  1.4050328   0.17575643 -0.41629405  0.26585844 -0.26629686
  0.686414    0.25831687  1.61511075  1.50878924  1.64505575 -0.69646841
  2.46677556 -0.17576877 -0.2817532  -2.60090381  0.06118788  0.65395106
  1.88153308 -2.7464695  -1.48722522  2.07197927 -3.40377673 -0.47168159
 -2.15763322  2.17634295  0.55831571  2.76859693 -1.30142774  0.05773833
 -1.61797041 -1.89504802  0.34484561  1.66519098 -2.9196777  -2.36505848
 -0.17038993 -0.08606602  0.6701381   1.45595267 -0.06045801  2.00316692
 -2.36599781  0.68219484 -1.77211744 -1.22989986 -0.02909023 -1.44371909
 -1.53610704  1.36458501 -3.07013432 -0.4023181   0.08634215 -0.16335293
 -4.64976464 -2.61248846 -2.31853631 -0.58195515 -0.44681667 -1.20448734
 -2.45790351 -0.88166519 -0.16850747 -3.09822261  0.94795409 -0.72795303
  0.42057443 -3.33719962  0.30243733  1.60696331  1.85865931 -0.19358968
  1.68375187 -0.57266157 -0.49238219  0.65475173 -1.72988594  0.15016865
 -1.34646976 -1.04760163  0.29795463  0.36395867  0.52525886 -1.59495054
  2.17429641  0.87928772  2.87088857  2.33623082  0.39357065  1.65203958
 -0.46328738 -3.2708892  -2.07330019 -1.80596057 -1.17131622 -1.80272861
  1.25133802 -1.14027338  0.85079353 -0.52695927 -0.79592077  2.93469733
  1.56995429  1.32318706  4.25651535  5.99339685 -1.79395853  2.47286121
  2.56203003 -3.34890227 -1.60019691  2.32120785 -0.34625923  0.75911139
  0.92933599  2.28735127  0.3691306   1.4137595  -0.96373239 -0.13145821
 -0.09218869  0.36403865  0.61002796]
[ -3.18395366   2.24196659  -1.79445428  -3.28748751   4.75989398
   8.94385293   5.67627185 -12.77991167 -11.07611085  -1.33951787
   3.12466356   7.13574332   0.24209019   0.19106944   8.70692726
  -0.59594814  14.42096232   5.53325977   1.27005026  -8.83865999
   1.42001572 -19.16510394   4.60106944  -5.93771796  -3.05247713
  -1.37580497  -7.36555512  -1.37141826  16.72788483   2.86536835
  -3.27542662  -4.63936652  -1.35865358   1.49213005  -8.20814775
   4.72571486  -2.31633344  10.95867655  -4.2505159  -10.91135641
  -5.27412161  12.02695113]
[ 1.40158326  0.22787208 -0.90008811  4.93407406  0.15866617  2.12501091
 -0.32777911 -0.77090018  1.45480769 -3.51511375  2.39433216 -0.74059314
  3.20837535 -2.74382077  3.74722685 -0.08536168 -3.81996837 -0.7978757
 -2.66032219  0.60551753  4.66905845  1.1817686   1.76402596 -0.6695176
 -0.19982984 -2.25794133 -1.49466275  1.24409359 -3.98773688  0.36691326
 -2.66521425  2.42675031 -0.32721926 -2.55881258  3.37653943 -2.95593629
  1.07492924 -0.47834326 -0.79524425 -0.75471469  1.6537677   1.58760919
  3.28138108 -0.46244148 -3.25102472  1.76251777 -5.47483479 -1.01997314
 -0.24984613  0.68768568  0.45230901  0.05818088 -3.94284206  3.1070657
  4.18072903 -0.72546569 -0.44427592  0.94041884  0.28552797 -2.36996468
  4.89282043  0.82750566  3.0815954   0.76366649  0.69452185  0.03565248
 -3.29985289 -0.28929794 -2.67496112 -1.18869475  2.03262199  0.13776438
  2.88094736  0.93476894 -0.7302916   2.48137886 -0.42335283  0.85583806
  4.48247103  2.21414138  1.1862903  -1.09076071 -2.66743737 -3.48702453
  0.54928856  1.55765251 -0.59485901  1.79275106 -1.80991749 -0.18392906
 -1.05134109 -0.16496324  3.51205592  4.1188401  -2.50638625  3.17114807
 -3.96683573 -0.60729602  1.49108182  1.77863189 -2.73386966 -3.53089257
  1.86587028 -2.20679707  0.2436908  -1.92589157 -5.23983468  0.96458159
 -4.19686781  0.27942706  1.82176578  2.23988409 -0.93579221  5.59330179
  0.38815843 -0.81102209 -0.84546546 -5.71161091  2.97441975  0.25155061
  3.29065604 -2.16446992 -1.72150424  1.67262225 -4.64583964 -3.64203202
 -1.56684235  2.90756416  1.55482278 -2.27261202 -1.13492015  1.36677496
 -1.7022497   2.53395855  0.15560068]
[ 5.38903742e-01 -1.47751041e+00 -1.62779803e-01  1.42211088e-01
 -2.70443728e+00  1.58883377e+00  1.17414369e-01  3.91428127e-05
  9.54357769e-01  2.23709976e+00 -9.43326354e-01  2.71493895e+00
  1.92844586e+00 -4.99009214e+00 -3.03661874e-01  1.36101416e+00
 -4.84837125e-02 -2.57118887e+00  2.71861314e+00 -9.70446944e-01
 -7.14783142e-01  1.68710238e+00 -1.94664929e+00  2.05884966e+00
  3.89769345e+00  5.75759868e-02  3.81953329e-01  2.28998796e+00
  1.89442415e+00  4.82251980e-01  4.64867305e-01  3.63561474e-03
  8.30087354e-01 -6.74685976e-01  1.04908036e+00 -1.38264816e+00
  3.39967115e+00  5.41517568e+00 -2.83283465e+00 -1.52977221e+00
  4.15080061e-01  2.23921201e+00 -2.12166712e+00  3.01956860e+00
  2.11635005e-01 -3.56017784e+00 -2.81961169e+00  2.66219732e+00
 -1.46922147e+00  1.07217593e+00 -4.19869367e+00  3.99047252e+00
 -3.19837246e-01 -8.80846220e-01  1.02096736e+00  1.81459412e-01
 -1.01860534e+00 -1.05191360e+00  2.86283968e+00 -9.40722936e-01
 -2.91811287e+00  1.38858786e+00 -3.95151515e+00  2.13129390e+00
  2.73729810e-03  2.39568234e+00 -4.29465122e-01  1.60420281e+00
 -3.02871122e+00  4.36852083e-01 -2.56365226e-02 -2.12590323e-01
 -4.46420528e+00 -3.64916904e+00 -9.01800950e-01  3.07962904e+00
  1.74576794e+00 -4.00970984e-01 -5.34118569e-01 -6.47991793e-01
 -6.10227494e-01  2.33263876e+00  1.79476946e+00 -3.66863122e+00
  1.49002305e+00  8.54870606e-02  9.98028108e-01  2.24087497e-02
  5.98305201e-01  2.11678359e+00  1.26329413e-01  2.02128020e+00
 -1.13125474e+00 -9.77803462e-01  5.12942682e+00 -5.06485464e-01
 -2.53351312e+00  3.30596514e+00  7.09752736e-01  1.14460722e+00
  5.90933790e-01  1.41206897e+00  6.42571538e-01 -3.24634994e-01
 -2.19527911e+00  7.58401725e-01  1.39518201e+00 -1.94711013e-01
 -1.16208596e+00 -1.24113999e+00 -2.44203582e+00  1.03152467e+00
 -1.79593004e+00  3.12282662e+00 -3.08542559e+00  2.15577838e+00
 -4.05097070e+00  1.05446951e+00  1.88132905e+00 -1.15804786e+00
  9.12210795e-01 -2.78306109e-02  1.52330019e+00 -2.75534135e-02
 -9.92476248e-01  1.03639304e+00 -3.59250233e-01  2.70218281e-01
  1.86000822e+00 -3.86024488e+00  1.92292448e+00  2.09577128e+00
 -1.59331846e+00  1.54815956e+00 -1.14534156e-02]
[  3.4065957    0.9351125   -4.92789453 -10.12753446  -9.00896974
  -0.51740434  -4.84231022  -2.66693405  -2.6424418   -3.24832045
   1.31249912  -5.25885455   4.05421201  -3.48112552   0.60902847
  -1.34103799  -6.43272132  -0.81342309  -1.74355787  -3.93588977
  -1.25861687  -1.91151453  -5.88310852   7.05024917   5.45776614
  -9.50151827  -2.88564819  -3.553098     0.8183808    0.22965057
  -0.28614419  -0.47505502   1.86309988  -2.04682328   1.16986948
  -0.90796936  -5.11595929  -4.4836765  -11.74629628  -2.96767446
  -0.56307743  -6.77852043  -0.48360221   1.68224445  -0.12146703
   3.6794833   -4.11669396   3.14166903   2.26486728   4.78922805
  -0.06541593   1.62725288  -2.51209289  -2.30193002   0.72038625
   1.56338057   4.54573843  -7.79765228   1.53828131   0.29327277
   3.76005691  -8.32266802   2.14731867   2.52813475  -6.3949545
  -1.41872614  -8.66012234  -1.99417208   6.14588611  -2.98653252
  -0.11727361   2.77181857  -1.63792973  -2.96021204  -1.91116531
  -1.76448454 -17.14766373  10.59210417   3.84017866   4.42715098
  -3.98905242  -5.326835     4.40051573   7.83065688  -1.47861766
   2.79167567   6.58432694   0.72083212  -0.92451762   0.89739202
  -3.69553385   0.84599654   0.97104648   9.66514427   3.72218465
   0.18797382 -10.6795125   -0.6786729   -2.44329093   5.62100125
   2.62747453   7.79262896   1.96468888   1.6526199   -9.52884349
  10.54165439   0.58389148  -3.42253579 -10.35791754   0.14036906
  -2.98400644   6.69961935   1.36133596   6.04357398  -4.67518208
  -1.69502169   5.00654609   2.3792334   -1.81297727  -1.11860766
   9.60832614  -0.1196638   -5.90637406  -1.16252171  -0.68694178
  -1.35041651   3.78485891  10.71449265   1.17062361 -10.16560764
  -5.78752786   7.23552708  -2.8544321    0.01821315   1.13506299]
[  9.89421873   0.98832879  -4.9474017    5.48134044  -2.30206885
 -10.82862625   8.33047433   7.17095594   5.78433068 -11.80144343
 -17.32527097   6.97496603  -8.79614909  -4.59200575  -8.48680359
 -12.64940173   1.70520595   3.95451507  -4.62356397  -5.91710031
  -5.93821267   2.09028026  -5.74660687  -4.93182924   1.34559074
  -0.47145165 -11.1005137   -2.31472436  -7.92563187   4.19154997
   4.46012163   3.14991756  -0.96033786  -0.14498046   2.37665992
   9.68027609  11.17572027   7.89265006   3.5575847   -0.41755564
   1.87184497  -6.40400247   1.13186363   1.39721215   2.54910501
   7.68800966  -6.48984937  -7.59002065 -12.15825974   8.97043725
  -7.27226599  -1.9176244    5.67890384  -0.08398767  -4.50750121
  13.23116313  -3.39303113   3.45271091   6.35938821  -2.14091509
 -10.81962181  13.64456308   0.94959777  -3.06560565   5.59791968
   9.86077172   6.94870136  25.8216302   -4.95323371 -14.01534501
  -2.93469399   5.66938849   3.9210639   23.25317651 -10.43960386
 -20.4700071    3.01440549  -6.85420973  -6.66595206  -4.93507243
  -1.78918875  -9.02633315  -1.50150492   0.95673925   2.47237198
   0.95400606  -9.67377157   1.68989849  -5.01284218  -1.28096199
   9.7638891   -2.24101652  12.84247714  -5.00854304 -12.56912055
 -14.78156867  -1.86575939  13.79808037   9.32295033  -3.60262436
  -8.58492554 -20.65677466  -4.87280969  -0.46421541  12.06142403
  17.66475935   9.51326063  -1.11014804  19.03374177   5.96880375
 -10.53144354  10.1711325  -12.50068818   3.73751104   2.63652274
  -4.40694824  -1.53495379   7.09032117   9.90652556   1.34663141
   7.47387756  10.48491495  18.03834499  -6.40412532  -1.49164618
   0.13520673  -0.67986374  10.40791563  -0.98614396  -1.29179921
   0.03615575   9.75646808  -3.1700823   -1.03818209  -0.47996635]
[ 0.8879467   0.47830439 -0.28667614  5.02105925  0.88452415  1.98818574
  4.20076409  2.68068242 -6.07747853 -2.05317125 -1.39530612  0.54958267
  0.09045436  4.75910803 -0.66317826 -0.47315028 -0.37160872  0.23534123
 -0.48502657 -2.49911953  1.18087314 -4.02459988 -1.28951676  0.23955106
 -2.31155946 -2.53117438  1.67670582 -2.67548011 -0.02493768  1.53036931
  0.12435565  4.22927547 -2.14764871  0.46921032  1.77011476 -0.26195135
  1.15395793 -1.27226028  1.3196121   1.81561637 -0.79267061 -0.37419873
  2.28870259  2.20699323  1.89061687  1.30826579  2.87197805  0.7774124
 -0.10488034  0.99018849 -0.68593284  1.7746191   0.8186654   0.17561388
 -0.42424208 -3.01061452 -3.16253308 -3.96963953 -0.17755424  3.40888864
  2.07487912 -0.96164341  0.65033186  1.10465759 -3.40417571 -1.96802768
 -1.77693852 -1.4968542  -1.88214855  2.69266028  2.6950072  -1.12345195
 -3.20950034  4.15628611 -5.54183036 -0.12151715  0.36454063  1.72891907
  2.49409424  2.59243547 -1.30046849 -0.23450437 -3.01118594 -1.00810686
  4.44245792 -3.80467411  1.58540954 -1.06354927 -0.72328505  3.24861907
 -1.08516265 -1.59814487 -1.37022292  4.70842516  0.23996284 -3.78212274
  2.45407098  2.36469404 -0.46229056  1.54221643  1.9255776   0.93854809
  0.00949662  0.7548234   0.05187173  2.79670434  0.48677878 -2.6722852
  3.79889486 -1.82181059  2.04617116  5.5353088  -0.3830555   3.95588318
 -4.02800994  4.75292741 -1.43103798 -0.83887831  0.16091533  3.01304049
  0.7252138   4.50279221 -0.83114591 -0.21148071  0.83463789 -1.08924063
 -0.09398221  0.73007564  2.55144784 -1.42197958 -2.51756446  0.21847557
 -2.8163417   0.56772497  2.05471242]
[-2.8123488   0.12888319  5.33945596 -3.66298446 -3.32598681 -1.12210169
 -1.71244737  1.96388863  3.65595326  0.88983873  2.27853096 -2.8969775
 -0.87702725  4.99195042 -1.2968969  -1.28509829  1.62347147  0.89980907
  1.61605456  2.07883412 -0.53983195  0.14589831  0.57655606 -1.47404531
  4.04559511  1.0076216  -2.985084    4.0905053  -1.72087449  0.49789115
 -3.80734822  1.08176805 -2.10413274 -4.2048142  -6.24739875  7.25952318
 -5.85192502 -4.77148142  0.5587939  -2.49340416 -0.77912474 -0.11175448
 -0.81747502  0.65005271  1.62435235  1.19260239 -0.72513541 -2.60115078
 -0.36475227  0.17429408  0.53761786 -3.29276795 -1.91068622 -1.78729421
  6.05836979  0.60339158  4.93423257 -2.33858436 -3.39967161 -1.45467098
 -2.87947617 -5.19583845 -2.29735379 -0.0671951   1.36845991 -1.39733064
  0.63083541 -0.52734695 -1.44661537 -0.42126402  1.11825467 -0.518902
  2.63097377  4.50646967 -3.71512239 -6.00899343  0.56212939 -3.46667454
  0.86941026 -0.22862372  0.84679364 -3.7182907  -3.26099734 -0.85983606
  2.73979499 -5.63453442  5.0493804  -1.94615544  0.40343725  0.01737665
  0.88285112 -2.7108884   5.41495358 10.2251552   5.70523132 -1.40369774
 -2.62342898  1.97766031  1.74377542  1.42204745  1.19159339 -6.0551995
  1.45280203 -0.55618899 -2.7732482   8.37811607  6.30542141  0.54958714
 -0.12727577 -3.10193935  2.81904497  1.58892143  2.63019471 -1.32251259
  3.41704863  0.49256394 -1.6883213   1.53751498  3.10224786  0.84898263
  1.09371089  1.6261708  -1.57932471 -1.21116088  1.91872337  1.4761213
 -0.77300633  1.27940923 -2.37426175 -0.17052362 -4.27689891  0.25960727
 -2.49002863 -1.69143542  1.13213623]
[ 2.21282417e+00 -1.72517442e+00  4.43533603e-02  2.44781094e+00
  8.54735086e-01 -5.61256874e-01  3.40674169e+00  9.81714003e-01
 -1.65560665e-03  5.63496038e-01 -6.85567282e-01  1.21998973e+00
  1.66326470e+00  1.57233585e-01  1.13789174e+00 -7.15077828e-01
  1.27177759e+00 -4.00639783e-01]
[-2.86687726e+00  1.71210204e+00  5.41936882e+00 -4.35212128e-01
 -2.29848270e+00 -3.30428607e+00 -5.12963065e+00  3.69965955e+00
  5.41887052e+00  2.27727423e+00  1.89373698e+00 -2.64125726e-01
 -1.43282817e+00  3.44458974e+00 -2.41340436e+00  1.06941047e+00
  3.14928281e+00  8.02527761e+00  3.61163430e+00  8.21903401e-01
  1.72898669e+00  1.03661455e+00 -2.51872067e+00 -3.07150697e+00
  8.68057958e+00 -2.03765343e+00 -1.81446459e+00  1.72576350e+00
  1.68200726e+00 -3.66072779e-01 -1.13590998e-02 -2.50734659e+00
  7.89806030e-02 -3.53653140e+00  5.80144201e+00  3.11131543e+00
 -1.72833573e+00 -6.30032556e+00  9.43606127e-01 -3.81532025e+00
 -1.65225875e+00  1.26872950e+00 -4.55838108e-01  4.29272503e+00
  9.27000440e+00  1.45831230e+00 -3.09482903e+00 -4.25113403e+00
 -1.42402678e+01 -2.39040192e+00  4.41509973e+00  8.92115993e-02
 -1.23890876e-01  3.55229140e+00 -4.37922778e+00  6.04649003e+00
 -4.35408362e+00  3.06494998e-02  7.43371460e+00 -3.24098548e+00
  4.21769775e-01 -2.02133817e+00 -3.78453318e+00 -3.97816487e-01
  1.95580137e+00 -1.96965474e-01 -6.81925809e+00 -3.37807590e+00
  5.32126848e+00  1.52685095e+00  1.67750831e+00  2.47195916e+00
 -1.86657887e+00 -7.67714815e+00 -2.11467242e+00  1.32776827e+00
  7.31348308e+00  3.12899284e+00 -1.51772314e+00 -3.04109532e+00
  4.71390364e+00  4.19643179e-01 -1.22956236e+00 -1.80331702e+00
 -2.17800089e+00  2.51265699e+00 -5.63803385e+00  7.15569796e+00
 -4.39226913e+00  1.06871673e+00  1.00584676e+01  1.13793496e+01
 -2.43596691e+00  1.52851977e+00 -3.43474481e+00 -2.29187564e+00
 -4.36780273e+00  1.03519115e+00  3.40907793e+00  9.56852179e+00
  4.91379004e+00 -1.70916901e+00 -2.14203257e+00 -4.68064645e+00
 -6.19921066e+00  1.54268745e+00 -1.25284204e+01  1.58691334e+00
  4.06064807e+00  2.79726670e+00 -4.71587264e+00 -1.26394790e+00
 -7.49844148e+00  6.50022155e+00  3.44690469e+00 -2.94006439e+00
 -2.04337263e+00  6.99091268e+00  4.14780887e+00 -5.77064150e+00
  4.41612870e+00  1.32239678e+00 -1.36521427e+01 -2.47269625e+00
  6.36560620e+00 -1.53878772e-01  4.96149446e+00  6.33502080e-02
 -8.52370208e-01 -2.99564550e+00  2.60912877e+00  1.19352585e+01
  2.02293281e+00  4.70266865e+00 -3.83013209e-01]
[-1.01445879  1.41595122  0.33129397 -1.22413405  3.05049149  1.92454658
  2.90459284  0.90130195 -0.40105594 -0.59532615 -2.95608492  2.64062894
  0.83640862  2.07539276  2.94276101  0.30464251 -0.14474126 -1.20871112]
[-1.14916715  0.20664761  0.11684461  0.50477321 -0.12550341  1.0021191
 -0.33233571 -1.09199938 -0.79559612 -0.29519653 -0.2307828   1.82170193
  2.54142394 -0.19128212  0.52119235 -0.04492067  0.05809983  0.36217036]
[-0.24275823 -0.27596092  0.795456    0.50255418 -0.59115703 -0.43304523
  0.05595537 -0.45168614  0.32473204  0.01062421 -0.02462127  1.25310696
 -0.51602201 -1.92196287  0.56586112 -0.54291239  0.08956847 -0.56830637]
[-0.01174121  0.0749643  -1.05339525 -2.65584386 -0.1920355  -3.05465127
  0.01514778 -2.45615904  0.35563432 -0.25365807 -1.16580079  3.16493379
  1.05583528  0.93732651  0.91848659 -0.36909698  0.06859778 -0.44081014]
[ 0.32925529 -0.10343642  0.5595659   0.41676557  0.21662407 -0.49948633
  0.3128559  -0.22819766 -0.66040085  0.61232324 -0.39617197 -0.54606044
  0.43375981 -0.25203015  0.10347503 -0.6730783   0.08561604 -0.35961175]
[-0.51078493  0.59660447  0.73657423  0.13284746 -0.06931717  0.32203951
  0.43266572 -0.80456062 -0.53058293 -0.0859434  -0.79076791  0.14752111
 -0.01887201 -0.41892581  0.2205027  -0.33118454 -0.03918491  0.56913876]
[-1.1700643   0.94194892 -1.09320192 -1.54443176 -0.88822153 -1.80788761
 -0.13016712  2.30005294 -2.75130739 -0.10688248  0.21217746 -0.67478254
  2.41980001 -2.35087307 -1.12276532  0.11360956  0.27588988 -0.39265218]
[ 0.38290635 -0.84491879  1.78541385  3.66666693 -2.64421676 -0.33527944
  3.21752808 -4.04337284  1.807141    3.32396835 -1.69454617 -3.78987577
  0.5009572  -2.20714985  0.36647436 -0.10234243  0.54205056  0.91959452]
[ 0.38652611 -0.5857012   0.5099296   0.67516311 -0.32488644  0.67831715
  0.14025493  0.45725503 -0.08572058 -0.35029234  1.33409614  1.2242141
  0.33483738  0.99142752  0.3763356  -0.67986324  0.40566928  0.34208097]
[ 0.26460966 -0.44152607 -0.11261468 -0.46110858 -0.39468435  0.38607799
 -0.11364365 -0.11499811  0.07976092  0.18556454 -0.26201117 -0.06176344
  1.16321939 -0.42342586  0.23355597 -0.25091772  0.63785008  0.63497248]
[ 0.12562591 -0.1846305   1.20704737  1.4514975   0.01193544 -0.50384345
  0.04007808  0.04897702 -0.73805289 -0.86306169 -1.22665553  0.07472047
  0.56800349 -0.12671441  1.12021329  0.47273631  0.13713155  0.11660946]
None
None
[ 4.09224332 -0.9727142   0.31522223  0.55941336 -0.26652663 -1.85428748
  2.12202351 -0.43245745  0.00751573 -0.612754    2.4194798   0.09458436
  2.58037869  1.78749985  3.14710933  1.14282431 -1.51299493  2.91919427
  2.0178794  -0.92004537  1.53244955  1.00974364 -0.82800617 -1.6287915
  1.99770151 -1.08003726 -0.51539162  0.66919591  4.49142358  2.95500597
  1.0292488  -0.02852248 -2.05369201  1.31973475 -0.91799624 -0.30876743
 -1.82415064  0.91185486 -1.29000473 -1.06763125  1.42810114 -0.62993615
  0.88125802  1.45134697  2.00322719  0.19255764  1.00301449  0.0798453
 -2.72284438  1.18267942  2.13013664 -1.13377445 -1.63084867  1.93615417
 -1.15769631 -0.60299544  0.11761034 -1.69844129  2.65685301  0.07327416
 -2.29312567 -2.17013156 -2.09339704]
[ 1.3022065   2.00428749 -0.1093215   2.86747557  1.16939909 -1.45123764
  0.5555683   1.00141033  1.02801031 -0.79298267  1.39936344  0.77300214
 -2.16175457 -1.04612959  0.20992017 -0.0269675  -0.53825187  0.13560067
  2.16000811 -0.53681514 -0.70049307 -2.40963141  1.66144737 -0.38265356
  2.53587723 -0.81552268  0.47166581 -1.05523617 -0.83883881 -0.84119815
  0.73489978  0.05127478  0.45692148 -1.96416715  0.42773719 -0.76077769
  0.75088912 -1.490211   -2.11950019  0.38337666 -0.33062478  0.30798136
 -0.66877811 -1.20045459  0.70369635 -0.25070906 -0.22687089 -2.03921182
 -0.27172426  0.10479935 -2.14358849 -1.63394371 -0.70511574 -0.99971585
 -0.81759678 -1.1617915   1.63937936  0.91347166 -0.00546457  0.16812018
 -2.39160762 -1.20481823 -2.20378147]
[ 1.48014083 -0.1424131   0.55663739  1.92163821  1.397519   -0.61693592
  1.16759853  0.81545321 -0.93121073 -0.24688419  0.10273278  1.7563588
 -0.10725859  0.48108111  0.64304586  0.30136416  1.72052569  0.29548591]
[ 0.92742424  0.81180573  1.6747809   1.41063676  2.051159   -2.41956049
  0.34192456  1.28752677 -0.63850799  1.35126613  0.42649538  2.6641144
  1.63727424  0.26778236 -0.23215506  0.08011786  1.54013491 -1.01706436]
[-0.90474306  0.07703568  1.98357782  0.908243    1.1234127  -0.56529685
  2.26540861 -0.15070261 -1.04771188  2.89486462  0.27681699  2.33370049
  0.81756232 -0.94129758  0.34533785 -0.98498072  1.88705135 -0.12334957]
[ 1.9468115  -1.94085379 -0.62962836  1.44616747  2.7727135  -1.1321551
 -1.04833231 -0.15523634 -0.75238682  0.28719165 -0.13611238  2.2606428
  1.98910199 -0.76228323  1.61392192  0.07618219  0.96004419  0.35975539]
[ 2.79165767  0.84780973  1.09952673  2.36038615  2.02558251 -0.40006968
 -0.08421826 -0.57856837  0.14609446  0.35144251  0.50834273  1.97621701
  1.30886194  1.10325286  0.81452212 -0.30079134  1.0223878   0.20976665]
[-0.69819091  0.84274901  0.68789788 -1.28143931 -0.14655469 -3.88227914
  2.10365195  0.16302274  3.89223532 -1.25391958 -3.28944064  2.83411857
  1.2325571   0.8774879   0.11567224 -0.74115547 -0.92428143 -1.24054722]
[ 2.04126549 -1.38982537  0.32629128 -0.97243319  2.41817183 -0.69731151
  1.26949073 -1.1191171  -2.26100337 -0.99830042 -3.59928731 -1.73250939
  1.63687252 -2.3084651  -0.38010137  0.640727    1.46129895 -2.13845921
 -1.29886911  1.76810433  0.30740238 -1.24429291  0.420771    0.22317658
 -1.04296895 -1.40655927  5.44299734 -0.92976559  0.42884809  0.09930657
  1.08358937 -1.16829395 -0.05999879 -4.40319951  0.73123954  1.14593783
  2.26765361  2.92355179 -0.63300019  4.13620831 -4.35597679 -2.81773356
 -2.19534018  0.4564713   1.56434078 -0.04775376  0.46216569 -0.2846477
 -0.85072285  1.09099041 -0.77214501 -2.28936699 -2.03711411 -2.10579677
  1.40588236 -0.48417568  0.32742999 -0.43561984 -1.02363935  5.33081486
  2.63097344  0.6359266  -1.71731152]
[-1.59373746 -0.91662649 -2.23425221 -1.55538873  3.0926245   0.93608731
 -1.52006674  0.78337338  0.63959895 -0.76111698  2.73925188  1.03120963
  1.20179256  2.95281338  0.09751733 -2.68946933  3.06687449 -0.1960624
 -0.93000196 -0.30921759 -0.27594756  1.97062074  0.5865596   0.42991199
  0.64942254 -1.56732035 -1.08102215 -1.9043819  -0.00514516 -0.45830018
  2.48005827 -1.12339917 -1.90820407  0.79771863 -2.28866697  1.91493101
  2.9108145   1.27101172  1.38469595  2.02191918 -1.1388624  -2.3265055
 -2.00339694  0.25828339 -1.55753879  0.95165727  1.00774609 -0.21712041
 -1.91568918 -0.58764999 -0.09309115  2.90863088  0.57684405 -1.2474907
 -0.68357998 -2.38487716 -1.23678749  0.18568221 -1.18883511  1.49127052
 -1.59554249 -1.44201831 -2.38724126]
[ 0.92327705 -0.27454872 -0.14927291 -0.31744695  0.74488475 -0.30673084
  0.53206569 -1.19227175  0.09284818  0.89895332 -0.49730739  1.4010335
  1.33445779  1.15957079  1.2244525  -0.1894831   0.63217617 -0.46729061
 -0.04820543 -0.62617487 -2.18408056 -0.65929097  1.81755024 -1.67373031
  1.96649483  0.1924587   0.13048908  0.82281256  0.41296944  1.54305957
  0.67940349  0.31334212 -0.41476109 -1.67165594 -0.72156515  1.76007533
  0.63379718  0.51072652 -0.98358522 -0.06474392 -1.28280092 -0.68151743
 -1.88658089  0.97954094 -0.1447434  -0.11606409 -1.57636091  1.25174731
 -0.61632658  1.3781464   0.00783104  0.8000276   0.06590472 -0.37629931
 -0.94179884  0.31375236  0.08182784  0.35890712 -0.01894275  1.47523937]
[ 1.6590241   1.2014544   2.89792     0.61202235  0.69944441  0.23106859
 -1.93299378 -1.13875169  0.57975579  0.53000325  0.90930788  0.62301268
 -0.58048926 -0.8304754  -0.74826458  0.19455188 -1.12292252  0.95447331
  0.22404324  0.91663659 -3.19554506 -2.55647041  1.06854939  3.77951948
 -0.08856124 -2.68216031 -2.8987882  -1.76132711  2.11838262 -1.6807209
 -0.38796515  1.41875396 -1.118818   -2.35326641  1.39411262 -0.52144816
 -0.805935   -1.28251528 -1.3787551   1.22232684 -0.66422578 -3.48174715
 -0.89622071  3.9330017  -1.66222148  0.01009024 -0.15725884  1.67348349
 -3.93940305  2.79476891 -2.09823764  0.6391992   1.16295179 -1.4710583
 -3.08820711 -0.2762109   0.1580846   2.09205642  0.42847763  0.80926915]
[ 0.5064575   0.39678345  0.28835126 -0.89882774  1.1200682  -0.46540478
 -0.11899538 -0.69090922  0.46211419  1.11444993 -1.83326283  3.09599883
 -0.04344861  0.05945273 -0.42669646 -0.24992443  1.31591198  1.17145706
 -1.10043441  0.38958412 -1.164877   -0.04800538  0.89964938 -0.90964446
  0.81382057  0.01939781  0.30969757  0.26101353  0.81431892  0.61083501
  0.20927146  0.04597449  0.5945054   1.03103107 -1.29979811 -0.77552345
  0.547811    0.97750157 -0.85149633  0.19461727 -1.92408519 -0.967253
 -2.34350329  1.4603657  -0.84889559 -0.38389115 -0.20464172  0.21579874
 -1.31341098 -0.82847194 -0.26590014  0.62664296  0.88856618 -0.25890437
  0.08770971  2.09091182 -1.20175556 -0.19848365  0.44462546 -0.39471923]
[ 8.85721552e-01 -6.61681491e-02  3.79657246e-01 -4.14456011e-01
  4.76414655e-01  2.17096599e+00 -1.39230585e+00  2.23454703e+00
 -2.53483823e+00 -4.52720940e+00  5.31020646e-01  4.60931150e-01
 -3.27491131e+00 -1.14934565e+00 -2.07728662e-02 -8.36625613e-01
 -6.32564950e-01 -4.78997195e+00  1.28241372e+00  4.08987770e+00
 -5.91170695e+00 -9.73501796e-01  6.68956806e-01  1.02546485e+00
  7.93542940e-01 -1.09506072e+00  6.27915475e+00 -2.63357774e+00
 -1.36473543e+00 -1.78817929e+00  9.94573560e-01 -2.19855592e+00
 -3.29486750e-02 -7.94033525e-01 -2.00665427e+00  3.26449527e-01
 -5.77297805e-01 -1.41181839e+00  2.87941472e-01 -8.72776500e-01
  1.99168235e+00 -3.01807395e+00 -3.25436634e+00  4.32338458e-01
  1.96553163e-03 -3.12182056e+00  4.52671377e+00 -1.50565900e+00
  3.15875329e-01 -3.00071710e-01 -7.68139669e-01  7.11934791e+00
 -2.89025015e+00 -1.71282949e+00 -1.65065060e+00  3.59465063e+00
  5.27314274e+00  4.12531298e+00  1.49358818e-01 -2.17820579e+00]
[ 0.3980657   0.05553148  0.10447559 -0.17019911 -1.08918337  2.1617919
 -0.18380317  3.1130995   5.5397547  -0.44377795  2.7133581  -6.59854609
 -5.19044363  1.26907302  0.01137802 -3.04713075  4.72408212  5.68430943
  3.90806877 -1.32361519  6.83559028 -0.89571996 -8.78512452 -3.32521112
 -4.50813144 -4.85397522 -7.89006944  2.28323751 -1.10692393  3.34685084
  2.07176798  2.5888521   0.66795428 -6.60064304  7.26555099  6.22903855
 -5.54686805  6.97455576 -7.06934098 -2.11411391  2.62479132 -9.97493338
 -7.01911272 -3.38004359 -1.81799034  0.02610101  2.42198933  1.91946216
 -2.45687037  5.58508139  5.71523437  2.07995031  2.60026684  3.34984605
  4.32304615 -0.86744821  5.07965287  2.79351224  4.02732259 -4.08332782]
[ 1.31243995 -0.42928321 -0.21700627 -0.46488591  2.46880425  1.3767894
  0.06847386  1.63816445 -0.55955258  0.90534795  0.98866284  1.12415703
  2.06092355 -0.36442663  0.45589374 -0.91852422  0.60470091  0.41137641
 -0.19806742 -0.37718042 -0.35413171 -0.08196185  1.90728203  0.04494336
 -0.07242511  0.04911282 -0.30283989 -0.62193456 -0.87259872 -0.70942784
 -1.16883891 -1.64398628  1.29484198 -0.56854232 -0.88092097  0.28346553
 -0.88239099 -1.12317803 -0.1694982  -1.16355941  1.02919121 -0.77563851
 -1.43509825  0.6082911   0.48110144 -0.48702392  0.4877583   1.40695829
 -1.35875904 -0.66649686 -0.03773839  1.33463616 -1.78655805 -1.24133744
 -0.29383107  0.48567815  0.91576966 -1.3027757   0.74319913  0.21431009
  1.81047052  1.20233239 -1.03014963]
[-0.55298238  0.41487076  0.2115886   1.26884504  1.09980349  0.15703633
 -0.06267577  0.04818363 -0.25324119 -0.1132268   0.0013591   0.07350727
 -0.84878647  0.47280787  1.03870882 -0.12661584 -0.38268496 -0.22534614]
[ 3.73647992 -1.06320839  0.21908644  1.12148929  1.37649794 -0.75435822
 -0.33950736  2.34751327 -1.52392843 -2.25299201  1.80105682 -0.72153227
  1.70080806 -0.31508567  5.79267046 -3.23436334  2.97656699  0.14450902
  0.70788798  0.19527461 -4.76585513 -3.62244062 -0.34385202  1.46856841
  1.70277235 -1.2883841   0.79410528 -3.4886764  -2.72931322  2.70261299
 -1.99710567 -0.2392347   1.33403658 -0.75330742 -1.76443995 -0.28099726
  0.91012823  3.24848482  5.83827716 -0.44922748 -1.88138581 -1.43706247
 -0.50117764 -0.53450841  1.31541387 -0.2636393   1.27024609  1.55217061
 -0.26435145 -0.7195824  -2.48204964 -2.34058649 -0.74176667 -2.43149136
 -0.4403285  -2.34707853 -3.63562385  1.74208698  0.49983529 -1.58382032
 -1.60157515  2.10535773 -0.9240874 ]
[ 2.1111343  -3.95509186  1.98821909 -2.86829384  3.01475085 -1.18762968
 -5.12769433 -1.31578439 -0.67334921 -0.15798267  0.2287358  -3.70905751
 -0.70849622  1.34639328 -2.37627307  2.0066875  -0.82807895  2.21176204
 -0.53362424 -2.50721206 -0.2055854   2.00804363  0.19619704  3.25528396
  2.69843081 -2.10433576 -4.36288218 -1.15893973 -3.81999871 -0.62218644
 -1.45102759 -0.08382598  1.46575286  0.83410914 -0.92640269 -3.27267993
  0.8835174  -1.46449299  4.83071935  2.28799192 -0.87061292 -1.70945526
  0.31386078 -0.65873181 -0.42030806  0.44731004  0.76595342  0.73587045
 -3.17477468  1.80023854 -0.47886575  2.43768801  2.96317194  4.30111336
  1.13326648 -0.71869488 -0.83377586  0.81052845 -1.04526186  0.35635784
 -1.57793652 -1.43124467 -1.74287625]
[ 0.51800362  0.75884969  0.64861785  1.24732299  1.98249612 -0.3941296
  0.26780996 -0.08866589  0.15171197  0.74355216  0.11994772  1.03999222
  1.63264162 -0.23107147  1.22040816 -0.62550122  0.0881869   0.43544959
 -0.46063673 -0.28973203 -1.24511156  0.07120003  0.10811597  0.09040718
  0.42557714 -1.02008976 -1.05320275 -0.17585094  0.65372434  1.39632305
  0.11583168  0.26965183 -0.39202537 -1.12521528 -0.48731658  0.09807949
  1.05838689 -0.87139003 -0.11876893  0.62917439 -1.2779342   0.2277451
 -1.82756089  1.42993516 -0.4044699   0.49851692  0.42738762  1.25324516
 -1.12598893  0.66874116 -0.89686724  0.81551458 -0.30009506 -0.23408549
 -0.70060342 -1.37755681  0.96626123  0.06541917  0.69407295 -0.34097044]
[ 3.67317313  1.62096459  1.02202706 -1.89298005 -1.20574854 -1.22088817
 -0.16074462  1.1439375  -1.37266318 -0.05092387  1.2926302  -0.58843829
 -0.55609814 -1.89863    -0.62426181  0.45262151  1.23352326  2.54129225
  2.41590755  0.39915846 -4.67705959  3.65032966 -0.01639532  3.83872846
  1.01663666  3.66654819 -0.37293175  0.67130734 -2.39643509 -4.78341827
  2.13801624 -0.67076342 -3.44905594  1.50212434  3.11123789 -3.71214111
  2.14349718  1.26945354  2.89022139 -0.91398162  1.75134836  1.87042665
 -0.04523642  3.176914    1.95267902  1.40544771 -1.23280167  1.47655691
  1.95270404  0.63814092 -1.64216128  2.19486289 -0.84628512  0.4933116
 -0.62188585 -0.89998929  1.72837307  3.81666808 -0.85893353 -1.24392467
 -1.93951019 -1.12907488 -1.82134157]
None
None
None
[ 1.51871205 -0.71838404 -5.76914445 -0.01015083  7.98559645  6.52002419
 -0.33930732  6.19900206 -5.10027837 -7.1955255  -6.8594667  -2.88658378
 -5.44418797 -3.6893932  -3.56935607 -6.20683221  2.66721729  1.06970073
  0.574178    2.70410091 -7.76164854  1.30413287  3.9705848  -1.64030612
  3.2530059   1.00453671  0.90502675 -5.77975215 -6.7627369   3.14885913
  3.45454221  2.96899367  3.13496934 -5.28645138 -3.90047424 -3.6728355
 -0.89009659  4.96073317 -2.37543401 -1.48035404  4.17181793  2.90171397
  3.36914899 -1.48222751 -3.06960032 -2.13479997  2.78190056 -2.55575653
 -1.1080105  -1.72939482 -0.55472857 -3.36336984 -1.29278267 -1.52491335
 -3.85852438 -0.7194603  -0.62303485  3.07255276 -1.64101457 -1.49719318
 -2.08985006 -0.27562534  2.51389391]
[ 2.55546476  0.99171337  0.55960537  2.97548096  0.96834777 -0.44318604
  0.68186187  1.23483443  1.59536957  1.16165423  1.35561247  2.32458628
 -0.22627819  0.86222046 -1.6812779   0.12505736  2.57115117 -0.56343745
  0.1386288  -2.25548631 -2.49323095 -0.21428818  0.52016317 -0.59910396
  2.41720089 -1.74773635  0.20789074  0.35031395  1.85874011 -0.01460668
 -0.78092392  0.79845285 -0.84974516 -2.11709566  0.54249796 -1.08561994
 -0.05779897  0.88250274 -0.70949641 -0.45808658 -1.57034145 -2.08740682
 -0.92167198  3.25323388  0.52270332 -1.83504619 -1.24522299  2.84246358
 -2.1906201  -0.77151154 -0.35831746  0.68107123 -0.49041757 -1.18372299
 -0.26385637  1.01378566  2.32316898 -0.63298053  0.51175918  1.36435117
 -0.56601802 -0.78467622 -1.1623298  -3.26671255 -0.43605955  0.58721926
 -1.25531104  1.61807542 -1.61972256  0.56864512  1.30732633  1.04946726
  1.25406376  0.15277835  1.36149258 -0.64219944 -1.75088429  0.57010847
 -1.23883088 -1.24521045 -1.35929966  2.28311115 -0.52209841 -0.49805674
  1.61688236  3.76412717  0.20559976 -0.02119101 -1.53370544  1.24498112
  0.20938936  0.35658239  0.91948969  0.88128673  0.62291237  0.80444153
  1.74530073  3.03103384 -0.75006943  1.76182339  2.98619749 -1.64035593
 -1.43371998  0.96332299 -0.56210903  3.26078539 -1.59343441 -2.23777877
  2.42058969  1.4486988  -0.21408058  0.85046247 -1.93412623  0.95514487
  0.04350542  0.54825889  1.79047423  0.31822933 -0.95928472]
[ 0.93946365 -0.36356835  0.97557291  0.54431007  2.64657523 -0.19217242
 -0.38018824  0.87703403 -1.19304196 -0.08856999  1.89067403  1.43506403
  0.90565358  1.2320753   1.66524534  0.33187656  0.06019677 -0.11322976
 -0.37297756  1.42397349 -4.36417626  1.64839337  0.65615801 -2.15483573
  2.47302693 -1.85130933  1.09399001 -0.70458111  3.24069769  1.59364952
  2.03482159  1.24679513 -3.10792986 -0.95955393 -0.94691592 -0.20928181
  0.90128077  0.55303412 -0.08064282 -0.91630944  0.07027467 -2.55756316
 -1.69926462  2.17945947  2.07776929 -0.69071094 -3.6529622   2.67552479
 -1.75353868  0.59075859  0.15946529  1.7703015   2.09221463 -0.78806136
  0.99760612  1.52474047  1.47846962  0.42205905  0.38471627  0.30797128
 -0.74555862  0.60453138 -1.24893103 -2.2818887  -1.15735722  0.35767401
 -0.8049157  -0.90960879 -0.22775844  0.60753334  1.39017827 -1.22691296
  0.76120376 -1.16949959 -0.2256731  -2.30080393 -1.39675232 -1.003703
 -0.52318955 -1.63877365 -1.59627433  1.3167347   0.27235218 -2.69909229
  1.50233108  3.51299876 -0.30137391 -0.26432681  1.44966049  0.39868252
  1.31496145  0.22833336  1.75122054  0.41290122  0.95169091  4.43291823
  0.64624815 -1.77401234  1.57907491 -0.13836269  2.57052299 -1.4809091
 -2.75276119  3.59502946 -1.29379007  1.70941136  0.58167794  2.10462298
  2.16144763  0.49666091  0.88222558  1.45872945 -0.99679177  0.66193571
 -0.5873792   0.00548878  1.21281555 -0.17666624 -0.28802365]
[ 1.06537025 -0.2601584   3.05319337  1.20656747  2.31678102 -3.43103749
  1.79110702  1.01567167  2.001448    4.73851429  1.40901747 -0.46292185
 -0.50164427 -1.45958577  2.60748795  1.21515547  1.06170363  1.19579189
  0.08319396  0.03575011  0.32373719 -0.84831982 -1.03711098  0.93213678
  0.11172092 -2.02816554 -1.55845567 -0.449391    0.67091502  1.67929354
  1.38725021 -0.03266177  1.07380525 -0.4195698  -4.84750987  0.00526677
  2.99769076  1.77016694 -2.34123014  0.43860782 -1.76665168 -0.84901644
  0.0228435   1.4012282   0.01715898 -0.28247592 -0.90046745  1.42211413
  0.93223113 -1.65161153 -0.787872   -1.22244404  1.02502925 -2.65314761
 -2.44172478 -0.34983208 -1.12993115  0.69981413 -1.47966014  2.35925077
  0.38557157  1.67709327 -0.6237311  -1.71724848  2.38588674  1.14915789
 -1.44780298  0.84531613  0.03017767 -0.75689443 -1.15321391 -0.66402891
  0.14759851 -0.57952855  1.60091558  0.08883196 -1.37013032  0.83009487
 -0.19465494  0.1679     -1.88671405  3.32543227  2.47553555 -3.38464447
  2.9800446  -0.10530475  2.32355101 -2.92698514  0.92509859  2.46142197
  0.21347681  0.27434137  1.7654479   1.55022067  0.58949503  0.28463071
  0.15403633  3.62078915  0.01395378  0.48896417  2.75931954 -1.66722107
  0.39490908  3.54703764 -1.88927327  1.56313118  2.74078605 -0.62449657
  1.09667857  2.06473159  2.52618876  1.14245219 -1.54533877  3.36540579
  1.35634818 -2.21988375  1.06319057 -0.10999322  0.43281376]
[ 2.39232876e+00  6.43738892e-01  2.68038359e-01  2.10944132e+00
  1.46933527e+00 -1.32549582e+00  5.81138446e-01  7.66512429e-01
  3.56878970e-01 -5.95025192e-02  2.51866655e-03  9.44404411e-01
 -1.03584180e+00 -3.11049910e-02 -4.78766946e-02 -4.76671935e-03
  1.54771292e+00  1.93179013e-02 -3.02679363e-01 -3.93494645e-02
 -1.82269186e+00 -1.45752292e-01  2.26201941e+00 -6.22416286e-01
  3.27635636e+00 -1.35822595e+00 -1.07333900e+00 -3.87982890e-01
  2.05267038e+00  2.54496422e+00 -4.90142631e-01  2.77361551e-01
 -1.31096948e-01 -2.23280340e+00  5.34810033e-01  1.24986768e+00
 -3.03021672e-02  9.90639350e-01  1.41423487e+00 -1.79844959e-01
 -9.48355741e-01 -1.81255842e+00 -1.45253060e+00  1.21279452e+00
 -1.14803382e-02  3.34341044e-02 -1.26338577e+00  2.87099959e-01
 -2.03216136e+00 -9.52277343e-01  4.06213374e-01  5.02845623e-01
 -2.86706053e-01 -5.17026509e-01 -9.07041310e-01  1.89415305e-01
 -4.13692982e-01  9.18752330e-01 -1.98867117e+00  9.74853789e-01
 -5.54640315e-01 -7.04172609e-01 -7.81922335e-01 -1.29802819e+00
 -5.59493756e-01 -6.63559074e-01 -2.06821802e+00  9.03019330e-01
 -4.59749320e-01 -1.32420018e+00  1.27854344e+00  1.49372907e+00
  1.66227773e+00 -1.02798836e+00  6.67323005e-01 -1.03248146e+00
 -1.77983867e+00 -2.07495979e+00 -1.39687335e+00 -4.50906002e-01
 -8.89544108e-01  1.47063141e+00  3.95823752e-01 -1.00631531e+00
  8.36065718e-01  1.56265389e+00  2.36908253e+00 -1.78513607e+00
 -1.30314956e-01  2.62529089e+00 -4.71245278e-01  3.48918747e+00
  4.52122946e-02 -5.49473369e-01  3.12101893e-01  8.60456294e-01
 -1.07580465e+00  2.76676022e+00  4.83772360e-01  2.56032666e+00
  2.08402231e+00 -7.93543017e-01 -9.58632039e-01  8.45655163e-01
 -1.38626387e+00  2.47220428e+00 -2.16476254e-02 -7.50478550e-01
  2.32302798e+00  9.30361367e-01  1.11857818e+00  9.42138097e-01
 -5.89024578e-01  2.53712655e+00 -2.26670001e-01 -7.32147947e-01
  1.15231509e+00 -1.34933403e-01  3.57656967e-01]
[ 1.03333356 -0.52196544  1.4818431   2.79921068  2.8996672   0.16109073
  0.33030105 -0.70643392 -0.49771439  1.23049104 -0.04633125  1.61771146
  0.1378645  -0.81028774  0.25144945  1.35971146  1.26193205 -1.56108633
  1.8488356  -1.49565467 -2.61034371 -0.24375193  1.48241843 -1.24313839
  3.21061112 -0.97197049  1.46353527 -0.95686175  1.19477328  1.76949903
 -1.22285455  0.7730241  -0.47600117 -1.22562717 -0.28222883 -1.6080773
  1.17987287 -0.00887433 -0.38818666 -1.0920409  -2.41415102 -1.29920267
 -1.54729745  0.66003516  0.3345066  -1.20568264  0.31364294  1.01496109
 -0.76757061 -0.28124697  1.09097104 -0.09201347 -0.95869617 -1.77948856
 -0.82781619  0.8191234   1.50236823 -0.45053111 -1.36884553  1.40359107
 -1.28248208 -0.61396563 -2.07814238 -1.60515148 -0.77677288 -0.42407224
 -3.69135053 -0.0044245  -0.85046298  0.30800685  0.21112744  0.52851216
  1.88938856 -0.55134787  0.32776178  1.0484319   0.03955191 -1.06276006
 -1.48752737  0.48771652 -0.12811523  0.57682045  1.51715537 -1.65842705
  2.73350418  1.67643062  1.57370932 -1.26678404 -0.88749937  1.10377646
  0.71357951  2.31860321  1.31759997 -0.7591208  -0.38024694  1.0701169
  0.59755565  1.1576538  -0.56607153  0.36093386  1.19884334 -1.92123249
 -1.21011515  1.33869764 -1.29089947  1.24748911 -0.18970683  0.26566342
  0.02647031  1.54178829  2.61409365 -0.45960602 -0.59421818  2.0973892
 -1.24688991  0.9784999   0.75282093  0.47716634  0.59547875]
[ 2.72514173  0.63733332  2.26467889  2.78958822  1.86527539 -1.47230123
  0.8590135   1.69848264 -0.27589239 -0.59288159  0.00887894  1.60864487
  2.06752939 -0.00891999  0.87621965  0.59993265  3.29329646 -0.55638248
  1.61654396 -0.26419037 -2.26406381 -0.94828529  0.17201616  0.15847586
  1.76814795 -0.69054399  0.23344235 -2.53044501  1.82222943  1.45479211
 -0.21199725 -0.56349822 -1.6203149  -2.16272106 -0.14553     0.36017616
 -0.77269979 -1.07816523  0.27033344 -0.25703564 -1.44105631 -2.63709468
 -1.93812476  1.94868268 -0.41389094 -3.22764609 -0.58067676  0.83371568
 -0.9819667  -0.68761473  0.17133237  1.24575573 -0.42698051 -0.65263586
 -0.39928988  1.5749762  -1.01579906  1.62656773 -0.88704932  0.85981363
 -0.71940336 -1.34053034 -1.67994108 -3.34110895  0.7587372   0.11971438
 -3.20383129  1.54449091 -1.00620901 -1.17096034  1.50449445 -0.97503855
  0.72598594 -0.61757052  0.88862787 -1.92424329 -1.00152071 -0.05816182
  0.04660098 -2.05991474 -1.57266913  1.58509404  0.59251824 -1.9632563
  3.20100798  0.9219091   2.90929165  0.9985542  -0.80587964  0.56216664
  0.77784066  0.42383488  0.23816479  0.05340345  0.11507583  2.45614538
  0.83999163  2.1529277  -1.16236545  0.23965453  2.3330801  -1.50584221
 -2.24913928  1.82294233 -1.47503886  3.31764181 -0.04978378 -0.86042563
  1.02515633  1.58683166  1.49296749  1.28703614 -1.04636392  1.64220782
  1.19582212  0.35663689  1.16648378  0.36640846  0.04071879]
None
[ 2.1783696   0.68205335  0.92993889  2.59009535  1.59305711 -2.07993691
  0.31552112  0.22135561  0.48435696 -0.14057616  0.64193202  1.39640651
  1.2223201   0.42681601 -0.26164306 -0.1136731   0.63065697 -0.18423189
  0.98373968 -0.95632119 -2.10699091  0.33996342  0.77198776 -0.93385058
  1.63013701 -2.80254431  0.23194355 -0.74072678  2.05182385  1.42956644
 -0.63828595  1.35022906  0.58003934 -1.42859615  0.01772937  0.53784185
  1.0007549   1.23335913 -1.03711767 -0.23373823 -2.65689204 -2.05603544
 -1.97044921  0.71292113 -0.31234076 -1.36683887 -0.88492201  2.22770585
 -1.61846871 -0.84489152 -0.5681759   0.03440468  0.11157033 -1.62277151
  0.45565641  1.48672285  0.38210089  0.52805947 -0.30124931 -0.96358771
 -1.03700028 -0.49858242 -1.27598627 -0.88191919  0.83901494 -1.42538941
 -2.21851821  1.06885249 -0.81832988 -0.53628333  0.37395629 -1.27648978
  0.49150204 -2.07066475 -0.5923795  -1.31983461 -0.40918763 -0.32898282
 -0.50172246  0.88584434 -0.43955144  0.76954573  0.67969924 -1.62632172
  1.63903252  1.58715834  1.24861156  0.18079964 -1.58404505 -0.15029166
 -0.92527187  1.43299555  0.61342028  1.62288749  1.10808827  1.12395824
  0.56830749  2.16901169 -0.32395547 -0.60061882  2.16519386 -1.96152368
 -0.10091138  1.04894711 -1.30713582  1.64962707 -0.62289574 -0.63438805
  2.40500006  2.00376558  1.3512135   1.28410726 -0.79405496  2.33489118
 -0.82008746  0.34034607  0.81275612 -0.45766113  1.08194898  0.48255976
  0.821915   -1.6561189   0.82694207  2.29337268 -0.90142004 -0.84733121
 -0.39459632  2.00726005  0.35227522  0.63810808 -0.40676277]
[ 4.80839063e+00 -1.46748633e+00  1.00597535e+00  3.57946139e+00
  4.06550446e+00 -1.18631703e+00  4.85945421e-03 -1.34279507e+00
 -2.69643151e+00 -2.91711058e+00  1.30740521e+00  9.58833771e-02
 -1.07123229e+00  5.64449020e-01  2.70324623e+00 -4.57152677e-01
  2.47614398e+00 -7.33260775e-01  2.65278320e+00 -4.64998560e-01
 -1.15748780e+00  2.48252532e+00 -7.61503319e-02  1.39634211e+00
  4.91194903e-01 -3.62241249e+00 -2.13911925e+00 -1.35872898e+00
 -2.05045927e+00  2.19340069e-01  1.44676082e+00  5.92407413e+00
 -1.73577794e+00  3.32221841e+00  1.85065147e+00 -5.60794311e-01
 -5.11413854e+00 -1.41140117e+00  2.74227423e+00  9.06884329e-01
  3.22582976e+00  2.36379457e+00  2.03592993e-01  3.22820077e+00
  4.59090208e-02 -3.73539373e+00  3.97684433e+00  5.56598911e+00
 -1.88145439e+00  6.37322899e+00  1.73922709e+00 -1.12334549e+00
  4.99521796e+00 -3.75688268e+00  2.35653477e+00  1.73949858e+00
  2.79497142e-01  1.35881965e+00  7.17050320e-01 -1.79526742e-01
  2.40456575e+00 -1.61290737e+00  1.99764350e+00]
[ 1.89384805  2.86566904 -1.60441921 -1.68103017 -1.2176014   1.95346797
  0.70998851 -0.05126229 -2.12722367  1.84108211 -0.03555146  2.30405827
 -0.67497019  2.81900142  1.69613649  0.98407299  3.41367488  3.84064753
 -0.56706026 -1.52891714 -0.06250227  2.47229359 -0.78491318 -0.06111047
  2.84157337  1.46892626 -7.09274518 -2.57099358 -2.15231557  1.65125579
 -1.41653101  0.06129452 -3.7536628   1.24020694 -1.43435883  1.00741089
 -3.8094562  -2.13756781 -3.96914744  0.1029126  -3.54511209 -1.72466738
 -1.87951857  0.33199871 -4.20521197  3.53496252 -0.43266012 -1.84968889
 -1.021324    0.07194651 -4.06552012  0.61058751 -1.52246381 -1.07259547
 -0.321149   -1.59255831  0.20333045  0.74195615  0.17127107  4.00304112
  3.40669566 -0.36764307 -0.913583  ]
[ 1.59866138  0.28455802  1.61138744  2.79475069  1.02020029 -1.84415609
  1.29719734 -0.57353578 -0.65464405  0.74808044  0.54446509  0.62068118
  1.29326444  0.1016656   0.22000739  0.08355501  0.986905   -0.37569343
 -0.44121139 -1.73510414 -1.6882402   0.74736916  0.34405807 -0.39554492
  2.07945622 -2.94126791  0.62901932  0.36437271  2.5286741   1.63014877
 -0.22710259  0.4541193  -0.44393816 -3.02611196 -1.61601606  0.09547345
  1.27263851  1.36516502  0.54264076 -1.01888259 -1.41758606 -1.44188084
  0.04477337  2.14344097  0.0292421  -0.82130202 -1.31911001  0.16507791
 -1.20995224 -0.40346    -1.62648229  0.5260057   0.59296699 -0.04270324
 -0.97071648  1.29064105 -0.54004031  0.43979707  0.63790814 -0.42476438
 -0.14416665  1.06548365  0.01737916 -0.71739698 -0.87249538 -0.71996547
 -1.50993616  1.09069315 -1.10269618  0.01802784  0.89327486  0.017822
  0.89108054 -2.32054333  0.90826249  0.0287529  -0.66972204 -1.08147146
 -0.22380586  0.10006808 -1.33759852  0.37515155  0.4890296  -0.37399958
  1.45254909  0.82344785  1.17294865 -0.46842031 -0.36221404  0.72095434
 -0.7612185   1.58767886 -0.7918334   1.41327758 -0.27821118  0.5634884
 -1.06244722  1.99992091 -0.17584583 -0.33433361  1.52776841 -2.34091908
 -0.99578611  2.65984578 -1.51554963  1.9350839  -0.73389249  0.55738791
  2.03728998  2.08308424  0.833233    1.49094696 -1.43589618  2.21236392
 -1.30031799  0.42458841  0.95704797 -0.47904662  1.4123699   0.939175
  0.51781337 -1.6969429   0.52626119  2.22580302 -1.32707128 -0.47006517
 -0.80096019  1.53626024  0.62675436  0.67183719 -0.57008683]
[ 0.52677632  3.89816364  5.42932333 -4.19566343  3.35356741 -0.16903048
  5.56784783  3.12419304 -4.35193525 -0.73196892 -1.75421007  1.62732783
  1.03490442  2.24435994 -0.10722838 -3.59898208  3.2312062  -0.84765626
  6.48669748 -1.63645004  0.18976719  3.73176573  7.17438051  2.66640772
 -1.06896702  0.73745445 -1.93325759 -9.58376552 -3.08943198  0.17750555
 -1.66346302 -4.60948663  3.42829993 -8.44550723  0.65726096 -2.037495
  3.25266359  1.05562967  4.40562145 -3.31363318 -1.5396012   2.35251198
 -2.50685728  5.35149484 -5.02911126 -0.69353406 -2.75151382 -1.33287253
 -3.92299407  1.22795864  0.45496698  2.77247415 -3.6568751   1.19228123
  4.02800904 -1.87132238 -1.60839138  0.77409098 -0.04590796 -1.12986179
  0.1787008  -1.94426122 -5.80127035 -3.15037104 -6.04163135  1.62334782
 -2.74453704 -1.46927324 -1.70073919 -6.28739755  1.00177692 -0.13453909
  2.20537042 -6.28672375 -0.37752618 -4.30672018 -1.18309957 -5.62772352
 -0.32822453  2.87275338  4.46776349  4.43559806 -0.84955268 -2.44442324
  5.14809762  4.84963883  7.45944489  2.37437838 -5.74600963  2.01475051
  0.11333972 -3.47283482 -4.78731478 -2.34423635 -1.21656236  2.40006383
 -0.36935154  1.75352333  3.45289648  4.46904805  3.91469997  3.1611185
 -6.04063867 -1.04142924 -3.34551556  2.88819204 -4.96953318 -5.16493072
  6.96732293  4.28719551  5.91390324 -5.43038145 -2.5000856   5.89538552
  6.92173531 -1.47693171 -2.39897654 -1.83120208 -7.43006163 -0.20612452
  1.18575147 -6.19296796  2.11993484  1.22330499 -2.70071584 -1.78878006
  0.31006237 -2.95134109  1.72149016  0.24788714 -0.45646238]
[ 0.99094419 -2.50418773 -3.9687782  -5.75015924 -2.29558205  4.44392508
 -2.10081489  7.66134628 -2.29664843 -2.0360604  -0.38113904 -1.90194579
  0.77697259 -1.41513845 -1.64152485 -7.31569159  6.95834231  4.39754627
  0.77145198  4.68212472 -3.59917275  1.44732454  4.93039187  4.06541728
  3.47222324  1.23268829 -0.0561565  -2.96874071 -2.38067933  0.13244056
  1.16590883  3.04232237  5.38369055  2.45131172 -5.95615424  1.38149483
 -6.88093318  4.27139077 -1.02961669 -4.5008364  -0.54059221 -3.71972258
  0.30042102 -0.26405642 -2.0415969  -3.9709759  -3.79746853  0.34387268
 -1.5341653   3.06324128 -5.95002738  4.61317469  2.05273347 -0.85309676
 -3.06822663 -1.76644293  5.01692952 -5.70053822  1.21529201  2.77287565
  3.19756082 -0.37541302  4.68355977]
[ 1.1062595  -0.82444357  1.37293088 -6.0522396   5.57067067 -1.71017724
 -2.11238254 -4.6338238  -1.13906946 -1.63691163  3.19443936 -4.27893727
 -4.12064261  0.226166    6.6198884  -9.35298478  1.72405499 -3.44871438
  1.5760826  -0.07557711 -1.95446985 -0.16359419  2.40051887  4.90406206
  3.57203014 -0.05999529  0.73632824  7.69816663 -1.94078933 -0.69308907
  0.55351916  2.52110287  4.29353341  5.37165661  3.27937056  2.8590171
  1.60071885  3.07953439 -8.61124613  1.83660304 -0.43441424 -3.00780756
 -0.63459938 -1.03268947  2.17722112 -5.18409628  7.72385024  2.88628388
  2.1286588   0.80735102 -3.92040097 -0.53013885  5.82245332 -9.06614969
 -1.33771744  1.7679691   1.4229907   1.94537819 -1.3280766   0.79453395
  0.88267001  6.53379559  2.80387604]
[ 2.28280219 -0.99725149  1.54642562 -1.21861345  1.93162053  1.28075615
 -1.75953295  1.47499535 -1.35717408 -1.38664151  0.45057247  0.15783394
 -1.61866268  1.43128183  0.58737602  0.44037216  0.76632288 -0.17068722
  0.39239582  0.23913375 -0.61948359 -1.17152156  4.99543173 -1.1954137
  0.00850175 -0.27902723 -1.50151291 -0.70064593  1.57146685  1.88403104
  0.33396343  0.51731136 -0.92220632 -0.77727516 -0.6602583   1.66782749
  1.33277634  0.24839361 -0.51381694  0.87963596 -3.04749815 -0.33062077
  0.70157473  0.59952549 -1.49555349 -1.45011494 -1.50424973  1.12808864
  2.40957446  1.88018476 -1.04988767  0.39174155 -0.15834759  1.06925366
 -0.03488695 -0.58352078 -0.62414926 -0.50825588  0.98640516  1.92480002
 -0.53947301  0.27193357  1.21676923 -0.49585237  1.35918946 -0.11528742
 -0.49521868 -0.81511252 -3.22959072 -0.05661297  0.83553398 -0.03906403
  1.25050971 -0.68994615  1.13516887  0.35892489 -1.06989255 -1.37309108
  0.43635578  0.84436292 -0.81036416  1.30017983  0.39936219 -1.69839247
 -1.89828219  2.28227066  1.43398342  0.34844615]
[ 0.93406328 -0.15352361 -2.45122806  1.79607185  1.65659623  2.97077079
  0.97181662 -0.6863777  -3.72245922  0.47545077 -0.83412405  1.41723791
 -1.63714473 -1.61054753  1.26348166 -2.22556204 -0.9340591  -1.23267235
 -2.10207583 -1.61923468 -4.67376355 -4.20164904  0.27153783  2.29493533
  0.15307268  2.96890356  1.9713649   4.47313719 -0.9668602  -0.44892332
 -2.71489864  0.66382153 -3.10064796  2.18049003 -0.3067072  -5.6475275
  0.90203661 -2.00644632  2.07853613  1.11346353  1.76955499 -4.02866218
 -3.15034591  3.73420555 -2.75512821  1.37024608 -5.04642138 -0.15607214
  2.10924048  1.26126553 -2.29273068  1.2340632  -0.84727545  1.12808214
 -2.44129593 -2.28167173 -1.46986776 -0.28774221  1.57976662  0.55864129
  1.94412157 -1.5856713   0.52363647 -1.19753129  2.68008574 -0.55403976
 -1.67566367  3.32240328  1.64221188 -1.16742869  3.15777235 -0.66754845
 -0.48474222 -3.12123222  0.07939349 -0.65736559  2.08344075 -2.87949771
 -3.73004663  2.94681805  0.29778395  0.81464386  2.33755453  2.09313719
 -2.81569112  2.34268338  0.29358979 -1.24787862]
[-1.18628994  0.05669161 -0.33048787  1.77733916  0.25158483  0.82080098
  2.03342112  0.40709695  2.7600593  -0.90592129 -1.2771285  -1.2052006
 -0.86786229 -0.21704307 -0.50163643  1.83969445  1.06295973  2.33816024
  0.70893192  0.14532182  0.52022609 -0.54031611  3.5372686  -0.1656804
 -0.08212717  1.05761764  6.16296499  0.0259822   1.83433932  1.10502115
 -3.53352027 -0.3384206  -1.63724469 -2.22382456 -1.69644946 -0.51556999
  2.47472486 -1.52769496  4.71579468 -0.14979046 -1.75598591 -1.49779413
  3.44379232  0.66985835 -2.02321248  1.30778972 -1.34376322  3.38444788
 -1.50703423 -1.72748612  0.61323898  2.32077565 -1.13079349  1.33189926
  1.50972375 -2.75438167 -3.12642345  0.80588177 -3.05008087 -0.38778839
 -1.94976532  4.48405556 -2.1354726  -3.88141954  0.68434295 -1.46169815
 -0.43821501  0.86442289 -1.9715774   1.64311183  0.57836248 -0.71881432
  0.71248191 -2.03266501  1.59826203  1.44867895  0.64711225 -2.12674636
 -2.4219248  -0.4854295   1.33615988  0.79958203  0.10354277 -0.07194334
  0.56559906 -0.50888266  1.96611103 -1.64219524]
[ 0.26401696 -0.57261985  1.32750924  0.6416974   1.45775614 -0.68240972
  1.78241236 -0.41998723 -0.74700638 -0.57254105 -0.97254617  2.27757626
 -0.39557617  0.7402634   0.84322978  0.91248184  1.31243939 -0.07559987
  0.24308978 -0.45156295 -1.31324285 -1.04321261 -0.5814214  -1.11552828
  1.61259978 -2.20316977 -0.10480706  0.65366544  1.5276818   0.11165358
  1.28069235 -0.12713104  1.39290206 -0.82327373 -0.38378772  0.92748467
  0.93992784 -0.65532419 -0.66643695  1.09596038 -2.88291035 -0.45022608
 -0.06723165  1.90917664  0.58616001  0.84513372 -1.33070309  0.46474619
 -1.7452746   0.695893   -0.72632691  0.53894669  0.08372372 -0.40481318
  0.62194864  0.42123457  0.60780189  0.91743237 -1.53715661 -0.04776089
 -0.22550073 -0.20147745 -1.11632893 -0.89493332  0.2529806   0.10845358
 -0.03394513 -2.04822315 -1.0055165   0.23883242  0.59750888 -0.79530677
  1.43186313  0.33122834  1.57829433  0.46749507 -0.62076053  0.14432148
  0.38280871  1.18218213 -1.14122608  0.90611397  1.62422944  0.61741678
  0.98625115  0.81001894  0.79550367  0.06652651 -0.18437851]
[-0.25437252 -0.94531611 -0.11670808  0.50840702  2.2769734  -1.13117648
 -0.5747186  -0.26872937 -0.85096495  1.74195293 -0.13797129  0.34325377
  1.02944859  0.4900594  -0.46185275  0.05429398 -0.13556017  0.52205138
 -0.65281554  0.02856134 -0.58510498  1.63828459  0.68150051 -1.74391662
  1.36203717  0.48163595 -1.34511251  0.30635874 -0.5652993   1.3963255
 -0.00567771 -0.47992362  0.12101765 -0.17374011 -0.33959697 -1.69315157
 -0.12361242  0.42827032  0.55353851 -2.99141721  0.44610258 -0.06683362
  0.90292491 -0.31579168 -0.47280446 -0.24571812 -0.9561514  -0.94094891
 -1.37186837  0.41812146  0.73753282 -1.603289   -0.04177601 -1.48707064
  1.10277995  0.58511963 -0.04370603 -0.16445619 -1.38786818  0.07171076
 -0.58413063 -1.65831592  0.5534625  -0.60770509 -0.56065196 -0.29589479
 -0.2057085  -0.13511042 -0.93747729  1.17544544 -1.43563992 -0.28289037
  1.30183282  0.64595707 -0.31886496  0.72281228 -0.89753055 -0.831181
 -0.72044052 -0.75353126 -1.74904097  1.62208296 -0.4562185   2.12039278
  0.17262862  1.30130381  0.75780048  0.24128261]
[-5.67989140e-01 -2.28816717e+00 -6.09974215e-01 -1.28978852e+00
 -3.27713352e-01 -2.48328856e+00 -2.53331103e+00 -1.95175986e+00
 -2.20728644e+00 -4.34930141e-01 -8.47614062e-01 -1.26209996e+00
  1.08868695e+00 -1.49082788e+00 -8.49152273e-01 -3.21410186e+00
 -1.61731222e+00 -2.26570294e+00  1.60715991e+00  1.48634920e-01
 -9.45588475e-01 -5.35575113e+00  4.36023096e+00 -2.44843677e+00
  1.32565786e-01  1.36429595e+00 -1.69349474e+00 -1.33807107e+00
  1.10004187e-01  1.45886768e+00 -4.48087464e-01 -4.70240045e-01
 -2.70790683e-01  5.64241678e-01 -2.32146133e-03  3.13954759e+00
  8.25939914e-02 -9.53389523e-01 -6.80064968e-01  8.92748489e-02
 -2.60705755e+00 -1.89381965e+00  5.02434731e-01  1.79276274e+00
 -1.00853580e-02  1.72056689e-01 -1.85320128e+00 -8.99852144e-01
 -9.23721385e-01  5.02971378e-01  1.42716505e+00 -8.60350233e-01
 -4.19623508e-01  7.98915299e-01  2.48254335e-01 -5.01174805e-01
 -7.60664464e-01 -7.36647383e-01 -3.86080544e+00  3.49475214e+00
  1.41614277e+00 -3.84873586e+00  7.69107339e-01 -3.06045906e+00
  5.64857365e-01  3.67066915e-01 -1.40942043e+00  4.41461140e-01
 -1.11484596e+00  1.93026246e-01  1.72443279e+00  1.18456354e+00
  3.22224448e+00 -2.08748659e+00 -1.47194166e+00 -4.27783002e-01
  3.95265342e-01 -1.11719229e+00  1.78080834e-01 -1.43664164e+00
  6.84758123e-01 -1.28957485e+00 -1.82569914e+00 -2.75479214e+00
  4.66698057e-01  6.41373912e-01  9.94033312e-01 -2.01509038e+00
  3.45157282e-02]
[ 0.24468048 -4.23685603 -1.14219931 -1.91557577  2.23353231  0.51752616
 -2.4337981   0.03790025 -3.05997121  1.25245921  2.8112448   0.04488314
  1.10223018  0.09359367 -2.47953031  0.78463909  0.68537388 -5.72877001
 -2.0063286  -3.39672822 -0.50701914  1.17727838  6.08390242 -0.98165711
 -2.61668417 -0.21063607  1.69833714  3.86567821  1.44607263  3.90229201
 -2.03141552 -1.02051854  2.92237736  3.07072941 -3.75765974 -1.08533823
  1.99801     4.09200453 -0.38361173  1.84471012 -6.88906917 -0.9918606
 -0.92908828  2.76057577 -0.63131059 -2.88270074 -2.05933867 -3.63741945
  0.24168049 -0.62144775  0.19302242  1.50210114 -0.61579632 -3.31873204
 -2.59487218 -1.46227784 -5.37719704  4.6586935   0.62020403 -1.06388066
  1.01041811  1.48721034 -6.03710853 -4.01923191 -2.65058178 -2.36105695
 -3.30435774  3.11409553 -2.05433637  5.9319503   0.82728849  0.76658882
 -0.39552922 -1.20926288 -0.74424522  0.42812746 -0.60798594 -7.21140873
  1.01305782  1.24405573 -2.71156613 -1.7769607  -1.90774037 -2.64231464
  1.28305024 -2.81106337  0.33251956 -5.62335084]
