[  6.03642937   2.3384279    6.93019759  -1.58036484  -1.2437332
  -0.35539489  -1.71214775  -2.90168765  -6.00962894  -7.50902526
   3.09215378   2.10661545   1.43892697  -2.53782693   1.49830968
   4.44081417   6.21166935  -6.67537928   5.5238724    0.92411946
  -9.62008207  -2.53355538   1.75851623   3.04332136   8.42201704
   0.47749106  -1.12293708   1.44344627   7.91284972  -1.28831374
   1.86520883 -10.05069987   2.79419169  -9.52477661] -124.66894432943845
[ 5.20531328 -1.31899898  2.46843995  5.34929867  0.91962803  0.76545568
  1.12011213 -1.22544244 -0.8070946   0.88360279 -0.09006926  4.58182883
  0.31885119  1.14355869 -0.34337527  1.96108521  3.26972204  1.62580559
 -4.57480758 -0.9377872  -1.7302681   0.65945319 -0.86773598 -0.49260152
 -0.51713781 -0.28982178 -0.54783354 -0.33855656  0.53107358  3.72716278
  1.66967211  4.69487379 -0.3180665   1.05670828] -203.86917588221922
[ 2.08212162  1.02849536  0.93377115  1.97610549  1.91956018 -0.76164625
  1.66897851 -0.7302921  -0.21519195 -0.09165079  0.58569736  0.66437457
  0.59704647  1.44684639 -0.13916214  0.46652867  0.84782757  0.13460496
 -0.64899116 -0.62670559 -3.19802745  0.88408314  1.34407064 -0.8158989
  1.72368603 -1.55814556  0.29918009  0.36700682  1.79960528  1.60518929
  0.48695248  0.08180134 -1.67874147 -2.41120371],-11.668714530535526
[ 2.9437456  -3.3907443   0.27595231  6.60673867 -4.33753286 -6.23174634
  4.58131358 -9.15670819 -5.79344881 -0.68401371  2.41780532 -0.07272753],-463.97213442234795
[ 6.50413994  0.47775255  0.24418224  5.69151893  1.97708991  2.88565572
  0.37392261 -2.43922516  3.87004668 -6.59909403  1.21604405  0.84206663
  0.81899993  0.2643527  -2.45996475 -0.93312232  0.09675855],-526.0720265160459
[ 16.73081849 -38.16055179  -3.54254296  30.51244281  13.29677384
   3.45742266 -48.43652055 -18.1841115  -12.99049867  -4.64524049
   2.57010366],-523.902440591588
[ 4.72673767  3.58192015  0.15745774  1.38856413 -0.62382205 -0.80907247
 -0.33259117  0.51084504 -2.27173577  2.66751988  0.58037215 -0.07711344
  2.37083108 -0.3858226   0.1917545  -2.58008624  4.03871232 -1.92609959
  1.18029319 -0.53475697 -6.16362293  0.7903036   2.271408   -1.08220492
  0.86372311 -4.0321253  -1.77728017  2.70062375  0.52392712  2.83122108
  2.19050957  0.27993326 -1.9388882  -3.35698757 -0.59958277  3.06017674
  1.42636095  1.41840644 -1.78742317  0.007725   -3.17092895 -1.62728339
 -0.5908079   0.63844614  0.43198021 -0.2301879  -2.65819663  1.13490196
 -0.23381396  0.14267328  0.39457162  0.80301801 -0.50683347  0.28680663
  0.21815783  2.79167175 -0.84877293 -0.90638026  0.23149735 -1.2821501
  1.77621493  0.85773355  0.59942922 -0.69426886 -0.81503393 -0.36018051
 -0.2638659   1.66031303 -2.64617905],-507.3469573265952
[ 5.7716827   1.12162352  3.15347019 -3.34855686  1.98650545  1.16662611
  0.07101443 -2.01346059  0.08092763  5.74482272 -1.0280074   6.60529838
  0.13669977 -5.17990369  1.36861737 -2.97155535  0.15375254 -2.45605651
 -0.2371386   0.09166526  2.26406264  2.84608363  0.7442384  -3.5724708
  2.28188653  1.45047366  2.40463679  4.2297377   8.69771142 10.00692042
 -1.48302791 -6.03936068  0.3701824   3.33141351  0.37861732 -0.25271436
  4.67045026  0.70735852  5.7415842   4.26910639  1.40044465 -1.09498698
 -1.04010919  0.79663369  2.68811641 -1.52099016 -0.79263624 -0.30121273
 -8.27077966 -0.8968946  -5.97189001  0.62561456 -1.49218645  0.85641136
  0.74453706  4.59077783  0.34107492],-561.9821266316477
