w = [3.7852677568524618,5.593120533786629,-3.7822495675172565,8.701111875725749,-2.631180327506103,-3.2468659750968647,-1.2264274314988688,2.426426543618822,-1.9383754932663817,1.5104057183269348,3.1407748349376514,-0.47171296009306196,-3.4008463027287084,1.9210738358245871,-1.2488111474502404,-2.761420533187918,-0.9160534693104386,4.912706464288936,2.324753489918315,-2.2419437900996066,-7.72390356621859,-3.0395542556387025,7.40985008794167,-6.6663941788672485,11.72086560789883,-2.3750411136399405,-7.767533262662356,-3.0940555123111553,5.459904976533859,4.350917945958678,-3.4149143213229243,-5.881894729546774,3.464131766877839,-2.4197608276346942,-4.580321522717122,2.972978473665342,-1.5933514082334566,-2.7609702913575034,-2.865328491518778,3.850025676019391,-6.2910955181889,1.883081389003995,-6.359824312108269,1.5888630599260793,-1.656730614265485,-6.9140548003587305,-1.1745659835657556,6.540514264190753,-1.0113618862847389,-2.9903699092605556,-1.1358691075101055,3.246657127088377,0.3063785110139339,-5.249294080595864,-4.864327656180482,-4.040649512149666,0.9199665014546883,0.36642539614985503,-1.7504135628570099,-6.604076704826096,-2.6441206545620664,1.0367063951758915,-0.055016023021688475,-7.031902908071898,-2.9296136035666067,-0.33218352356126524,-1.9469201066652875,-5.51651455173738,1.0992500025868832,-1.8766548524651219,0.1270351698643864,1.9516363445495541,3.000728029919672,4.061249947569841,0.8771668749690867,0.46563483767154595,5.207025866972964,-0.5051404074487691,1.739882000315606,-2.969404409668775,-2.509331488671517,3.514219335399578,0.10863512233687762,-7.6180241621162335,-2.7769612061306326,6.7910137401264095,1.8367242974295364,-4.594049854032656,-9.0120301700544,-3.4496351171222472,0.5237970920853825,2.3886338948676737,1.0623158434941147,2.2102814009013256,-0.22685359591393728,-3.424460925028989,-3.337884518825892,3.363994527866162,-0.723872546332037,1.2279706716290806,-6.116103880149458,-0.17831346314238417,-0.5636365290182656,3.412701839303918,-3.256994709519451,-3.7627881248396626,-0.6632754927731828,-8.307769702983066,3.0076260133414787,2.246334603244869,-5.458252273244977,6.663466157252637,-1.5296902861062467,4.525697134069484,-2.040423807292918,7.226513884642651,-0.7731084354002387,4.576194481254409,1.1702300820633011,-0.12234608386647167,1.3696322354460502,-6.338375971018429,-3.8345869640172436,2.7286161800750217,0.701535766481544,3.497723002270957,-2.5725437365440236,1.428068904720722,-2.8646331570330816,7.854216280264713,3.9146374195635683,-0.08677703026532305,-0.8960071414620835,4.806485631325072,-8.877001738054057,-2.558427278596418,0.19537236961895266,-0.9675887207285588,7.315879169706215,4.160469363252087,-3.891447789839836,3.350804454547301,-0.8011494821575561,-4.052006044540096,1.5985145123920066,0.5189994087227,-0.9588947850033052,-0.797712523186729,-3.308019267898272,-1.4759134194994439,1.8621434933136403,-0.07491463663317866,-2.1008297151730604,-1.7824903754165617,-2.676326093866726,-4.056933913485411,5.08283492990943,0.2522888598854409,3.847859211520901,-7.082335602469971,4.049802213673528,5.460660496486626,1.5761161428434152,-7.6473633310576234,-3.954768114611248,9.508753677280547,1.3776418985153889,-6.674594331157459,2.240066223788867,3.8593530827016624,-6.1751823899445215,-5.064701591011867,-5.705264406928078,-0.12079986137583976,-1.1975459785856475,-2.3923043018189816,-3.030967607810455,-0.5009849946332879,-2.2136353024921593,-0.5707089007427839,-0.7573677441909881,2.013082464646547,3.3945728415843135,-7.054565326631149,1.320050104006725,-1.7804192817562552,1.04750731390491,-1.9428453563913344,2.482675958878409,1.5387944315451365,-3.742078209499241,-1.7188067508739704,6.449685630483729,-1.707711017078715,-4.003135055582043,4.091139971285992,1.4686443194358212,2.2637788213884726,-1.3220720472860084,-8.218799472364799,5.145535094693869,-0.2311832347273768,2.9654151282957497,-1.9117131162006036,-0.09386633592701332,-4.875131545745868,-2.955021176371398,-2.1787917621441473,0.5069613206849397,1.1476741542129254,0.8211993420104384,-1.3036754985908368,2.788052926663876,3.475738405984384,0.25380267202738155,0.7105818869412953,2.9277018438474864,-2.1972760770343527,7.681335692216431,-5.033924434361886,-9.027847978196128,-4.044028398060132,0.46721308399498385,7.466921802077224,-4.330886350782193,0.4075237130147218,-4.7950103664835995,0.005431739376745071,1.5140568777907033,-0.553146814703836,-5.241821118751305,5.250969740947424,3.988394455260832,-2.9274298228613893,-1.4778514004622687,-4.316663525065069,-0.049011708528996806,1.5123785646757937,-0.03064353252710572,5.587273031392469,-4.448613718925327,6.270128055242811,3.8889569488844082,-8.451654909996698,-2.445361770975978,-6.037525755583855,7.418044719480904,5.288569033976519,-0.8853970869672602,-2.67550671110848,0.9321554524062394,-2.9676412059675155,1.078402603912576,-1.3261144394551485,-0.7850663979172705,5.967115658838984,4.02695177622125,1.3030220358981892,-0.8799541309428827,0.7674490051012929,2.611229844937042,-0.7766869649374134,2.884990741486721,4.38300196612871,5.295063069995327,1.9238161628979453,-7.201955844060164,1.1136409692240288,4.013669774787872,5.189584366971662,2.4146457757754414,-5.244417373916049,-3.6642560666111983,-3.8015030637933998,0.7915362024556079,2.1745080310449856,-4.221128058358994,-5.147121876030302,-8.332620792031642,3.888160781850841,1.497834586497579,2.3894931240962394,-6.7702890878174715,1.222731005955258,0.6884436642901408,-0.07044091657765572,-3.8682648918873888,3.7510953063377035,0.7440069635964301,4.173285342761683,-2.310019373690044,-1.5908740902648082,-7.263917643906614,-2.1354381185884335,0.8948242436070634,-1.0512725753845091,-7.407460073554797,4.822174264923047,3.070562082912479,-4.9017653718121705,1.01897371911094,-0.6713457681313836,1.433444817281537,-2.957210754090361,4.68354951678685,-3.603606628795124,1.9807981252303906,-11.56992954864094,5.201928291397348,0.6150490276326573,4.612958505399903,3.273305383016925,1.9479296554172336,7.116007091662271,3.945815113597822,2.718974320894623,2.2719982101859215,2.995950289782922,3.0299864172250985,0.0275835935181237,3.271147538940051,-4.048542456072071,-7.372814642650424,-6.959059795017254,2.109397706569256,0.4405270778776399,-2.446780783919363,5.719324557333688,-1.268293707292238,0.5698493179889801,-4.730667342427578,-2.737603447711199,-1.422764979185625,5.399659664752854,5.077320065772259,3.3686843751933084,-5.213117186301465,3.620821918349576,0.3243315926126501,-0.08368650755164825,4.155445986846712,-0.2691307055542844,-6.108378046824104,-5.643963175463032,5.107100915072622,1.8466281564487592,-8.927422757298459,-5.900023455654892,5.504398367049747,-0.5772276408406442,4.1315562844283065,-4.3301146998226265,0.8875389080029937,-1.552367532999933,-5.2371906927582055,-1.2154952347660104,-2.7686934631023985,-1.3619111446285528,-2.571496749449511,8.126651288454502,0.403313489574306,-6.334934217425493,9.379276391149496,-3.044298760183541,-6.073781474108164,7.141002227741091,1.6324787639057854,-2.8878381891193943,-0.2500147734980984,2.2468216195390047,5.0889262826768675,2.310983556616202,5.620097181135098,5.12711056985626,3.829487492332994,-1.7853797058132284,-2.2058008582755892,-0.5759828913116026,-0.3586247090222731,0.5019712515321031,-5.237900699939782,-4.063736439968055,-12.344737757365625,-5.716726476857322,0.5943080689463281,-1.708214924925426,-4.997677760357796,-0.9775612918479554,1.545463670801961,1.0840298488767321,2.9308216428369254,4.127200435768707,-1.7459480943297332,-6.303975229782024,8.002483948880476,-4.810358400062961,2.2163198252716083,-3.0143660245852004,2.4931574260589584,-1.480131184179816,-0.5115382203928501,3.871496973660061,7.923637980272692,1.4196195691784075,0.3277277726706313,2.0788533563475515,5.878258266809769,-7.8894908227391705,-2.67942476967684,-6.948901979341402,-2.542167046483825,1.5433875641632562,0.472844035312286,0.21542264563522556,6.668254656479605] -690.0173737702956
