[ 0.08491998  8.8591345  -8.16782805  0.1987364   2.16262278 -1.14232582
  5.3708892  -0.81889814  1.18729024  2.09518546  6.92684026 -1.96094082
 -0.50566664 -4.27432858 -2.64499837  0.68196543  0.44954399 -6.24562294
  0.43563021 -2.66192817 -1.91724599  1.71772482  6.10854433 -1.52313179
  5.34077554 -1.37598504 -0.43758025  1.10213829  0.70252837 -1.7504687
 -0.39181899  9.31449904  1.43176415 -3.00692424  1.08887351  0.06841437
  6.10894219 -1.53088424 -8.03032699  0.68797075  0.03865807  0.55210945
 -4.01068575 -0.05164913  0.28715727 -3.04649001  1.7113057   1.65570535
 -0.34209894 -2.47612293 -2.20759086 -1.73647274 -4.42801577 -5.17875105
  3.84646258 -3.47918164  0.67957035 -1.42840277 -7.98513372 -2.54254764
 -0.91565541 -3.25820404 -0.17147376 -2.48622915 -0.17389606 -4.54329886
 -0.50171831  4.80493702  2.91349832 -2.8823084   1.61748393  2.81085917
  2.57368827 -1.16402099 -2.65452327 -2.44482219  0.52347358  3.52056485
 -0.09463264 -2.43057558  2.15351216  0.59534416 -3.94796679  1.0248248
  2.32248748  0.03670062 -1.73590486  0.34442947  1.18401702  2.69003119
 -6.06541302  3.39731288  3.39900036  3.99264302 -0.49755131  1.63280536
  3.68293163 -0.28950358  1.03632557 -2.02651074  0.92349346] (3k)
[ 8.88725075e-02  9.21619349e+00 -8.00061485e+00 -1.88868605e-01
  2.49722491e+00 -1.64402642e+00  5.36217194e+00 -1.07152939e+00
  1.08230414e+00  1.54234375e+00  6.64105564e+00 -2.57562717e+00
 -6.82451223e-01 -4.64007945e+00 -2.12949206e+00  5.00485345e-01
  1.17800663e+00 -7.75090433e+00  8.42685083e-01 -2.83804562e+00
 -2.00476967e+00  2.55458184e+00  6.00382192e+00 -1.48702507e+00
  4.20340042e+00 -1.61148442e+00 -9.35069472e-01  9.70684250e-01
  1.20031852e+00 -1.42909356e+00  1.12581040e-03  8.95889816e+00
  1.89419306e+00 -3.30976671e+00  1.28879028e+00 -4.37894300e-03
  6.28297733e+00 -1.24509943e+00 -7.92645128e+00  6.65073618e-01
  3.74913976e-01  1.27557137e+00 -4.20313362e+00  1.07270008e+00
 -6.53226484e-01 -2.99739543e+00  1.28108153e+00  1.92016791e+00
 -6.71403526e-01 -2.49203573e+00 -2.38114207e+00 -2.60407592e+00
 -4.06549549e+00 -4.59370545e+00  3.89185160e+00 -3.78562859e+00
  9.56698589e-01 -9.85607918e-01 -8.32927266e+00 -3.02166337e+00
 -3.52479889e-01 -2.89904633e+00  4.11337006e-01 -2.78740355e+00
 -3.03575868e-01 -4.21097169e+00 -1.22960321e-01  5.60938274e+00
  3.42717006e+00 -2.88876635e+00  1.71845120e+00  2.41787563e+00
  2.92110892e+00 -7.49859767e-01 -3.16287011e+00 -2.32277049e+00
  3.61900412e-01  4.26416018e+00 -9.75800302e-01 -2.25821231e+00
  2.29213867e+00  1.13305765e+00 -3.66745385e+00  1.17976649e+00
  2.31109961e+00  2.92842808e-01 -2.21995223e+00  1.10455755e-02
  7.18627076e-01  2.40203773e+00 -6.37193301e+00  4.01141488e+00
  3.38928236e+00  4.63410711e+00  4.72672988e-01  2.50081859e+00
  3.76496882e+00 -5.26705353e-01  2.66027872e-01 -2.86347632e+00
  1.57059397e+00]
[ 0.07730867  8.85994495 -8.23111461  0.17014371  2.14551559 -1.14133133
  5.34925654 -0.84529784  1.19449695  2.08036502  6.95364467 -1.96435273
 -0.53779538 -4.2807061  -2.63856569  0.6866381   0.42651198 -6.25839582
  0.46097078 -2.6810438  -1.93555387  1.69852754  6.15388751 -1.51827542
  5.37949689 -1.3858677  -0.45771324  1.07854646  0.70057874 -1.77081477
 -0.37514844  9.27155243  1.44224176 -2.98269688  1.07917931  0.07330392
  6.11088503 -1.51672917 -8.03310551  0.70362928  0.06436866  0.51865398
 -4.0325356  -0.06239792  0.2831303  -3.05798434  1.71946488  1.67669349
 -0.35519664 -2.49147811 -2.21714371 -1.74162949 -4.44539473 -5.15757997
  3.849148   -3.4865234   0.66561956 -1.42389083 -8.0109675  -2.50130986
 -0.90858569 -3.28169964 -0.13577584 -2.46571653 -0.17935793 -4.53637819
 -0.52650062  4.83702569  2.88208715 -2.86296321  1.63543835  2.78322395
  2.55990077 -1.16624976 -2.69165252 -2.44243039  0.51923151  3.46876208
 -0.0633264  -2.42510772  2.16395272  0.5641635  -3.98214921  1.04098243
  2.33205995  0.07124718 -1.75620085  0.35880106  1.18038904  2.65795479
 -6.07746379  3.39121404  3.38293804  3.98173159 -0.52625641  1.63037883
  3.68522577 -0.29651439  1.03741036 -2.04441798  0.94394195]
[ 1.74435901  0.44724126  1.01920598  2.18780153  1.86008163 -0.96295516
  1.01045653 -0.10874735 -0.12995899  0.40284026  0.18042719  1.41067257
  0.78079981  0.08617364  0.49063042  0.33839098  1.45519197 -0.18677589
  0.33118391 -0.82638603 -2.59873832  0.67334815  0.85000307 -0.76482334
  2.25429284 -1.40891823  0.07449369 -0.22494446  1.50424662  1.50433877
  0.15210924  0.36355915 -0.9338382  -1.96591606 -0.33752332  0.12756051
  1.2024058   1.2339186  -0.36231491 -0.31771738 -1.06467019 -1.40862165
 -1.67331786  1.98590863 -0.50712445 -0.3780669  -1.20003544  0.77367749
 -1.6341463  -0.21081356 -0.92232238  0.34451589 -0.49742506 -1.15494418
 -0.02569295  0.41718262  0.01754284  0.28906074 -0.59522751 -0.3801757
 -0.71017351 -0.35578283 -0.82938618 -1.69574602  0.20331683 -0.40853068
 -1.66806807  0.4671653  -0.90041859  0.08165982  0.66697745  0.14810252
  1.12316654 -1.2792071   0.40275125 -0.67545213 -0.89280589 -0.64010711
 -0.26032299  0.06540826 -1.16111686  0.90016054  0.48505877 -1.48167706
  1.48919962  1.86816997  1.18356105 -0.17581851 -1.03815192  1.04917412
 -0.44337051  1.23717125  0.18549693  0.95182927  0.39691783  0.71072914
 -0.01022225  1.78157694  0.1116167   0.41871455  1.89417277]
[ 1.77746240e+00  3.88514801e-01  9.70400148e-01  2.23566303e+00
  1.86380738e+00 -9.81910543e-01  9.54541971e-01 -1.59372229e-01
 -7.66878881e-02  4.29150192e-01  1.26676749e-01  1.48290119e+00
  7.61510069e-01  1.11040851e-01  4.58832788e-01  3.28510777e-01
  1.49544001e+00 -2.00220621e-01  3.15608164e-01 -8.83234774e-01
 -2.54369433e+00  6.69485833e-01  8.76741852e-01 -7.40664997e-01
  2.26269032e+00 -1.47312584e+00  7.35162263e-02 -1.82806525e-01
  1.56470505e+00  1.44329077e+00  1.46921154e-01  3.68967625e-01
 -8.92967579e-01 -1.97248280e+00 -3.11457964e-01  1.65106209e-01
  1.21265261e+00  1.19267138e+00 -4.01718372e-01 -3.19130906e-01
 -1.02459998e+00 -1.41849252e+00 -1.69814735e+00  1.93652394e+00
 -4.84200438e-01 -4.50270155e-01 -1.24424934e+00  7.74299257e-01
 -1.63134839e+00 -2.05398104e-01 -8.91800417e-01  3.94598681e-01
 -5.26418063e-01 -1.17690415e+00 -4.12058498e-02  4.27240189e-01
  4.85819339e-02  3.03172478e-01 -6.35506789e-01 -3.59160355e-01
 -7.02513627e-01 -3.50314270e-01 -8.29069866e-01 -1.74322281e+00
  1.75422836e-01 -3.83521303e-01 -1.61678958e+00  4.65141676e-01
 -8.92568458e-01  3.91863831e-02  7.23323589e-01  1.40339543e-01
  1.13977881e+00 -1.23385185e+00  4.21619565e-01 -6.70816032e-01
 -8.88309106e-01 -5.87859710e-01 -3.24476867e-01  6.96358580e-02
 -1.15781704e+00  8.91917400e-01  4.58092191e-01 -1.54419676e+00
  1.46141800e+00  1.90914549e+00  1.19324859e+00 -1.78108985e-01
 -1.05991364e+00  1.05869861e+00 -4.12458953e-01  1.19483012e+00
  2.29264493e-01  1.00877454e+00  3.51426779e-01  7.11537260e-01
 -3.26566309e-05  1.79278259e+00  1.44386906e-01  3.72504370e-01
  1.90707944e+00]
[ 1.72420684  0.45597612  0.95783768  2.25177469  1.84729645 -0.94428434
  0.9634718  -0.1770141  -0.1262316   0.44295485  0.16581786  1.48041153
  0.74622197  0.13375557  0.43458968  0.36016577  1.4138155  -0.2499172
  0.25739671 -0.83123488 -2.55414529  0.69193342  0.78141353 -0.7085653
  2.27191518 -1.41953712  0.07145487 -0.22614437  1.56881774  1.52423142
  0.05827552  0.38463228 -0.89071801 -1.96851531 -0.32866874  0.15506117
  1.1936048   1.20060965 -0.38441486 -0.31346451 -1.03730238 -1.4216998
 -1.73159275  1.87673996 -0.51418808 -0.38644911 -1.26526246  0.75802171
 -1.71829949 -0.20417429 -0.87873051  0.35071888 -0.51053319 -1.18933613
 -0.02241998  0.39136172  0.05898763  0.33317029 -0.63438961 -0.36670445
 -0.67577333 -0.4187615  -0.83693034 -1.7529042   0.19475399 -0.44546428
 -1.68918023  0.44360216 -0.86726447  0.01387841  0.74417989  0.14465178
  1.20749859 -1.27290378  0.36606686 -0.62010845 -0.79138978 -0.59532302
 -0.24283161  0.04845381 -1.15514518  0.88504906  0.46460882 -1.50165998
  1.4961147   1.88175841  1.14549383 -0.18105756 -1.00472874  1.06000754
 -0.34257781  1.17947803  0.15954242  1.00393301  0.37931383  0.6659027
 -0.02707294  1.77746283  0.09777954  0.42936465  1.88699385]
[ 1.71309621e+00  4.20311082e-01  9.02549794e-01  2.21925190e+00
  1.84918099e+00 -9.54807075e-01  9.96610386e-01 -1.72065393e-01
 -1.27202698e-01  3.65397223e-01  1.86562083e-01  1.37179180e+00
  7.18028639e-01  5.47802627e-02  4.85330031e-01  3.34894936e-01
  1.50252636e+00 -2.03567961e-01  2.59377448e-01 -8.89643483e-01
 -2.56608668e+00  6.32432640e-01  9.26913797e-01 -7.05136876e-01
  2.26098292e+00 -1.35839863e+00  2.33264348e-03 -3.08333119e-01
  1.58616001e+00  1.48334360e+00  6.13214966e-02  3.65839988e-01
 -7.61767876e-01 -1.99535984e+00 -3.56794674e-01  1.43286548e-01
  1.25300579e+00  1.18730995e+00 -3.52863921e-01 -3.34221942e-01
 -1.08398427e+00 -1.46342182e+00 -1.71210430e+00  1.95715880e+00
 -5.70410520e-01 -4.61789810e-01 -1.23975570e+00  7.60253141e-01
 -1.66697760e+00 -1.62758972e-01 -8.67769853e-01  3.61762962e-01
 -5.14166923e-01 -1.25245499e+00 -1.83813672e-02  4.85007331e-01
  2.58359780e-02  3.01371162e-01 -5.82872726e-01 -4.04212310e-01
 -6.00718066e-01 -3.93375933e-01 -7.93144959e-01 -1.73810201e+00
  2.26482070e-01 -3.50946925e-01 -1.60895276e+00  5.29925129e-01
 -1.01621868e+00 -2.42144536e-03  7.16042900e-01  1.50068068e-01
  1.10301116e+00 -1.28209876e+00  4.83010620e-01 -6.12949667e-01
 -9.26767890e-01 -5.40575971e-01 -3.02312898e-01  2.29817689e-02
 -1.19235093e+00  9.09398073e-01  4.81643554e-01 -1.60486445e+00
  1.42849718e+00  1.84893609e+00  1.16929180e+00 -1.68130976e-01
 -1.06169088e+00  1.08587017e+00 -4.16077094e-01  1.23580707e+00
  2.24163737e-01  9.60797535e-01  3.79184739e-01  7.29024814e-01
  5.63555492e-02  1.76966786e+00  1.24513082e-01  3.31256959e-01
  1.89987146e+00]
[ 1.7238805   0.3824906   0.96375161  2.27295148  1.89358156 -1.00981791
  0.92974283 -0.11562553 -0.12758797  0.34185436  0.1352193   1.4551941
  0.73879306  0.09158926  0.41930814  0.42800852  1.52612406 -0.16300384
  0.32421545 -0.85790948 -2.56069181  0.6468797   0.89294799 -0.77366548
  2.29760506 -1.43093456  0.10580685 -0.21283867  1.56590274  1.49928465
  0.09871443  0.42645493 -0.8825034  -1.9432572  -0.30980939  0.21696379
  1.19101542  1.21060558 -0.42340948 -0.34115383 -0.95499125 -1.43928592
 -1.70877939  1.92342991 -0.54334026 -0.45143397 -1.24257701  0.84967849
 -1.67277505 -0.26996923 -0.89592746  0.34853741 -0.589952   -1.20657314
 -0.01226134  0.45599649  0.01592407  0.24168802 -0.59261285 -0.41005256
 -0.73478594 -0.4065498  -0.84896718 -1.73209143  0.23072485 -0.41201983
 -1.5989331   0.50842578 -0.90010747  0.00917298  0.68456909  0.13025697
  1.15255708 -1.18565509  0.4463119  -0.69324021 -0.89283221 -0.61175607
 -0.3118246   0.09229933 -1.17035829  0.89839909  0.48129171 -1.50304059
  1.50848249  1.90318936  1.18741801 -0.15898669 -1.09221362  1.03954316
 -0.42073088  1.18542238  0.21442416  0.96604345  0.34472939  0.79024524
  0.02453301  1.7828713   0.11093603  0.48489531  1.85986393]
[ 1.76100269  0.39052224  0.88591024  2.23109487  1.88193927 -0.946144
  0.95095755 -0.21165414 -0.11971231  0.36497598  0.18067101  1.48390921
  0.7638939   0.12178827  0.4498071   0.34479839  1.47130856 -0.14138971
  0.34552501 -0.82389718 -2.56003728  0.66929337  0.96251498 -0.68950942
  2.2434795  -1.5120806  -0.00719093 -0.17969067  1.51797431  1.38413061
  0.05028161  0.41758075 -0.88921427 -1.97042577 -0.34417099  0.21622694
  1.1926242   1.18538849 -0.4159838  -0.32057597 -1.10842255 -1.42700307
 -1.71260463  1.98914248 -0.41187977 -0.40053209 -1.20760387  0.75318411
 -1.59780999 -0.17913923 -1.00511135  0.43905976 -0.44470132 -1.18011477
 -0.10439497  0.44844257  0.0171529   0.29357672 -0.5952874  -0.38195858
 -0.71904565 -0.34703965 -0.70030763 -1.7601493   0.16557768 -0.41032265
 -1.60142845  0.48369701 -0.98505507 -0.02634633  0.6897092   0.09972749
  1.150341   -1.21949644  0.44791876 -0.66765166 -0.82141826 -0.52918705
 -0.28488161  0.06870873 -1.20100037  0.91837065  0.53705187 -1.51825168
  1.4137655   1.83549284  1.19490362 -0.16648575 -1.04177938  1.08500854
 -0.41247815  1.27395128  0.21740129  1.00028907  0.40343993  0.68506126
  0.0435372   1.80042756  0.10752754  0.35288053  1.9033195 ]
[ 1.85287221  0.36783602  0.93136987  2.24792808  1.91599244 -0.9836481
  0.9391296  -0.15733737 -0.07444759  0.41275691  0.20049107  1.45730304
  0.77608232  0.1375961   0.46556274  0.37207393  1.53645575 -0.16197614
  0.29609208 -0.90746062 -2.47172831  0.65482173  0.8233553  -0.76195094
  2.28673372 -1.46278391  0.0502317  -0.25523815  1.49682152  1.47411329
  0.08834336  0.38261293 -0.94489295 -2.00228596 -0.31313257  0.20263263
  1.24315343  1.22249638 -0.36514393 -0.3433325  -1.07659349 -1.45086662
 -1.67685119  1.95286741 -0.53489285 -0.41946437 -1.31747797  0.72823752
 -1.63462222 -0.22635576 -0.94018051  0.40285511 -0.57671526 -1.15163922
  0.03972421  0.43067994  0.11269072  0.3917247  -0.64918773 -0.35674761
 -0.70913065 -0.3888503  -0.77258545 -1.71119333  0.16296483 -0.37876407
 -1.63148821  0.45238461 -0.85768576  0.08532375  0.70391057  0.17624521
  1.17757208 -1.1664687   0.40139798 -0.61234961 -0.8858106  -0.55504399
 -0.31797835  0.04493539 -1.14649394  0.88367821  0.41298858 -1.50653944
  1.53741746  1.85186419  1.22467154 -0.16448523 -1.00944374  1.05304234
 -0.46022448  1.25136001  0.17624717  0.96500834  0.30508568  0.74099678
 -0.01978246  1.73899688  0.11831033  0.39688332  1.81231093]
[ 1.79182929  0.38216294  1.01105275  2.24425063  1.86489077 -0.97477976
  0.93613007 -0.15719807 -0.09363372  0.38397972  0.1732709   1.46057353
  0.74286964  0.12777526  0.44933793  0.29060365  1.47511959 -0.19144868
  0.28555001 -0.83032015 -2.58261258  0.66506105  0.88056365 -0.76218338
  2.2836389  -1.44901416  0.06265824 -0.20801054  1.5313712   1.4844956
  0.11705458  0.38847407 -0.93088827 -1.95547643 -0.35576055  0.14061917
  1.21265504  1.2141163  -0.42513266 -0.28695481 -1.03150287 -1.4242327
 -1.70563686  1.98842098 -0.51694934 -0.4177474  -1.23572022  0.77559989
 -1.62179818 -0.23271776 -0.88704433  0.35461626 -0.52539596 -1.17363507
 -0.05198915  0.43751175  0.06273906  0.33108338 -0.64543944 -0.36690461
 -0.69590979 -0.35268702 -0.82435183 -1.73653513  0.14824813 -0.40803457
 -1.63775895  0.48383941 -0.86265612  0.03594667  0.76557028  0.08045186
  1.15521655 -1.2249351   0.3870184  -0.67864291 -0.90414613 -0.59324411
 -0.34482215  0.06310969 -1.15836711  0.8849177   0.4475005  -1.52883194
  1.50383827  1.9070643   1.19377372 -0.18888368 -1.04792012  1.08875913
 -0.41620752  1.19881841  0.18549248  0.94254024  0.37378959  0.7033423
  0.00392461  1.79733542  0.14258829  0.40988606  1.88823031]
[ 1.72643538e+00  3.50546151e-01  9.47757758e-01  2.23138876e+00
  1.86334439e+00 -9.99362828e-01  1.06364307e+00 -1.05982073e-01
 -6.33350215e-02  4.03839806e-01  1.50199393e-01  1.50819233e+00
  7.26780971e-01  7.96404104e-02  4.67588181e-01  3.44881819e-01
  1.51531861e+00 -2.48473872e-01  3.46998167e-01 -8.65754197e-01
 -2.60383491e+00  5.83628724e-01  8.64150444e-01 -7.99447825e-01
  2.29042940e+00 -1.50413329e+00  1.25500022e-01 -2.53688394e-01
  1.63000467e+00  1.53266285e+00  9.24652147e-02  3.47349884e-01
 -9.41931818e-01 -1.95274272e+00 -3.90348120e-01  7.63453324e-02
  1.23955580e+00  1.17646174e+00 -3.58951937e-01 -3.57893624e-01
 -9.47764689e-01 -1.42929749e+00 -1.70234695e+00  1.88937745e+00
 -5.07861024e-01 -3.36615060e-01 -1.27760447e+00  8.41830957e-01
 -1.61015713e+00 -2.64926475e-01 -8.44209474e-01  4.55808093e-01
 -5.47932797e-01 -1.19117007e+00 -5.96138291e-02  4.42344984e-01
  1.22028032e-01  2.53428879e-01 -6.23280927e-01 -3.53302469e-01
 -7.12592758e-01 -2.46917839e-01 -8.68799600e-01 -1.74197143e+00
  2.39769416e-01 -4.68967514e-01 -1.61622479e+00  5.00134162e-01
 -8.44926169e-01 -8.20888493e-04  6.88499520e-01  1.24193669e-01
  1.12901395e+00 -1.23727798e+00  4.39421922e-01 -6.59430354e-01
 -8.52232239e-01 -6.49163874e-01 -3.12645209e-01  4.41609497e-02
 -1.19598878e+00  8.56229487e-01  5.36196387e-01 -1.56941495e+00
  1.47022882e+00  1.85056573e+00  1.13224683e+00 -2.04434863e-01
 -1.03939028e+00  1.13099721e+00 -4.29928939e-01  1.28213085e+00
  2.18593240e-01  9.67711409e-01  2.86777783e-01  7.26960780e-01
 -6.13723626e-02  1.77103448e+00  1.13468610e-01  4.63115831e-01
  1.91210819e+00]
[ 1.81062586  0.42494653  0.9917188   2.24942293  1.93059762 -0.95426153
  0.91876264 -0.18712036 -0.07828397  0.36415314  0.18726514  1.4886692
  0.81965072  0.11999172  0.46165533  0.34756922  1.49033259 -0.21338612
  0.3878068  -0.87320463 -2.57539581  0.77219457  0.74596169 -0.73810496
  2.28879128 -1.50811529  0.03335432 -0.26470994  1.47572093  1.45169251
  0.04400176  0.37413092 -0.88837919 -1.93705047 -0.2922206   0.11821261
  1.2323237   1.12910911 -0.38325679 -0.26426057 -0.92235377 -1.45575852
 -1.67814988  1.99731591 -0.55724722 -0.43694969 -1.22745981  0.90173367
 -1.56022246 -0.21692914 -0.95442315  0.29116201 -0.45517141 -1.19137781
 -0.08377485  0.4337974   0.02677715  0.31096669 -0.54014761 -0.32485499
 -0.74980829 -0.38507859 -0.82371578 -1.68637842  0.09751345 -0.42955226
 -1.68011111  0.42389005 -0.92665382  0.13494024  0.68899979  0.22202288
  1.0322332  -1.21736029  0.40499779 -0.62419179 -0.86140775 -0.58507331
 -0.29561928  0.15823197 -1.20564207  0.8774539   0.46802855 -1.47319963
  1.46805862  1.89069983  1.13912369 -0.20117336 -1.06419091  1.04324672
 -0.4121157   1.24694375  0.20522848  1.02142641  0.47021587  0.71317436
 -0.0305746   1.82704348  0.09814079  0.38798982  1.82358722]
[ 4.30501044 -0.02753463 -1.96637217  6.89858645  1.6427171  -1.22072628
 -5.8437559  -2.61604903 -0.1142581  -0.73022142  1.38459885 -2.52328242
 -1.55052258 -0.46060504 -0.5023221  -1.72889207  1.06871113 -0.10417714
  2.42402479 -0.45823671 -3.65677893  2.11313284 -5.0915015   4.90075044
  3.15864662  1.54603463 -2.94008888 -4.62886185  5.09573363  2.60997279
  3.01745001  5.69189667  3.3320245   1.33237731 -2.11482816  2.98881467
 -4.61306697  0.5444747   1.47438538  2.30857077 -2.21100399 -0.9716202
 -1.33629973  2.77522006  3.0555715  -1.98927559 -1.1718561   5.12278566
 -3.84651857  0.89666882 -3.29097806  0.11636436  0.38712443  5.41954871
 -2.87763559 -6.30806042 -0.66844136 -6.17104591  0.18970414  4.05136959
 -3.26882235 -2.65123993 -0.70645692  2.98288503  1.8630388  -9.054975
 -6.2379157  -2.91292917 -1.49824252 -0.58347259  1.54011373 -3.65838334
  2.440567   -0.59312837 -0.63795867 -3.84962439 -0.66986223  2.09546583
 -3.00166526  0.09158527 -0.22859325 -0.94347533 -0.65329566 -3.36166648
 -2.24482608  3.76766163  2.5774404  -1.89465698 -3.95628262 -0.88763256
  0.33242392  3.86168006  2.38368518  1.54042915  1.40820146 -1.27663342
  6.67192647 -0.94080782  0.59728006 -0.48024757  1.62657081]
[ 2.23973445e-02  2.40266671e+00 -9.55859639e-01  6.28154796e+00
  3.04144442e+00  2.33260866e-01  6.23260652e+00 -5.74644236e-01
  1.73232601e+00 -1.08826774e+00  3.88548966e+00  2.26734676e+00
  2.85621710e+00 -5.12580624e-01  4.09484079e+00 -8.72796627e-01
  3.63882975e+00  7.28111179e-01  4.14497634e-02  7.27793139e-01
 -1.41052231e+00 -1.39701815e+00 -1.24131780e+00  6.18878925e-01
  1.68936176e+00 -4.37057677e+00  1.12733457e+00 -4.10855397e+00
  3.08774611e+00 -3.60056352e+00 -1.51888708e+00 -2.99688143e+00
  5.19920714e+00  2.11557902e+00  7.00804560e-01 -3.16077752e+00
  3.72903564e+00 -3.83491120e+00  1.49199869e-01 -8.11854262e-01
 -1.53721645e+00 -1.06505119e+00 -2.31039337e+00 -8.84506261e-02
 -6.00363833e-01  1.18110405e+00  7.38959967e-01 -1.22714621e-01
 -3.31036926e+00 -4.87998512e+00 -2.29352123e+00 -2.76592381e+00
  3.24705769e+00 -3.10018299e+00  3.32215340e+00 -5.47670416e-01
 -3.96376034e+00  2.16527261e+00  1.00291373e+00  3.97723502e+00
  1.90736567e+00  8.47726820e-02 -1.62750396e+00 -1.25300519e+00
  1.37557141e+00  6.17206055e-02 -2.94085568e+00  6.45371843e-01
 -4.21824264e+00 -8.28394795e-01 -1.40641377e+00 -3.54729403e-01
  2.39835295e+00 -3.44474651e-01  3.34189782e+00 -2.47540837e+00
 -4.21241315e-01 -3.59080488e-01 -2.86992743e+00 -2.77634813e+00
 -5.85610729e+00  4.97552755e+00 -1.08432115e-01 -2.01065979e+00
  2.38456611e+00  4.19850113e+00 -4.78221098e-01  2.10854213e+00
 -8.50739088e-01 -2.10678119e+00  3.83075903e-01  4.01034782e-01
 -3.91592294e+00 -3.20438871e-02  2.86335621e+00 -9.54010456e-01
 -5.47512558e-01  5.68186797e-01  3.28809394e-03  5.19494826e-02
  1.49747030e+00]
[-3.31275186e-02  1.63235479e-01 -7.56046050e-01  1.65641206e+00
 -7.02140515e-02 -7.46775940e-01  3.01359086e-01 -4.94382210e-01
  2.49453825e+00  2.21589982e+00  9.80391412e-01 -9.82579507e-01
  3.14286517e+00 -1.35704699e+00  1.15194742e+00  1.50049177e-03
  1.36186650e+00 -1.66343781e+00  1.86799344e+00 -4.22506955e+00
 -2.50355498e+00  1.50362682e+00  4.72761023e+00 -7.66180085e-01
  5.33207125e+00 -5.06250521e+00  1.99878599e+00  4.08945163e-01
  1.12281869e+00 -3.61293965e-01 -4.80771841e-01  1.71233825e+00
 -3.72136122e-01 -7.31086599e-01 -2.46294946e+00 -2.27637345e+00
  2.36437919e+00 -1.80247839e+00  1.13788376e+00 -1.95428457e+00
 -8.22028443e-01  2.03198300e-01 -2.59385333e-01  2.98082866e+00
  1.20163353e+00  3.65115500e-01 -1.72041222e+00 -3.18537949e+00
 -4.36966536e+00  2.91153306e-01 -2.95889488e+00 -1.44504371e+00
  1.85346245e-01 -2.10959679e-01 -1.15974145e+00  1.39996793e+00
  4.70642922e+00  1.16582726e+00 -2.77541713e+00  7.42421951e-01
 -1.02744519e+00 -5.39872093e-01 -5.78436299e-01  4.71976879e-01
 -3.32024121e+00 -1.52726802e+00 -1.82703255e+00 -3.74950942e+00
 -6.08109630e-01 -3.19237155e-01  9.43431141e-01 -7.87169542e-01
  9.73594318e-01  9.03279987e-01 -4.43355874e-01  3.07351705e+00
 -2.16414905e+00 -1.56967311e+00 -1.88936363e+00 -7.01953701e-01
 -7.10874798e-01 -1.91204998e+00 -5.61379174e-01  3.13309810e+00
  9.31666359e-01  4.11083522e+00 -8.89863382e-01 -2.19949471e+00
  1.17732576e+00  1.17522332e-01  9.60059044e-02  3.75989556e+00
 -2.31015464e+00  2.18890224e-01 -7.47753480e-01  3.33907614e+00
 -1.10706692e-01  1.68612036e+00 -6.55433067e-01  1.01828942e+00
  2.21765589e-01]
[ 0.59748202 -1.28177176  0.22560321  2.38912607 -2.16279291  0.32957309
 -0.23580032 -2.1012046   1.19235446  0.0124381   0.81772674  0.01059266
  0.29704236 -2.06925917  1.93567439 -0.92736512 -2.60218254 -1.54776077
 -0.14614279 -0.74269828 -2.93559686 -0.50514328  3.83255212 -1.83604251
  1.22138735 -7.17243287  1.21564419 -1.18435292  0.23336877  0.66611089
  0.904078   -0.38336575 -4.00660831  1.35670449 -2.18494903 -1.0293314
  1.77523517  4.68120193 -0.36828258 -0.87484658 -0.83730923 -2.37585387
 -1.03076555  2.96754857  0.15957339  0.85542446 -0.13957375 -1.68657144
 -2.53699048 -3.40383721 -4.83431811  3.06062052  0.44542267 -0.67893469
 -1.3829539  -2.90372249  1.74252202  5.90143993  0.05837317 -1.64548454
 -2.61587499 -0.89762279 -1.3856233  -0.60202142  1.31817352  0.74433536
 -2.61469207  3.71495681 -1.53072454 -0.08363236 -0.88583264 -1.19965037
  1.61407477 -0.53412209 -0.04430983  1.73557195 -1.43251034  2.32156383
 -0.05759382 -1.83774235 -1.99778753 -0.65835445 -0.50307792 -4.12873397
 -0.70724993 -0.67771502  0.30331205 -1.16862659  1.45852772  1.5128784
  1.64044181 -0.74910059 -3.84125297  1.19219064  1.28310934 -0.12762515
  1.68933825  2.02664609 -0.33132579  1.2220633   3.1146975 ]
[ 1.40104396  0.82851981 -0.72722182  6.82593852  4.59306727 -3.29207125
  3.04827406 -0.14474599 -0.91527277  0.68169232  2.47197582  0.22550046
  5.77172224  1.03228918  0.73345762 -1.03964678 -0.18345137 -2.3560888
 -1.57653165 -2.14736611  0.2539641   0.882707    1.85593621  1.49985223
 -0.47481903  1.28080577  1.98253455  0.39858838 -2.49004872  3.41303313
  0.06800742  0.25637467  1.56077226  1.93430604  0.69352694  1.22715772
  0.27862213  2.43487767 -0.27163261 -1.24696731 -2.6319953  -3.17301635
 -1.4034691   5.22350703 -1.28405052  2.27420173  0.42084991 -0.61118946
 -0.9666195   2.72583849  2.78449821  0.28898912 -1.33349063 -1.92455408
 -1.08015454  0.25402488 -0.97962049  1.4015905   0.0700243   1.24512686
 -2.07066972 -0.02359862 -2.94720214 -0.86891168  0.75041142 -1.51683121
 -0.79628895 -0.42768843  1.36742127  3.42711026 -0.14212517 -2.58517203
  0.82053211 -3.04141038 -1.78695473 -0.34306963  0.49267895 -1.95237659
  1.67392669  0.700359    2.75933828  3.0209012  -0.3345888  -1.36821877
  0.41950394  0.31392906 -0.35524868 -1.93224048 -0.52276201  2.93543567
 -1.26808701  5.30457563  0.02897695  0.90160372  0.21180255 -2.51382621
 -2.95861965 -0.65405416  1.23609559 -0.81360423  3.25038469]
[-2.64460073  0.47828505 -1.44432219  6.23379332  2.58562359 -4.28544956
  0.55634216 -2.27462885  3.0088127   0.70639764  3.5311594   2.18638338
  1.38181238  1.73359809 -1.48474373  2.8006807   2.01736245 -0.84635548
  1.47590836 -0.33090916 -3.47315809  1.3091843  -0.0363263   2.48441656
 -0.81125746  0.88161245  3.68388383 -1.62002264  4.59850682 -2.5044985
 -4.94197263  2.41594134 -1.84039376 -1.81415758  1.12780056 -3.81602889
  1.41198782 -0.41973929 -1.78049659  3.0008685  -2.14424796 -2.99767737
 -1.07890841  3.94372933 -1.27609599  0.81800651 -3.49224459  0.94960276
 -1.94778004  0.11521943  1.38640598  0.80382618  3.16243815  1.15718576
  1.00155132  0.05975194 -0.63318665 -1.75627554  1.45177748  0.4359496
  2.3314532  -0.85559617 -2.41216674  0.62489809  1.05222238  2.749372
 -0.0466675   0.92872521  3.81119962  0.19028063 -0.34537187 -1.83787457
  3.84848434 -0.86066489  4.08205223 -5.39944956 -0.15198086  0.06479232
 -2.91488696  0.02179281 -0.20187516  1.48408623  1.23166858 -2.9220032
  5.5109029   2.5604404  -2.48843045  1.7353355  -2.14766542  6.37119934
 -0.10489516  2.98960856  2.16195443  1.46503608  3.54477678 -0.46217185
 -2.95238346  0.62952563  0.54078245 -2.69990224  3.29950965]
[ 1.81987576 -1.25099413  2.22846184  2.97694361  1.79039317 -0.95453956
  0.21983652 -0.78651483 -0.01794407  0.4168796   1.06964771  1.36742532
  0.46580973  0.55853008  1.70764961 -0.14170901  1.53194235 -0.1579533
  0.53879931  1.40215853 -2.61950559 -0.37831884  1.44836676 -0.41463544
  1.38770308 -2.49424617  1.24957817 -1.15482622  0.45454983 -0.19735565
 -0.38805481  0.5800079  -1.07349495 -0.28860247  0.07950737  0.98511411
  0.93840167  1.46097286 -0.78408792  0.47968972 -1.69857494 -1.18064983
 -0.97538037  1.7104577   0.27240271  1.26789447 -0.8737269   0.5716079
 -1.66437098 -0.70075721 -0.57067095 -0.5790244   0.26963363 -0.54668542
  0.07712133 -0.67909631  1.09752098  0.74627164 -0.57563994  0.24066672
 -0.75553133  0.34884251  0.59778143 -2.58358954  0.08966571  0.31660953
 -1.37069889  0.05222737 -1.07462929 -0.22867267  0.47740347 -0.08730953
  0.3321801  -1.1928496   0.5006447  -2.12648739 -1.05697827  0.07350441
  0.44471541 -1.21670781 -0.73313871  0.56019075 -0.31143471 -1.4205104
  1.15472894  1.2593512   1.2332202   1.40720045 -1.89327161  1.26744523
 -0.51464621  1.35794401  0.78135863  0.92933646  1.40347093  1.27984246
  0.52905073  1.59835034  0.58321694 -1.65474266  1.73249427]
[-1.40752012  7.46135122 -3.14251479 12.12963113  7.58770976  1.09533224
 -1.30580971 -5.0719546   1.55415988  0.04049817  0.49818676 -2.12471643
  2.79968251  1.89844835 -2.83149892 -0.51633963 -4.56571637  0.08780763
 -3.7162652   4.77270476  1.44388573  4.5911394  -4.61083718 -3.88199431
  5.96233713  2.58167964 -0.09186034 -4.94690407  1.1503753   0.65441102
 -2.37502012 -3.16078021  1.4650683   1.66111238  2.48880764 -1.24910914
  0.25481607 -1.31766208 -2.90529094  7.45196157 -0.96105255 -3.24448088
 -2.88796338  1.24444357  5.17618375  0.09518041 -5.48836757 -0.71298503
  1.59889409  3.86947974 -4.48095589 -2.33009743 -4.34984046 -3.14064535
  0.58317276 -0.50504586 -2.13962076  0.28703118 -4.8664438  -1.15340502
 -1.53678855  4.4087494   0.64982728 -2.38780219 -4.48873454 -1.9746078
 -3.40550308 -5.54692023  1.27731087 -3.1225112  -0.84340492  2.91634385
  2.64775611 -2.902307    2.83743107 -2.59036723 -4.03206692 -2.70622447
  1.24248479  0.1117702  -4.98371068 -2.93374498 -2.69745435 -3.77006196
  2.35215805  1.32643967  3.45906282  1.25129974 -5.17312557  3.31564538
 -2.34206309  5.56964475  1.34183449  1.60778484  0.85409007 -0.04919556
  4.05627668  0.15534906  2.02702042 -3.70842367  3.9995184 ]
[ 0.09071057 -0.72179955  0.53103783  2.60059282  2.22072165  0.73505031
  2.09416886  1.00382493  1.20240032  3.04001881  2.42658125 -0.4523492
  1.87079078 -1.93818827  1.1165494   4.04696884  0.12197299 -3.48437512
 -0.69655223 -1.89611646 -1.17100709 -0.30539082  1.92959759 -2.5161438
  4.12746157 -1.5026105   1.69618736  1.22483162 -0.45333007  0.55590211
 -2.3072675  -0.04876825 -0.19110703 -3.67792932  1.57885274 -0.44235507
 -0.46305399  0.64048279 -3.3415621  -1.13755594  0.32357482  0.48656552
 -2.86773653 -1.14091347 -0.31981007 -2.38356285 -3.25726598  0.93838603
 -0.40224718  1.11303542 -2.06869232 -2.88240826 -2.11550056 -1.10698092
  0.63878329  2.73325864 -0.99500794 -0.78212513 -0.5910615   2.21772601
  1.65790804  1.76841286 -0.89374053 -1.25536519 -0.03136584  0.03622899
 -1.20194074  1.49969345 -0.4335825   1.15133361  0.00916882  0.03396308
  1.84380061 -4.45654321  2.01441409 -1.48567044  1.72079285 -1.00868092
 -0.53713151  1.59190089  0.69525267 -0.27565322  0.02181623 -0.73428915
  1.57997831  1.80829272  3.52265694 -3.72156977 -4.58784078  1.26076622
  0.13826862 -0.63910412 -0.4766587  -0.21024948  0.79716535 -0.75832706
  1.49545636  1.82148008  0.17768637  0.60972132  2.80159125]
[ 3.70507255  1.32674203  0.6484916   1.80115021  0.11079856 -0.45135601
 -0.62470126  1.78168697 -1.47687202  2.59357448  5.14418845  1.41940169
  3.47530484 -0.71217963  3.09471703  0.39455266 -0.13252082  0.88054955
 -0.54801207 -1.53800888 -4.00113812 -0.62664833  1.05545421 -2.16867649
 -0.35848039 -3.17107625 -0.09895943 -1.68001437  3.29838494  1.3108233
 -1.90586651  1.64465616 -4.03880068 -1.04677703  1.92450947  0.1671812
  0.43837244 -0.83066997 -2.26748847  0.6127932  -0.4130042   0.70784839
 -1.30091212 -0.0862456   0.04906037 -1.49324216 -0.38632126 -0.34049433
  0.1165222  -1.51182363 -3.15377525 -1.42570518 -0.52092165  0.93170076
 -1.99534372  2.17456386  1.22381695  1.92844432 -0.48556248 -3.34508139
 -0.93331822 -1.09329054  1.07307604 -3.04202451 -0.35011678  0.06009453
 -2.71665368  1.18553285 -1.80942533  0.14544611  0.45033735  2.37271951
  3.99615388 -2.19688029  0.02581301 -0.67659712  2.08842246  0.24554858
 -2.46999154  1.58443679 -3.31749381 -0.03625158 -0.73486689 -1.19233077
 -1.01280789  1.82303852  0.73671909 -0.05056701 -0.88833896  1.42521968
  1.45866554  2.54267125  1.0083321   0.7918111   2.66086708  3.19006926
 -1.57071257  3.46271574 -1.83513584 -0.53611816  0.09710778]
[-0.32032488  0.60923296 -0.97085291  1.48847015  1.67020661 -2.77623657
  3.58204418 -2.08795368  2.64975455 -0.29082333  3.06140888  0.86491546
 -0.87782691  3.79785443  5.9973433   0.31026176  0.73598851  0.47968592
  2.26673915  2.13131066 -1.32751172 -1.31298419 -3.27873339 -4.37421687
  2.20813181 -4.95492187  2.794346    3.30037599  1.52808574 -0.89088407
 -3.23243646  2.25833331  1.19597053 -3.08793465  1.12913472  0.02062594
 -1.72004768  3.76572831 -0.26815204  1.47326322 -0.64247228  0.85985193
 -2.93837322  1.04861914 -0.1779369  -0.61240778  2.82186595 -2.99736496
 -1.40621174 -0.53154735 -3.83248003 -2.40057172  0.74443913 -5.52052752
 -0.09795156  1.37922378 -0.43283582  2.61931909 -1.2164556  -0.96520701
 -4.43503103  0.87265171 -3.0340993  -4.41291291 -4.66420064 -0.26182523
 -2.64450257 -1.0744999  -1.54991119 -1.48110365  3.55796323  2.20923539
  5.67281214 -0.01461435  1.78658354 -3.09323447 -2.33768549 -1.73802636
 -1.35655282  3.27284595  1.40917796  0.93304425 -1.72044432 -3.04365199
 -0.05238944  3.04494873  0.93086897 -0.31337454 -0.08298314 -0.49977406
 -1.97346432  1.00129072  1.46036283 -1.60003304 -2.64419321 -0.189461
  0.2926175   1.10431401 -1.6369026  -1.25652853  2.31310639]
[ 1.8622115  -0.15640183  0.94854285  3.161822    2.18662276 -0.32733979
  0.71021837  0.52258217  0.24147664  0.09772125  1.07421651  1.32342993
 -0.0532432   0.60014088  1.07218816  0.6505344   1.20024306 -0.38850428
 -0.37949584 -0.94669841 -3.83166948  0.52854423  1.06972743 -1.33844229
  2.24271956 -0.75525068  0.40043103 -0.1450943   1.39040135  1.34609844
 -0.75041502  0.08428549 -1.48900337 -2.50769226 -0.49253049  0.83018967
  1.83464504  0.74280745 -0.27433307  0.52588157 -1.48541217 -2.27669536
 -1.87833895  1.91722449 -0.63928667 -0.06006771 -1.55499966  1.71386149
 -1.54472124 -0.2132488  -1.04469258  0.13836516  0.05168104 -0.85424891
  0.1150337   0.75853162  0.1073072  -0.41134736 -0.17031002 -0.7837917
 -0.48191343 -0.9254867  -0.69729642 -1.28976677  0.10716413 -1.02790379
 -1.15081379  0.64721368 -1.14376251  0.08730109  0.50536602 -0.66008613
  1.09920607 -0.75667217  1.51270998 -0.88550791 -0.93280591 -1.07313777
 -0.83334381 -0.36223624 -0.87819081  0.96778241  0.48825651 -0.82372967
  2.22013813  1.57421833  1.29726447  0.19966425 -1.87479999  2.27015669
 -0.3284201   1.82773418  0.10198901  0.77832949  0.0098838   0.85782857
  1.01515679  1.41088505 -0.39197713 -0.66086405  1.87885321]
[-0.09812275 -0.51913994  0.58719086  1.58713694  1.70669894 -0.28173611
  2.19986377 -1.00101981 -0.6222597   1.03718342 -0.29312905  1.06346406
  0.51531334 -0.12446228 -0.04549472 -0.25706583  1.04004927 -0.64764904
  1.42286253 -0.89465797 -1.5015595   0.90633717  1.23442288 -0.83429995
  2.3367661  -0.76417902 -0.12625978 -0.76775588  0.98074123  0.55460768
  1.01534589  0.46718433 -0.94633807 -1.87768123 -0.4517938  -1.52182163
  2.32068419  0.56705496 -0.36486065  0.54118193 -0.79039239 -1.83477627
 -0.73543887  2.158621   -0.65112164 -0.96934849 -1.02807442  0.23548821
 -1.95483773  0.19613475 -1.34963599 -0.04298734 -0.70104833 -0.85431739
 -1.02790842 -0.17566942 -0.42491681  0.17770162 -0.11015457 -0.10742797
 -0.05881849 -0.35900865 -1.15886267 -2.07734401  0.03674557 -0.27255238
 -1.97613235  0.3965573  -0.93373545 -0.44458257  0.54662445  0.38308914
  1.14699438 -1.81212235  1.32840177 -1.22527686 -0.13679153 -0.49844323
 -0.02706843  0.26805846  0.22082963  1.40434765 -1.16623088 -0.33064668
  1.89168358  2.8520177   2.38790085 -0.49981056 -1.65180031  1.1156587
  0.413347    2.91193517 -0.74050084  1.31716024 -0.63934353 -0.21575119
 -0.1125842   1.23614481 -0.42923918  0.40670022  2.70661249]
[ 0.84024811 -0.16113847  0.85898631  1.75883391  2.75878406 -1.08373331
  1.16246488 -1.16863102  0.20977128  0.68112859  0.66118883  0.95494028
  1.27095204  0.05901436  1.18738305 -1.13810505  1.87404902 -0.22138017
  0.18493465 -0.53764078 -2.57996849  0.83997112  1.29287829 -1.46681561
  2.2293231  -1.58353324 -0.00775025 -0.34317001  1.14648768  0.96484001
  0.34695273  0.67527836 -0.44946767 -1.87348555 -0.03669027 -0.48129379
  2.00816036  0.24227188 -0.60557364 -0.87539543 -0.42884408 -0.2067571
 -1.53679931  1.80198614 -0.95424488 -0.61219575 -0.77445408  1.40086533
 -1.6913646   0.03078497 -0.21429037 -0.26789261 -0.07165707 -1.76839819
 -0.11751983 -0.36070331 -1.01363116 -0.11038267 -0.47543161 -1.11100283
 -1.26480377  0.00981314 -1.11371304 -2.3481434   0.90572534  0.25986412
 -2.94569314 -0.02942721 -0.83293231 -0.02077074  0.80857058  0.58800102
  1.03981385 -1.51658937  0.37643286 -1.04880059 -0.75874235 -0.98177595
 -0.80415416  0.92910696 -1.5595514   0.5860941   0.15416362  0.23293104
  1.40832312  2.17158896  0.90674775 -0.5833     -0.76999593  0.95009242
 -0.92286508  1.59576581  0.02882484  0.43763667  1.45927607  0.90458154
  0.70271509  1.62353031  0.55179469  0.5312555   1.72824376]
None
None
None
