---
w = [-0.891076965220504,0.7971629524734001,7.667974120041241,-1.194451815207515,4.428168399983543,-2.2693219211284372,1.6123662489795894,4.030027919019198,1.5249737503502414,-1.9123736994002305,1.5229522962566355,-3.7354162114234,-1.2824826752027403,2.328290235437784,-0.43876059084459273,-1.6770584330280356,-7.811149935800249,-4.412512224340057,-5.705231726462962,3.9343724031292133,-4.02996900942992,-0.7132532895637189,7.290147398465033,2.927668848703951,2.9976631348510465,-9.402842059804021,-1.572488174721546,-4.66345305021654,0.9640277030232043,3.588853178793997,0.6304533361983106,-4.278146018519068,1.532466537469654,-4.194510749723648,-3.0754404590952262,-5.96775098443988,1.4531629679468518,-1.6122823208905517,0.2669882299877539,-0.6863919468509573,1.7677824105370625,-0.6141807895200245,-1.5166548252556864,4.54511093140958,-6.804278493369494,0.2432024840673331,-3.2055555348052542,-0.462261321742977,-4.0693642109808055,-6.717258501311566,0.04681519261754,-0.5661480190166079,-5.608811373987369,-0.5657218758723467,-1.4257238603965976,-1.7420421025927626,-1.0380737884289266,-7.001872782721332,0.910182944491595,2.8319805564882587,1.9438960528640126,1.4556135076104115,-1.658859961875923,-1.7819936627712045,1.7785619570908833,-1.0160491329790338,-5.7170764335037685,3.049617056416464,-4.4737210185489715,0.2546105703355003,3.7047202888339545,3.7808554449392515,6.681209688378553,0.6121346855933611,-2.3844628722062198,4.151664197295013,2.3008794576496174,-3.810141857222482,0.8329416799498474,-3.257684490235352,-9.276251793286395,-1.233134916815936,0.2508851557364817,-2.851159156453325,-0.7657637215197594,0.4134621423247716,-0.0637505673346518,-0.50606998459649,0.12230883140573492,-4.2987380502087555,0.9123505501340402,1.5903536976039938,-5.942964324305926,-2.158874774281435,1.973802800751875,-4.592415640517194,9.537022637280021,-0.3702490671644253,-2.0019132051584703,5.487748163497463,2.94993736538609,0.6398825571477753,1.7501705541287031,-1.7657162172926733,-0.7883339490665617,8.122894663353414,1.4018749343890753,-2.347398152373894,3.7233913508592527,-0.62289996529054,-0.3573047823882714,0.4041797130472785,-2.7354189917577147,0.7126558905867106,-5.853690375892248,-0.23004142877454833,-1.9886870347918966,0.38239407611576604,-0.7169449117465747,-2.28982035712536,1.403798030015124,-1.282202016188497,1.0750134378110623,5.580689886001213,-1.0328511715483486,1.2708725764625568,-5.681857164187476,0.7056949997336338,0.9414613710722778] -1710.6544311204523
w = [2.307506768153097,-0.8628721159795459,3.3964428566430644,2.9386711164292474,-6.555085257908858,-0.9720738808281748,-2.3808981429570037,2.6033426735432066,4.939753025362945,-4.447314995281907,5.7235592694607185,-0.5070888709360459,6.45142688157377,-2.408773128408832,3.665038817183743,1.3610693455724237,-2.560234404092351,0.8205738614582543,-3.177964024999231,-7.175055534410414,5.246534771138224,4.877602884421626,3.401600054118129,1.9654187269747785,4.057774656459806,-6.197025417360658,-0.2654323915744918,-1.469241625735064,-3.3685428715466728,6.0551638173059725,5.448451430463363,6.4021573257047075,-4.4846173760138095,-7.432344561767951,-9.261366794017542,-4.256746391508243,-4.853955042496246,0.530465915324472,-0.4834847538160607,0.46395606701044795,-6.331488258219134,-5.037121576095786,6.129667349867583,0.3770466294209443,4.422055105511893,4.8700994152522545,-0.6657231649932437,-4.18372104699389,-4.227593328890637,-3.953033135354146,-3.74078686439446,-2.3797538928088793,-0.5026462044803268,3.8889627295647906,-7.819819433253633,0.41107121995679585,2.3150553405478074,-0.11194145578623937,3.597662753630561,-6.793173723878911,-6.517679956484592,1.410650153057905,-3.0718714326493273,-1.267236580165312,0.2524848906590489,-2.0050129644405636,1.776029748366181,4.460161617320464,-1.256027716273427,-3.4272617445867612,-1.7041074644058412,-3.1296992907499517,-4.684618215978085,-0.3197027798237339,-9.407171894132622,1.1432545590914267,2.7760385140950854,3.2131649734515446,1.7304242430454506,2.6126768445093917,-4.239318555236354,-13.282063180858385,6.24467509380327,-1.5453007348569756,-1.1013277210989894,3.5148740512914345,3.6817805061413322,1.9353913254397552,-1.216950739651666,1.552002598899911,0.3301972159213128,1.3898746058019367,1.852876250221078,-2.7067900946650285,0.028209596039986917,-1.6258599482261453,-0.3212852659648154,1.5134865074201294,-5.8965842628984895,2.143189740688841,6.356564776135079,0.82973927463572,6.37527535918108,3.0522082990672517,-10.7306383653743,-1.146479691837745,-6.6170899298953705,1.9486141705543711,4.380873556469335,1.4645755866531533,-0.19254103215892895,2.376046066633171,1.029194094057743,-0.3779001925949498,1.5470700462491382,4.946385254321469,4.885499432228888,7.848577346016665,1.871054251403399,1.5151298999789082,-6.6984481200440165,1.617315294575195,-3.9357057989127693,-1.2294574409117784,0.08076785965673958,-0.5311616257168297,-1.6287498239666733,2.0485317445169584,0.7775631725046799] -1711.2831989506826
---w = [-0.049334384458648906,1.589346104446965,6.892094077446826,-1.0817657180848461,3.6353622472780716,-2.4911174864230703,1.6050584468522584,3.935145179505639,2.3736295151205478,-2.8683657019235076,1.8374686245334377,-3.6153207829345195,-0.566624834415586,1.1473294985819793,-0.5931027463903907,-1.9615595258926273,-7.096648762225666,-4.76747514554729,-5.479374985354641,4.4942391897555805,-3.99145465581277,0.015731280431487228,6.784389827659955,3.2856889365246014,2.1751905529775537,-10.516776512579803,-0.8232284955750593,-4.193688474038125,0.7476206918695987,4.177376894312654,0.7247385491705534,-4.788648843470686,2.275898440356288,-4.9831691434570855,-3.0090243906070024,-5.849268562258578,1.9055153122683153,-1.3400020136780213,0.7248770753106456,-1.1367725593254008,1.646907779804339,-1.4607233183492045,-1.3695129833818782,4.976270075548249,-6.294453450779704,0.7356442170023637,-3.276857977621296,0.2676014656668504,-3.872917522003928,-7.001014224239767,-0.167280259790535,0.16523484537890915,-6.339222724190881,-0.8499409836226905,-1.4422512168888506,-1.9128909585374567,-0.8035971415154949,-6.5129489801052785,0.8275750585319948,3.6005212570068466,1.7223127451831284,1.0688867676049272,-1.8389379768079677,-1.5514011251729452,1.7479754576718853,0.03783785893252123,-6.094305527424523,3.8808669579054205,-2.8530396800431044,-0.7346021951832797,3.1910047621309214,4.314053349596449,5.584647337951982,-0.22122093798319098,-2.5769358419277397,3.6264570214748066,2.434983608358481,-3.8926911952677012,0.859136945589619,-2.8490634045267766,-9.532170822760355,0.14132440053095152,0.7236773273982446,-2.8634062229822295,-1.2520022467898704,0.060615327193389246,0.7171762387183578,-0.512043540886775,0.19671274851851855,-4.019701412876421,0.7013231363289365,2.3958053008823956,-6.103161402856484,-1.9166894485860824,2.407397163448688,-4.425296083709082,9.088035012619674,0.9148582090664872,-2.656767103679868,4.818375778366517,2.8935465737073,1.2280053512106266,0.784399006764096,-2.8901612390190956,-0.3385922166840254,8.737657032843273,0.9165572509117325,-1.5178252379858121,3.842580989577743,0.020415346336140505,0.23039535337016465,0.4844918607069101,-3.001105640620396,0.6400333506795612,-5.862245476138449,0.3718785018482446,-2.493999629549961,0.28675701141736815,-0.17078793979490559,-1.54731882227306,1.7538534008974127,-1.983530658006352,0.9398031108802958,5.531442958619607,-1.1187796388235105,1.0869527189693102,-5.215289593850258,1.6152506374921263,1.628393768083595] -1181.24364372627
w = [2.793828878951329,-0.8303748150692595,3.573210198088929,2.1961956741049913,-6.784605120768053,-1.4067291226459868,-2.160805254183476,3.1306497808503986,5.321216606331973,-4.299016330005123,5.7014748119498195,-1.7007709914556473,6.370100543883645,-2.722491097287481,3.940390584815561,0.9178193359819439,-3.101220116631675,0.37459430066092797,-2.908684072747641,-6.577935711625781,4.494712893859807,4.689281465958032,2.72649899099349,1.5182722872563608,3.365742711028433,-5.795683501427128,-0.5463061203829016,-1.9815823855332928,-3.3491211745540124,5.367381024201457,4.951137942347731,5.855047782248053,-4.906916324817793,-7.1226746930949325,-9.801718750988083,-4.086016598275509,-4.770706951787124,0.31481750157684396,-0.6822175896310758,1.0667511590750922,-7.265054096604775,-4.797159128563901,5.835401475019142,0.4749944594671218,3.728459304233364,5.321384737896305,-0.3120071762060749,-4.110606569289176,-3.931253427071973,-4.151012564389731,-3.558230643825493,-1.903537595193876,-0.42071544942158595,3.583935669750619,-7.93727582558704,0.8002980305751903,1.8449524474453232,-0.35098026931366855,3.4695335058718495,-7.093744866878552,-5.818410894583899,0.7464204157477812,-2.246919329978324,-0.5804856051681128,-0.3044138326789778,-2.551605888622439,1.5394630738390909,4.809689031456361,-1.635035781936483,-3.7209461198579348,-2.353577018613902,-3.4829735586083035,-5.401018057576412,-0.37043419070110756,-9.432646247929544,0.7633140194356813,3.088393227343799,2.948867157407426,1.8770657315007795,1.8926612742221627,-3.8924193315931785,-12.500238368572328,6.3188374217391985,-1.3314062577039127,-0.7204204444482581,2.987614910045914,3.8663816211763264,2.488369062621268,-1.3464577043257961,1.5307482382840936,-0.16200864748094246,1.3334836125992406,2.0421814638378257,-2.813988071727728,-0.5208073523775042,-1.7710481211412048,-0.22447121125374708,1.3662467032726133,-5.705392332873569,2.2578329823477,6.319657092890179,1.31857842126335,6.542931477565534,2.6357548293614297,-11.07922507357692,-0.6137579346376799,-6.762173457833333,2.2308898127187704,4.065980108027175,1.3948126048913667,-0.25476404431220184,1.7312648029914701,0.69012219180781,0.4438548467386466,1.435426717786053,5.214443486740703,4.799674564589425,8.335791630098388,1.3626022341641906,1.8219698910058777,-7.33910659307011,1.7010726866250132,-4.364218656675958,-1.6612222025751433,0.623786076909072,-0.9778785639210223,-0.5667862574668079,2.1720152269123307,1.5919349267111442] -333.8580855934732
