w = [3.7852677568524618,5.593120533786629,-3.7822495675172565,8.701111875725749,-2.631180327506103,-3.2468659750968647,-1.2264274314988688,2.426426543618822,-1.9383754932663817,1.5104057183269348,3.1407748349376514,-0.47171296009306196,-3.4008463027287084,1.9210738358245871,-1.2488111474502404,-2.761420533187918,-0.9160534693104386,4.912706464288936,2.324753489918315,-2.2419437900996066,-7.72390356621859,-3.0395542556387025,7.40985008794167,-6.6663941788672485,11.72086560789883,-2.3750411136399405,-7.767533262662356,-3.0940555123111553,5.459904976533859,4.350917945958678,-3.4149143213229243,-5.881894729546774,3.464131766877839,-2.4197608276346942,-4.580321522717122,2.972978473665342,-1.5933514082334566,-2.7609702913575034,-2.865328491518778,3.850025676019391,-6.2910955181889,1.883081389003995,-6.359824312108269,1.5888630599260793,-1.656730614265485,-6.9140548003587305,-1.1745659835657556,6.540514264190753,-1.0113618862847389,-2.9903699092605556,-1.1358691075101055,3.246657127088377,0.3063785110139339,-5.249294080595864,-4.864327656180482,-4.040649512149666,0.9199665014546883,0.36642539614985503,-1.7504135628570099,-6.604076704826096,-2.6441206545620664,1.0367063951758915,-0.055016023021688475,-7.031902908071898,-2.9296136035666067,-0.33218352356126524,-1.9469201066652875,-5.51651455173738,1.0992500025868832,-1.8766548524651219,0.1270351698643864,1.9516363445495541,3.000728029919672,4.061249947569841,0.8771668749690867,0.46563483767154595,5.207025866972964,-0.5051404074487691,1.739882000315606,-2.969404409668775,-2.509331488671517,3.514219335399578,0.10863512233687762,-7.6180241621162335,-2.7769612061306326,6.7910137401264095,1.8367242974295364,-4.594049854032656,-9.0120301700544,-3.4496351171222472,0.5237970920853825,2.3886338948676737,1.0623158434941147,2.2102814009013256,-0.22685359591393728,-3.424460925028989,-3.337884518825892,3.363994527866162,-0.723872546332037,1.2279706716290806,-6.116103880149458,-0.17831346314238417,-0.5636365290182656,3.412701839303918,-3.256994709519451,-3.7627881248396626,-0.6632754927731828,-8.307769702983066,3.0076260133414787,2.246334603244869,-5.458252273244977,6.663466157252637,-1.5296902861062467,4.525697134069484,-2.040423807292918,7.226513884642651,-0.7731084354002387,4.576194481254409,1.1702300820633011,-0.12234608386647167,1.3696322354460502,-6.338375971018429,-3.8345869640172436,2.7286161800750217,0.701535766481544,3.497723002270957,-2.5725437365440236,1.428068904720722,-2.8646331570330816,7.854216280264713,3.9146374195635683,-0.08677703026532305,-0.8960071414620835,4.806485631325072,-8.877001738054057,-2.558427278596418,0.19537236961895266,-0.9675887207285588,7.315879169706215,4.160469363252087,-3.891447789839836,3.350804454547301,-0.8011494821575561,-4.052006044540096,1.5985145123920066,0.5189994087227,-0.9588947850033052,-0.797712523186729,-3.308019267898272,-1.4759134194994439,1.8621434933136403,-0.07491463663317866,-2.1008297151730604,-1.7824903754165617,-2.676326093866726,-4.056933913485411,5.08283492990943,0.2522888598854409,3.847859211520901,-7.082335602469971,4.049802213673528,5.460660496486626,1.5761161428434152,-7.6473633310576234,-3.954768114611248,9.508753677280547,1.3776418985153889,-6.674594331157459,2.240066223788867,3.8593530827016624,-6.1751823899445215,-5.064701591011867,-5.705264406928078,-0.12079986137583976,-1.1975459785856475,-2.3923043018189816,-3.030967607810455,-0.5009849946332879,-2.2136353024921593,-0.5707089007427839,-0.7573677441909881,2.013082464646547,3.3945728415843135,-7.054565326631149,1.320050104006725,-1.7804192817562552,1.04750731390491,-1.9428453563913344,2.482675958878409,1.5387944315451365,-3.742078209499241,-1.7188067508739704,6.449685630483729,-1.707711017078715,-4.003135055582043,4.091139971285992,1.4686443194358212,2.2637788213884726,-1.3220720472860084,-8.218799472364799,5.145535094693869,-0.2311832347273768,2.9654151282957497,-1.9117131162006036,-0.09386633592701332,-4.875131545745868,-2.955021176371398,-2.1787917621441473,0.5069613206849397,1.1476741542129254,0.8211993420104384,-1.3036754985908368,2.788052926663876,3.475738405984384,0.25380267202738155,0.7105818869412953,2.9277018438474864,-2.1972760770343527,7.681335692216431,-5.033924434361886,-9.027847978196128,-4.044028398060132,0.46721308399498385,7.466921802077224,-4.330886350782193,0.4075237130147218,-4.7950103664835995,0.005431739376745071,1.5140568777907033,-0.553146814703836,-5.241821118751305,5.250969740947424,3.988394455260832,-2.9274298228613893,-1.4778514004622687,-4.316663525065069,-0.049011708528996806,1.5123785646757937,-0.03064353252710572,5.587273031392469,-4.448613718925327,6.270128055242811,3.8889569488844082,-8.451654909996698,-2.445361770975978,-6.037525755583855,7.418044719480904,5.288569033976519,-0.8853970869672602,-2.67550671110848,0.9321554524062394,-2.9676412059675155,1.078402603912576,-1.3261144394551485,-0.7850663979172705,5.967115658838984,4.02695177622125,1.3030220358981892,-0.8799541309428827,0.7674490051012929,2.611229844937042,-0.7766869649374134,2.884990741486721,4.38300196612871,5.295063069995327,1.9238161628979453,-7.201955844060164,1.1136409692240288,4.013669774787872,5.189584366971662,2.4146457757754414,-5.244417373916049,-3.6642560666111983,-3.8015030637933998,0.7915362024556079,2.1745080310449856,-4.221128058358994,-5.147121876030302,-8.332620792031642,3.888160781850841,1.497834586497579,2.3894931240962394,-6.7702890878174715,1.222731005955258,0.6884436642901408,-0.07044091657765572,-3.8682648918873888,3.7510953063377035,0.7440069635964301,4.173285342761683,-2.310019373690044,-1.5908740902648082,-7.263917643906614,-2.1354381185884335,0.8948242436070634,-1.0512725753845091,-7.407460073554797,4.822174264923047,3.070562082912479,-4.9017653718121705,1.01897371911094,-0.6713457681313836,1.433444817281537,-2.957210754090361,4.68354951678685,-3.603606628795124,1.9807981252303906,-11.56992954864094,5.201928291397348,0.6150490276326573,4.612958505399903,3.273305383016925,1.9479296554172336,7.116007091662271,3.945815113597822,2.718974320894623,2.2719982101859215,2.995950289782922,3.0299864172250985,0.0275835935181237,3.271147538940051,-4.048542456072071,-7.372814642650424,-6.959059795017254,2.109397706569256,0.4405270778776399,-2.446780783919363,5.719324557333688,-1.268293707292238,0.5698493179889801,-4.730667342427578,-2.737603447711199,-1.422764979185625,5.399659664752854,5.077320065772259,3.3686843751933084,-5.213117186301465,3.620821918349576,0.3243315926126501,-0.08368650755164825,4.155445986846712,-0.2691307055542844,-6.108378046824104,-5.643963175463032,5.107100915072622,1.8466281564487592,-8.927422757298459,-5.900023455654892,5.504398367049747,-0.5772276408406442,4.1315562844283065,-4.3301146998226265,0.8875389080029937,-1.552367532999933,-5.2371906927582055,-1.2154952347660104,-2.7686934631023985,-1.3619111446285528,-2.571496749449511,8.126651288454502,0.403313489574306,-6.334934217425493,9.379276391149496,-3.044298760183541,-6.073781474108164,7.141002227741091,1.6324787639057854,-2.8878381891193943,-0.2500147734980984,2.2468216195390047,5.0889262826768675,2.310983556616202,5.620097181135098,5.12711056985626,3.829487492332994,-1.7853797058132284,-2.2058008582755892,-0.5759828913116026,-0.3586247090222731,0.5019712515321031,-5.237900699939782,-4.063736439968055,-12.344737757365625,-5.716726476857322,0.5943080689463281,-1.708214924925426,-4.997677760357796,-0.9775612918479554,1.545463670801961,1.0840298488767321,2.9308216428369254,4.127200435768707,-1.7459480943297332,-6.303975229782024,8.002483948880476,-4.810358400062961,2.2163198252716083,-3.0143660245852004,2.4931574260589584,-1.480131184179816,-0.5115382203928501,3.871496973660061,7.923637980272692,1.4196195691784075,0.3277277726706313,2.0788533563475515,5.878258266809769,-7.8894908227391705,-2.67942476967684,-6.948901979341402,-2.542167046483825,1.5433875641632562,0.472844035312286,0.21542264563522556,6.668254656479605] -690.0173737702956
w = [3.5792443033294687,1.5684224281968393,1.2485134546062993,2.069933558626638,1.3075311542202912,-0.336416733031019,1.9509328010188582,0.12595563769773155,-0.07428009887328937,-0.6848145861408326,1.2035147153486019,2.268429464923278,-0.3391114759106697,-0.38749970881070855,1.6672620437596732,1.774853333394506,0.7989320504166437,0.08664617694620386,-1.2954511880130755,-0.13498437377160588,-2.4522062025129725,3.1221395936755365,2.1193205423939445,-0.9212021099481797,3.1199420350482017,-2.617523708236698,-0.11199938280548394,0.5538844488882044,4.087786116340459,1.7959142160720627,1.3622222188332773,0.5225187964285043,-0.4626245188680361,-2.6991140843680657,-0.3326986597008653,-2.5271757916920548,-1.2283863321722615,1.528116668236468,-1.0530430769536587,0.5667217333832288,0.27501461650001247,-1.049099704137856,-1.4432839076341164,2.752788904872465,-1.3346299835642839,-0.5863468761110607,-0.8763281994015876,1.6296236456003368,-1.0568094261797083,0.6779590493489317,-2.0535705326566243,1.4168485081119728,-0.6893024570004483,0.2542104687173359,-0.44949910356963996,-1.274014033036428,-1.2515195336392808,-0.7744812069335613,0.244564196236848,-1.186707551847317,0.7475842641840826,0.32677790893807157,-0.5318928426077392,-1.4447045810232717,2.2337691467264293,-2.330024997215029,-1.3990567913626768,-0.17596569551622154,-3.2512811782457502,0.48040420155016006,-0.5808429979593422,0.3696016309601859,-0.3823695337143921,-2.68615617834115,0.9347077303660649,-0.3788864662092914,-2.109434018377799,0.45694825507613646,-0.3017399325034927,-0.8465490355003091,-0.31680037476542733,-0.3650441564638345,3.557848784154826,-1.5678188212315665,1.5797476541996283,-0.8938152530194843,4.119933531654861,0.6712053487598977,-2.3456718129298983,-0.2816894323843596,-0.524348762818768,2.7036972313198113,0.5439482137741652,2.7010790340842505,-1.3606637745324988,-0.6823725827054536,-2.676064895845448,2.535831498474636,0.34315385996551523,1.8226797813295619,3.8170416546086416,-0.690722113817771,-0.734322848159284,0.7170685020792521,-1.1281726799477774,1.7650916890154629,-0.08404746590426314,-2.354253118411972,2.1123416142707216,1.6976282816143673,-0.05072519204623292,4.418028231578655,-1.0767923052788084,2.083048622094651,1.0664742846293147,0.20167380727826917,-1.1999187524122548,-0.12240482941883629,1.4969489520296113,0.37263879672325567,1.591721037386232,-1.5148726418762126,-1.0304127615616856,0.40101537474173427,-2.6576360389935942,1.6369772239573486,-0.4187699627389899,1.5169451123237896,3.1973351175447986,2.3783097832419573,-1.661741792671525,0.45738679815014105,0.8254891449169985,-2.075990796487251,0.25053587929316956,-0.7889566251536595,-0.038060076023806594,-0.6617152349956438,-0.14198787749931271,-3.329108492388231,-2.109355715540689,-0.8866576142516851,1.1684367105899993,0.733961436637352,2.9921023243800824,-0.29073052341545386,-1.8428928378899498,2.2043343241764926,-1.4083665301183537,0.06480649643605832,-0.27308923171008287,2.989450617741778,-0.4301830305053319,-0.05613438383901592,1.5560342723310483,-3.5619735465316364,0.6908039971431694,-1.1869538233641708,-0.9621965630672253,-0.8225602834435399,0.2460187218151933,3.2548883476224826,1.4099284934790566,-1.0693421489228458,-1.2488893623527382,2.5064887077175735,-0.4226018245177151,1.004882912638077,0.3311825491953258,0.3275820818550006,-1.0671896299483767,0.064071439670248,2.2649386345142677,0.6944542679687811,-1.887312432757568,1.8061287667773325,1.449438805721062,-0.8925315544444989,-1.9583509355526985,-1.5475319109589303,-0.1189657576296943,-3.314228336614165,-0.2374022735375113,-2.577476683477306,1.230570461858684,-2.890354239788491,0.6787274557982301,0.224126401565237,-0.9806365939181168,2.9870840893701387,-3.87504071834455,3.1161629265950324,2.1579359051632947,-0.7436773515675285,0.7611292432194455,-0.8340906574801299,1.4778595398254373,2.1376823363454918,0.0077628957284429645,0.9757819893405097,0.9294914324963455,0.9636105000597287,2.4860377063511567,0.09802057193796959,3.0360035321761005,-2.9937148774213114,1.536264188282174,-0.6381122465497033,1.408235987121783,0.28121346480794307,1.2416437807974872,1.9305575775370303,1.230513983291433,-1.7572938721606077,-2.3954653780806203,-1.9656003042755141,1.2893140661902904,1.3839798047565177,2.3593710562695804,-0.4506134108897039,-1.0750061259168084,0.3262361825177087,-1.0726040706372433,-0.4895360191284931,-0.8095972121218202,-1.4643315540403834,0.773853474213094,0.3743946622634184,1.1230318065191882,0.7196463183214468,0.9709866687800974,-1.6870067733093306,-0.13667896383441575,0.7194316858251504,1.3165843115937137,1.1454184383667845,1.3809517790394188,-2.808152744242908,0.19794732556725064,-0.8286474091148116,0.011143785479194701,0.4587721478909349,0.31385839783082065,2.3058669607877578,1.2453180100983317,-1.8428305892366066,0.5591211023107334,-0.2502991927814967,-1.4033881339078917,-1.839657816342294,0.32502447900964676,0.10239402514600748,1.06812447521427,1.4131188103810062,2.618032273283542,2.812710579934708,-2.906999836939184,0.02288369520928374,-1.6546483420265752,0.4584993399725867,-0.3420917221816726,-0.5036242032812772,-2.0927733449518104,2.1881651247248226,-1.6625068349366081,-0.06035672071544168,1.087382020766682,1.035813307832256,0.20937624197671606,-1.957908200138248,1.43159172987549,-3.3260324161393267,-0.9295054773255087,1.1663945943390017,-1.444109935177115,-0.6989218186346194,-1.2310585313546463,-0.7298636017834581,-1.3464991298663178,3.8537769886975255,1.1701527037611463,3.3576139959894493,-1.0717918501224675,0.6970429372337393,-2.6424287775908724,0.22392955233761075,2.260710803961419,0.7141456916611205,-0.9594707867115964,3.3753299680638538,0.8116689783718346,0.3970585276792621,2.896191265641613,-0.9534121474770344,0.1245887112050294,0.6216088853996469,-1.4429879005751602,0.17470487315606636,-1.2706513803799124,2.275601036309397,-1.7751139687980138,1.4043450606264856,0.34360534692788613,0.8020557872331995,-0.6854266701740253,-1.470446121392869,-4.052508946940908,-3.802169174286827,-1.8154614930207584,-0.8019409188683317,-0.3822247712511389,-0.4231171129904834,-0.03528989586822098,0.29424241301635135,-0.12746808276990063,-0.5295450035215836,-0.34967676682263477,-1.1704667832359748,0.6401833598070552,-0.03296039208659923,-1.3999579994741882,-1.7723179252056702,-1.028520188029885,-3.932639660549832,-1.684250767919194,-0.030070835122469997,-0.40666689178597276,0.9107859675207861,-1.6947097495595904,2.981004349707172,1.562123171425057,-2.229655883800291,0.4453249417094,-2.493140801144704,-4.488655045425589,0.4109458042734787,-1.3227165268906345,0.4909798917605311,-2.4370448146950676,1.5810022065606426,0.08314583974498888,-0.8388192602072586,-0.9966164610397261,-0.458784603756172,-0.9658909371753392,-1.7639237477240874,1.2387603272766832,1.4469824309368493,-0.7368731916456078,2.479835958703715,-1.145013761827041,-1.7089653860504435,1.982600889822455,-0.651927574801141,-2.2638776736372384,-0.9903774963870148,-0.8502907175786978,-0.577753725719077,2.0312406207985036,1.0965609048442757,1.3759289933474674,-2.859539153613483,0.10551207264304241,-0.1773587908383925,0.7675765098054557,-2.5237475941743517,1.690328198987657,0.03175662072976504,0.19646008917118923,-0.032408806306296785,2.7089693803987425,-4.81834297112281,0.5547175005852786,1.2239761776492202,0.2512908835037917,-1.8860985813744964,0.54005366858668,-2.9995233587300367,1.9388394623345357,1.4853771697935918,-2.9372913958335256,-0.6526853998087413,-2.848304782693782,-1.712831963999139,0.0039981836981135555,-1.964233198180692,-0.290100108877731,-1.9492070367172807,2.6992556383525135,0.1175633768523861,1.4874890568178631,-0.14715121184142108,-2.759442830356248,-1.2707752589963346,0.4026896770126431,-1.3504954211045228,0.8877245592091472,2.6181176895219793,0.630191768646716,-2.5309595226169854,0.010061094393707753,-0.649243993999551,-0.050759415508756,1.5319533627730124,-0.7079212277967247,-1.8058387840364931,2.389170341109172,-0.5610045767121254,-0.7015678042300777,-1.2016979403445776,-2.4737325283284974,1.0044494592794186,-0.24673582534300048,-1.4277570708550968,-0.005847424744191726,0.29694645208159864,-0.3351547493446128,3.056604412275905,3.2888847523143108,2.985201282659989,1.9263191244141926,1.2795696823829057,-4.074031155419626,-1.4404854856729958,-0.4233297847141673,-0.3514720901148633,-1.50669790556577,-2.8239331639308,-0.8570112269552754,-1.296230978248516,-1.5721095045092863,-2.804266344842615,1.666087194489494,1.2294545290887942,-0.7446125286609625] 7.762052320626931
