[  1.14878395   6.56395191  -3.00620432   3.52315892  -0.59556349
   4.00614276   0.28240009   0.73281939   0.59998182   4.55450583
  -3.2934215    0.19750593  -2.60296943   0.78768025  -2.16312201
   4.07392899   0.56375172  -5.70051684  -2.32849292  -1.48427028
  -0.38698693   1.96288255   6.98105704  -4.14345744   0.8065106
  -0.35935188  -0.98729524   6.88702767   3.35113302  -6.47241852
  -6.54738935  -1.25547811  -0.12617159  -6.09743132   2.02878139
   8.5748594   -1.84703628   0.09687656  -2.79626182  -4.49341805
   3.21307028   2.25185421  -8.6619854    0.25781001  -5.71512971
  -2.36330485   2.66947283  -3.32482698  -1.68576774   7.78420864
  -2.17118948  -1.18546584   4.75880633  -2.65452147   2.59799099
   4.24156132  -1.21546012   1.62267284  -0.92830192   3.72689004
   0.2124291   -0.2202486    0.8907673   -4.50856529   2.1015805
  -2.25369514  -3.02391664   2.47905766  -4.89187933   2.03667112
  -1.54699949  -3.68893542   9.58421662  -1.95273804   2.08958998
  -6.35894212  -2.23641859   5.99551872  -2.23942643   0.11502152
 -10.33226297   5.98167554  -2.46911827  -6.26158389  -1.77761759
   2.60967317   1.10689697   1.8561414   -3.28639806   2.39520374
   2.13566134   0.0478687    2.50177032   7.21903931  -0.62619368
  -0.43737421  -4.87367956   3.0984138   -4.95129843   1.9578028
  -5.3994861   -0.15988334   5.57630576   4.74020863  -5.99428327
   3.79407416  -5.24145095  -1.30890239   1.321511    -0.52692389
  -0.24141366   1.8193079   -1.07010336   0.3988338   -2.66259092
   2.04767269   0.76296331   1.21962831   0.20690488   1.72850873
  -4.98672261  -6.93073311  -0.72838012  -1.26798131   2.0248126
  -1.04752353   3.49636605   5.72790929   0.59141918]
