w = [3.7852677568524618,5.593120533786629,-3.7822495675172565,8.701111875725749,-2.631180327506103,-3.2468659750968647,-1.2264274314988688,2.426426543618822,-1.9383754932663817,1.5104057183269348,3.1407748349376514,-0.47171296009306196,-3.4008463027287084,1.9210738358245871,-1.2488111474502404,-2.761420533187918,-0.9160534693104386,4.912706464288936,2.324753489918315,-2.2419437900996066,-7.72390356621859,-3.0395542556387025,7.40985008794167,-6.6663941788672485,11.72086560789883,-2.3750411136399405,-7.767533262662356,-3.0940555123111553,5.459904976533859,4.350917945958678,-3.4149143213229243,-5.881894729546774,3.464131766877839,-2.4197608276346942,-4.580321522717122,2.972978473665342,-1.5933514082334566,-2.7609702913575034,-2.865328491518778,3.850025676019391,-6.2910955181889,1.883081389003995,-6.359824312108269,1.5888630599260793,-1.656730614265485,-6.9140548003587305,-1.1745659835657556,6.540514264190753,-1.0113618862847389,-2.9903699092605556,-1.1358691075101055,3.246657127088377,0.3063785110139339,-5.249294080595864,-4.864327656180482,-4.040649512149666,0.9199665014546883,0.36642539614985503,-1.7504135628570099,-6.604076704826096,-2.6441206545620664,1.0367063951758915,-0.055016023021688475,-7.031902908071898,-2.9296136035666067,-0.33218352356126524,-1.9469201066652875,-5.51651455173738,1.0992500025868832,-1.8766548524651219,0.1270351698643864,1.9516363445495541,3.000728029919672,4.061249947569841,0.8771668749690867,0.46563483767154595,5.207025866972964,-0.5051404074487691,1.739882000315606,-2.969404409668775,-2.509331488671517,3.514219335399578,0.10863512233687762,-7.6180241621162335,-2.7769612061306326,6.7910137401264095,1.8367242974295364,-4.594049854032656,-9.0120301700544,-3.4496351171222472,0.5237970920853825,2.3886338948676737,1.0623158434941147,2.2102814009013256,-0.22685359591393728,-3.424460925028989,-3.337884518825892,3.363994527866162,-0.723872546332037,1.2279706716290806,-6.116103880149458,-0.17831346314238417,-0.5636365290182656,3.412701839303918,-3.256994709519451,-3.7627881248396626,-0.6632754927731828,-8.307769702983066,3.0076260133414787,2.246334603244869,-5.458252273244977,6.663466157252637,-1.5296902861062467,4.525697134069484,-2.040423807292918,7.226513884642651,-0.7731084354002387,4.576194481254409,1.1702300820633011,-0.12234608386647167,1.3696322354460502,-6.338375971018429,-3.8345869640172436,2.7286161800750217,0.701535766481544,3.497723002270957,-2.5725437365440236,1.428068904720722,-2.8646331570330816,7.854216280264713,3.9146374195635683,-0.08677703026532305,-0.8960071414620835,4.806485631325072,-8.877001738054057,-2.558427278596418,0.19537236961895266,-0.9675887207285588,7.315879169706215,4.160469363252087,-3.891447789839836,3.350804454547301,-0.8011494821575561,-4.052006044540096,1.5985145123920066,0.5189994087227,-0.9588947850033052,-0.797712523186729,-3.308019267898272,-1.4759134194994439,1.8621434933136403,-0.07491463663317866,-2.1008297151730604,-1.7824903754165617,-2.676326093866726,-4.056933913485411,5.08283492990943,0.2522888598854409,3.847859211520901,-7.082335602469971,4.049802213673528,5.460660496486626,1.5761161428434152,-7.6473633310576234,-3.954768114611248,9.508753677280547,1.3776418985153889,-6.674594331157459,2.240066223788867,3.8593530827016624,-6.1751823899445215,-5.064701591011867,-5.705264406928078,-0.12079986137583976,-1.1975459785856475,-2.3923043018189816,-3.030967607810455,-0.5009849946332879,-2.2136353024921593,-0.5707089007427839,-0.7573677441909881,2.013082464646547,3.3945728415843135,-7.054565326631149,1.320050104006725,-1.7804192817562552,1.04750731390491,-1.9428453563913344,2.482675958878409,1.5387944315451365,-3.742078209499241,-1.7188067508739704,6.449685630483729,-1.707711017078715,-4.003135055582043,4.091139971285992,1.4686443194358212,2.2637788213884726,-1.3220720472860084,-8.218799472364799,5.145535094693869,-0.2311832347273768,2.9654151282957497,-1.9117131162006036,-0.09386633592701332,-4.875131545745868,-2.955021176371398,-2.1787917621441473,0.5069613206849397,1.1476741542129254,0.8211993420104384,-1.3036754985908368,2.788052926663876,3.475738405984384,0.25380267202738155,0.7105818869412953,2.9277018438474864,-2.1972760770343527,7.681335692216431,-5.033924434361886,-9.027847978196128,-4.044028398060132,0.46721308399498385,7.466921802077224,-4.330886350782193,0.4075237130147218,-4.7950103664835995,0.005431739376745071,1.5140568777907033,-0.553146814703836,-5.241821118751305,5.250969740947424,3.988394455260832,-2.9274298228613893,-1.4778514004622687,-4.316663525065069,-0.049011708528996806,1.5123785646757937,-0.03064353252710572,5.587273031392469,-4.448613718925327,6.270128055242811,3.8889569488844082,-8.451654909996698,-2.445361770975978,-6.037525755583855,7.418044719480904,5.288569033976519,-0.8853970869672602,-2.67550671110848,0.9321554524062394,-2.9676412059675155,1.078402603912576,-1.3261144394551485,-0.7850663979172705,5.967115658838984,4.02695177622125,1.3030220358981892,-0.8799541309428827,0.7674490051012929,2.611229844937042,-0.7766869649374134,2.884990741486721,4.38300196612871,5.295063069995327,1.9238161628979453,-7.201955844060164,1.1136409692240288,4.013669774787872,5.189584366971662,2.4146457757754414,-5.244417373916049,-3.6642560666111983,-3.8015030637933998,0.7915362024556079,2.1745080310449856,-4.221128058358994,-5.147121876030302,-8.332620792031642,3.888160781850841,1.497834586497579,2.3894931240962394,-6.7702890878174715,1.222731005955258,0.6884436642901408,-0.07044091657765572,-3.8682648918873888,3.7510953063377035,0.7440069635964301,4.173285342761683,-2.310019373690044,-1.5908740902648082,-7.263917643906614,-2.1354381185884335,0.8948242436070634,-1.0512725753845091,-7.407460073554797,4.822174264923047,3.070562082912479,-4.9017653718121705,1.01897371911094,-0.6713457681313836,1.433444817281537,-2.957210754090361,4.68354951678685,-3.603606628795124,1.9807981252303906,-11.56992954864094,5.201928291397348,0.6150490276326573,4.612958505399903,3.273305383016925,1.9479296554172336,7.116007091662271,3.945815113597822,2.718974320894623,2.2719982101859215,2.995950289782922,3.0299864172250985,0.0275835935181237,3.271147538940051,-4.048542456072071,-7.372814642650424,-6.959059795017254,2.109397706569256,0.4405270778776399,-2.446780783919363,5.719324557333688,-1.268293707292238,0.5698493179889801,-4.730667342427578,-2.737603447711199,-1.422764979185625,5.399659664752854,5.077320065772259,3.3686843751933084,-5.213117186301465,3.620821918349576,0.3243315926126501,-0.08368650755164825,4.155445986846712,-0.2691307055542844,-6.108378046824104,-5.643963175463032,5.107100915072622,1.8466281564487592,-8.927422757298459,-5.900023455654892,5.504398367049747,-0.5772276408406442,4.1315562844283065,-4.3301146998226265,0.8875389080029937,-1.552367532999933,-5.2371906927582055,-1.2154952347660104,-2.7686934631023985,-1.3619111446285528,-2.571496749449511,8.126651288454502,0.403313489574306,-6.334934217425493,9.379276391149496,-3.044298760183541,-6.073781474108164,7.141002227741091,1.6324787639057854,-2.8878381891193943,-0.2500147734980984,2.2468216195390047,5.0889262826768675,2.310983556616202,5.620097181135098,5.12711056985626,3.829487492332994,-1.7853797058132284,-2.2058008582755892,-0.5759828913116026,-0.3586247090222731,0.5019712515321031,-5.237900699939782,-4.063736439968055,-12.344737757365625,-5.716726476857322,0.5943080689463281,-1.708214924925426,-4.997677760357796,-0.9775612918479554,1.545463670801961,1.0840298488767321,2.9308216428369254,4.127200435768707,-1.7459480943297332,-6.303975229782024,8.002483948880476,-4.810358400062961,2.2163198252716083,-3.0143660245852004,2.4931574260589584,-1.480131184179816,-0.5115382203928501,3.871496973660061,7.923637980272692,1.4196195691784075,0.3277277726706313,2.0788533563475515,5.878258266809769,-7.8894908227391705,-2.67942476967684,-6.948901979341402,-2.542167046483825,1.5433875641632562,0.472844035312286,0.21542264563522556,6.668254656479605] -690.0173737702956
w = [3.5792443033294687,1.5684224281968393,1.2485134546062993,2.069933558626638,1.3075311542202912,-0.336416733031019,1.9509328010188582,0.12595563769773155,-0.07428009887328937,-0.6848145861408326,1.2035147153486019,2.268429464923278,-0.3391114759106697,-0.38749970881070855,1.6672620437596732,1.774853333394506,0.7989320504166437,0.08664617694620386,-1.2954511880130755,-0.13498437377160588,-2.4522062025129725,3.1221395936755365,2.1193205423939445,-0.9212021099481797,3.1199420350482017,-2.617523708236698,-0.11199938280548394,0.5538844488882044,4.087786116340459,1.7959142160720627,1.3622222188332773,0.5225187964285043,-0.4626245188680361,-2.6991140843680657,-0.3326986597008653,-2.5271757916920548,-1.2283863321722615,1.528116668236468,-1.0530430769536587,0.5667217333832288,0.27501461650001247,-1.049099704137856,-1.4432839076341164,2.752788904872465,-1.3346299835642839,-0.5863468761110607,-0.8763281994015876,1.6296236456003368,-1.0568094261797083,0.6779590493489317,-2.0535705326566243,1.4168485081119728,-0.6893024570004483,0.2542104687173359,-0.44949910356963996,-1.274014033036428,-1.2515195336392808,-0.7744812069335613,0.244564196236848,-1.186707551847317,0.7475842641840826,0.32677790893807157,-0.5318928426077392,-1.4447045810232717,2.2337691467264293,-2.330024997215029,-1.3990567913626768,-0.17596569551622154,-3.2512811782457502,0.48040420155016006,-0.5808429979593422,0.3696016309601859,-0.3823695337143921,-2.68615617834115,0.9347077303660649,-0.3788864662092914,-2.109434018377799,0.45694825507613646,-0.3017399325034927,-0.8465490355003091,-0.31680037476542733,-0.3650441564638345,3.557848784154826,-1.5678188212315665,1.5797476541996283,-0.8938152530194843,4.119933531654861,0.6712053487598977,-2.3456718129298983,-0.2816894323843596,-0.524348762818768,2.7036972313198113,0.5439482137741652,2.7010790340842505,-1.3606637745324988,-0.6823725827054536,-2.676064895845448,2.535831498474636,0.34315385996551523,1.8226797813295619,3.8170416546086416,-0.690722113817771,-0.734322848159284,0.7170685020792521,-1.1281726799477774,1.7650916890154629,-0.08404746590426314,-2.354253118411972,2.1123416142707216,1.6976282816143673,-0.05072519204623292,4.418028231578655,-1.0767923052788084,2.083048622094651,1.0664742846293147,0.20167380727826917,-1.1999187524122548,-0.12240482941883629,1.4969489520296113,0.37263879672325567,1.591721037386232,-1.5148726418762126,-1.0304127615616856,0.40101537474173427,-2.6576360389935942,1.6369772239573486,-0.4187699627389899,1.5169451123237896,3.1973351175447986,2.3783097832419573,-1.661741792671525,0.45738679815014105,0.8254891449169985,-2.075990796487251,0.25053587929316956,-0.7889566251536595,-0.038060076023806594,-0.6617152349956438,-0.14198787749931271,-3.329108492388231,-2.109355715540689,-0.8866576142516851,1.1684367105899993,0.733961436637352,2.9921023243800824,-0.29073052341545386,-1.8428928378899498,2.2043343241764926,-1.4083665301183537,0.06480649643605832,-0.27308923171008287,2.989450617741778,-0.4301830305053319,-0.05613438383901592,1.5560342723310483,-3.5619735465316364,0.6908039971431694,-1.1869538233641708,-0.9621965630672253,-0.8225602834435399,0.2460187218151933,3.2548883476224826,1.4099284934790566,-1.0693421489228458,-1.2488893623527382,2.5064887077175735,-0.4226018245177151,1.004882912638077,0.3311825491953258,0.3275820818550006,-1.0671896299483767,0.064071439670248,2.2649386345142677,0.6944542679687811,-1.887312432757568,1.8061287667773325,1.449438805721062,-0.8925315544444989,-1.9583509355526985,-1.5475319109589303,-0.1189657576296943,-3.314228336614165,-0.2374022735375113,-2.577476683477306,1.230570461858684,-2.890354239788491,0.6787274557982301,0.224126401565237,-0.9806365939181168,2.9870840893701387,-3.87504071834455,3.1161629265950324,2.1579359051632947,-0.7436773515675285,0.7611292432194455,-0.8340906574801299,1.4778595398254373,2.1376823363454918,0.0077628957284429645,0.9757819893405097,0.9294914324963455,0.9636105000597287,2.4860377063511567,0.09802057193796959,3.0360035321761005,-2.9937148774213114,1.536264188282174,-0.6381122465497033,1.408235987121783,0.28121346480794307,1.2416437807974872,1.9305575775370303,1.230513983291433,-1.7572938721606077,-2.3954653780806203,-1.9656003042755141,1.2893140661902904,1.3839798047565177,2.3593710562695804,-0.4506134108897039,-1.0750061259168084,0.3262361825177087,-1.0726040706372433,-0.4895360191284931,-0.8095972121218202,-1.4643315540403834,0.773853474213094,0.3743946622634184,1.1230318065191882,0.7196463183214468,0.9709866687800974,-1.6870067733093306,-0.13667896383441575,0.7194316858251504,1.3165843115937137,1.1454184383667845,1.3809517790394188,-2.808152744242908,0.19794732556725064,-0.8286474091148116,0.011143785479194701,0.4587721478909349,0.31385839783082065,2.3058669607877578,1.2453180100983317,-1.8428305892366066,0.5591211023107334,-0.2502991927814967,-1.4033881339078917,-1.839657816342294,0.32502447900964676,0.10239402514600748,1.06812447521427,1.4131188103810062,2.618032273283542,2.812710579934708,-2.906999836939184,0.02288369520928374,-1.6546483420265752,0.4584993399725867,-0.3420917221816726,-0.5036242032812772,-2.0927733449518104,2.1881651247248226,-1.6625068349366081,-0.06035672071544168,1.087382020766682,1.035813307832256,0.20937624197671606,-1.957908200138248,1.43159172987549,-3.3260324161393267,-0.9295054773255087,1.1663945943390017,-1.444109935177115,-0.6989218186346194,-1.2310585313546463,-0.7298636017834581,-1.3464991298663178,3.8537769886975255,1.1701527037611463,3.3576139959894493,-1.0717918501224675,0.6970429372337393,-2.6424287775908724,0.22392955233761075,2.260710803961419,0.7141456916611205,-0.9594707867115964,3.3753299680638538,0.8116689783718346,0.3970585276792621,2.896191265641613,-0.9534121474770344,0.1245887112050294,0.6216088853996469,-1.4429879005751602,0.17470487315606636,-1.2706513803799124,2.275601036309397,-1.7751139687980138,1.4043450606264856,0.34360534692788613,0.8020557872331995,-0.6854266701740253,-1.470446121392869,-4.052508946940908,-3.802169174286827,-1.8154614930207584,-0.8019409188683317,-0.3822247712511389,-0.4231171129904834,-0.03528989586822098,0.29424241301635135,-0.12746808276990063,-0.5295450035215836,-0.34967676682263477,-1.1704667832359748,0.6401833598070552,-0.03296039208659923,-1.3999579994741882,-1.7723179252056702,-1.028520188029885,-3.932639660549832,-1.684250767919194,-0.030070835122469997,-0.40666689178597276,0.9107859675207861,-1.6947097495595904,2.981004349707172,1.562123171425057,-2.229655883800291,0.4453249417094,-2.493140801144704,-4.488655045425589,0.4109458042734787,-1.3227165268906345,0.4909798917605311,-2.4370448146950676,1.5810022065606426,0.08314583974498888,-0.8388192602072586,-0.9966164610397261,-0.458784603756172,-0.9658909371753392,-1.7639237477240874,1.2387603272766832,1.4469824309368493,-0.7368731916456078,2.479835958703715,-1.145013761827041,-1.7089653860504435,1.982600889822455,-0.651927574801141,-2.2638776736372384,-0.9903774963870148,-0.8502907175786978,-0.577753725719077,2.0312406207985036,1.0965609048442757,1.3759289933474674,-2.859539153613483,0.10551207264304241,-0.1773587908383925,0.7675765098054557,-2.5237475941743517,1.690328198987657,0.03175662072976504,0.19646008917118923,-0.032408806306296785,2.7089693803987425,-4.81834297112281,0.5547175005852786,1.2239761776492202,0.2512908835037917,-1.8860985813744964,0.54005366858668,-2.9995233587300367,1.9388394623345357,1.4853771697935918,-2.9372913958335256,-0.6526853998087413,-2.848304782693782,-1.712831963999139,0.0039981836981135555,-1.964233198180692,-0.290100108877731,-1.9492070367172807,2.6992556383525135,0.1175633768523861,1.4874890568178631,-0.14715121184142108,-2.759442830356248,-1.2707752589963346,0.4026896770126431,-1.3504954211045228,0.8877245592091472,2.6181176895219793,0.630191768646716,-2.5309595226169854,0.010061094393707753,-0.649243993999551,-0.050759415508756,1.5319533627730124,-0.7079212277967247,-1.8058387840364931,2.389170341109172,-0.5610045767121254,-0.7015678042300777,-1.2016979403445776,-2.4737325283284974,1.0044494592794186,-0.24673582534300048,-1.4277570708550968,-0.005847424744191726,0.29694645208159864,-0.3351547493446128,3.056604412275905,3.2888847523143108,2.985201282659989,1.9263191244141926,1.2795696823829057,-4.074031155419626,-1.4404854856729958,-0.4233297847141673,-0.3514720901148633,-1.50669790556577,-2.8239331639308,-0.8570112269552754,-1.296230978248516,-1.5721095045092863,-2.804266344842615,1.666087194489494,1.2294545290887942,-0.7446125286609625] 7.762052320626931
w = [3.5714633354861443,-10.401181144278455,12.387654762583436,17.693144265777423,7.210369554091761,2.5130798349732797,6.079648219460837,-7.2032966369047875,-14.275972128772153,10.305837326382235,4.471746588180852,-17.04190373918145,-3.636958152407131,-5.27941189836964,0.8207894117479521,-8.886007572620604,9.410614866448494,3.699268375463022,1.6207999602496368,13.347676987336955,-0.19997369008592183,1.0905672019119697,8.550711098596972,3.669869942861767,-1.786500328879763,12.702213968620335,7.450737925555969,6.8928921205985505,-7.741587455865087,0.4068690690296586,-10.94753243295101,-0.49112159313625525,8.143579755346208,5.150926209618401,-1.0499516393350903,-10.605038727406269,-11.578589307022092,-5.294723870410835,-8.698745179758298,-15.284130292380206,4.885861295288969,6.21617766121094,-11.064879056856006,2.404774416512852,-9.865316721175647,-3.5113080657257973,-0.9653345904917222,3.1187191898951214,-5.8426821458617395,-10.3995985493476,6.52358948562607,-1.3838318176320779,-4.681196599226774,-17.83116262706273,-4.734037608903961,-1.8274606530910478,16.185715061449667,0.9835980731780325,-1.1701505551356008,5.543555966015477,-12.744761234547283,9.931358953506399,-2.8109399663546895,4.240745285545282,2.0205215574195905,5.984935806168476,-5.40850347098635,9.87460914178894,-4.289560487438075,-10.554933482221458,-9.051742245490011,4.722888904145622,1.287814362238283,5.990436114853908,5.33307450292763,8.168695557624904,-7.384744938241597,1.8398727814913298,-4.496335506972356,-2.1917261401934676,6.390764893182234,7.241598729030545,-14.170252903132027,-2.13281853325487,5.778156642139189,-4.280399063485968,-0.22680003631108758,4.388132597019211,-12.453041302331272,0.5267071222636454,-2.840795675988021,-6.103410857153496,-0.7393601018776361,-13.17543694771281,5.356638095746226,6.342716941329847,-9.991147479350692,-6.254443248711215,1.568583940756576,4.126495991486508,0.4347833901074709,-1.188517024283992,2.911835991731802,-0.9848669537439124,6.661834858858854,-14.864299205114138,3.1714873007324456,-6.357184241717035,0.6214878357501108,1.6907573317330535,-0.14497230007093662,4.3144248457288334,10.761777491952776,8.972805249068765,-2.8838763329497623,10.776512016572223,3.2170307108026153,4.609809082224279,2.948218459038533,-0.00024727162822649196,-8.067499766976457,0.3510873593122563,2.029229904404258,-8.052220115194395,-13.427773899247391,-4.602681799024317,6.382903802520002,-3.3905267831272403,1.0666536973713618,10.573989302515827,-3.8598553619797547,3.362407150590879,0.5565502069140669,-2.2043777243990195,-14.776189488666091,-1.4818245080865633,0.6308314992330222,8.10773710629989,-7.527106521976664,15.212821812802341,14.198295585160272,-5.070793044751589,-8.499580390624956,5.9783406282004155,5.163890886522312,-10.527603635597956,10.520194812394289,-3.795198998557018,7.140631694207966,-0.7337664359757601,-6.03904462732207,14.830238797375017,-2.047374561161897,-0.9164877757678689,-14.018134937015077,-4.039666658739079,-4.69898681812916,18.139094361288972,2.4608608788541195,6.617405820209469,-2.8898042086389406,-11.694144330710378,-7.109543487987579,-10.450716489458024,2.5193540801771275,10.840678438579856,-11.120297138967354,-2.6643705638536384,0.0728999604536171,3.6633347793355924,4.302757380113472,6.957384169035931,10.710918129604051,5.560838905874378,-0.28895655301962936,1.5163639450064954,15.988274764722567,-8.043252676070857,6.782288571725022,0.3480662595525108,-14.00485885634737,-5.489576669997261,6.384974669696329,-3.0570357589376154,8.702587691040353,-10.063601352406955,-0.313452672038241,-2.1976255627484638,6.902321274514176,14.071219375075431,10.225355583951591,7.180456864202879,-11.198124287693355,8.32561395035924,-1.079108973193626,11.598136813464718,-5.374239273537559,-2.6472462310474474,6.360058447110497,-1.5565363907647751,4.8776566821874905,-3.673089371377275,-10.479277843143654,10.510980573120781,0.8470507174244333,-0.12104255908381248,-1.0459875431203716,2.0429731399427804,-1.1621055876417914,-8.29312248559917,0.4218392603317219,-1.4412779334711938,-10.94616914292957,-14.501706111426513,-2.2863889668837647,-6.539707481922454,-3.0347776242506166,6.159570655152439,7.965031187930673,10.124549949828214,12.22491243287073,-4.005827945651389,5.45069146896348,4.2998585590771015,-0.4325597829894917,2.5842054806246093,-1.7767332320530627,4.033427666431285,6.933450036579273,6.950445713178517,0.382271884876263,1.563083906099838,-0.30097090324567166,-10.28201696068904,-4.8157487946339055,-1.185801510079453,3.0535818603204996,2.8863119370329318,11.376491478051129,2.429314635105421,-7.156135501620121,7.635675805203239,1.4204030698520507,-0.8123805094975776,12.553046402746798,-8.052995427170922,3.717475381511091,2.4543100270131157,7.433436243570558,-13.276070878228888,-7.347527794324016,-19.048843012997715,0.12459867608472142,-0.7217249007014759,-23.9218759006611,1.4065141622644013,-19.50466562530099,-11.089198498884288,-6.2026649727171295,11.228900312359212,-0.17180957386426798,-7.174151456911811,7.0570329658250435,5.750663060527517,-21.678717289977236,13.688829941160769,-1.6558171896012472,-8.491401931311108,-1.8067609529499855,10.035309469246753,-6.052589616074931,-12.223014403628557,-8.626122554229305,-2.452435264661528,-0.7756361446105698,7.798149143752176,0.08425928116003398,-8.604925407850294,-9.748027966362125,2.5896176211247144,19.434074333373673,-1.0368834744932856,-7.654830324278983,-1.2878302088004234,-3.303197631134792,3.294840331241935,4.306612466831806,-7.383522578333915,-3.223680542518779,11.44409816271913,-15.777741505080991,-0.1998592672313137,8.037212891898783,-10.507828317401717,0.8161691572333873,2.98548207563623,2.2332871558220795,-6.8664843631894374,-4.109795852791394,-11.562222519726532,6.448656885614926,4.747600780034743,3.3958471272723854,-1.6329114289516675,5.540653203851112,8.612159648488518,0.1642455613244484,-0.8853304096343173,-8.223829105623294,-5.156613163738602,-5.802035228732375,2.2065527315624553,-6.133494536612457,2.871305185998295,0.30671351925930546,-1.223060661339521,1.218489029514994,-13.71075106465459,-3.8946701379436925,6.2711304207764265,2.9435485711041633,-2.553946956338174,-2.5203701576971813,-2.219996487440342,-2.7006914258835604,-19.21309270202884,3.62382228335008,7.677737022166804,-2.266158865910327,6.789101169581823,4.243611820554458,6.9710829066380855,0.2998765046776382,-5.145303819574632,1.599469162079325,5.719390306119585,-8.621892711639461,15.186128953014254,-1.4318406635891539,9.046560426894638,3.9643547281871148,6.858511394302119,4.2849113612348635,-2.0721952386730593,-1.3178468169106468,6.111498069331805,2.80868343480343,1.3184318117791118,-10.327074578062202,-4.388411167149011,4.420001438351008,3.7566702301143993,-14.428740262550063,10.226162663976377,-0.32041086017833853,12.162240836831119,-0.9484875348663035,-6.444541863729821,-6.788211147906332,9.342839039095844,-0.6322788942553907,3.4453070770098035,2.50236708178047,7.750845989003155,8.326360298333025,-6.598770578527991,5.940681978718515,0.6152849181635868,6.963031122308844,12.746313069082067,9.752344086812727,-12.131234940242013,1.5102707101518549,10.162937977348028,2.77472553352578,13.937132742997626,-6.690606791407357,4.277907920205844,8.286264407496517,-17.30084471287907,-9.278368333018031,9.093300477845132,8.700445100757715,6.406982280898394,-11.270012746797141,7.53658681965182,-5.602357090194705,-1.70981980590695,8.367231236511742,9.331943831643146,2.1349153841476194,-15.040294477386832,5.914353162264251,2.0070162867121786,1.8320523051616187,10.371299266513835,-10.629018300620812,-1.705759651447053,14.457838876628713,-0.1325313138465867,2.8863043907745194,5.032967632266816,-22.225327778055636,2.0926781076830125,-1.3659292143489057,10.232027314645459,0.20411430173628703,-0.5082870221202135,4.313778746191493,-2.213244261832861,-5.660307876276306,8.362032313062796,-7.951630624733164,-6.81519126805098,7.85671081182926] -696.6562573687775
w = [-0.06615331322353186,-5.947986579394739,-0.21124574779776364,7.214079155004359,6.030652027455511,-8.40731782414004,-6.594386702729373,-0.6436266112089127,0.9980673890745191,-2.816456934786742,8.331388468697341,4.626161609595248,8.607134720175202,3.513933133486161,0.5667159412199585,2.5777459919326335,2.5477662616082495,1.1006050608221611,-3.367874639442281,0.38471018454867734,-0.6171486170614466,4.149284959463606,1.5877772720081311,4.0236843250941225,1.6735759140694668,-5.374754446665959,-2.0760676018716406,-0.9789364404427566,4.028356692794503,8.395096009139548,7.193855117564234,2.8795493904067215,-2.023296816087761,-1.752478622279743,2.1830169159754074,2.6919457542040988,0.47606811328973425,-1.0986412343072933,5.682636765017811,-2.418883522629297,-2.3454320363051355,-4.491119541847692,-1.3591235149434957,1.2900394089899914,-8.654496952359441,4.337665944246143,-3.1539421919847386,13.751276462902208,-1.5631791559452841,8.443054891413215,-2.7110083689808113,3.4348784398995704,-3.5040154322235195,0.2601980750756018,2.9117221895823517,-9.431969724078659,3.0609070854025915,-4.485912597469294,5.821519689802127,1.8008781719169529,-0.45348714932920225,4.944249242635306,-6.9793529603183755,-12.958406418298692,6.362851291020339,-5.12795754587042,-5.538853258565092,3.8940842327760983,5.025211250142403,-2.396350716374145,4.452838769879601,7.687042239692842,3.3105274816782417,-3.7435065712629623,0.11431588675687691,-8.056706604640624,3.2135278861247603,2.745183524987078,1.942347167080174,-4.084081227434863,8.070736122546894,2.523240338863994,-4.645969462455031,0.52928952062592,9.419268481024586,-5.504142819271969,-0.19964765153237746,-3.6232794483776227,1.6904321221893428,3.449463376511471,-8.476981900787806,-2.087283345584566,3.721351452782959,-1.9010400483944918,-3.4158264877042894,-5.993988262518698,-4.372270907405797,2.689130327762399,4.865801392187357,-4.3020908897947265,-1.5087285789606097,0.8881825820727075,-11.055615125744687,-4.010948162263205,-1.1607878659299153,3.6218545800579114,7.515660058225687,-1.5595590475447527,1.143625205590706,7.820901345019232,2.0100465227635262,8.641692245155928,-6.368842405444257,1.546564628597055,1.959225917163996,2.8841561043200477,-2.766394898567252,1.5157807241879697,-4.7927811283456885,3.170813032429985,4.090131444989981,-6.362971456789634,3.7465329089188564,11.357280690693202,1.697059096345207,-3.0930157357903383,14.591079740559062,-4.210850812749746,8.23313489250757,-1.1610921315763734,0.6082706969306254,5.023953706386074,-8.120519637714258,-4.382840551256031,-8.321169096901734,5.811563434596536,-2.2892507558697464,-6.691221018224606,-0.5995914118575677] -612.4538181635098
w = [-6.4986990021798645,14.13579039345604,13.36085340677482,2.94846319372062,12.888078189982288,2.8551390324641948,9.9712235820384,-3.321915703295903,2.794967981517019,-8.47543917984757,2.7806538597278125,1.8639746406550786,-5.238403566648787,8.46613597635275,-7.058316690625663,4.3234024896648195,7.482306926679534,-8.719043124776677,-10.169175684673903,0.34113988233044884,4.450999604273225,6.94995982935708,4.878495726878422,2.6014776436311586,10.893670519849877,0.6653844041657622,-6.500031915792185,4.78921663942414,0.2539551614948252,-6.813502213774312,-2.271135214488583,-3.179564664747101,-1.435782556068562,6.178132624958768,-8.306615191834588,-7.629978374360256,0.8669746901751301,-8.71623026339203,0.7341726882874695,-0.5262731922756746,-2.084459450068418,0.5883754697622008,-1.802987650101186,0.5084230206367717,-2.6495837766451773,-5.28431577388015,-0.37445086058476673,11.170516102908378,1.3189152453012079,8.787200398388688,5.934560640936713,11.81441802351245,-6.842590172566725,-0.4836855041691617,2.1476205244015194,1.7854575287955665,-0.8086917722375377,6.339498553376336,0.5407188512036044,-15.070061761292715,-5.349885244354566,3.4860414338435266,2.789442076735694,1.5159799789153154,-3.8566039829120355,9.38790042543398,6.587823604354409,2.0123479733798852,5.79620305207807,-3.2371200885315923,-10.96609257506782,13.277280724028913,-6.0609939242214015,-1.0936057658350227,-5.020479185632905,2.5541063827713057,-6.563162047638464,4.307537947133848,6.444514493506457,-10.303465758118445,-3.8393205501221046,-8.987268607366639,-0.2963809722407027,-0.9707586233822066,-7.3709322110871485,-3.487009745649629,-12.103646082967371,3.816146798955367,10.336579261359116,-7.897434825211293,1.4156332246014356,-1.215023836460186,-7.893662943234422,-14.90119544227081,0.37553478271339635,4.56490157273734,-2.9727034986191496,11.28736767141889,-2.461509453281879,3.777040553256557,5.167518242145275,3.676700931673211,1.4061292214042072,13.516283792181424,-1.1022078429652526,-2.918108113357593,-5.216704493956778,-2.53619449550096,3.4701084059064273,-1.1572120358261884,-0.7497868194777432,9.03831793918597,1.280416267903724,3.1578694796097966,-2.8783146134244304,8.117167123861895,2.810034065333871,-0.7617338077067145,6.11015747868116,-1.5771396138626563,-6.839135426033012,2.2468320078427655,0.9139637683646598,4.709360538929671,-5.077890132859739,3.1916946406591933,4.119342705527156,1.6133198846224608,2.29324717677815,9.533282947717389,2.0822347174326135,1.546260275535742,1.7877548728301509,9.579898085479911,-4.43780322153284,9.654589400172814,-8.86801781115475,-5.173251606450581,-3.8466673731603325,4.54754322709346,-2.338532993254663,-12.098454418457782,-1.0796385218081035,-2.615927204546404,-6.4705750434828975,-0.5640428961482624,-17.518489453339424,4.247694259469153,-3.2038305457655074,-8.916959785981426,7.864811456074323,7.757234661311369,9.613380817134784,-4.734533179541087,-6.761545749170563,-0.04287230879701784,-6.587986793823767,-1.6606005653048406,-9.012282797924511,-0.6529651342085385,-8.061707671327309,-6.405821265509775,9.573081334257779,-6.0430790562534895,-12.822916807103313,5.35193814559529,-2.9845545828690394,-16.489647812051782,-2.348240548278577,1.3324743035917852,10.020494266434191,-3.341294564551712,4.725715165119233,0.7697804100494146,-0.3079388383094718,4.266206228826031,6.303063381606978,12.491322916057415,8.162249823795962,-12.556729919191936,2.3349541341771927,-3.783778526448752,-0.2980033833359289,-14.19820371262289,11.652634252641247,-0.5157862483986427,1.6563252306863703,3.0243772138826346,-4.188072420689856,-1.2541567574337407,9.20686841850266,4.7177387478694826,9.006116231974756,10.430816223135976,-2.7603386666319487,2.8455173808604686,5.512882754498401,-5.056335907878749,-2.852426220011917,-0.8219974030229007,-7.7281709702898835,0.5608955766522356,2.7007175430698696,0.3325462885665051,13.699179327643455,-9.921751413222234,-4.816090542220739,1.1299702007585601,-0.16893618512578124,6.430509180129127,-2.658268875646625,-7.888244921087231,6.349377639873856,5.098283688557465,-0.7924325183859702,9.318670766921194,-8.382363134721013,8.546772135087569,-0.44192564983824945,-4.05738585621005,9.001923354843742,-2.5641685360558726,0.8560175172905257,-0.9327807498777148,-9.644330072233487,-1.2271792582350485,-5.115752815616563,7.159383751922585,3.7777683190439917,2.5377753511115904,-5.683093458088295,2.9664215293575875,-6.439997059388217,6.665852053561356,-12.674179386620562,2.308840291667877,-3.557218951556434,0.8801762940886526,-3.0848678049531175,-3.406832217851939,-0.5217826031679289,-4.436613669135901,-8.657370320557794,10.310411250464334,-8.621821065255551,-9.446337141061628,4.51671361747993,7.104417151611241,2.4626109372090115,-3.845726477901256,1.384984766640486,3.275259325744318,6.314429496065827,-3.0781499172622717,2.1933442075351457,16.958994245384854,2.89905286042028,-3.879147016874115,1.1059628572200417,-6.222889207774138,0.7616751159284818,6.12786980806867,-12.007724525825141,4.413963621951583,-11.389787099387378,3.7440074599933078,-9.629805368576877,6.032450840411308,-9.893195730013021,3.8717693980400703,9.927689387269776,-2.5970726621945484,10.599797884107693,6.904050219792921,-9.902253238173442,5.018806441458606,5.138067851403102,-4.849377889673642,-9.332575923758139,5.315431039741329,3.0130691606791316,5.4826772598287805,3.806347103498257,2.3086979380005537,11.644309457635789,-8.801539571121099,-6.726101732006294,-7.259687268189967,3.9681530874954856,0.28195264574362044,4.3158962683461475,-6.993314054038573,8.549704239654591,-4.286502985204534,-10.78869749505885,-6.72662094747268,2.7971534539314966,2.1852628715382134,-2.476409400225266,-5.200706087611444,-5.18326794765012,-8.99523984503443,-10.437637686765571,-6.703788670095651,0.16741684098772583,10.713323870234783,6.310006956354854,18.321502915279986,-0.7951004893814495,-3.2515054057751622,0.6821280323807104,16.755239929210596,8.456524948646369,5.835019979433156,2.7059000898362733,2.2963673427227236,-0.5310258178072491,-7.491780553494312,0.060079975952936085,1.0228242924528292,-6.100848813468843,3.4852731121480724,4.709610733939968,7.737289100976203,1.3645864839095676,-7.606818439625485,6.997680153455106,12.029049158441836,-18.225626365923535,5.206916044742196,1.4573911826343497,-8.881728992232922,1.6799958387913723,5.793545826003083,-8.373733375997585,-11.587309818875005,-4.24762287460762,-1.0615895653867193,2.380408496063672,-3.8131230744869087,2.813237170663571,-8.319521411354316,11.082378868991785,-1.278039508634938,-14.746104313401755,-5.7547240244256574,4.518659563343238,-2.9839488732221087,3.6965250108617775,-6.819390655907689,-3.6477493898530517,-2.880384180373759,7.695020028629163,-16.1234058033267,-7.033811982752483,0.7137538716736784,-7.467984597987364,9.088630414545985,-3.832895848272582,-8.027769828994465,6.1888961175901045,0.2575979490118867,-1.553175437737658,-2.592723456392209,-1.7934622854236724,6.7298669149732,12.091593277600909,2.0565446212646994,0.729356268104877,-1.6519751402385023,-11.202483177514745,-8.50931891921259,5.357035863636224,-5.280281594763081,3.980540205441749,0.9471629480387634,4.537915023417864,-0.8158046870960891,6.094266334569623,-2.682353638145867,-3.3241935968208027,17.37549939356777,-7.05560300301017,-7.008497941711807,0.49316544883962116,-4.475777173405985,6.571571376788696,3.9718313567550374,2.5431604988203693,5.656729824077942,12.894437446241788,1.9192990119937225,-11.648261391011276,2.570280055713528,-14.400965667072464,-4.375896232315111,5.524152438411422,-1.9207135424252506,0.6621998837284252,2.3927690979301235,11.825099550964826,-8.460703552082112,17.356333675601427,-7.434483620561456,-12.319043972123355,-3.0056337207694566,-7.603105142770942,-0.24832974782565226,-5.884816113263525,-1.021807646349884,-10.678402706882064,-12.681392450032366,9.532855697461452,-7.971493395030342,4.065650046181768,-6.878910137604926,0.05599793144903737,-2.575089301090966,11.029394062888143,6.526512982443591,-2.2248898356118616,-5.254308217197937,-8.54798131819775,8.943379360420057,1.6442162342060676,1.4676957584412311,3.1405628441798945,-7.6950012208926175,-5.328322638350697,7.382890116307661,7.447771816575952,-6.27655613408389,3.871982594999095,1.8676516810270387,-0.5776516404777028] -589.0098544787111
w = [2.098942579154469,2.5082999800583208,1.7991755804422702,3.0724571139000365,2.806856213721633,-3.1135185319838876,2.3854574624649825,-1.3854551062547498,-0.025588886583952752,-1.5119906824383045,0.8303910357394915,0.5431488058609131,0.5974604467500296,-4.199427670850597,0.44966546308547434,0.030655765259270662,6.73620668514573,1.9363991255832735,0.10171490629219104,-0.20077577120315993,-3.602002789340974,0.2780836713005104,0.5060891741170188,0.8471088178135209,1.7817704375837438,-1.4344155232881977,0.8188717617654583,0.43222422462394616,3.0095447780037134,-1.3769822049181046,-3.1449656352003683,-1.2799134705643573,-1.8143235306385102,-2.2501466665653633,-1.948029629822831,0.8738128209156306,-0.2939359243894899,2.1869802518278143,1.915119099115563,-1.0169606961825095,0.9703179006976539,-0.9591762932914916,-3.0123101396752694,-0.015023653255578112,0.8028358263739929,-4.723359855388662,-2.768256383600479,0.3680816595411678,-1.9823091476096069,0.09188780203986135,-2.458220297190948,2.1655263011542805,1.3999691802782814,-2.43629197998263,0.3700230190851298,1.5374583860841875,-0.8804106918916647,-0.40702056619263627,0.9014113052029495,-0.12581380750152693,-2.2930088030675355,-1.7031716910591468,-1.9345898831169106,-4.507296721900274,4.937513076829795,-2.799580101997323,-0.7924024415421319,2.568121904198006,-4.234665578650175,-1.7234119253847158,3.9584156195009474,3.5954526524585084,3.080545165284305,-0.8526791464912381,-1.83065662850127,1.01250111878224,-0.8116160568922173,-2.4852766665213344,3.335544392459924,4.071578803238022,-2.5972176041143706,0.9429207880207946,0.5881012887559629,-4.97711526647475,1.3476664367982782,1.3474930746343046,4.278656322030989,-0.7050263225639968,-2.8421357035169774,2.0135975412244957,-0.20044728934265355,2.350379499429285,-1.7721944500319662,-0.28181942828308665,2.2515840638695312,-2.9281585861223864,1.9713964663341645,1.9790561494491683,-1.681651772082942,-3.958487799724102,2.9509092589188497,-1.4421186088093785,-1.53601432282879,1.1225809150622217,0.4604191795308805,3.672582796000179,-1.731066300364269,1.1063877008132479,0.4765504499787251,1.0902708179696596,1.6076964408220085,1.0734845734693386,-1.1919251371422481,-1.5483137241747176,1.1788740725015407,1.116158098088234,2.0981259600413993,0.8650673692843227,1.4348039362366176,0.47165701091124335,0.272746985601897,-3.9989865848427746,2.3498524957543645,-2.746521296862255,-0.48139293209001405,0.6326816473709848,-3.6100445410782562,3.886249166473863,2.330043571087163,-1.3852827024322583,-1.4777802840287877,0.4916192737246888,0.5428455248803538,-2.9587020900431815,1.8858342758122684,1.1238165032410476,2.852791240498026,0.22994732017817243,1.5304855352679254,-1.1760097609868083,0.9283484200562251,3.206390677603896,-0.42246656021191675,-0.38236393537394026,0.4896019430098907,1.3591199658450552,2.992406437465791,1.1712552202283764,3.0507966845702983,-0.2802937006536075,0.5263876773247615,3.8384861567995707,-2.524064069510339,-0.7529185339598131,-0.5950733074457322,0.77813750832244,-0.2391597360355929,-1.3992263101098288,2.448480202842335,0.9134324421010882,0.8344769379754318,3.3694882646132847,1.5133746171630087,0.41281327274898233,-2.9060373141334335,-0.7882869047542458,-0.8570899418429149,-1.980422302298332,0.6095529276551137,-1.363226977905694,1.7261432659005767,0.5219629364903657,-0.18999381876941818,-2.2709488589775964,-2.810758771116294,4.7936007842309785,-3.0178943852666684,-2.2261134733272785,-2.4629114551326317,-1.353020269886628,-0.30831178742688325,0.22852632869006917,-0.392539569944103,1.6695302785449517,0.7406825981917255,-3.2435945434423505,-1.0536351603537155,1.2442931299539617,0.45308449246037313,4.260524212392817,-4.141599782606158,-0.9300168838053962,1.2583355144543518,-0.8814966196276283,-1.7698480892075994,1.0114832219235035,1.7282259600849035,0.7855723681044816,-1.1983521323990094,3.1301784930559826,-2.854174855473293,1.0162824489029152,4.271760945035731,3.365139228634845,-0.3141231026077421,-4.142530270535373,-4.4732007463067305,-1.3925232072899802,1.49959392624458,-1.7171845980954858,1.0049943674223156,-2.4577644483112264,-0.3553459627706534,-0.8772287501472592,-3.5765865531038488,2.1482983967502673,-1.4883005550988975,2.5801142102454095,1.810039957894523,-1.235795838027162,-0.8088753409687327,0.610016401279783,0.22801727316773135,2.9028335823366826,-1.611419483540134,1.6918080921248526,1.1540627735355629,-2.280676558736427,1.0126950638010954,1.307553596443792,-5.808386421240586,1.5653717846694346,0.8748439438656244,0.40182330525293974,0.6398267324880957,-0.1762835363207928,3.3376099300056654,-3.41853948522765,2.3450820599567264,1.7590833009234697,-1.6939312681599499,-2.7846706826985077,2.2070604669578557,-0.22693060791895536,-0.6969513614837525,-1.7716019518710968,1.4176591984939115,0.15345347922607713,-2.4272881452643027,-1.0858590231419947,1.1823174012614293,-1.6596460291693271,2.5601745039164827,-0.4359952277882489,3.236883516316274,2.8442259459224526,1.5759232360105873,0.7856166048616026,-2.6237247054757633,-1.4216494530078037,-3.0800727206716196,1.0723163639176145,-2.6629801630811665,-2.939358444555542,-2.9070249330432887,0.9927629449681479,-1.5486882718358528,-2.953815602215907,2.0080781623340234,-3.30832959778276,1.0632336986601665,-2.6817426340150305,-1.880415529771907,-1.1764134237823116,-1.5038233424757208,0.5598259834233044,0.6995694969233521,-1.818841286333044,-2.6388006469926846,1.6599945606776894,-1.8227958912029385,-0.9322703226668707,-2.013758821509339,0.6218014770548718,1.880337474253191,-2.4180891759891905,-4.137390895423366,2.3048595348213508,3.542554817582727,-0.8565980164043774,-0.2919637955720614,0.8338927547318151,1.6960290550526333,-5.160940269688389,-3.3594289656960927,2.8474165319877907,0.06166084393085791,-4.055446639820221,-3.0047400584720263,2.90051085692751,1.6556260061112293,3.4357528897653764,-0.29950142062675156,0.6817508510704468,-1.839244029297568,0.21795640713226844,-1.8204088627158108,-1.489148887655746,1.1104423503227725,-0.7006591077090942,0.2682819759727408,-0.2866275240187618,-2.5139406060588687,1.596047922932539,1.561776626226934,0.336971775172843,2.821533779913929,-0.4049526452599349,0.539720768887848,-1.1600859393459872,1.1142182048272575,-1.524898743958083,3.864698559064464,-3.767709475037403,-1.9835892332116696,-2.346260823697987,1.0235853333689884,0.20263699925296175,0.3967151972107238,-2.251774908301101,2.1142776014319042,-1.1379228856878065,4.136171500071491,-1.627306422609018,-2.0940156308420295,3.4338792750858893,-3.2666261944174306,0.283857476397275,-0.1329912974910852,1.018852667936124,0.3874454746892957,-0.5311794474431712,1.5498476511285952,-0.28697955421540633,-0.47533720960480086,-0.27259136258837374,-0.5357673838752696,1.6968225925652005,-1.549994516207574,2.514517839985745,-1.4799486168710638,-1.6380221545029932,3.233641571828567,-3.556675143868286,-2.0411107283221717,3.7719000736614534,-3.628995923620098,2.1223119540879756,-0.029396914465847412,0.676700952225559,1.7033674119766962,-1.3243524609932642,1.9107239095462543,2.6452473796609817,-0.4928570341376198,-0.5877656504255893,1.54507727914145,-1.755068362585177,-0.48871062394195186,-2.1107009320454786,3.4201759326766106,-2.2536015076284714,0.5556060226003968,-0.6990831260943438,-2.3728449084558294,1.3217347659475691,-1.6230299558727799,0.008055034308027481,-0.07740085452746126,-2.9985522575462493,-1.8642268616909359,2.8719134509758093,-0.686395541571421,-0.49403848497950376,2.379184544168332,-1.40326119681809,-2.1631075280292267,-4.842671816238018,2.9833541977046267,-1.5452771736429405,0.8347275827412527,1.4691352169749279,-1.2901074239046402,-3.3569826117112247,0.9250040038440269,-1.61437487053048,2.942148966144998,-0.4658560358458134,1.7733257696304976,0.7299360277669813,2.149689706844478,0.06743107595142947,0.17173125734999584,0.23941758449517558,1.4706130814855307,2.726824999647316,-0.05560672179931975,-1.5573668171553874,-2.36537485031254,-2.5671515892708427,-1.3898975216323877,4.616495323073288,-3.0995341916243024,1.3700599302482819,2.4462670506308677,1.0076408425229024,1.5057709149694183,-1.012967532469273,2.3454375719709613,2.8763412596435303,1.7608258013731362,0.46179874862571474,0.26944507026437475,-2.2884018826393886,1.6346963024034376,0.14488341875416252,-0.34703347082908165,-1.44060174918414,0.5973633044578247,1.8896122707168357,0.9721177842424419,-1.5726301908812854,-0.2307738393599584,0.38600707574956655,-0.9319675574307897] -120.88371366904403
w = [0.90410948257288,1.0463085796876153,1.5334382118801562,3.3233943558470034,2.282857672752536,-0.38040717425369985,1.9620232985099408,-0.1668875118231719,0.33344522121382614,0.35256164588162686,0.3054672865532315,1.0424902511260785,0.6356470696664838,0.6641382923253687,0.09122299803247175,0.5331066796955928,1.1528005756488051,0.25291509806169277,0.44188564709844147,-1.7674505153520133,-2.225936488354944,-0.25436325224484924,-0.28019182465366743,-1.5754136446088012,2.131668967108358,-2.223279319712667,-0.02221634071127227,-2.1726456729731094,1.798191013675764,0.7956640021177824,0.8092799641951701,-0.4454846431634079,-0.28622284345341625,-1.0913498879123156,0.29168561315731617,0.8120487743396823,1.3811014881637953,0.8249997748015179,-0.393552941551506,-0.4407922403614801,-0.51092132570571,-1.7114958339559354,-2.145931840687956,1.6673398536171806,0.38326713416424874,-0.9525030864948182,-2.226921908749479,0.7645224279189817,-0.6065717535546746,-0.10949218430917027,-0.6844859146925004,0.5885055374201134,-1.2028308091846271,-1.0792926977312713,0.049432759453432985,0.6505120532099306,-0.47768128952177186,0.7506460433621296,-0.7542314775912069,-0.3354870322935872,-0.5824905255073121,0.16000984155527653,-0.2605693155914821,-0.6410375730741789,1.2309547615206895,-1.0725480737425657,-2.6063125238642173,0.9040858141225265,-0.14965725433931137,-0.573926817076712,1.4636751464923943,-0.40607692699300596,1.0141682303301596,-1.3367276563260124,0.08649048257399886,0.03810578333303569,-0.7468033168655479,-0.07178058603640997,-1.0360033285681982,0.6625295966673576,-1.0153710942268062,0.2051588158610266,0.6437599948860225,-1.61310625782673,1.7427121169905222,1.1052595184061307,0.616652703882477,-1.4454843562951694,-1.4017663631950994,0.2776310070916201,-0.4314839038136149,0.5804120082757543,0.5758234994309147,0.653612080671086,-0.7159894289725071,0.5302078325306696,0.04380547921599259,1.7304680005290622,0.413814657840006,-0.842898787289455,2.3577474334377544,-2.1440521862157498,-0.370955913988279,1.152233322188418,-1.7862399615533568,1.6627358281039322,1.48166422503614,-0.6671962874820425,1.8907752120544552,2.1296389164544642,1.9969376990258423,-0.17431725604300086,-0.32875988081653307,3.052618666744124,-0.016688355804736488,-0.00799889807750398,1.5390369345643184,-1.0925628941242183,-0.35772884175895064,1.5179691143297798,0.8885899506488251,-1.3247552336518258,-0.5555739871208807,1.8448194858210025,-1.741304103589213,0.35011850740634104,-0.36380306107989313,2.479539764058316,0.35426131296684915,0.9001145726517208,-0.1335640158415714,0.3536892212146119,1.3991510711483004,0.5556572218882946,-0.14019720690071424,1.4383005256403811,-0.17832185960905542,0.1579642602865142,-0.8195126356294211,-0.6564034942816559,-1.9355663709752247,1.0440630740105268,0.23601536987213528,1.6214833194056788,3.011736854849282,0.559913314606606,-1.5261514339141136,0.6790696169080814,-1.55872140793604,-1.3581505367971998,-0.7780852285454817,2.6551559932877877,-0.8919907998340143,-0.24477767388007277,1.3486799867922514,-0.7636008866090452,1.370883143967691,-0.8933061810982643,-1.1592641192868183,-0.1595936976961368,-0.47851541857258845,2.953878564409396,1.619261784809318,-0.22973934723582246,-1.016166157670068,0.6797793665318183,-0.24917897702113345,-1.5882646278903525,0.07233609336994751,1.646732843577845,0.7944775617374245,-0.3596981706368981,-0.19037536556943885,-0.6307154160886004,-2.4430790207214033,1.3123540042072206,-0.6162554403554346,0.09199184375556421,-2.494145608326359,-0.3638926024720026,-0.31069897253417844,-2.496961770556173,-0.9137759326877368,-2.9308495023342047,1.6257599212792815,-2.9286418029737384,0.150436796532274,2.1712414690333843,-0.9535949885030544,2.5044784671597102,-2.541926198776236,-0.5086674246740919,-0.49590086490107166,-0.8419829900594902,-0.7811941163703181,-1.2129669707462973,1.8197534346330546,-1.1263151851432784,2.7417724136713715,1.041014763889157,-0.6299168137661808,-0.218736130843317,1.2828049917279913,-0.1426496077821756,1.3156114424747596,-0.17947303318920305,0.19624947201125953,-1.2912884154134767,0.9016805801253948,-0.15539077737285328,0.10467761710433934,1.1665567736846267,0.23215342474611295,-0.3134397727010443,-0.8358114436556291,-0.9753015994851126,1.2808728946453474,0.3998723728685122,1.6374613051636795,0.8232537699577047,-1.866389399830033,-1.0673647676785238,-0.4356285379676097,0.2767052369116582,-1.1712385233930593,-0.7694338952095264,-0.14828221744504144,0.7118269041019879,-0.9602043017319044,-0.002489658428928898,-1.7096471570563856,-0.7988705601638848,-1.8598497689030453,0.9302705656317437,-2.7951018028785186,1.1625423874081158,0.703406792097399,-1.9806334764514753,1.4121367444412172,0.5654832535764959,-1.3341034661458129,-0.0764906519802559,0.10469380680918333,-0.5643625115035589,-1.0707524013878902,-0.6865910170268732,1.8078792873867122,0.6810528961156623,-1.9468796330426754,-3.29555446287308,0.4505299552243952,-0.9293026016873258,-0.31507716881245984,-0.28055637947642137,-0.19720564333201124,-0.6641535409796684,-1.2923330460353295,-1.0197997864900787,-1.2881230165914317,0.32126368114354986,-1.9534233859650272,-1.4750299372845568,-0.6158651425660432,-0.7207634529284657,-1.4118568267080707,0.1145717542123667,1.9467054215087494,-1.133525340483271,-0.3124747312536085,-0.32667648553698697,0.08992441476726862,-3.1940746147268326,3.8479174517372576,1.5254772356066475,-0.27597508982553753,-0.8156764376149407,-0.10687574400993075,0.29937334725554965,-1.3742013691018307,1.9260650245758382,-0.12231641079655237,-0.12268531531290705,-1.9933613788381854,2.5231962460368242,-0.34653669817412713,-0.2687206987719331,-2.0101946454520974,1.0572915022607816,0.8031401288297902,1.5234094300686793,-1.7609846942094847,0.3224734142098844,2.6934519769105854,-0.478990276865301,-0.42458150060033956,1.742559287038639,0.15239789722585245,0.5341834115354664,-0.25179771037019183,-0.21276295367430648,-0.8719395982688991,1.3641223794119237,-0.5323267415008444,-1.536859862048768,1.2365316861271318,-0.31217682512634,-0.9131877288076156,-3.110839508664557,0.8669018048967123,0.39076510794780606,0.22675863061697635,0.8884203612121105,-0.3370049926957823,0.09277697328486637,1.3819904648525612,0.43656226947833665,2.8490159670698088,0.5774324026716859,0.7669142774365951,1.0974987798740887,-2.5935951623360545,-1.0238922049261192,0.33077918508115445,-1.1916075203104515,-2.418823217028657,-0.9660969177352781,-0.5456910804813933,1.297274381318421,-1.433283363283779,2.4499059748011223,1.0257015247325074,-0.503638494555475,-0.07665911555665347,-1.8731756836297375,-1.0991901017750083,1.39378888160935,-2.832638642467644,-0.2801136142216997,-1.7846462558466092,1.9968764091804696,0.14966731464240327,-0.7129674373273995,-1.1291190568983305,-2.5795283800704483,-1.1850527319499928,0.6459074057938158,-1.3667104110945372,-0.19596199804588152,0.47659625256267346,1.0647548640901858,-0.7304382600090328,-0.16130557177975785,0.7254277752878364,0.13123413168469306,-1.2334856659322786,-0.9086930191593617,-1.9985508178717253,-0.9990943147248352,-1.8665682449330134,0.7353908805895224,1.6025040254478276,-0.3607276961248225,0.013131247826259074,0.5490212020394712,0.7887711624585051,-0.014154858910955137,0.5534397259178812,-0.49990262333331337,-0.9015596738861338,0.14920131774104228,1.2501523726296397,-0.1022672598484321,2.5776055398432676,-0.22270348063096657,-0.6315265542831362,0.8024861768596696,0.14712649838780326,-1.2830794504447092,-0.7007882140410113,-0.3841437533113683,-3.756176007923634,-0.2814692342354618,-0.8663710148508712,-0.6346735250508625,-0.015087605166934581,-0.9750013297773574,-2.300583309073295,-1.2060270605601144,1.429430702888596,0.40938491211421457,-0.2537921697609459,0.4268622336645078,0.17395852528588424,-0.3194887081002913,-0.8058646951569146,-0.9607931730548979,0.382348711794939,2.199710355917334,1.562578467373077,1.3254718304158286,0.1251451171667166,-1.1855330111499698,0.49987031793572234,1.6060077929586194,-1.6539192168525851,-1.2918192050564778,-0.016967519130222875,-0.5558560620824982,0.7507178297819472,-2.189158317434803,-1.5373513299477393,1.4366446241020956,-0.7935271012055809,0.3343231804615731,1.7044798797738259,-0.5686341198754646,0.04461549001165009,-0.7844538235104459,0.7997797777336992,3.3204896691417103,1.1000266178137914,1.3893175018470039,-2.1714528503976416,-0.7153946021737974,-0.3843151876139219,-0.8485547803526998,-0.7031887654343754,-3.3466092334652813,-1.3601216802250247,-1.2276399590802534,0.9928749774762835,-2.1390944855447147,2.2221939381585973,0.8610852469611772,-0.34650402043770395] -134.24803501571668
